affiliation 0.1006 0.005900001 0.068575 -0.045424998 -0.032575 0.082875 8.499995E-4 -0.007825002 -0.0345 -0.025449999 -0.030625002 0.015125001 -0.01205 0.0048750006 -0.078775 -0.0612 0.049100004 0.110975 -0.051825 0.00935 -0.1188 -0.02075 -0.062725 0.113025 0.048275 -0.067275 -0.069450006 -0.016575003 -0.010674998 -0.115325004 -0.043525003 0.07839999 -0.0104 -0.06245 -0.0985 -0.030775 0.043225 -0.04115 0.043874994 0.055575002 -0.104775 0.036775 -0.016224999 0.056150004 -0.0171 -0.004899999 0.008699998 0.053324997 0.091975 0.058825 0.111549996 0.037575 -0.61405003 0.07675 0.06279999 0.09785 -0.0791 0.113450006 0.03705 -0.04175 0.083000004 0.106800005 0.0723 0.0112000005 0.049325004 -0.00915 0.04275 0.036675002 0.024725001 -0.047524996 -0.108 -0.058825 -0.01035 -0.031275 -0.015875 0.099775 0.050225005 -0.103925005 -0.023474999 0.07755 0.0188 0.022675 0.016025 -0.18670002 -0.020624999 0.060999997 -0.018999998 0.030799998 0.20347498 0.0012250014 -0.05665 -0.023650002 -0.029075 0.032875 0.085675 0.1443 0.03495 -0.017775001 0.031200003 0.158375 -0.21152501 0.064449996 0.019925 -0.084175006 0.044825003 -0.034225002 -0.1122 0.0165 -0.032125 -0.117725 0.057949997 0.0488 0.026875 -0.064399995 0.0031999985 -0.014375001 0.06445 0.011700001 -0.0249 -0.32815 0.1187 0.08642501 -0.05755 0.094675 -0.067625 0.21595 -0.0333 0.01235 0.059674997 -0.0314 0.025625002 0.098375 0.054350004 0.012800001 -0.02025 0.032325 -1.5000068E-4 -0.072175 0.0061250003 -0.13615 -0.0117500005 -0.071375 -0.029775 0.21045001 0.039525002 0.124575004 0.058924995 0.075899996 -0.009475 0.01995 0.057700004 0.053949997 0.043275 -0.030724999 0.0036749989 0.013599999 0.0384 0.0068500005 0.059975 -0.10187501 -0.11382501 -0.020474998 0.021775 0.092525 -0.032125004 -0.032775 0.115325 -0.062200002 0.02025 0.09302501 0.006525 -0.083425 0.01095 -0.088175 0.054400004 -0.014975001 0.273525 -0.304425 -0.035625003 0.032725003 -0.0442 0.064775 -0.0082749985 -0.095975 0.0507 -0.03125 0.063875005 -0.03695 -0.089549996 0.028975002 -0.086449996 -0.084125 -0.034900002 0.0040499996 -0.10325 -0.013674999 0.051699996 -0.0502 0.164925 -0.0863 -0.07785001 0.09 0.076474994 -0.0074000023 0.0784 0.04585 0.00225 -0.037325 0.0986 -0.0745 -0.0724 0.0712 -0.0036999993 -0.046949998 0.0015999991 -0.03105 0.040075 0.0076749995 -0.053949997 -0.085675 -0.037299998 -0.04375 0.004999999 0.002150001 0.047475003 -0.12205 -0.048425 0.073825 -0.064449996 -0.11235 -0.2268 0.013875 0.38007504 -0.023749998 -0.063425 -0.113524996 -0.053374995 0.118549995 -0.262725 0.1505 0.095924996 0.0109749995 0.0384 -0.073375 0.040325 0.003650006 0.015974998 -0.038000003 -0.015325001 0.33912498 -0.010125002 0.184825 -0.085525006 0.046325002 -0.018025 -0.035099998 0.1039 0.03015 -0.025775002 -0.052199997 -0.08295 -0.0011499999 0.099 0.005625 -0.36220002 0.029675 -0.017749999 0.044575 -0.213425 0.0617 -0.129525 -0.0293 0.042775 -0.0438 -0.03085 0.04845 -0.061550003 -0.1102 0.013175001 -0.00905 -0.099425 -0.012750002 0.093025 0.093675 0.0384 -0.056175 -0.030075 0.067949995 0.018475 0.0021249996 -0.0098749995 0.043525003 0.0249 0.004950001 -0.1081 -0.062625 0.0011749994 0.0546 -0.01365 0.0236
almaMater -0.02525 -0.03765 0.1213 -0.19225 0.02035 -0.10405 0.08185 0.04005 0.072500005 0.053500004 -0.0577 -0.06015 -0.060450003 0.11295 0.0053499993 0.070250005 -0.020049999 -0.12875 4.5000017E-4 -0.04625 -0.0891 -0.05595 -0.020350002 0.076249994 0.10125 -0.0029499996 0.09265 0.26605 0.12775 -0.16915 0.0064000003 0.061499998 0.0882 -0.022499999 -0.05895 0.04145 -0.014 -0.012599999 0.096999995 -0.019299999 -0.00675 -0.0032 0.00725 -0.0328 -0.05265 -0.02435 0.0069499994 -0.042850003 -0.05505 0.0919 0.122150004 -0.0129 -0.62240005 7.499978E-4 -0.046899997 0.105399996 0.0258 0.011650001 0.030749999 0.0054500005 -0.1786 -0.06255 -0.0884 0.0572 0.0814 5.4999813E-4 0.0214 0.0158 -0.069299996 0.06395 0.039300002 -0.0247 0.020249998 -0.164 0.087050006 0.19915 -0.023249999 0.089 -0.01295 -0.0726 0.02035 -0.2295 0.006199999 -0.2801 0.03255 0.0153 0.117199995 0.016150001 -0.13175 -0.03185 -0.0772 0.0391 -0.11365 -0.045199998 0.12924999 0.11985 0.04015 -0.028250001 1.4999881E-4 0.012400001 -0.1882 0.0928 -0.040299997 0.0048999996 -0.25835 -0.039449997 0.115150005 0.11184999 0.127 -0.1034 -0.0053 0.0205 -0.014999999 0.03915 0.06735 -0.11 -0.00165 -0.04815 0.0066 -0.3869 5.000001E-4 0.06285 0.083100006 0.054300003 -0.07445 0.21970001 0.0243 0.09585 0.015850004 0.071 0.06005 0.03775 0.08895 0.01375 -0.00935 0.088700004 0.01625 -0.014599999 -0.060900003 -0.0044 0.04915 -0.0727 0.0057000006 0.22745 -0.0659 0.08495 -0.072550006 -0.0614 -0.13435 -0.0798 -0.07865 0.014399998 -0.0030999999 0.0897 -0.085200004 0.1219 0.0334 0.0908 -0.085650004 0.0394 0.0029000007 0.03485 0.012700001 -0.16235 0.28005 0.0048499983 0.066 0.0755 -0.0573 0.05275 0.0286 -0.13949999 0.02665 0.0394 -0.07595 0.0451 0.2296 -0.11355001 0.04485 0.015549999 -0.07485 0.0145 -0.0827 -0.0179 0.049549997 0.14445 -0.0924 -0.1402 0.34575 0.05045 -0.0441 -0.10535 0.020800002 -0.04585 -0.0317 0.1106 0.044249997 0.15865001 0.20995 -3.5000034E-4 -0.049850002 -0.06435 0.0536 0.083000004 -0.00945 0.00275 -0.043300003 0.12584999 0.0301 -0.046 -0.045700002 -0.009500001 -0.0644 -0.03235 -0.054500002 -0.1718 -0.08195 -0.1178 0.1072 0.1631 -0.06595 -0.085499994 -0.093600005 -0.06155 0.1921 -0.0184 -0.075399995 0.051949997 -0.06295 -0.013749998 -0.10365 -0.0872 0.3358 -0.0898 -0.06755 -0.17555 -0.068 0.09815 -0.2803 0.07795 -0.0352 -0.12815 -0.01395 0.06315 -0.0078 0.077 0.0136 0.13495 0.094799995 0.34395 -0.038850002 0.1514 -0.15540001 0.0583 0.169 -0.053150002 5.00001E-4 0.004900001 -0.0881 0.1453 -0.01965 0.120299995 -0.052500002 0.1151 -0.41435 -0.07365 0.00435 -0.13815 -0.0655 0.078999996 0.04275 -0.1004 0.075050004 -0.067099996 -0.0447 -0.0647 0.013200004 -0.05795 0.0821 -0.00665 0.01365 0.047650002 0.01915 0.014150001 0.102850005 -0.05375 -0.1305 0.1393 0.107 0.0654 -0.021949999 0.20575 0.06695 -0.01845 0.005550001 0.0053999983 0.010049999 0.05245 0.0078500025 0.027250001
bandMember 0.044588886 0.026677778 0.03268889 -0.037155557 -0.037844446 0.07756666 0.020222224 0.014300001 0.042033333 0.039777774 0.04961111 0.018988887 -0.051511113 -0.014700002 -0.046633337 8.5555523E-4 -0.002800001 0.03193333 -0.08654445 0.05474444 -0.07856666 0.010888891 0.003766668 -0.06652222 0.0552 -0.06745556 -0.03881111 0.09601111 -0.0013000002 -0.10361111 -0.009388891 -0.020533333 0.02761111 0.007300001 -0.01654444 0.083500005 -0.02448889 -0.04448889 0.010155556 0.088655554 -0.082711115 -0.012988889 0.12933333 0.020077778 -0.019233333 -0.02811111 0.03597778 -0.02323333 0.074033335 -0.006955555 0.019088889 0.013722222 -0.62247777 -0.021677779 -0.01848889 0.051666666 -0.011866667 0.008266667 0.0047444454 -0.036444444 0.11239999 -0.013677776 -0.0047444454 -0.0024111096 0.05321111 -0.01527778 0.03351111 -0.0016888889 0.0059777778 -0.03285556 7.111112E-4 -0.017644444 -0.019266667 0.035166666 0.039066665 0.054544445 -0.043022227 0.02757778 0.025422223 0.03682222 -0.006100001 0.054111112 -0.028544443 -0.2580889 -0.04755556 -0.048033334 -0.011577778 0.031955555 0.0024111106 -0.03297778 0.068844445 0.035411112 -0.060011107 -0.016088894 0.051599998 0.10108888 0.0547 0.054133337 0.030766666 0.013433333 -0.19403334 -0.045311112 0.06725556 -0.0205 -0.12910001 0.025766665 -0.040744442 -0.112 -7.444438E-4 -0.026833335 0.037666667 0.085877776 0.0449 0.0017333329 0.010511112 -0.0565 0.011266666 -0.01031111 0.0013555554 -0.3632889 0.011277778 -0.054288886 0.05711111 0.047922216 -0.0039111106 0.20356667 0.05933334 0.041288894 0.004533334 -0.065788895 0.008433335 -0.004866668 -0.0633 0.054 0.0061333324 0.08408889 -0.0523 -0.05787778 0.026466666 -0.03528889 -1.5555571E-4 -0.07683334 -0.03107778 0.24426664 0.002433334 0.0012111102 0.04712222 0.010877778 6.1111245E-4 -0.0041444446 -0.058011115 0.016711112 -0.041555557 -0.0117 -0.016866667 0.0207 0.028022224 -0.025155554 -0.023411112 0.017444443 0.02373333 -0.005811111 0.020311112 0.022900002 -0.074711114 -0.007033335 0.09105556 0.011977779 -0.03328889 0.06003333 0.077411115 -9.4444264E-4 0.0028444454 0.07864444 0.065277785 0.08132223 0.23031113 -0.11182223 0.083655566 0.08178889 0.012722222 -0.048677776 -7.444455E-4 -0.021022225 -0.065900005 -0.044288885 0.025000002 0.015644442 0.083233334 0.013977776 -0.024133334 -0.02751111 -0.017155556 0.010466668 -0.038566668 -0.03591111 0.005066666 0.060744446 0.11141111 -0.04157778 -0.016288888 -0.0010111117 -0.055599995 -0.030111112 0.013400003 0.03277778 0.046377778 -0.1274889 0.07052222 2.555541E-4 0.0047666654 0.11528889 0.019455554 0.07474444 -0.037333332 -0.09588889 -0.0045444435 -0.052111108 -0.003444444 0.042911112 -0.10508889 0.03691111 -0.0012333327 0.035466664 0.025311112 -0.0802111 -0.015800001 0.105100006 -0.023933332 -0.031044444 -0.09148889 -0.053022224 0.35805553 0.045155562 -0.082944445 -0.11839999 -0.056933336 0.15494445 -0.28374445 -0.005600001 -0.014744444 0.023822224 0.025033334 0.02222222 0.06716666 -0.037922222 -0.010677778 0.1167 -0.015200001 0.31841114 0.001288889 0.091133334 -0.09396667 0.06509999 0.066933334 0.014033336 0.07242223 0.029655555 -0.005911111 0.041055553 0.06964444 -0.012533334 0.013422221 -0.07597778 -0.2696778 0.03328889 -0.045655556 0.066533335 -0.13136667 0.0042777793 -0.014011112 -3.1111308E-4 0.0053444444 -0.0047444445 0.006266667 -0.023511108 -0.057611108 -0.06341111 0.07268889 0.009866666 0.08307777 0.011111112 0.09818889 0.08907778 -0.030566666 0.020255556 -0.06948889 -0.009900002 0.041133333 0.029944446 -0.023522222 0.05554445 -0.010922222 0.0543 -0.094733335 -0.023222225 -0.019122222 0.0783 -0.07868889 0.036999997
birthPlace 0.1248 5.7499856E-4 -0.06397501 -0.010275 2.2500008E-4 0.1585 0.0703 0.0396 0.027699998 0.094074994 -0.084 0.019325 0.024900004 -0.036175 -0.013049999 0.096300006 3.499994E-4 -0.0147750005 -0.0169 -0.0411 -0.042025004 0.084875 -0.021425001 0.054849997 -0.038774997 -0.017250001 -0.0027999992 0.051850006 0.0221 0.021825 -0.02225 -0.0069999993 -0.043875 0.03365 0.042224996 -0.009300001 0.0065000025 0.054449994 -0.033025 0.026875 0.042000003 -0.004574999 0.07407499 -0.13615 -0.031324998 -0.073824994 -0.004024999 -0.0825 0.011299999 0.001974999 -0.0865 0.024874998 -0.62605 0.015275003 0.045575 0.030175 0.0076249996 0.06904999 -0.023449998 7.749982E-4 -0.022949997 0.005225 -0.087425 -0.084 -0.054624997 -0.17105 0.0454 0.0014249999 -0.017299999 -0.0305 -0.079150006 -0.06165 -5.4999953E-4 0.14575 -0.074 0.006225001 -0.102000006 0.022675 0.0054749995 0.1284 0.0010500005 -0.0054750005 0.08822499 -0.24299999 0.0016749995 -0.028174998 0.048524998 -0.021974998 0.09805 -0.008199999 0.0224 0.031475 7.2500017E-4 -0.05265 0.089225 0.00385 0.030849997 0.042774998 0.094500005 0.0292 -0.151525 -0.0044249995 0.02225 -0.06665 -0.142775 0.060850002 0.015775 -0.0058500003 -0.12602499 -0.084975004 0.031525 0.14817499 -0.016424999 -0.012599999 -0.0033500008 -0.106874995 -0.003 0.007324999 -0.072275005 -0.403625 0.036650002 0.015925 7.250011E-4 0.0301 0.088675 0.17300001 0.018450001 0.0038 0.0576 0.039374996 -0.0541 0.033575002 0.04155 -0.007550001 -0.0633 0.0326 -0.03315 -0.025075 0.055025 -0.104650006 -0.028325 -0.015525 -0.04735 0.263225 0.0932 0.010624999 0.080425 0.029474998 0.072 -0.064275004 0.017049998 -0.08755 -0.067425 0.023775 0.028775 0.017425 0.0441 -0.0168 0.0049750023 -0.0074999994 -0.058 0.120450005 -0.052699998 -0.025124999 0.046 0.06285 0.112500004 -0.022924999 -0.00705 0.019200005 0.085700005 -0.056450002 -0.117750004 -0.0048 0.156175 -0.042675 0.2457 -0.11562501 -0.013374999 0.036325 0.030050002 0.046875 0.04085 -0.040525004 -0.011400001 -8.250009E-4 0.0067999987 -0.0014250004 -0.0099 0.02025 0.0353 -0.10615 0.039499998 0.041899998 -0.03185 0.037425004 -0.0387 0.006875001 0.047775 0.004700001 -0.044549998 0.0539 -0.03195 0.0205 -0.049550004 0.029875001 0.067125 -0.12075 -0.0171 0.056200005 0.0020999992 0.004125 0.010274998 -0.07225 0.011675 0.080175 -0.018724998 0.0158 9.499984E-4 -0.030050002 -0.016874999 -0.0659 -0.07275 0.09215 -0.061399996 -0.0235 0.025325 0.078125 0.022025 0.0342 -0.040674992 0.010650001 0.35817498 -0.1064 0.0608 -0.119625 -0.03235 -0.0020749997 -0.2455 0.021425001 -0.05015 0.0589 0.07275 -0.01705 -0.021449998 0.06405 -0.030549997 0.088425 -0.0049750023 0.397575 -0.006650001 0.04225 -0.006924999 -0.0471 -0.019074999 0.098299995 0.0043749996 0.08229999 -0.024175 -0.012950001 -0.0054750005 -0.051475003 0.043250002 0.009849999 -0.357775 0.0067249993 -0.04895 0.06265 -0.18914999 0.0111 -0.0586 0.008100001 -0.0067 -0.060375 -0.0060250014 0.013975001 -0.013150003 -0.105325 0.104674995 0.030524999 -0.0128 0.08912499 0.024099998 0.0558 0.048375003 -0.047525 0.0133 -0.024925003 -0.0328 0.0053250007 0.017075 -0.0358 0.018025 -0.015949998 -0.0628 -7.7500194E-4 -0.0011750013 0.044375002 -0.046975 -0.057449996
ceo 0.0729 0.038718183 -0.028463637 0.0012272699 -0.010545455 0.06884545 0.04813636 0.004245455 0.041627277 -0.031072726 -0.007509091 0.001690908 0.022863636 0.043263637 0.024645453 -0.025363635 -0.0069363634 0.039163638 -0.07805455 0.009681818 -0.0891091 0.015472727 -5.0000066E-4 0.0019090921 0.038463637 -0.020954546 -0.021409092 -0.04237273 -0.020609092 -0.14680001 0.050972722 0.04428182 -0.06487273 -0.011427273 -0.04068182 0.058081817 -0.017236363 0.06405455 0.015590909 -5.000006E-4 0.015781818 0.053036366 2.7271835E-5 -0.05033637 0.034381818 -0.07555455 -0.032545455 -0.0023 -4.6363645E-4 -0.0022272747 0.0063 0.04096364 -0.6255727 -0.009918183 0.066199996 9.090343E-6 7.818179E-4 -0.029436361 -0.0013090901 0.033672724 -0.007172727 0.039309092 0.038645454 -0.07035455 -0.026445458 0.02554546 0.08046364 0.044318188 0.0017090911 0.020236364 -0.03074545 -0.043372728 0.004009091 0.040454548 -0.024427276 -0.021100001 0.023527274 -0.009018183 -0.03260909 0.110627264 0.008054546 0.023263637 0.028145455 -0.21467273 -0.04573637 0.060290914 0.0064909114 0.031400003 0.13953638 0.03798182 0.06420909 9.363626E-4 -0.011972727 -0.03280909 -0.0024 0.055036366 0.023472726 0.0026727295 -0.011100002 0.010272727 -0.19524546 -0.05508182 -0.00959091 -0.051018186 -0.028309092 0.022954546 -0.0045000026 0.054363642 0.0035090912 0.029627275 0.045600004 0.13112727 0.034609094 0.048945457 -0.08907273 -0.1309909 0.0064090905 0.032427274 -0.021654548 -0.3423364 0.014436363 0.0427 -0.031809095 0.0036818206 0.009245453 0.21301818 0.02550909 0.020009091 0.0992 0.03751818 -0.01019091 0.056190908 -0.0429 0.04410909 -0.059718184 -0.01784545 0.008981818 0.047718186 -0.06909091 -0.030163636 -0.0766 -0.032818183 0.037363637 0.18460001 -0.0357 0.01499091 0.040990908 0.00193636 0.054972727 0.012681817 0.028327277 0.019372728 -0.009654546 0.07106364 -0.016936364 -0.005554546 0.04279091 -0.004709091 0.020745456 0.05982728 0.069263645 0.042345453 -0.023863638 0.005172727 0.023881821 0.0133 0.05284546 -0.018654544 -0.018118182 0.084563635 0.0029363646 -0.06585455 0.0032545452 -0.041390907 0.047490913 0.0212 0.26199093 -0.075 -0.013763639 0.048845455 0.03273637 0.040118188 0.009463637 -0.05105455 -0.01607273 -0.056309097 0.023118183 0.007336364 -0.034236368 -0.026036363 0.0060272734 -0.008718183 0.038790908 -0.013490909 -0.06462727 -0.007963637 -0.055245455 0.038081817 0.15295453 -0.01946364 -0.019827273 -0.0071454523 -0.016390909 -0.004063636 0.043909095 0.012363638 0.060854547 -0.08938182 0.052318186 -0.07542727 0.014527272 0.013709093 -0.026045457 -0.06650001 -0.008663636 -0.1088091 -0.009881819 0.044545457 -0.0743909 0.008663637 0.015418182 0.033127278 -0.012345456 -0.015054546 -0.038663637 -0.16498181 0.06581819 0.0151 -0.042554546 -0.040672727 -0.13867272 0.054045457 0.3458 -0.012963637 0.0038363643 -0.16189091 -0.10478183 0.061427277 -0.24954545 0.044527277 0.016272727 0.007845454 -0.0064818156 0.01837273 0.021409092 -0.06912728 0.05496364 0.040645454 0.012236365 0.34317273 0.016063636 -0.10081818 -0.15363637 -0.037109092 0.1006 -0.0124454545 0.046190906 0.041581824 0.0030999996 -0.031418182 0.007181818 0.030263638 -0.021736365 -0.0916 -0.33536363 0.020072727 -0.05174545 0.011336364 -0.1893 -0.0096 -0.037545457 -0.018181818 -0.0201 -0.05950909 0.0032818175 0.031281818 0.0019090906 -0.105009094 0.07314546 -0.008372727 -0.08838183 0.055872735 0.04499091 0.0088 0.088690914 0.024472725 -0.028227273 -0.01920909 0.040218182 -0.04334545 -0.05014546 -0.044245455 0.063845456 -0.048381817 -0.012718182 0.08011818 0.014209092 0.026327273 -0.062763646 -0.028309086
child 0.052775003 0.005999999 0.023525 -0.087074995 -0.046275 0.068100005 0.0611 0.051225 0.025449999 0.1256 -0.058225002 -0.021200001 -0.01295 -0.032325 -0.12189999 0.035525005 0.045525 0.0425 -0.033925 -0.090175 -0.09735 0.01775 -0.035425 0.083225 -0.04625 0.015975 0.02205 0.14505 -0.03905 -0.0542 -0.0010249987 0.0219 0.031025 -0.06765 0.0109 0.033150002 0.043350004 0.021325003 0.033375 0.0055249985 0.075575 0.038075004 0.101825 -0.095075 -0.082875 -0.071550004 0.0268 -0.0804 0.092675 -0.06560001 -0.013775002 -0.03785 -0.643 0.06325 0.10537501 -0.020399999 0.031525 0.086825006 0.0453 0.0046499986 -0.007425001 -0.047849998 -0.058625 -0.038075 -0.008100001 -0.076675 0.074025 -0.015299999 0.02005 -0.060449995 -0.104275 -0.062225 0.01505 0.071875 -0.0344 0.07179999 -0.070575 -0.0344 -0.044024996 0.18795 0.0136750005 0.097449996 0.028700003 -0.19119999 -0.0221 -0.004274998 -0.0497 0.015750002 0.19694999 -0.01215 -0.0565 -0.0458 0.0046999995 -0.059925 -0.0181 -0.016 0.085099995 0.020875 0.026499998 0.0041999985 -0.205475 -0.04045 -0.0039000008 -0.042125 -0.037375 0.019275002 0.099874996 -0.0344 -0.07775 0.015925 0.0413 0.14865 0.031850003 -0.059175 -0.024950001 -0.08625 -0.054250002 -0.0677 -0.119325 -0.3332 -0.006375001 0.0481 0.034874998 0.041825 0.074700005 0.2179 0.029325005 -0.0019749994 0.055325 -0.0065750023 -0.15310001 -0.043874998 0.07865 0.058675 -0.040599998 -0.004299999 -0.012675002 0.0494 -0.045325 0.014874999 -0.10885 -0.04905 -0.012875001 0.20295 0.009274999 0.0129 0.026524998 -0.0033750013 0.00795 0.046975 -0.013824999 -0.08035 -0.036 -0.0445 -0.050349995 0.022325002 0.090375 0.0037249997 0.04035 0.054350004 -0.038149998 0.021824999 0.02315 0.02545 0.015875 -0.033875 0.0942 0.01505 0.010775001 -0.0479 -0.08732501 -0.02725 -0.022200001 0.001975 0.20165001 -0.028249998 0.283225 -0.049475 0.0034000017 0.038275 0.073075 0.029675 0.029149998 -0.046975 0.0022749966 -0.025375001 -0.023750002 -0.07915 -0.12975001 0.038875 0.054525003 -0.024300002 0.0255 0.018824998 -0.07425 0.168725 -0.04625 -0.01145 0.14919999 -0.020549998 -0.0804 -0.036149997 0.0046000006 -0.044475 0.0498 0.010175001 0.020525001 -0.127175 0.0577 -0.042475 0.030649997 -8.000005E-4 -0.039075002 -0.029350001 0.021675002 0.040324997 -0.059125002 -0.0014999993 -0.0299 0.08005 -0.058125 -0.076450005 -0.069125 0.003949998 0.075575 -0.068475 -0.064775 0.013375 0.0039250003 -0.10035001 0.0074000005 -0.007925001 0.37505 -0.0952 -0.025125 -0.080424994 -0.096475005 -0.028475 -0.235725 0.028350003 -0.050825 -0.0765 -0.027449999 0.00435 0.03365 -0.010375001 -0.041199997 0.02895 -0.13145 0.40640002 0.058625 0.083375 -0.060075 -0.073874995 0.08475 -0.012875 -0.025924997 0.091024995 0.070999995 -0.0057999995 0.032375 0.0203 0.044675 0.055775 -0.32237503 -0.0118 -0.089475006 0.074025 -0.103275 -0.058575 0.014900001 0.025649998 -0.0612 0.011424999 -0.01025 0.01615 0.076725006 -0.105025 0.031400003 0.117424995 -0.052550003 0.081199996 0.03695 -0.053324997 0.050600003 -0.01605 -0.008599998 -0.174125 0.044825 -0.0241 -0.012325 -0.032674998 0.035524998 -0.0367 0.055475004 0.050650004 -0.060875002 0.057299998 0.0145000005 0.023400001
club 0.012316667 0.028450001 -0.010100001 0.0644 -0.054466665 0.08701667 0.0052500004 0.1074 -0.0457 0.016683333 -0.08031668 0.018733336 -0.018383333 0.08008334 -0.013333332 0.08206667 0.017866667 -0.034100004 -0.049783334 0.034883335 -0.14703333 0.011383334 -0.012183333 0.07403334 0.060850002 -0.05488333 -0.038116667 0.07075 -0.028850002 -0.03891667 -0.020900002 -0.07335 0.03136667 -0.040116668 0.007149998 0.011616668 -0.048499998 -0.0011500021 -0.042649996 0.022249997 -0.006566666 0.0052000005 0.034766667 0.028533336 -0.01015 -0.014283332 -0.0134 -0.0058833337 0.007199998 -0.04563334 -0.023400001 0.05216667 -0.6243834 0.03415 0.062349997 -0.0067999987 -0.004583334 0.047233336 0.009466665 -0.08341667 0.061316665 0.01465 -0.059950005 0.07655001 0.109733336 0.0085499985 -0.0051166667 0.00995 0.0176 0.022866666 -0.021300001 0.024250006 0.04071667 -0.008783331 -0.023633337 0.06198334 -0.02655 -0.06821667 -0.052783333 0.071766675 0.00975 0.0023333344 0.023316666 -0.21773332 0.048916664 -0.033183333 -0.049566668 0.017366668 0.11963333 -0.06391667 -0.07383333 -0.007033333 -0.027933335 -0.06851667 -0.0063333334 0.11435001 0.013616668 0.013783336 -0.03456667 0.091583334 -0.17288333 -0.038966667 0.09631666 -0.09340002 -0.07871667 0.014000001 -0.067600004 -0.0732 0.034816667 -7.9999975E-4 -0.05613333 0.053933334 0.019649997 -0.027066668 -0.024050003 -0.016616669 -0.043199997 0.092250004 -0.029333334 -0.2939 -0.017949998 -0.074316666 -0.035850003 0.09948333 -0.046583336 0.18563335 0.014149997 0.04368333 -0.04771667 -0.0031500007 0.047566663 -0.020283336 -0.021949999 -0.046116665 -0.0107 0.07298334 -0.068116665 -0.028833333 0.06586667 0.0052166665 0.018933335 -0.015199999 -0.13221668 0.18744999 -0.072716676 -0.021033335 -0.02085 0.021966666 -0.014033334 0.057733335 -0.044916667 0.04913333 -0.039583337 -0.05985 5.1666674E-4 -0.0044 0.013983335 0.028466668 -0.016933335 0.11775001 0.005716668 0.06273334 -0.019083334 0.045133337 -0.0503 -0.022133334 0.039300002 -0.020366667 0.024650006 -0.019683335 0.061233334 0.018800002 -0.009316669 -0.016933335 -0.041083336 0.008833334 0.27705002 -0.13163333 0.045400005 0.025050003 -0.0406 0.004416667 -0.041433334 -0.08836667 0.028766667 -0.09225001 0.057516664 -0.009166666 -0.09861666 0.029366668 -0.009916667 -0.016200002 0.004383333 0.046783336 0.023650002 -0.044966664 0.03943334 -0.13236666 0.13390002 0.07856666 -0.10866667 -0.041250005 0.020866668 -0.0156166665 0.08538334 0.095833346 -0.009733334 -0.12686667 0.038000003 -0.010166667 0.04466667 0.10103333 0.038066667 0.008083334 -0.011916666 -0.087633334 -0.04295 0.031766668 -0.11991667 0.004483334 -0.024816668 -0.03606667 0.0873 1.8333147E-4 0.10143334 -0.11096667 0.038483337 0.009400001 -0.07558334 -0.027100002 -0.055266663 0.01545 0.36315 -0.011533335 -0.073866665 -0.17206667 -0.1464 0.079333335 -0.25665 0.065966666 0.0012833327 0.038933333 0.059000008 -0.021033335 -0.100933336 0.012466667 0.027033335 0.043950003 -0.004916666 0.35853335 -0.03485 0.06411667 -0.078216664 -0.066700004 0.09476667 -0.012783333 -0.04081667 0.045599997 -0.058983337 0.055350002 0.028550003 0.040100005 -0.03296667 -0.0016000004 -0.3456167 0.120400004 -0.075383335 -0.027400002 -0.15238333 0.04896667 0.0065500005 -0.0027500007 -0.043366667 -0.0631 -0.005633333 -0.024916667 -0.0016833339 -0.006483334 -0.09150001 -0.00945 0.02538333 0.057833336 0.037383333 0.07571667 0.016933333 -0.051116668 -0.114800006 0.05003334 0.0011666676 0.05163334 -0.033833332 0.06016667 0.015383333 0.0652 0.10521667 0.008966667 -0.032800004 0.023083335 -0.011150002 -0.024500001
deathPlace 0.06444445 0.027455555 -0.029744446 -0.025544444 -0.06158889 0.03371111 0.018922223 -3.999985E-4 -0.008511113 -0.016711112 -0.024877777 0.037233334 0.013955555 -0.027933333 0.0017333329 0.05258889 0.024066666 -0.0046888874 -0.01477778 0.027244445 -0.05171111 0.022644442 -0.007088888 0.06861111 -0.08303334 0.004733334 -0.03762222 0.06860001 -0.013144444 0.037266668 -0.043566663 0.0016777781 -0.012122221 0.037555557 0.024822222 0.0536 -0.033888888 0.11682222 0.053033333 -0.0455 -0.01768889 0.02981111 0.051033333 -0.07435556 -0.025244445 -0.07055555 0.00971111 0.010499999 0.053077776 -0.018744448 -0.034344446 0.052011114 -0.6421111 0.012199999 0.023300001 0.0030111116 -0.027688889 0.03828889 0.020922223 0.0019777762 0.037166666 0.0060555562 -0.0613 -0.04654444 -0.08078889 -0.07037778 -0.003811112 -0.023344448 0.006566667 0.018833334 -0.039688893 -0.018877778 0.024888888 -0.0010999998 -4.4444267E-5 0.0042666667 -0.010766666 0.051788885 -0.04387778 0.05624445 0.0064777783 1.4444358E-4 -0.014422223 -0.20706667 0.056555558 -0.0014999993 0.045877777 -0.027944442 -0.036733344 0.035055555 0.0458 0.021377778 0.004377778 -0.06224445 0.0284 0.01201111 0.009488887 -0.02608889 0.04617778 0.014911112 -0.18731113 0.007066666 0.009511111 -0.040511113 -0.09082223 0.025122222 -0.008755556 0.011111114 -0.0070444443 -0.02032222 0.043344446 0.07958889 0.0021222227 -0.01201111 -0.016166667 -0.07631111 -0.009577779 0.0469 -0.01597778 -0.36232224 -0.030655557 0.03661111 -0.078822225 0.027722219 0.004511109 0.20103332 0.007366669 0.07111111 -0.053222224 0.05276667 -0.026044445 0.038955558 0.031333335 0.0047444454 -0.075377785 0.0215 -0.007766666 -0.0050111124 0.0110444445 -0.026233336 -0.02736667 0.038922224 0.0171 0.23044443 0.07108889 0.01188889 0.08266667 0.017555555 0.052722223 -0.019111112 0.014399999 -0.0065555573 -0.013277777 -0.032544445 0.0128999995 0.030099997 0.0354 -0.043888886 -0.008133334 9.222221E-4 -0.02661111 0.035666663 -0.0062444457 -0.09725554 0.06514444 -0.031666666 0.1147 0.0302 -0.011888891 0.025133334 0.026744444 -0.028855557 -0.018177778 -0.003933333 0.1105 -0.044033334 0.22988889 -0.0815 0.023477776 -0.006111111 0.021033335 0.025811113 -0.009711112 0.040833335 -0.0128999995 -0.046733335 0.021744443 -0.035133336 0.12586665 0.022966668 0.046255555 0.008377778 0.03688889 0.0012666666 -0.010766667 -0.007088888 0.017855555 0.042344447 0.12544444 -0.0016888877 -8.111118E-4 0.043944445 0.013088888 0.025866667 -0.0053444416 -0.0074333334 0.031244444 -0.06984445 -0.015488888 0.0439 -0.0025666654 -0.027033333 0.04072222 0.013244443 0.018988887 0.009133334 -0.043666665 7.9999946E-4 -0.035044447 -0.0038000003 -0.029166665 0.014011112 -0.010288888 0.014888887 -0.012477776 -0.044677783 0.0150666665 0.06084444 -0.028900001 0.009455555 -0.03966667 0.009188888 0.34068888 -0.035866667 0.032411113 -0.057855554 -0.07332222 0.01727778 -0.24305555 0.013577778 0.019844444 0.043799996 -1.333331E-4 -0.0060111093 -0.04095556 0.016822223 0.0166 -0.04564445 -0.045955557 0.33472222 -0.011166667 0.0519 0.038000006 -0.025699997 -0.014022225 0.04904445 0.02012222 0.07557777 0.052633334 -0.007522223 0.020500002 -0.020555556 -0.010888889 -0.04171111 -0.20372221 0.005866667 -0.0061888876 -0.0021777775 -0.112322226 -0.0068777786 -0.044222225 0.007355556 -0.0024444445 -0.025444444 0.0012444449 0.020333333 0.008044444 -0.041855555 0.008077777 0.04228889 -0.05405556 -0.057466667 0.040155552 0.03181111 0.03942222 -8.444455E-4 -0.02128889 0.017055556 -0.044911113 0.01637778 -0.021600002 0.007944446 -0.005588889 -0.028933333 -0.04632222 0.06532222 -0.01178889 0.11598889 -0.03663333 -0.022455553
debutTeam 0.008300002 -0.021511111 0.0012333327 0.0068444456 -0.01367778 0.06417778 0.019355556 0.0548 0.035555556 -0.004288888 -0.013044445 -0.030388888 -0.018722221 0.0098 -0.036222223 0.013166669 -0.01007778 -0.06357778 0.031588893 8.6666644E-4 -0.066933334 -0.026577778 -0.032477777 0.07427777 0.05198889 -0.030244444 -0.017622221 -0.012322222 0.018233333 -0.041922223 -0.03765556 -0.04814445 0.042866666 -0.033233333 0.04594444 -0.007955555 0.0035444456 0.051033333 0.015488888 0.020366667 -0.02072222 0.01758889 0.031188885 0.023566669 -0.0033888891 0.02337778 0.011377777 0.02598889 0.036644444 0.028588887 0.018255556 0.07738889 -0.62821114 -0.0047111097 -0.0077000014 0.041233335 0.007322223 0.057699997 -0.039188888 0.0241 0.02267778 -0.021966668 0.0041555543 -0.014533333 0.028766666 -0.060655553 -0.0142555535 -0.0088 0.012511111 0.042755555 -0.017255554 0.048555557 0.016244445 0.012155556 0.0051999995 0.053577777 -0.05195556 -0.0071222237 -0.0061888886 -3.666679E-4 -0.009988889 -0.0053999983 0.059722226 -0.21434446 0.003911111 5.555567E-4 -0.016155558 -0.012388892 0.11852222 0.011044446 0.007500001 -0.004044445 0.010611111 -0.014366667 -0.020200003 0.012933335 0.030166665 -0.010622222 -0.0336 0.0017000003 -0.17712222 0.028655555 0.018666668 0.024877777 -0.0036111102 0.042011112 0.005855555 0.010600001 0.032644443 -0.011022222 -0.0034777778 0.016255556 0.02778889 0.06877778 0.03471111 -0.028055556 0.031211112 0.005344444 -0.00861111 -0.31335557 0.03027778 -0.010955554 -0.0487 0.085144445 -0.017366666 0.19376667 -0.0072333333 -3.1111142E-4 -0.015899999 0.02398889 0.037355557 0.027077777 -0.0064888895 -0.02412222 0.009199999 -0.08016667 -0.045611113 0.008877776 0.010633334 -0.06156667 -0.026366666 0.013766666 -0.047555555 0.22838889 -0.0131777795 -0.01692222 -0.008033333 -0.021833332 0.04306667 0.03321111 -0.007811112 0.013666664 -0.032533336 -0.029399998 -0.022622222 0.026611114 -0.04286667 -0.05228889 -0.03562222 -0.013922223 0.005477778 -0.013344443 0.004355555 0.010511111 0.006988888 0.014900001 0.093 -0.01648889 -0.022644443 0.04224444 0.00888889 -0.0010444456 -0.067700006 0.032344446 -0.006066667 -0.035555556 0.2366111 -0.11322223 0.023144448 0.00351111 -0.025522223 -3.222219E-4 8.555543E-4 0.0168 0.039533336 -0.055222217 0.040655557 0.027877778 0.008533333 -0.012644446 -0.012400001 -0.03086667 -0.01248889 0.06704445 0.001988889 -0.01911111 0.031555556 -0.017988887 0.14173333 0.01518889 -0.06368889 -0.044544447 -0.0074888906 -0.008833332 0.06753334 0.042766664 -0.004155555 -0.07441112 0.08003333 -0.012944443 0.002044444 0.04622223 0.0069666663 0.018722223 -0.023077779 -0.071444444 -0.044800002 -0.0010666661 0.006622222 0.06894445 -0.01081111 -0.010655554 0.017588887 -2.999993E-4 0.0079333335 -0.11506666 0.0052555557 0.0031777786 -0.051077776 -0.052811112 -0.06168889 -0.011644443 0.34309998 0.001933333 -0.0375 -0.10133334 -0.074033335 0.06995556 -0.24185558 0.0014666633 0.041666668 0.014244446 0.013455557 0.0033999996 0.013866667 -0.032566667 0.009922223 0.011755558 0.02251111 0.34988892 0.021988887 0.03178889 -0.099766664 -0.029233333 0.038011115 0.051788885 -0.024588892 0.04072222 0.010644444 0.0051222206 0.02927778 0.02418889 0.007888889 -0.06475556 -0.22595556 -0.014188889 -0.075544454 -0.013022222 -0.19756667 -0.042033333 -0.036855556 -0.0054444433 -0.021299997 -0.039355557 -0.006577775 -0.02071111 0.013966667 -0.027655555 -0.03446667 0.010433334 0.004133334 0.060033336 0.027699996 0.05543333 4.444454E-4 -0.006288886 -0.078888886 0.05556667 0.04044445 0.0215 0.019744445 0.017333334 -0.031255558 0.0036444457 -0.0044777766 0.0051444466 -0.017155554 0.083844446 -0.031866666 -0.02142222
department -0.026619995 -0.047480002 0.03962 -0.06372 -0.0157 0.0589 0.023380002 0.04324 0.069180004 -0.017920002 -0.015660001 -0.03746 -0.037400004 0.04534 -0.05018 -0.01726 0.02058 0.054479998 -0.13385999 0.0584 -0.04634 -0.057299998 -0.014400003 0.018180002 0.07996 -0.01582 -0.0117 -0.013180002 -0.08188 -0.12656 -0.0027999997 -0.03458 0.0040199994 -0.05582 -0.048859995 -0.066920005 -0.055560004 0.02572 0.06418001 0.0598 0.07692001 -0.02802 0.044239998 -0.0397 -0.033440005 0.063980006 -0.022320002 -3.1999647E-4 0.042460002 0.06658 -7.999987E-5 0.0647 -0.63308 -0.0412 -0.0471 0.02026 -0.05412 0.02342 0.0010200009 -0.01372 0.13492 0.102800004 0.040859997 -0.023579998 0.020860001 0.0026599974 0.06496 0.016660003 -0.01108 -0.022460002 -0.00416 -0.00418 0.07764 -0.04924 0.011339999 0.027240003 -0.03254 -0.021380002 0.0011199992 0.009800001 0.008900001 -0.038160007 0.0947 -0.19473998 -0.06334 -0.037040003 0.03686 -0.01352 0.14688002 -0.083380006 0.098179996 0.01822 0.05466 0.032 0.051880002 -0.007460003 -0.017740002 0.02282 0.05288 -0.02158 -0.18800001 0.00922 0.02926 0.02464 -0.021300001 0.03498 -0.0047799977 -9.200003E-4 0.05662 0.06654 -0.01778 0.013320002 -0.051340003 0.08164 -0.018120004 -0.01072 0.009800001 0.053300004 0.03746 -0.28882 -0.088460006 -0.053799998 0.058659997 0.048999995 -0.13678001 0.22658001 0.01826 0.016280001 -0.044180002 0.02212 0.02906 0.030159999 0.04332 0.062080003 0.0060799997 -0.16296 0.0451 -0.0014599994 -0.02616 -0.050839998 0.01662 -0.04188 0.0165 0.21586001 -0.036280002 0.02238 -0.0158 -0.0073999986 0.079720005 -0.025400003 -0.07388 0.058280002 -0.046600003 -0.0404 -7.5999944E-4 0.02846 -7.999912E-5 -0.02368 -0.0076600015 0.118939996 0.005059998 0.083380006 0.034140002 -0.07046 -0.006899999 -0.021520002 0.08462 0.0017400004 0.0066199987 0.12486 0.037679996 -0.06548 -0.013499999 0.064660005 0.0033000007 -0.02956 0.25762004 -0.0739 -0.056059998 0.0195 0.049660005 0.011499997 0.01904 0.009379999 -0.013080001 0.06382 0.00426 0.07484 -0.028479999 -0.020499999 -0.015980002 -0.01752 0.02774 -0.0534 -0.032300003 -0.065740004 0.10294 0.16576001 0.119260006 -0.053859998 -0.016779998 -2.2000074E-4 -0.093760006 -0.0033999996 0.008359999 -0.0072599994 0.032660004 -0.06864 0.0644 -0.09076001 -0.0046200003 0.0965 0.025779998 -0.05536 -0.039359998 -0.07914 0.028439999 0.013780001 -0.042260002 -0.0013199992 -0.008280001 0.02086 0.052460004 -0.09222 0.025999999 -0.18454002 0.04324 0.03248 -0.03284 -0.0035399997 -0.0327 -0.037580002 0.32972 -0.049280003 -0.05628 -0.01616 -0.109780006 0.05092 -0.24270001 0.015940001 -0.00964 7.399999E-4 0.051379997 0.039240003 0.032440003 -0.09367999 0.04144 0.068620004 -0.022100002 0.34246 0.055460002 0.014820001 -0.15682 -0.026480002 0.029760003 0.0158 0.0525 0.01822 0.06260001 0.01748 -0.026300002 -0.075260006 0.04712 0.058099996 -0.22136001 0.0499 -0.11406 0.03596 -0.20796001 0.01128 -0.009600001 0.01908 0.025980001 0.044179995 0.0058399998 0.044899996 -0.03688 -0.045900002 -0.04404 -0.03914 -7.200003E-4 0.005119999 0.055900004 0.09596 0.048919998 0.0040800003 -0.0204 0.03044 0.040099997 0.003939999 0.06586 -0.033859998 -0.01556 -0.0024199996 -0.10746 0.062520005 0.03526 0.07988 -0.010420001 0.012020003
district -0.03266667 -0.07293334 0.012966668 -0.08806667 -0.045366667 0.0234 -0.016600002 0.040733334 -0.0278 -0.12083334 -0.028966665 0.03993333 -0.102966666 0.08513334 0.06276667 0.028400002 -0.074366674 -0.0142 0.027133334 -0.026633335 -0.076166674 -0.07226667 -0.013233334 0.06843334 -0.0036333352 -0.062 -0.034333333 0.060366668 -0.051 -0.085433334 -0.027866667 -0.022433333 -0.122833334 0.008533336 0.0636 0.0345 0.051066667 0.048699997 0.0388 -0.013066664 -0.0478 0.11073333 -0.023666665 0.0754 -0.05466667 0.11646667 -0.069633335 0.047300003 0.012800001 -0.030633336 0.049733333 0.0364 -0.5968 -0.055666666 0.0063333334 0.012466667 0.007100001 -0.021266665 -0.1032 0.019433334 0.04653334 -0.0089 0.0229 -0.03203333 -0.032933336 -0.072333336 -0.03226667 -0.031266667 0.005099999 0.015566668 0.042766668 9.999996E-4 0.031166669 -0.0487 -0.0085 0.0641 -0.0451 -0.009666666 -0.017 -0.038766667 0.011733334 -0.07956667 0.0062333345 -0.23380002 0.06683334 0.011866666 -0.08580001 0.048466668 -0.052766673 0.027833333 0.035166666 0.04326667 -0.06866667 -0.08756667 -0.014200001 -0.039866667 0.030300003 -0.11396667 -0.019799998 0.10610001 -0.199 0.08470001 -0.072233334 0.031566665 -0.11123334 0.013566667 -0.09746667 -0.008933334 0.10543334 -0.1029 0.020066667 0.03686667 0.028899997 -0.065500006 0.009433334 -0.1944 0.0216 0.051166665 0.0984 -0.38926667 -0.045766667 0.035466667 -0.07136667 -0.011033334 -0.101166666 0.24193335 0.029433336 -0.0469 -0.11306667 0.030233331 -0.067266665 -0.0412 0.03433333 0.12136667 0.028400002 0.0551 0.0041333316 0.12556666 -0.039233334 0.065500006 0.0687 0.010433331 -0.029933333 0.21503334 -0.028300002 0.023600003 -0.0048999987 -0.016166668 -0.013733333 0.025033332 0.09996667 0.012500001 -0.0034666657 0.033200003 0.0064333333 0.0862 0.111899994 -0.08686667 -0.103133336 -0.03756667 0.06163333 0.012233335 0.13103333 -0.087400004 0.0648 -0.08793333 0.0908 0.018599998 -0.023766665 0.031999998 -0.1171 -0.07203334 0.0662 0.072 0.0029333334 -0.06943333 0.26696667 -0.15453333 -0.0501 -0.0954 0.026900005 0.09173334 0.009000003 0.027133334 -0.0039666668 -3.333328E-5 -0.0028333343 0.015466666 0.11446667 0.10623334 -0.026999999 -0.011533335 0.107266665 0.051866665 -0.06526667 -0.008433333 0.054633334 0.1216 0.12353334 0.039466668 7.999999E-4 0.083100006 4.33332E-4 0.13023333 -0.023666669 0.061333336 0.087900005 -0.04303333 -0.081933334 -0.12986667 -0.0793 -0.0229 0.056600004 0.004866666 0.0176 -0.09463334 0.0046666665 0.034933332 -9.0000033E-4 0.036533337 -0.045433335 0.05596667 -0.0427 0.057800006 -0.006500001 -0.026333332 0.05613333 0.004600001 -0.0411 -0.016366666 -0.032333337 -0.031433336 0.3820667 0.043900006 0.0063333362 -0.0051000006 0.0072000003 0.05443334 -0.278 0.0038666676 0.049333334 -0.058566667 0.07553333 -0.0155 0.0063666664 0.03416667 0.017066665 -0.034133337 -0.023100002 0.3287 -0.005366667 0.06436667 0.10476667 -0.019033333 0.011100004 -0.0059000007 0.0066333367 0.053733334 0.044 0.0392 -0.031 0.005100002 0.0174 -0.0419 -0.2669 0.07893333 -0.12830001 -0.015300001 -0.18743335 0.06853333 -0.092533335 0.017566666 0.09843334 0.02946667 0.019500002 0.0262 0.028733334 -0.1049 -0.008 0.0268 0.016433334 -0.048866667 -0.0011666678 0.1144 0.0669 -0.061699998 -0.0952 -0.024933334 -0.07153334 0.0774 0.034 0.08743334 -0.14570001 -0.078933336 -0.0636 0.01713333 0.064166665 0.0501 -0.012366667 0.05733333
doctoralAdvisor -0.073125 0.057075 0.134325 0.028375002 -0.0313 0.07285 -0.0479 0.0095 -0.102199994 -0.022174997 0.044425 -1.4999881E-4 0.029949998 -0.0714 -0.06555 -0.030375 -0.014675 -0.0976 0.045624997 0.046649996 -0.103525 0.043875 0.018825 0.11315 0.050175 -0.082325 -0.0548 -0.11675 -0.12357499 -0.09865 -0.0177 -0.0045499997 -0.06407501 -0.09025 -0.064975 -0.022 0.009649999 0.049075 -0.034300003 -0.084325 0.0199 -0.068624996 -0.05935 0.040175 0.062175 0.0022999998 -0.054875 -0.07355 0.017299999 -0.0063499995 0.072875 0.18935001 -0.703425 0.046175 0.12577501 0.039899997 -0.12065001 0.04555 0.112349994 -0.051124997 -0.02275 0.011500002 -0.08270001 -0.057925005 -0.010175002 0.069525 -0.0074000014 0.0011 -0.0542 -0.029374998 -0.16222501 -0.106924996 -0.018475 0.0105500035 -0.008474999 -0.0066249995 0.0749 -0.0066 -0.123025 0.064575 8.499995E-4 0.10975 -0.021175 -0.23140001 -0.064725 -0.079375 -0.023750003 -0.084725 0.2367 -0.06989999 -0.0361 0.0853 -0.070225 0.05365 0.064150006 0.046825 0.02755 -0.081275 0.010375001 0.0341 -0.21232499 0.018674994 -0.186525 -0.0015499983 0.02035 -0.009099998 -0.014124999 -0.028825 0.01355 0.036975 0.026525 0.10935 -0.069400005 0.0027249996 -3.0000042E-4 -0.017375 -0.021275 0.0021499991 -0.0282 -0.32735002 -0.017975003 -0.046700004 -0.023424998 0.07435 -0.098749995 0.2117 0.066875 -0.011699999 0.22265 -0.034874998 0.04485 -0.0679 -0.038 0.032624997 0.008874999 -0.035525 -0.109225005 0.12522501 -0.042600002 0.093375 0.02855 0.0117999995 0.15677501 0.25595 -0.07655 -0.142225 0.087175 0.076850004 0.07982499 0.01595 -0.129475 0.070775 0.14815 0.017375 0.054325 0.008775 -0.012599999 0.01795 0.062824994 0.061975 -0.0354 0.008175001 0.004075 0.088424996 0.13615 -0.102175005 0.113625005 0.170525 0.096625 -0.0815 0.055175003 -0.17675 -0.0035499986 0.025375001 -0.0023999996 0.043225 0.24472502 -0.039775 -0.09590001 0.019225 0.0027750004 0.015625002 -0.037775002 0.009400001 -0.022599997 -0.009275 -0.0037749996 0.07850001 -0.012050001 -0.053324997 6.2500034E-4 -0.008849999 0.018525 -0.051875 -0.010049998 0.049625 -0.021924999 0.0696 0.12445 0.019199999 -0.03545 -0.0934 0.02595 -0.11929999 0.015349999 -0.003949999 -0.1278 -0.1329 -0.0016749967 -0.115925 0.0583 0.11975001 0.0057749995 0.005999998 0.061475 -0.089025006 0.0010999963 -0.011074999 0.020775 0.0027750023 -0.0037249997 -0.007375001 0.103025004 0.002425002 -0.01895 -0.056450002 -0.046625003 -0.03855 -0.11350001 -0.182125 -0.2816 0.033 0.31775 -0.069925 0.11815 -0.17362499 -0.087950006 0.09832499 -0.2408 -0.0679 -0.024125 -0.072275005 -0.07795 -0.061724998 -0.092825 0.070775 0.0682 0.070725 -0.028875 0.38245 0.0212 -0.20127499 -0.24047498 0.179775 0.139025 -0.0188 -0.0067500006 -0.05557499 -0.028025001 -0.03025 -0.08065 -0.040625 0.083575 0.020225 -0.31585002 0.022925 -0.0026750024 -0.030575 -0.11355 -0.03785 -0.03225 0.034675002 0.0587 0.005775 0.04085 0.052899998 0.083925 -0.021475002 0.102074996 -0.01765 -0.1356 0.0514 0.013750001 -0.017225001 0.04695 -0.009775 -0.0213 -0.0032249996 0.017974999 0.117225006 -0.01785 -0.054625 0.15855 0.014375 -0.01665 0.01565 0.021400005 0.140925 -0.0887 -0.075500004
doctoralStudent 0.005166666 -0.023566667 0.13816667 -0.11115001 -0.050466668 -0.0096 0.041366667 0.07766667 0.021733334 0.0758 -0.046000004 -0.06761667 0.030883333 -0.05945 -0.11603334 0.026933331 -0.017216668 -0.009683336 -0.013316667 0.011949999 -0.20715001 -0.009916669 0.05291667 0.14230001 0.05553333 -0.04805 0.063650005 0.035700005 0.006583334 -0.08291667 -0.069683336 0.09708333 0.0547 -0.07305 0.02395 0.11303334 0.14513333 0.033283334 -0.058733337 -0.056100003 -0.054533333 0.020049999 -0.019666666 -0.092800006 -0.060266666 -0.070716664 -0.030733332 -0.080199994 0.014183335 0.14088334 0.082616664 0.082600005 -0.73690003 -0.032566667 0.025666669 0.09953334 -0.030516665 0.027650004 0.07215 -0.049983334 0.031283334 0.042383336 -0.071550004 0.0032499973 -0.026266664 0.06986667 0.022916667 -0.053349998 0.079716675 0.0056333346 -0.09186667 -0.043516666 0.024233334 0.08398335 0.06313333 0.14625001 -0.0516 0.008933332 0.058799997 0.084633335 0.022933334 0.07318334 0.016666668 -0.19293335 -0.013416668 -0.011483338 0.025600001 -0.021883337 0.19351666 -0.027533337 -0.0399 0.026600003 -0.09306666 -0.019649997 0.07918333 -0.0386 0.10446667 -0.09068333 -0.06041667 0.018266667 -0.19015 0.008883334 -0.10033333 0.07486667 -0.10673334 -0.05623333 -0.02451667 -0.05953334 -0.028816666 -0.045483332 -0.0011333346 0.14310001 0.04085 -1.3333342E-4 0.053433336 -0.11836667 -0.072050005 0.0082 -0.042483337 -0.28471667 0.0251 -0.05111667 0.042666674 0.06046667 -0.038933337 0.22723334 0.080083326 -5.833333E-4 0.07643333 -0.040833335 0.027700003 0.031533338 0.0644 -0.025716668 -0.0012833321 0.07181667 -0.03188333 0.0758 -0.023583334 -0.0024499993 0.031333335 -0.039250005 0.029783335 0.16148335 -0.012450002 0.06475 -0.030383334 0.10596667 -0.028233334 -0.072216675 -0.04458333 0.013566667 0.070066676 0.0011833337 -0.051533338 0.0013666663 -0.0083 -0.06776667 0.015233338 0.061933335 0.047050007 0.026483333 -0.043833338 -0.0034666657 0.15681668 -0.029333334 0.10626668 0.0829 -0.09476667 0.040133335 -0.013450002 -0.15333335 0.0041833324 -0.028566666 0.019466667 -0.014733335 0.30095002 -0.15931666 -0.11233334 -0.053949997 0.0047666673 0.0453 0.09098333 -0.052766666 -0.020333331 0.028783336 0.05623334 0.12876667 -0.068883345 -0.09686667 -0.0018499999 -0.0163 0.06295 0.023416666 -0.06323334 0.09695001 -0.027066667 0.045033336 0.08195 -0.036033332 0.034383334 -0.08755001 0.04958334 -0.07301667 0.013483333 0.071150005 -0.041833334 -0.09126668 0.13655001 -0.0018333297 0.037683334 0.0014666658 -0.036233336 -0.052733332 -0.01776667 -0.046433337 0.04636667 -0.10136667 0.016983336 0.09843334 -0.076950006 -0.0541 0.098450005 0.057900008 0.030783337 -0.07153334 0.0035666663 -0.012016667 -0.097566664 -0.089716665 -0.025600001 -0.0639 0.30258334 -0.007716667 0.00886667 -0.1912 -0.014166666 0.08956667 -0.23758334 0.049016666 0.032166667 -0.03361667 0.042549998 -0.0651 -0.0090499995 0.09663334 -0.030983334 0.10928334 0.011333334 0.35521668 -0.026566666 0.023216665 -0.23161668 0.07383334 0.083299994 -0.06778333 -0.008266669 -0.026933331 -0.072000004 -0.019899998 -0.0717 -0.0028833337 -0.016600002 0.13045001 -0.32798335 0.038766667 -0.040349998 -0.08465 -0.13826667 -0.022933338 0.011383336 -0.060950004 0.055933334 -0.08716667 -0.047683336 -0.020183332 0.06276667 -0.11436667 -0.0045666685 0.027016668 -0.0028166685 0.054166667 0.0428 0.0317 -0.0028000004 -0.042633336 -0.041800003 -0.03366667 -0.055016667 0.071783334 0.0057499986 -0.08808334 -0.09443333 -0.0091 -0.0512 0.07598334 0.07073334 0.071433336 -0.05175 0.043633327
employer 0.11852 0.009859998 7.999994E-4 -0.04546 0.017040003 0.015679998 -0.039839998 -0.11436 -0.009039998 -0.056000005 0.009819999 0.027759999 0.034339998 -0.037620004 -0.05564001 -0.10762 0.025099998 -0.012640002 -0.07582 -0.015100001 -0.13978 0.0134000005 0.03418 0.0074200006 0.041020002 -0.018420001 -0.045760002 0.074820004 -0.071380004 -0.14622001 -0.0027800002 -0.008200001 -0.05128 -0.07214 -0.03418 0.025080001 -0.030900002 0.04536 0.0103600025 -0.09238 0.04106 -0.039059997 0.01436 1.6000122E-4 -0.02416 -0.0261 0.05166 0.09308001 0.021179998 0.0058000004 -0.0649 0.016260004 -0.5901 0.060000002 -0.028579999 0.032780003 0.1133 0.0141 0.113 0.057280004 0.08878001 0.00106 -0.06958 0.011480001 -0.045119997 -0.021499999 0.05288 0.03556 -0.034580003 -0.059679996 -0.016760001 -0.015560001 0.07016 0.040160004 -0.059860002 0.10039999 0.0328 -0.07864 -0.04836 0.108440004 -0.0034599993 0.049659997 0.09808 -0.22658001 -0.013779998 0.03546 0.0022000007 0.01696 0.011680001 -0.006979999 0.033719998 0.0308 0.02966 -0.017320001 0.011460001 0.009920003 0.01182 0.04644 0.038799997 0.04486 -0.16854 0.0050000018 0.16332 0.05248 -0.20486 0.0686 -0.04324 -0.03694 -0.054320004 -0.0221 -0.0048999996 0.056820005 -0.102699995 -0.029339999 -0.013479999 -0.12398 -0.009860001 0.012079999 -0.027800003 -0.38464 0.040039998 0.056999993 0.0373 -0.020940002 0.001979998 0.1875 0.08518001 0.026899999 0.049480002 -0.057659995 -0.10733999 0.05122 0.03076 -0.032080002 -0.043360002 0.09288 0.03924 -0.01098 0.0047599985 -0.070860006 -0.07044001 0.023419999 -0.055159997 0.17279999 -5.799994E-4 0.11316001 0.0022600004 -0.05154 -0.01852 0.027200002 -0.060580004 -0.02676 9.6000097E-4 -0.02098 0.0766 -0.0035199986 0.12936 -0.022240002 0.07328 0.01652 0.0061400007 0.08882 -0.04084 -0.03416 -0.0024799965 -0.0359 0.07308 -0.035140004 0.00898 0.047340002 -0.051839996 0.083 0.002620001 -0.08524 0.10096001 0.032700002 0.2356 0.046599995 -0.16354 0.04 0.09876 0.048520003 0.029000003 -0.034160003 0.030619998 0.0454 -0.036300004 -0.07574 0.06563999 -0.068220004 -0.02584 -3.6000088E-4 -0.0103 -0.03282 -0.01582 -0.004340001 0.008539999 0.003979999 0.14956 -0.097720005 -0.037800003 -0.0885 -0.011720001 0.0015399993 0.06988 -0.0021999993 0.046940003 -0.11985999 0.0561 0.021580001 -0.014820002 0.01854 0.04274 0.04646 0.06114 0.020480001 -0.0035600008 -0.0072999983 -0.116560005 -0.008820002 -0.13668 0.02704 -0.017560003 0.037359998 0.015160001 -0.08462001 -0.10276001 0.09496 -0.091960005 -0.0968 -0.0063200006 0.05344 0.35450003 -0.045280002 0.0337 -0.092700005 -0.07912 0.12388001 -0.25992 -0.0101 0.052160002 -0.02604 -0.00404 -0.041079998 0.06972 0.010380003 4.9999956E-4 -0.021240002 0.05616 0.3322 0.02922 -0.03288 -0.22386001 -0.018580003 0.06604 0.07874 -0.050419997 0.06402 -0.016020004 -0.014579998 0.026980001 -4.9999804E-4 0.03148 0.0075400057 -0.51148003 0.00374 -0.05958 -0.019939998 -0.09484 0.07768001 0.00848 0.05738 0.01372 0.0014200006 0.04668 0.05768 -0.01152 -0.102400005 0.067540005 0.0248 -0.01776 -0.048460003 0.06744 0.06436 0.032660004 -0.08202001 -0.032700002 0.035299998 -0.01612 -0.007659999 -0.02898 -0.10524001 0.014459999 -0.06256 -0.0352 0.06188 -0.07068001 0.05204 -0.04002 -0.01098
formerBandMember 0.046308335 0.021783333 0.04136667 -0.038500004 0.0017666671 0.089841664 0.02196667 0.024925 0.016058333 0.02318333 0.0362 0.014625001 -0.033491667 -0.008891666 -0.046500005 -0.0060416674 -0.0028500012 0.049549997 -0.046200003 0.027325 -0.039058335 -0.0036083318 0.0067333346 -0.033475004 0.041408338 -0.06179167 -0.03134167 0.06818333 -0.019358333 -0.07885834 -0.022191666 -0.0246 0.021116666 9.91668E-4 0.0018750008 0.05858333 -0.014749999 -0.06925 0.004758334 0.079058334 -0.070641674 -0.0025416657 0.08408334 0.038175 -0.028649997 -0.025425 0.044141673 -0.0128 0.06750833 0.0067500016 0.008891666 0.04635834 -0.6263083 0.001883333 0.0132083325 0.038525 -0.004366667 0.0152916685 -0.022124998 -0.030650003 0.06785834 -8.332543E-6 0.0010916665 -0.021583332 0.033483334 -0.04241667 0.04158333 -0.012308333 0.0090333335 -0.013175001 0.004641667 -0.022308335 -0.008316668 0.0013499986 0.038075 0.042574998 -0.022250002 0.030325 0.008383332 0.0301 -0.0022250009 0.039433334 -0.014275002 -0.24405 -0.028916668 -0.047591668 0.007691668 0.018108333 0.034425 -0.017258335 0.065725 0.032875 -0.04161667 -0.018616669 0.047083333 0.0923 0.04718333 0.039533336 0.025324998 -0.0025166671 -0.20458333 -0.041866668 0.079825 -0.018550001 -0.09266667 0.010333333 0.016541667 -0.07565 -0.029183332 -0.017591666 0.006066668 0.059225004 0.029366668 -0.0033666666 0.014241669 -0.050991666 -0.001283334 -0.013491667 -0.004625 -0.34211668 -9.750007E-4 -0.035524998 0.03365 0.09065833 -0.05281667 0.21452498 0.04060833 0.035375003 0.012175 -0.06276667 0.014283333 0.014399998 -0.030074999 0.009725001 0.005433333 -0.018833335 -0.027966667 -0.035816666 0.0069750003 -0.036316667 0.022483334 -0.04338333 -0.030258331 0.25306666 0.03539167 0.0069583333 0.060958337 -0.0029416676 -1.08333305E-4 0.010258334 0.008841666 0.022108335 -0.034050003 -0.022350002 0.0038416665 0.009491668 3.3333217E-4 -0.015624999 -0.026950002 -0.011775 0.02326667 -0.0045416667 -0.008891667 0.0059083337 -0.08646667 -0.016833335 0.0977 0.022991668 -0.038058333 0.026016667 0.05994167 -0.001358334 -0.011533333 0.048999995 0.026124999 0.058708336 0.247375 -0.10261667 0.06631667 0.06345834 0.028908333 -0.027491666 -0.016441667 -0.011775001 -0.052725 -0.047033332 0.013224999 -0.010916667 0.09503334 -5.833432E-5 -0.018783335 -0.052858334 -0.011175001 0.018850002 -0.037175 -0.032075 -0.0027333337 0.042266667 0.122675 -0.03945834 0.0018416669 0.009499999 -0.042949997 -0.015041667 -0.014974999 0.033183336 0.027950002 -0.11608334 0.060925 0.018199999 0.0084999995 0.100025 0.018199999 0.06025833 -0.029541668 -0.08974167 -0.019666668 -0.033041667 0.0206 0.010541668 -0.082833335 0.035575002 -0.0038999997 0.022408335 0.004525002 -0.056283336 3.3333278E-4 0.07585833 -0.027266666 -0.062400006 -0.059325002 -0.031066667 0.3495 0.051500004 -0.0457 -0.08431666 -0.045541666 0.1385 -0.275475 0.0032833319 -0.015199999 0.0212 0.03505833 0.0117500005 0.057958335 -0.023583334 -0.009291667 0.06465834 -0.0026 0.332475 -0.002641668 0.07369167 -0.061775 0.049791664 0.046941668 0.0117 0.05576667 0.021450004 0.013199998 0.026899999 0.019883335 -0.016991667 -0.007958336 -0.063991666 -0.21845834 0.022583336 -0.04923334 0.039766666 -0.136925 -0.013149999 -0.007916667 -0.002925001 0.0052416674 -0.037975 -0.0073749996 -0.028008332 -0.022808334 -0.060425 0.029358333 8.499995E-4 0.026916668 0.002841669 0.049433332 0.04634167 -0.0037833354 0.019450001 -0.075766675 0.013124999 0.028366668 0.03395 -0.033908334 0.039941672 -0.0018833335 0.03485833 -0.063374996 -0.025833337 -0.024741665 0.09485 -0.0542 0.010974999
formerTeam 0.018428572 -0.0029571431 0.054000005 0.008685716 0.049757145 0.10018572 0.031957146 0.08185714 0.015557141 -0.030985715 -0.0225 -0.027714286 -0.021857148 0.0059142862 -0.043742858 0.02384286 -0.02214286 -0.0044999975 0.01412857 0.005442855 -0.02804286 -0.043128572 -0.010457145 0.09447143 0.03564286 -0.033828575 -0.023071427 -0.01962857 -0.022571428 -0.044514284 -0.049900003 -0.06405715 -0.029128574 -0.02877143 0.037342858 0.010157144 0.022300001 -0.012728575 -0.01815714 0.0221 0.011614286 0.057357147 -0.0087857125 0.033842858 -0.06105714 -0.009957142 -0.023914287 0.027257146 0.045585718 0.025214287 0.022585714 0.071985714 -0.6360572 0.0077714287 0.037928574 0.052728575 0.01417143 0.056300003 -0.04722857 0.012985717 0.013914287 0.019885715 0.024871428 -0.026200002 0.033057142 -0.078914285 0.0021714277 -0.050942857 0.014700003 0.022828571 -0.0249 0.033871435 0.036885716 -0.030257145 0.042057145 0.03957143 -0.036342856 -0.014371428 -0.024714287 0.012814286 -0.009828572 0.009928575 0.04831429 -0.20725714 -0.021514287 0.004257144 0.0020571437 -0.026871435 0.15944286 2.2857105E-4 0.04821429 0.012842858 0.014114286 -0.007614286 -0.021057148 0.04594286 0.041528575 -0.009214286 -0.041057147 -0.023571433 -0.21849999 0.03617143 0.07824286 -0.003271428 0.009357144 0.020114282 0.018871432 -0.009385715 -0.02337143 0.013857144 -0.055514287 0.023400001 0.0026571448 0.04758572 0.025828574 -0.0066714296 0.013014286 0.008900002 -0.01627143 -0.3082 -0.0038857153 -0.019228572 -0.036199998 0.13322859 -0.10617144 0.2297143 -0.024928574 -0.008300001 0.010357143 -0.0063857143 0.0749143 0.051571433 0.04902857 -0.07137143 -0.0079000015 -0.15664287 -0.033528566 -0.0024142878 0.0065285703 -0.082828574 0.013071429 0.004742859 -0.035385713 0.23187143 0.025242858 0.0019285717 0.028414287 -0.030185718 0.040785715 0.026214285 0.033757143 0.045557145 -0.02007143 -0.063614294 0.034457143 0.0051571415 -0.0773 -0.0329 -0.02212857 -0.0472 0.033528574 -0.03944286 -0.043428577 -0.014914286 -0.029928572 -0.03658572 0.09558572 0.0239 -0.03728571 0.05275715 -0.026414286 -0.028685719 -0.06681429 -0.0104142865 -0.05024286 0.0019000008 0.29307142 -0.0969 0.014714288 1.2857148E-4 -0.012371433 0.004071429 -0.024742858 0.0015714292 0.018671433 -0.004214285 0.005814287 -0.012514288 -7.142553E-5 -0.0075714304 -0.0141 -0.067357145 -0.024228575 0.07664286 0.036128566 -0.06414285 0.0015857135 -0.027471429 0.15435715 -0.0187 -0.040500008 -0.014085718 0.015828572 0.003957142 0.0153 0.06478572 -0.012257142 -0.11024286 0.055942863 -0.0011857164 0.002628571 0.06574286 0.008957144 0.029057145 -0.0356 -0.07027143 -0.036971435 4.5714423E-4 -0.013371432 -0.025914287 -0.011085716 0.008142858 0.011985713 -0.02934286 0.050857145 -0.10507144 0.012642856 -0.008985715 -0.08791428 -0.100842856 -0.004985715 0.019257141 0.34440002 0.015899999 -0.01601429 -0.07014286 -0.07912858 0.092214294 -0.25744286 -0.008171431 0.032614287 0.034242857 0.033471428 -0.023042861 0.029142858 -0.0155714275 0.019514287 -0.049357142 0.0050714286 0.3828 0.045285713 0.063614294 -0.057400007 0.01254286 0.013571431 0.053285714 0.024257146 0.026314287 0.028242858 -0.009171429 -0.0606 -0.0151571445 -0.006485714 -0.0928143 -0.22094287 -2.8571356E-4 -0.05328572 -0.037371427 -0.1823143 -0.044328574 -0.014842856 0.0038 -0.003314286 -0.07371429 -0.036085714 -0.047385715 0.006457141 -0.09570001 -0.08317143 -0.0041571422 -0.053257145 0.049814288 -0.011985717 0.052014284 0.043385718 -0.008171427 -0.07350001 0.08148572 0.040485717 0.0063000014 -0.012157145 -0.012228572 -0.016157143 0.005214286 -0.015742859 0.041957147 -0.013000001 0.09787143 0.019785713 -0.034414288
foundationPlace 0.027087502 0.036825 -0.0270125 -0.002587499 -0.051974997 -0.037100002 0.0144374985 0.038687497 -0.0101625 -0.0517625 0.0016375007 0.04365 0.013375 0.004462502 0.029912498 0.029425 0.020775 0.045175 -0.0301375 0.02275 -0.025449999 -0.0113625005 -0.0189875 0.0823375 -0.049312502 -0.06295 -0.0052124998 0.002675 -0.026475003 -0.0019124988 -0.030599998 0.025512502 0.0070875008 0.026549995 0.0456125 2.1249801E-4 -0.0447125 0.0656375 0.068662494 -0.0681625 -0.055150002 0.033699997 0.018624999 5.000038E-5 -0.0079375 -0.0033749994 0.0033250004 0.011287501 0.03855 -0.0025750017 -0.042025 0.1756125 -0.63245 0.017225 0.0079375 0.009825001 -0.072925 0.0335375 0.013125001 0.0063124993 0.053137504 0.008575002 -0.0011624992 -0.011899998 -0.033987503 0.0038374981 0.0228875 -0.036212504 0.019337501 0.006412499 -0.0185125 8.0000004E-4 -0.0341125 0.022262499 -0.0014125016 -0.018012501 0.0362375 -0.054887503 -0.051562496 0.014574997 0.007325 -0.0045874994 0.009487499 -0.209775 0.036087498 -0.0066749975 0.044775 0.0191 -0.008350003 0.05145 0.0637625 0.023625 -0.0121875 -0.0223125 0.005900004 -0.0634875 0.057237502 -0.029399998 0.0017874986 -0.013062499 -0.1872625 0.0052125 -0.01735 0.06515 -0.074075 0.0019624997 0.011399999 0.012874999 0.0128625 -0.078475 0.017299999 -0.024037499 -0.0048625 0.011750001 0.0431125 -0.026187498 -0.008087499 0.018849999 -0.0418625 -0.38210002 -0.0281125 0.0024374998 -0.08285 0.040925 -0.0011500027 0.22257501 0.0363375 0.037624996 -0.08955 0.0504375 -0.03475 0.002024999 -0.0074624997 0.021625001 -0.049125 0.026725 -0.0286375 -0.071625 0.058324996 0.0029875003 0.0103375 0.016137501 -0.0024374998 0.2028875 0.027400002 0.025962502 0.051475 -0.03145 0.0409 0.03275 0.010125 -0.014487499 0.028025 -0.0158875 0.008325001 0.0192375 0.0168625 -0.062299997 -0.0609125 0.010949999 -0.037387498 0.0538875 -0.0342375 -0.011599998 0.0062125027 0.023937497 0.1114625 0.0368125 -0.07035 -0.031249998 -0.011725 -0.0101875 0.025475 -0.056100003 0.13315 0.008299997 0.22385001 -0.056487493 -0.025837502 0.007199999 0.048750002 -0.020937499 0.023975 0.0064625014 -0.0019624997 -0.0471375 0.032837495 -0.0452875 0.111875 0.008950001 0.010012498 0.04245 -0.027337499 -0.020900004 -0.011187502 -0.0273375 -0.0028749984 0.0193125 0.1636625 -0.024099998 -0.053437497 0.00805 0.0187625 0.059175 -0.0011374988 0.0016249996 0.062824994 -0.0102375 0.011387498 -0.016487502 -0.0484875 -0.0074875 0.0179125 0.0313875 -0.0322625 9.3750004E-4 -0.048375 -0.03535 -0.0387875 -0.0282 -0.04445 0.010637501 -0.0227 0.0063 0.035212502 -0.069649994 -0.0101125 0.0757 -0.108100004 0.025624996 -0.120537505 -0.01025 0.343675 -0.0055124997 -5.000001E-4 -0.027275 -0.04295 0.049875002 -0.2604125 0.030737499 0.0048375 0.018374998 -0.03805 -0.028399996 -0.054062504 -0.013287501 0.009337501 -2.2499822E-4 -0.0476 0.32888752 -0.015387502 0.059512496 0.045225002 0.014000001 -0.074337505 4.3749996E-4 -0.0081875 0.0044124993 0.0357625 -0.008299999 -0.0510875 -0.026300002 -0.0094875 0.0143625 -0.1424125 0.0025124997 0.031925 -0.021924999 -0.1481 0.0208125 -0.083937496 0.039325 0.0039625 -0.0485875 0.0023875008 7.874998E-4 -1.3749953E-4 -0.042774998 -0.009125 -0.01805 -0.041124996 -0.027800001 -0.011612501 0.07385 0.0961 -0.0152375 -0.008624999 0.0845 0.0196125 0.045275003 -0.0563375 0.0198875 -0.04385 0.0070749996 -0.0320125 0.08155 -0.02755 0.1268375 -0.0047375 -0.0925
headquarter 0.2856 0.0547 0.07 -0.1293 0.0487 0.0326 0.0058 -0.0839 0.1732 -0.0992 0.1192 -0.193 0.0579 0.1622 0.2296 -0.0151 -0.1261 -0.0189 0.0255 -0.0638 -0.3031 -0.0848 0.0575 0.0185 0.0685 -9.0E-4 -0.1444 -0.0384 -0.021 -0.252 -0.0612 -0.156 -0.2146 0.0148 0.056 0.0712 0.0319 -0.0682 -0.0398 -0.1176 0.0103 0.0953 -0.1629 0.0248 0.1842 -0.1382 0.1279 0.1163 0.188 -0.08 0.1357 0.2526 -0.7521 0.1073 -0.0188 0.0717 -0.0095 -0.0337 0.142 -0.0331 0.2215 0.0559 -0.0421 -0.0124 0.1755 0.0199 0.0303 -0.0614 0.1936 -0.1406 -0.021 0.146 -0.0225 0.0449 0.0747 -0.0317 -0.0735 -0.1605 -0.1538 -0.1928 -0.0291 -0.0221 0.0192 -0.2325 -0.0578 0.1838 0.0376 0.0276 0.0967 -0.1875 0.3539 0.0424 0.079 0.0641 0.0129 -0.1344 0.0116 -0.0661 0.024 0.3002 -0.1508 -0.1229 0.0738 -0.0573 -0.0546 0.1338 -0.1255 -0.0849 0.0564 -0.0445 -0.2148 -0.0644 -0.1192 -0.0343 -0.0589 -0.1887 -0.0338 -0.0426 0.0051 -0.1895 0.1224 0.13 -0.0652 0.0054 -0.0327 0.1445 0.0714 0.0229 -0.0238 0.0286 0.0289 0.065 -0.0404 0.1643 -0.2012 -0.0097 0.1844 -0.2111 -0.1178 -0.2353 -0.0511 -0.1179 -0.1612 0.2046 -0.0661 0.0693 0.1099 0.1115 -0.0176 -0.1238 0.0715 0.0609 -0.0131 0.0535 0.1515 0.1551 0.1148 -0.3147 0.1283 0.2241 0.0221 0.0111 0.1407 -0.1588 0.1319 0.054 0.0316 -0.0564 -0.0654 0.1378 0.1311 0.036 0.1511 0.2764 -0.1059 -0.0377 0.255 -0.0595 0.0737 0.1767 -0.1052 -0.1342 -0.1402 0.0219 -0.0679 -0.0819 0.1241 -0.051 0.0282 0.1368 -0.1034 -0.0855 0.1188 0.0579 -0.1619 -0.1356 0.1857 0.2854 0.109 0.1546 -0.0599 0.1988 0.023 -0.0271 0.0123 -0.0752 -0.1007 0.1039 9.0E-4 -0.2228 -0.0687 0.1092 0.228 -0.012 -0.1214 -0.0183 0.0457 -0.0229 -0.2527 0.0396 -0.0147 -0.1501 -0.1358 0.0464 -0.0521 -0.1176 0.2116 -0.0712 -0.0503 0.1075 -0.3828 0.015 0.2547 -0.1707 0.0458 -0.2744 -0.2833 0.2975 -0.184 0.163 0.0969 0.0689 -0.0108 -0.0833 0.071 -0.2069 0.1117 -0.0322 0.0343 0.258 0.1766 -0.1647 0.0223 -0.117 0.1515 0.2036 0.1702 -0.0616 -0.1492 -0.0961 0.0706 -0.0832 0.0525 0.0082 -0.4295 0.0868 -0.1527 -0.0752 -0.2585 -0.1486 0.2405 0.1088 0.0227 0.079 -0.033 0.1021 -0.0758 -0.1383 0.1717 0.0189 -0.0194 -0.1411 0.1006 0.2349 0.2467 -0.1015 -0.1354 0.2347 0.0293 0.0424 -0.013 0.0566 0.0776 -0.1157 -0.2364 0.0384 -0.0643 0.0021 0.0191 -0.2467
hometown 0.07872858 0.028085716 -0.021457145 -0.038542856 0.016314287 0.0303 -0.012671429 0.015214287 -0.019971428 -0.014985715 -0.023900004 -0.040642858 0.0022571431 0.0943 0.03147143 0.010685716 0.017314285 -0.041699998 -0.006671429 -0.048728574 -0.060771428 -0.038985714 -0.011000001 0.14694285 -0.06342857 -0.038500004 -0.042514287 0.07168572 -0.077057146 -0.039985716 0.013171428 -0.056957144 0.0018571424 0.023342859 0.042357143 0.014042859 -0.036799997 0.07804286 0.007657144 -0.07157144 0.037557144 0.01067143 -0.0038714283 -0.02792857 -0.0060571455 0.0071714288 0.063514285 -0.024085714 -0.05185714 -0.04114286 0.03565715 -0.004400001 -0.6069429 -0.014028573 -0.02427143 0.006942856 -0.04041429 0.04207143 0.042700004 -0.0027857148 0.016114285 -0.083842866 -0.078828566 -8.857128E-4 -0.03074286 -0.055900007 -0.009900001 0.07678572 0.046028573 0.028042858 0.041571427 -2.142863E-4 0.008257143 -0.04348572 -0.0040857145 0.06317143 -0.05374286 -0.03731429 -0.04102857 0.036971435 -9.857145E-4 -0.049142856 -0.02914286 -0.21807143 -0.027585717 -0.0069428585 0.032014288 -0.02844286 0.13865714 0.031857148 0.04434286 0.012642859 0.004142859 -0.101900004 -0.018057143 -0.06872857 0.015442859 -0.043528575 -0.04032857 0.017314289 -0.1813 -0.0221 -0.023285713 -0.013971429 0.03334286 0.065242864 -0.0011285715 -0.0010857147 0.046814285 -0.08035715 -0.005642857 0.0315 -0.0195 0.023842854 0.023614286 -0.08198571 -0.0089 -0.0010285719 -0.040371433 -0.31577143 -0.0015428567 -6.999994E-4 -0.0335 0.04307143 -0.052228577 0.21254285 -0.018914286 -0.032285713 -0.11715714 -0.016271431 0.04978572 0.05745715 0.008142857 0.049857143 -0.0611 -0.0016857147 0.020871429 0.0022285709 0.06788572 0.011442859 0.07592857 -0.008671427 -0.048114285 0.23719999 -0.015842855 0.0178 -0.036099996 0.0012857147 0.01827143 0.034700006 0.028671432 0.022242857 0.007214286 0.046271432 -0.021371428 0.016628575 0.05477143 0.012128572 -0.045728575 0.007871429 0.058428574 -0.023014288 0.067357145 -0.10332858 0.0146571435 0.020757146 0.09498571 -0.03831429 -0.010685714 -0.034214288 -0.08134285 -0.029057141 -0.008985716 0.10870001 0.023185717 0.0012714283 0.25144288 -0.18594286 -0.04747143 -0.044157144 0.023014288 0.048600003 -0.04428572 0.031142857 0.023114286 -0.07588571 -0.03874286 0.037100002 -0.029271431 0.016357144 -0.0043285703 -0.060357146 0.09208571 -0.032900006 -0.062142864 0.0010285728 0.016485717 -0.0194 0.1202143 0.006514286 0.031714287 -2.4285637E-4 0.053742863 0.077 0.023799999 0.058500003 -0.041628577 -0.108742855 -0.0051428583 0.0075857164 0.023085715 0.07735714 -0.03284286 -0.032014288 -0.05121429 -0.06424286 -0.035671428 -0.031557146 -0.045600004 0.07412857 -0.011928571 -0.015328573 -0.016314287 0.06417143 0.043757144 -0.011085715 0.011014287 -0.027842859 -0.004671426 0.021628572 -0.042985715 0.0052142846 0.37875715 -0.042657144 -0.01645714 -0.065742865 0.008685717 0.091971435 -0.2573 0.09227143 -0.009628572 0.00787143 0.013942858 -0.07442858 -0.027657144 0.035457145 0.01047143 -0.055 0.030828571 0.37135714 0.00582857 0.056700002 0.011642857 -0.06824286 0.03927143 0.010785715 0.083699994 0.032842856 0.05207143 0.0073285713 0.013114289 -0.055828575 0.07091428 0.008671429 -0.26074287 0.030357145 -0.04294286 0.04857143 -0.18452857 0.009257142 -0.02657143 0.032842856 -0.021771427 -0.0702 0.064100005 -0.0016714282 -0.001014286 -0.0109 -0.015957145 0.017385716 0.007385714 -0.004657142 0.0819 0.030671429 -0.018514287 -0.046214286 -0.10597144 -0.016314287 -0.0073142876 0.0214 0.01647143 0.004442858 -0.04737143 -0.046000008 0.014228573 0.06177143 -0.020885715 0.043228578 -0.004628569 -0.040771432
leaderName 0.014840004 0.11202001 -0.05018 0.03882 -0.035720002 0.09102 0.07156 0.090320006 -0.011280001 0.057099998 -0.04728 0.05496 0.04412 0.06616 0.09962 0.04382 0.0034400001 0.009499998 -0.00838 0.015380003 -0.14344 -0.0116799995 -0.0072 0.0093 -0.025039999 -0.030360002 -0.0015400008 0.0551 0.021220002 -0.1693 0.069340006 0.03042 -0.01652 -0.010500002 -0.032660004 0.03492 0.003960002 0.03064 -0.027359998 -0.13992 0.02714 -0.05602 0.017399997 0.028599998 -0.040340003 -0.09752 0.032080002 -0.018279998 -0.005380001 -0.04748 0.0012400001 0.023940003 -0.58314 0.01822 0.020060001 -0.0031800002 -0.013340001 -0.008599998 -0.013660001 0.008680001 0.081760004 -0.061979998 -0.05586 -0.0518 -0.010559999 -0.0984 0.012579999 -0.04586 0.06758 -0.02058 -0.0016000003 -0.0706 -0.06626 0.0076999995 -0.02424 0.028640002 0.05772 0.029539997 -0.09352 0.112419985 1.000002E-4 0.0855 0.027020002 -0.21683998 -0.07938 0.03308 0.022860002 0.05628 0.0088800015 0.034720004 0.05453999 0.020500002 -0.06424 0.004599999 -0.015760003 0.03884 -0.04562 -0.02892 0.027719999 0.0018799991 -0.18316 -0.05038 -0.037260003 -0.0699 -0.10726 0.087799996 -0.0073599997 -0.043780003 -0.02786 0.0326 0.032840002 0.105859995 -0.0065399976 -0.09639999 -0.07478 -0.2021 -0.0101799965 0.042000003 0.022739997 -0.33904004 0.018179998 -0.048120003 0.021620004 -0.035120007 0.0427 0.21314 0.13752 -0.07056 0.08128 0.07136 0.018499998 -0.0442 -0.091460004 -0.0024999992 -0.0255 0.04702 -0.07766 0.089 -0.08307999 -0.044580005 -0.03332 0.0012199999 -0.020960001 0.22794 -0.029920002 -0.0042599994 0.08822001 -0.078279994 -0.030540003 0.03818 -0.053460002 -0.00852 0.05514 -0.0732 -0.06668001 -0.02756 0.09278 -0.02462 0.026459998 -0.020120002 -0.01528 -0.02128 0.02666 0.11284 0.027279997 -0.09660001 0.06304 0.016120002 -0.05646 -0.00132 -0.017080002 0.009800001 0.008460001 -0.043199997 0.15146 0.036860004 0.26088 0.054580003 -0.07508 0.06784 0.03308 -0.025020001 0.02494 0.010419999 -0.02696 0.0025799999 -0.069520004 0.0565 0.1267 0.0044599995 0.08772 -0.05152 -0.029800002 0.10724 -0.00488 0.067260005 -0.0206 0.006539999 0.15588 0.017460002 -0.04548 -0.05656 -0.05188 -0.01854 -0.033040006 0.024640003 0.064519994 -0.059219997 -0.024059998 0.04788 0.09318 -0.011879998 0.005879998 0.012499998 -0.048499998 0.00872 0.0246 -0.05122 -0.10812 -0.027359998 -0.01404 -0.028180001 0.03882 0.0044399993 0.027420003 -0.15872 0.107439995 -0.009000001 -0.091960005 -0.106620006 -0.1272 0.073 0.33747998 -0.03406 0.0013200016 -0.10699999 -0.1001 0.12142 -0.26108 -0.036040004 0.031640004 0.0467 -0.036160003 0.03968 -0.01162 0.01952 -0.026500002 0.107920006 -0.03438 0.35276002 -0.0361 -0.024699995 -0.062140007 -0.024020001 0.03522 0.066080004 -0.04026 0.057880003 -0.020939998 0.017099999 -0.006799999 -0.06502 0.01354 -0.09234 -0.44562003 0.05962 -0.04538 -0.04446 -0.12152 0.06334 -0.042220004 0.0677 -0.013720001 -0.14298001 0.04128 0.04726 0.03076 -0.06640001 0.0806 0.02334 -0.03534 0.04366 0.037 -0.018240001 0.019000003 -0.0823 0.007159999 -0.061720002 0.00228 -0.0345 -0.048519995 -0.108440004 -0.01532 0.029799998 0.011600005 0.0542 -0.05904 0.07676 -0.008300001 0.047440004
locatedInArea 0.006744445 0.024577778 4.999994E-4 -0.013988889 0.011933335 0.064100005 0.05933334 0.060466666 0.036000002 -0.084188886 -0.014788889 -0.041100003 -0.014266667 0.03648889 2.7777918E-4 -0.0065111113 -0.028677775 -0.033311117 -0.0728 0.023411112 -0.059544444 -0.08167778 0.04706667 0.16436668 -0.023166668 -0.016666668 -0.11969999 -0.06334445 -0.036444444 -0.0233 0.011933333 -0.01548889 -0.02801111 0.05097778 0.082722224 -0.03141111 -0.008688888 0.03528889 0.047944445 -0.04806667 -0.034977775 0.059655562 0.016455555 0.025111115 -0.036666665 0.059855554 -0.003300001 -0.06943333 0.0204 -0.015866669 0.0013666666 0.09348889 -0.6386333 -0.04141111 -0.0150666665 -0.007611111 -0.025022222 0.08457778 0.029344443 0.03258889 0.09488889 0.035666663 -0.047466666 0.05798889 -0.06598888 0.03681111 -0.010355555 0.041088887 0.045111112 -0.015655557 -0.005511111 0.038122226 0.0171 -0.033599995 -0.03748889 0.05211111 0.05536667 -0.06933334 -0.07694445 0.017022224 0.015544444 -0.009588889 0.025788886 -0.20613332 0.014033331 -0.0065666675 0.044333335 0.039366666 0.03587778 0.041911114 0.086733334 0.07072222 -0.0126777785 -0.0254 0.019299997 -0.004399999 0.04771111 -0.043555558 -0.04712223 0.044466663 -0.19681111 0.06087778 -0.041055553 0.019333335 -0.04812222 -0.013977779 -0.037466668 -0.021800002 0.08528888 -0.02598889 0.008733334 0.062133327 -0.009244446 -0.059977777 0.049544446 -0.13369998 0.024088891 0.023900002 0.020422222 -0.3412333 -0.0858 -0.008411111 -0.061644442 0.03381111 -0.014844445 0.21506667 0.021044444 0.015744444 -0.113344446 -0.025688889 -0.041155554 0.0053111115 0.018055554 0.13816667 -0.043966666 0.030666666 0.019244442 -0.005444447 -0.0015444433 -0.027733335 0.05998889 0.01508889 -0.050266672 0.22442222 0.011888889 0.067222215 0.0543 -0.063711114 -0.049177777 0.009533334 0.06623334 0.020644447 0.046144444 0.029099997 0.056422222 0.037544444 0.018477777 -0.018488888 -0.11094443 0.022955555 0.0019777778 0.05711111 0.026666667 -0.08025555 0.038966667 -0.124200016 0.09523333 0.0045777773 -0.03868889 0.0131777795 -0.013044449 -0.08162222 -0.009522222 0.06477778 0.14315556 -0.073066674 0.2558778 -0.13454445 -0.027722219 0.018900001 0.043044448 -0.045022223 -0.03336667 0.030477779 -0.018477777 0.030199999 0.015733335 0.0408 0.0730889 0.043033335 0.02738889 0.0059444443 0.04922222 0.012377778 -0.037177783 -0.046255555 -0.033866666 0.042122226 0.13683333 0.0019444434 -0.0026444446 0.12983334 0.04692222 0.04618889 -0.037277777 0.006433333 -0.003511111 -0.08167778 -0.06408889 -0.05431111 -0.08906667 0.019366665 0.07845555 -0.011455555 -0.0045777783 -0.033211112 -0.040944446 -0.015311114 -0.10916667 0.05618889 -0.027711112 0.031744443 -0.03711111 -0.031944443 -0.0018333346 -0.027033335 -0.014744444 0.044688888 -0.05485556 0.0207 -0.082722224 -0.05533333 0.35376665 -0.019988889 0.037133332 -0.05867778 0.0059777796 0.057777777 -0.2584111 0.091822214 0.012344444 0.032055557 -0.013122221 -0.035077777 -0.074944444 -0.0068555544 0.04615556 -0.06982222 -0.023066668 0.32617778 0.04778889 -0.0036999965 0.13355556 -0.049955558 0.022977779 -0.053111114 0.04432222 0.010488889 0.007955555 -0.048499998 -0.042844445 -0.043888886 -0.02291111 0.004588887 -0.27052224 0.014144446 0.013477783 0.0427 -0.17496668 -0.061777778 -0.08710001 -0.0036555554 0.055611107 -0.020633334 0.018488891 -5.777776E-4 0.0063555557 0.012544443 -0.03736667 -0.03241111 -0.021599999 -0.04256667 -0.028022224 0.08925556 0.020166665 -0.07771111 -0.059666667 0.07867777 -0.07283333 0.05422222 0.016133333 0.04132222 -0.11676667 -0.06186666 -0.035244443 0.11216667 3.5555495E-4 0.05938889 -0.029977778 -0.05161111
nationality 0.07692857 -0.012757143 0.063028574 0.051371433 -0.007728573 0.13275716 0.05372857 0.019271431 0.12655714 -0.008871429 -0.06431429 0.02097143 -0.011514286 0.0035428565 0.037442856 -0.019028572 0.0022428548 -0.014057142 -0.105742864 -0.0362 -0.07741429 0.015171428 0.025271429 -0.0015428544 0.047371432 0.0043285727 0.0040857154 0.004642859 0.08085714 -8.57143E-4 -0.017842859 0.037714288 0.09852859 -0.0259 0.04441429 -0.017085716 -0.05668572 0.017485717 -0.0031571442 0.0198 0.015357142 -0.03601429 0.030057147 0.020500002 -0.043157145 0.04395714 0.051528577 -0.06007143 0.049314287 -0.030485716 0.025328571 0.014085714 -0.6218715 -0.03554286 0.067528576 0.014528571 -0.023599999 -0.041800003 0.04350001 -0.0705 0.0070428555 -0.03674286 -0.043257143 0.03584286 -0.00597143 -0.069157146 -0.0016857147 0.015100002 0.029685715 0.032485716 0.011585715 -0.07628571 -0.036857143 -0.07737143 -0.074 0.0010714292 -0.029871428 -0.0103 -0.03214286 0.08302858 0.015171429 -0.039942857 -0.024542859 -0.22147143 0.011385715 -0.022885716 0.0763 -0.024057144 0.10822857 0.012257143 0.045985717 0.029985718 0.009599999 -0.019114286 0.0028571435 -0.019399997 -0.0016857141 -0.03932857 -6.4285635E-4 0.005671428 -0.14952856 -0.008042857 -0.027185718 -0.087871425 -0.09997143 0.026700003 -0.01584286 -0.039471433 -0.053799998 -0.058028568 0.0057428577 0.071271434 -0.05367143 0.0094714295 -0.00857143 -0.027385717 0.04757143 -0.13245715 0.0018571414 -0.3491143 -0.05854286 0.023799999 -0.003214287 0.08735715 -0.011685715 0.17728572 0.037428573 -0.011542858 -0.0633 0.020828573 -0.09244286 -0.025828572 0.006042858 -0.036614284 0.0032571417 -0.05225714 0.037471432 -0.016199999 0.07048571 -0.008514285 0.010442858 -0.07297143 -0.043257143 0.25498575 -0.015528572 0.009385715 0.021800002 -0.02337143 0.029085718 0.0028000006 -0.046385717 0.033000004 0.0065000006 -0.009842856 0.024742858 -0.026542854 -0.0031999997 -0.0047571426 0.021828573 -0.046885714 -0.02877143 -0.05268572 -0.046757147 0.04684286 0.03945714 0.027757145 0.09160001 0.00987143 -0.0863 0.0374 -0.047071435 -0.032457143 0.0 0.019600002 0.14165714 -0.032000005 0.23384286 -0.010514287 -0.019514285 0.058385715 0.027842859 0.04891429 0.05577143 -0.0029142841 -0.05114286 0.06714286 -0.018642858 -1.9999994E-4 0.03228572 0.0319 -0.016842857 -0.055114288 -0.008885715 0.10602858 -0.025100002 -0.03084286 -0.046028573 0.018514287 0.1334143 0.043357145 -0.081714295 0.0531 0.017728573 0.06814286 0.04768572 0.029857144 0.04157143 -0.052200004 0.048457142 -0.0026571427 -0.01977143 -0.04074286 -0.002785715 -0.018914286 -0.04188572 -0.04627143 -0.060885716 -0.0626 -0.106357165 -0.082271434 -0.0039571435 -0.003542856 -0.0496 0.009 0.031757146 -0.0058428575 -0.06642857 0.040042862 -0.12505715 -0.046885718 -0.052342854 -0.10847143 0.3610143 -0.085042864 0.038857143 -0.059142858 -0.0015714281 0.10992858 -0.2566857 0.08100001 0.015257144 0.049857143 0.082200006 0.009142858 -0.008042855 -0.029500002 0.0221 -0.010014287 -0.024457145 0.36105716 0.022285718 0.16197143 -0.028200002 0.034057148 0.12965715 0.0020999995 -0.015785713 -0.027742859 -0.024485715 0.0018000008 -0.008557143 0.009557145 0.056600004 0.0056428593 -0.36114284 -0.020514287 -0.0673 0.031728573 -0.12818572 0.119571425 -0.07924286 -0.021914287 0.020042859 -0.07474285 0.013600001 -0.002728571 -0.028628575 -0.028885715 -0.019371428 -0.023285715 0.03027143 -0.08302858 0.014042857 0.059085716 -0.008042857 -0.0156000005 0.031 -0.0045857164 -0.008714287 0.009942856 -0.024100004 -0.008042858 -0.016828572 -0.022528572 -0.0838 0.0961 -0.022242863 0.06675715 0.001628572 -0.02754286
parent 0.056366667 0.059433334 -0.0164 -0.0954 -0.015566668 0.0881 0.0055333334 -0.056133337 0.12053333 0.03826667 -0.16566667 0.012133336 -0.062333338 -0.07153334 -0.082766674 0.09143333 0.002533333 0.17213333 0.09003334 -0.099 -0.05336667 0.08136667 -0.14500001 0.07333334 0.021233333 0.025066666 -0.13493334 0.0917 0.020733334 -0.09453334 0.0968 0.045366667 -0.045 -0.06633334 0.09406667 0.023066668 0.05793333 -0.0037666669 0.003966668 0.016666666 -0.027966667 0.026366666 -0.052033335 0.021533336 -0.025766667 -0.006333334 -0.045666665 -0.123100005 -0.027433334 0.026133334 -0.05313333 0.0893 -0.6259667 0.018766668 -0.007333334 0.026966667 0.0292 0.17456667 0.025866669 -0.013066667 -0.05146667 0.0738 -0.0988 -0.14686666 0.083900005 -0.102 0.0134333335 -0.0732 0.0441 -0.091966674 0.0049666665 0.04036667 -0.013800001 0.053566664 -0.008699996 0.13316667 -0.16616668 0.029566666 -0.1814 0.09543334 -0.0034999992 -0.023766667 0.13636668 -0.18806666 -0.020900002 0.13226667 -0.09193333 0.018266667 0.122233346 0.068900004 -0.020466667 -0.021633333 -0.0873 -0.0023000003 -0.014633333 0.06506667 0.0696 0.0249 0.0408 -0.037633337 -0.21580002 -0.1044 -0.100433335 -0.0459 -0.08896667 0.13353334 0.11790001 -0.048 -0.1966 0.015533334 0.0211 0.05136667 -0.024966668 -0.036866665 -0.062233336 -0.08533334 0.051133335 -0.04026667 -0.18213335 -0.37193334 0.012033334 0.051966667 0.09513333 -0.0537 0.04676667 0.21820001 -0.040300004 0.004000002 0.13803333 -0.028700002 0.018133335 -0.011866665 0.07903334 -0.11536667 -0.011166666 -0.020133335 -0.042299997 -0.1363 -0.12653333 0.007466669 -0.08913334 -0.064833336 -0.0011999998 0.18626666 0.13686667 -0.050900005 0.0361 0.018633334 -0.0010666674 0.0091 -0.05613333 -0.058 -0.022166666 0.013166666 -0.08276667 0.0043 -0.052966665 0.053933334 -0.025666667 -0.042166665 -0.11683333 -0.0554 -0.011666667 0.012633335 -0.020166669 0.0489 0.06406667 -0.034100004 0.0187 0.029633334 0.0044000004 -0.027166665 0.021833334 0.015733335 0.14473334 0.004600001 0.27776667 0.037633337 -0.111666664 -0.009199999 0.040233336 0.09460001 -0.0344 -0.025233334 0.06876667 -0.047766667 -0.0062333336 -0.12843333 -0.11026667 0.082433335 0.003 0.011066666 0.0088 0.08346667 -0.009199999 0.0677 -0.06526667 0.036166668 0.14796667 -0.016833335 -0.017099999 -0.061 0.0688 0.033466667 0.059599996 0.11513334 -0.0021666666 -0.07263334 0.003233333 -0.09643334 -0.022466667 -0.077700004 -0.069633335 -0.116966665 -0.074366674 0.06403334 -0.08026667 -0.0312 -0.014066668 -0.1211 -0.0847 -0.040733334 -0.043266665 -0.10010001 0.028133333 -0.12676667 0.0097 -0.054466665 -0.084233336 -0.08566667 -0.12256666 0.0042333333 0.37026668 -0.1288 -0.06946667 -0.11536667 -0.1534 0.13616666 -0.2799 -0.12459999 -0.08493333 -0.06223334 0.048866667 -0.028633334 0.041933335 0.022800002 -0.0073666675 -0.026733335 -0.0378 0.3764 -0.025399998 -0.04823333 -0.0983 -0.080133334 0.081133336 -0.028833335 0.014899999 0.0011666666 0.0227 -0.043266665 -0.0516 0.083900005 0.0161 0.1394 -0.38350004 -0.10893333 0.078833334 0.12076667 -0.16333334 0.06463333 -0.024166666 -0.030533334 -0.050833337 0.0913 0.0489 0.031333335 0.101166666 -0.14053334 0.060833335 0.0357 -0.06293334 -0.09956666 -0.0079333335 0.0121 -2.3283064E-10 0.009200002 -0.012966668 -0.18286666 0.11309999 -0.007966667 0.0802 0.15616667 0.0112 0.010233334 0.10313334 0.16493334 0.037533335 0.046933334 0.006566667 -0.08263334
president 0.09392001 0.015079999 -0.008900001 0.00624 0.007979999 -0.010800001 0.0084 -0.013739998 0.0682 -0.09756 -0.07442 0.05872 -0.027560001 -0.08408 0.053540003 -0.12664 -0.026840001 0.077240005 -0.0487 0.06688 -0.14994 -0.0063 -0.022619998 -0.040740002 0.12438001 -0.051119994 -0.08314001 0.02624 -0.023820002 -0.19664 0.0726 -0.0137 -0.07768 -0.08404001 -0.036580004 0.03184 -0.02678 0.07576 -0.003539998 0.021579996 -0.004840001 0.0037200004 -0.061939996 -4.0000046E-4 0.09702001 -0.03344 -0.0022599988 0.02226 -0.008220001 -0.0018399999 0.01374 0.0068600005 -0.62476003 -0.0027999997 0.013559997 0.083340004 0.03028 0.033200003 0.02918 0.03336 -0.0019800002 0.05082 0.11062 -0.09482001 -0.0419 0.020359999 0.061860003 0.060280003 0.059459995 0.0070200004 -0.057639997 0.01346 -0.02884 0.04414 -0.058819998 0.09368 -0.01018 -0.049000002 0.0188 0.044040002 0.00528 0.03714 0.059060004 -0.23526 -0.07378 -0.0031599978 -0.058679998 0.048279997 0.14344001 0.00976 -1.8000082E-4 0.0015799996 0.042799998 -0.026639998 0.057060003 0.052100003 -0.042600002 0.057239998 -0.009620001 0.074899994 -0.1798 -0.11954 0.03584 -0.039359998 -0.14552 -0.028640002 -0.107980005 0.048160005 -0.07782 0.009660002 0.0371 0.096920006 0.021200001 0.022420002 -0.03934 -0.10295999 0.04308 0.010879997 0.008580001 -0.37734 0.061079998 0.03542 -0.06156 -0.09484 -0.037100002 0.19924 0.041020002 -0.016560001 0.15371999 0.00572 0.04534 0.15145999 -0.02296 0.012340002 -0.058879998 0.007459998 0.112619996 0.038 -0.080680005 -0.13822 -0.010940001 -0.02202 -0.015460001 0.12968001 0.0306 0.025419999 0.005060001 0.045059998 0.053640004 1.199998E-4 -0.015660001 0.006600001 0.027359998 0.11308 -0.025420005 0.041940004 0.04148 0.002000001 0.07941999 0.0918 0.0011999983 -0.01674 -0.073180005 0.00908 0.01354 0.043600004 0.021339998 0.020379998 -0.025199998 0.065680005 0.026080001 -0.07848 0.0030200004 -0.06594 -0.0018600002 0.041520003 0.26244 0.014899999 -0.10092 0.020140003 0.046420004 0.10056 -0.04992 -0.13828 0.039780002 -0.026480002 0.03924 0.02598 -0.13530001 -0.0649 -0.052160002 -0.08572 -0.031400003 -0.03136 -0.01184 -0.009960002 0.025999999 0.050140005 0.15918 -0.06226001 -0.087400004 -0.022599999 -0.007919999 -0.0226 0.06756 -0.00672 0.07776 -0.04432 0.022799999 -0.11682 -0.041840002 0.094620004 0.036720004 -0.0309 -0.0064200014 -0.07614 0.02904 0.05258 -0.045420002 0.026860002 0.046539992 0.02552 -0.01798 -0.04536 -0.07032 -0.2201 0.08546 0.09334 -0.0887 0.03574 -0.14282 0.04648 0.35748002 0.026459996 -0.032040004 -0.11632001 -0.11756001 0.11354001 -0.28105998 0.010059999 -0.038620003 0.007779999 -0.03062 0.009579999 0.05686 -0.084240004 0.08394001 0.06254 0.07846 0.34716 0.037400004 -0.1148 -0.21868001 -0.00782 0.07928 0.0468 0.02496 0.071440004 -0.0072400006 -0.050839998 -0.06934 0.0038400032 0.0027999997 -0.082679994 -0.45488 0.031680003 -0.03148 0.0147400005 -0.23830001 -0.02514 -0.084400006 0.036120005 -0.04662 -0.07528 0.040740002 0.082140006 -0.035460003 -0.13336001 0.0859 -0.025060002 -0.0437 -0.0050600017 -0.008119999 0.06338 0.11184 -0.012460001 -0.09796 0.05686 8.000284E-5 0.010900001 -0.0011999997 -0.028380001 0.11653999 -0.050520003 0.009579998 0.13248001 -0.00566 0.00834 0.016159998 -0.05888
relative 0.07944 0.041899998 0.08474 3.5999715E-4 0.009880002 0.08744 0.05402 -0.02358 0.052600004 0.013779998 -0.0889 0.04434 -0.0019199982 -6.600008E-4 0.029639998 0.04522 0.04718 -0.005799999 -0.10668 -0.023100002 -0.07652 0.08202 -0.03254 0.08484 -9.0E-4 -0.024759999 0.00748 -0.03988 -0.06614 0.0037400008 0.04186 0.07782 0.033159997 0.0247 -0.01292 0.013360003 -0.0046399976 0.0026599988 -0.011719999 0.019640002 0.0488 0.04324 -0.02086 0.0039399997 -0.03754 -0.04004 0.031200001 -0.021739997 0.029439999 0.052380003 0.022800002 0.025659999 -0.62988 0.069740005 0.050160002 0.03286 -0.0346 0.0727 -0.06228 -0.06628 -0.005039999 -0.0389 -0.0656 0.0046800016 0.0273 -0.10007999 0.049340002 0.00352 0.046980005 -0.040880002 -0.075880006 -0.05894 -0.02126 0.04582 -0.088640004 0.02266 0.0114 0.10658 -0.0064799995 0.1281 0.00934 0.038200002 -0.0475 -0.17182 -0.0060399994 0.019259999 -0.03392 -0.03868 0.15470001 0.050580002 0.03608 0.028900001 0.021219999 -0.10038 -0.0012199989 0.10162001 -0.0076000006 0.038119998 0.083 0.0062 -0.20641999 -0.03304 -0.01816 -0.09826 -0.08490001 -0.010720001 0.09654 -0.035459995 0.004700001 -0.040260002 -0.044600002 0.13468002 -0.0089799985 0.042240005 -0.03584 -0.04482 -0.032100003 -0.0771 -0.07604 -0.29452 -0.0108199995 0.04698 0.034560002 0.05902 -0.016819999 0.22552 -0.030879999 -0.013680003 0.041680004 -0.058620002 -0.0368 0.07852 0.06944 0.09628 -0.04676 -0.042640004 0.02394 -0.012060003 0.020040004 -0.052720007 -0.03984 -0.029260004 0.07558 0.26017997 0.04612 0.019240001 0.1147 0.0401 -0.027319998 -0.04826 0.018080002 -0.025940001 -0.061800003 -0.05978 -0.028539998 0.00564 0.03442 0.0288 0.05324 -0.051200002 -0.0885 -0.030359998 0.0011400011 0.04518 -0.009479997 -0.01112 0.11875999 0.01382 0.0141199995 0.013880001 -0.0156000005 -0.012099999 0.040900003 0.0044800015 0.13406001 -0.062319994 0.28262 -0.0046600043 0.04296 0.04826 -0.00904 0.028479999 0.020639999 -0.02636 -0.05104 -0.0018999994 0.013080001 -0.09066 0.0026999922 0.045420002 0.026579997 0.0051999995 0.012380001 0.0936 -0.023639997 0.04344 -0.05414 0.012299999 0.15618001 -0.038360003 -0.0037399994 0.033740006 0.014239999 -0.088080004 -0.008219999 0.12648001 0.019519998 -0.027719999 0.03804 -0.0043999986 -0.02644 -0.0273 -0.06688 0.013119998 0.06256 -0.01904 -0.015760003 0.0069399984 0.008479999 -0.03374 -0.062039997 0.02034 0.019399999 0.039 0.012719999 -0.06268 -0.01862 0.0013800011 0.02032 -0.076220006 -0.041100003 -0.0012800008 0.33866 -0.04324 0.009660001 -0.088240005 -0.04082 -0.02064 -0.2313 -0.02308 0.03292 0.0057200016 0.034 0.04166 0.013319999 0.027280003 0.017279997 -0.0033799994 -0.031240001 0.36608002 0.06464 0.02334 -0.0234 -0.025060002 -0.053460002 0.005939999 -0.09882 0.08228 -0.0045600007 -0.098680004 -0.0846 -0.050200004 0.049800005 0.050720003 -0.23351999 -0.023079999 -0.04208 0.09698 -0.10768 -0.056659997 -0.01374 0.09734 -0.010620001 0.02432 0.050720003 0.042900003 -0.012820001 -0.13992 -0.062580004 0.043560002 0.015300003 -0.042960003 0.016359998 8.20002E-4 0.027180001 0.01286 0.011160001 -0.10276001 0.10592001 0.011020002 -0.046739995 -0.045740005 0.05348 -0.070420004 -0.022560004 0.0164 -0.088319995 0.10016 0.0066200006 8.3999935E-4
spouse 0.08366 -0.020200003 0.04204 -0.06712 -0.06226 0.040519997 0.11622 0.036480002 -0.038620003 0.05502 -0.1303 0.03846 0.01956 -0.036199998 0.00878 -0.009919998 0.0010000013 -0.0043400005 0.012960001 -0.01444 -0.14184001 0.09166 -0.0764 0.005960001 -0.010960001 -0.04422 -0.002400002 0.09582 0.009699999 -0.01248 0.12676 0.0366 -0.0020799998 0.06834 0.031940002 0.0066200006 -0.01592 0.045080002 0.058540005 0.010819999 0.1018 -0.025600001 0.05664 -0.0683 -0.072960004 -0.07348 0.081360005 0.03932 -0.0095 0.05754 0.02016 0.00964 -0.68211997 0.09370001 -0.04382 0.026339997 -0.12926 0.07118001 0.04802 0.05064 0.00202 -0.0701 -0.026420001 -0.0894 -0.045459997 -0.06361999 0.02744 0.03454 0.019620001 0.01316 -0.06898 -0.0505 -0.09872 0.044840004 -0.030480003 0.043740004 -0.0052200006 0.09238 -0.02956 0.13595998 0.028180001 0.041059997 -0.01902 -0.24128 -0.046359997 0.028780002 -0.050480004 -0.0431 0.011120004 -0.01912 -0.054080006 0.03356 -0.007840002 -0.05248 0.058739997 0.0916 0.03994 0.053999998 0.03484 0.069860004 -0.13094 0.0084999995 0.057780005 -0.0666 -0.19396001 0.021819998 0.08438001 -0.01858 -0.021239996 -0.03404 0.0047199996 0.15682 0.028259998 -0.0156000005 -0.0425 5.199999E-4 -0.037940003 -0.095120005 -0.14277999 -0.3345 0.09884 0.012279999 0.011979999 -0.0064200014 0.04644 0.15366 0.04324 0.08258 0.105840005 -0.1165 -0.05414 0.0505 0.05108 0.014499999 -0.091579996 0.072579995 -0.058300007 0.0078000026 0.07474001 -0.016220005 0.011720001 -0.070659995 0.06196 0.1961 0.03982 0.012479999 0.09328 0.032739997 0.05558 -0.0433 -0.06604 -0.076680005 -0.1023 0.00502 -0.052160002 0.038140003 0.02124 0.00784 0.05526 0.03972 -0.06666 0.0408 0.040780004 0.040640004 0.18942 0.029459998 0.03612 0.03082 0.0025800006 0.08602 0.1383 -0.0234 -0.038340002 -0.0047400002 0.07046 0.0207 0.20109999 -0.13056 0.0021 0.098900005 0.014200002 0.03454 0.05106 -0.09678 -0.008340001 0.07276001 0.06524 -0.09584 0.13106 0.05322 0.043740004 -0.02834 0.033220004 0.061600007 -0.056 0.09188 -0.043800004 0.01556 0.0774 -0.087400004 -0.02644 0.012340001 0.02128 -0.03382 -0.0069399993 0.016780002 0.06582 -0.047200006 -0.026120001 0.03856 0.00852 0.07480001 0.033060003 -0.030400002 0.0174 -0.042099997 -0.00788 -0.07174 0.041780002 0.02956 -0.052419998 -0.005680001 0.029860003 0.13466 -0.04902 -0.0385 -0.04662 0.08872 0.021320004 0.0206 -0.03262 0.039520003 0.29532 -0.042020004 0.028439999 -0.17158 0.0037799955 0.04834 -0.21496001 -0.03098 0.023720002 0.020739999 0.052960005 0.0039400007 0.01004 -0.0579 -0.040319998 0.014640001 -0.09202 0.35570002 0.054399997 0.046359997 -0.0120399995 -0.0419 0.008020001 0.036360003 0.02384 0.12142 0.032520004 -0.101 -0.0202 -0.0026399984 0.04854 0.04662 -0.27255997 -0.01888 0.0026599995 0.0408 -0.13202 -0.00832 -0.108780004 0.0041000023 -0.051240005 0.02326 0.04114 0.010080001 -0.060960002 -0.067700006 0.0123999985 0.028899997 0.0020600006 0.07694 0.076699995 -0.034560002 -0.017979996 0.002099999 -0.009720002 -0.06114001 -0.019200003 0.03324 0.028820002 -0.022020001 -0.023940003 0.01676 -0.05198 0.02348 -0.03146 0.04674 -0.01906 0.03404
subsidiary 0.05104 0.024259998 -0.022839999 -0.03134 -0.022240002 0.031160003 0.0607 -0.031519998 -0.054399997 -0.0148 -0.02342 -0.061539996 -0.01242 -0.03434 -0.048880007 -0.056220002 0.01924 0.05186 -0.03548 0.019620001 -0.059460003 0.024060002 -0.0073599997 0.0438 0.053579997 -0.03248 -0.044999998 -0.08064 -0.058500003 -0.07226 -0.03412 0.09106 -0.05582 -0.047560003 -0.0557 0.031260002 0.03606 0.025400002 -0.05142 -0.024400001 -0.0062199994 0.005919996 -0.060180005 -0.054920007 0.020820001 -0.006779997 -0.11804 0.04876 0.079320006 0.056279995 -0.025920002 0.08650001 -0.65257996 -0.107980005 0.059240002 0.032819998 -0.025099998 0.089260004 0.01066 0.04422 0.026520003 0.01778 0.032379996 -0.010959998 0.022519996 0.013120002 0.051420003 -0.03924 -0.0044600004 -0.01246 0.02046 -0.0025199987 0.010539998 -0.00564 0.02022 0.024539998 0.049480002 -0.0029600002 -0.11624 0.08686 0.0027999994 0.026300002 0.09402 -0.21548 -0.017099997 0.033800002 -0.06468 -0.007979999 0.12666 0.08826 0.06346 -6.200008E-4 -0.00506 -0.02008 -0.03302 -0.030880002 0.022080002 -0.06486 -0.0142600015 -0.04058 -0.18708001 -0.0398 -0.016359998 -0.026880002 -0.0024200024 0.025960002 0.020960001 0.06816 -0.00814 0.088020004 0.07194 0.03498 0.01724 0.037400004 -0.066120006 -0.07834 0.0445 -0.008079999 -3.399998E-4 -0.31946 -0.02734 -0.0708 -0.02368 0.0465 0.0037599995 0.21584001 -0.011539999 0.0924 0.059359998 0.04828 -0.0406 0.04264 -0.0041 0.01738 -0.08882 -0.0077800006 0.069180004 0.05812 -0.1123 -0.015660001 0.0040200003 -0.06044 0.058640003 0.2349 -0.08731999 0.025920002 0.05316 0.008639999 0.07654001 0.00224 -0.02402 0.029079998 0.00718 0.023660002 -0.0372 0.05458 0.0022399991 -0.030580003 -0.03782 0.00442 -0.010300002 0.014719999 -0.0121800015 -0.0047999998 0.040000003 -0.03938 0.067999996 -0.01702 0.052759994 0.07770001 0.02866 -0.048619997 0.0445 -0.030720001 0.02034 -0.052380003 0.25488 -0.13202 -0.03292 0.02466 0.01856 0.008659999 0.03512 -0.07902 -0.06744 -0.051340003 -0.013460002 0.030999998 0.060819995 -0.0454 0.0031600003 0.02426 -0.0279 -0.047319997 -0.011020002 0.008019999 -0.0747 0.02148 0.14646001 0.004039999 -0.0362 0.09292 0.035679996 -0.051780004 -0.075119995 -0.031039998 0.0243 -0.03314 -0.04182 -0.03144 0.020000001 0.072500005 0.024519997 -0.023660002 -0.0102 -0.023260001 0.029819999 0.016239999 -0.07532 -0.030859997 -0.01342 -0.03692 -0.00826 0.0036199994 -0.0415 -0.0995 0.01764 -0.002839999 -0.032139998 -0.050339997 -0.21260002 0.049420003 0.33854002 -0.09658 0.048660003 -0.15818 -0.061759997 0.08422 -0.2509 0.10312001 0.05186 -0.0077800006 0.011820001 0.011959999 0.02644 -0.08584 0.02588 0.081480004 0.010780001 0.34831998 -0.05152 -0.1524 -0.14024 -0.05678 0.041279998 -0.007959999 0.16158 0.033099998 0.005600001 0.0013199992 -0.011280002 0.020299999 -0.038579997 -0.03724 -0.23734 -0.027740002 0.042300005 0.0315 -0.1948 0.01044 0.010780002 -0.06078 0.0068400027 -0.01744 -0.01676 0.00992 -0.0040600016 -0.032780003 0.034779996 0.0072999992 -0.06694 -0.024000002 0.010100001 0.06074 0.066420004 -0.01006 -0.035860002 0.0903 0.024199998 0.037860002 -0.0487 0.02162 0.023799999 -0.04842 -0.03796 0.06356 -0.04896 0.04086 -0.0252 -0.053819995
tenant 0.09288334 0.032216668 -0.017750002 -0.084350005 -0.047566667 0.06516667 0.007633333 -0.08098333 -0.06116667 -0.06938333 -0.037650008 0.0476 0.05445 0.051850002 0.018816669 -0.013733335 0.036583334 -0.058166664 -0.04618334 -0.0767 -0.16636668 0.034083337 0.06035 -0.04055 -0.024533331 -0.008100002 0.017516667 0.05646667 -0.021133333 -0.08314999 0.15625 0.0252 0.0068666674 0.04806667 0.021666666 -0.046133332 -0.016950002 0.04676667 0.0229 0.035566665 0.047416665 0.034666665 -0.056283336 -0.06581667 0.05021667 0.023349999 -0.044400003 0.033816665 -0.012700001 0.05296667 0.0016666651 0.05346667 -0.6723834 -0.0035333335 -0.029150002 0.0026999991 0.018366665 0.040516667 -0.018533332 -0.096716665 0.014383333 -0.032533333 -0.08775 -0.041883342 0.03465 0.040500008 0.07041667 0.1303 0.012549999 0.024100002 0.014583334 0.0459 -0.038966667 0.04563334 -0.11035 0.052750003 0.008099999 -0.031166669 7.66666E-4 0.039333336 -0.0035166666 0.00795 -0.019100001 -0.23844999 -0.11805001 0.05431667 -0.038383335 -0.04481667 0.101449996 0.04635 0.041983336 -0.022116667 0.023316666 -0.12018334 -0.06893334 -0.02001667 0.12281665 0.054750007 0.023100002 0.098900005 -0.1421 -0.028549999 0.046883337 0.081766665 -0.06086667 0.043216668 -0.013416667 -0.01731667 0.019333333 0.011600001 0.020599999 0.025716666 -0.021633334 -0.0261 -0.025183335 0.0089 -0.01995 0.059716668 -0.07181667 -0.30476668 0.120166674 0.041333336 -0.053866666 0.06136667 0.0167 0.16275 -0.032566667 0.022016667 -0.042650007 -0.028333332 0.15415001 0.007149998 0.069966674 -0.046633333 -0.07083333 0.15393335 -0.020533333 -0.01045 -0.06903334 -0.08036666 -0.03971667 0.16791666 -0.062383335 0.15325001 -0.05865 0.0067333346 -0.020133333 -6.333329E-4 0.024950001 0.021949997 -0.0043500005 -0.0056000017 -0.06468333 0.01035 0.022600003 0.05313334 0.0172 -0.051783334 -0.07903334 -0.105266675 -0.043416664 -0.053083338 -0.079733334 -0.0174 0.058350004 -0.032016672 0.04636667 4.999712E-5 -0.10476667 0.013266666 -0.008866668 0.0925 -0.03296667 0.006699999 0.029433336 0.005050001 0.2648 -0.2116 0.0043666638 -0.054466665 0.04635 0.06428333 0.0248 0.19198334 0.039999995 -0.10263334 -0.019133333 -0.041033335 0.008950001 -0.007783334 0.024049997 0.05766667 0.07551666 -0.059450008 -0.0117 -0.03298333 0.018466666 0.016383333 0.12341666 -0.071266666 -0.016416665 -0.024483334 -0.01025 0.0649 0.02965 -0.026033334 -0.061816663 -0.10273334 0.060000002 0.050883334 -0.008950001 -0.0354 0.04213334 -0.0071833334 -0.09125 0.0046166643 -0.053933334 0.047133338 -0.08628334 0.0029999996 0.04755 -3.999988E-4 0.019650001 -0.0128833335 0.10383334 -0.15048334 -0.061433338 -0.006749998 -0.008133333 -0.05128333 -0.032683335 0.015533334 0.29975003 -0.052883334 -0.06011667 -0.15558332 -0.11841667 0.072683334 -0.22001669 0.15851668 -0.049733337 0.03355 -0.07588333 -0.07903334 0.0015666684 0.055300005 0.030266669 -0.10236667 -0.095850006 0.35023338 0.032050002 -0.060850002 -0.08003333 -0.018800002 -0.05288334 -0.048650004 0.059766665 0.0304 -0.0033500022 -0.0392 -0.069749996 -0.012150003 0.066416666 -0.102966666 -0.30503333 0.043516666 -0.11338334 0.0029999986 -0.08641668 -0.015433332 0.02035 0.028266668 0.05076667 -0.011850001 -0.027416667 0.0117833335 -0.026883334 -0.012716666 -0.065349996 -0.016200002 -0.06355 -0.025800003 0.032866668 0.057133332 -0.033400007 -0.086600006 -0.06071666 0.0021666675 0.05521667 0.024183333 -0.051099997 0.010716664 -0.04808333 -0.0405 0.040683337 0.26791668 -0.06948333 0.05248333 0.03475 -0.0129333325
trainer 0.0072999983 0.19456667 -0.045033332 -0.0010666674 -0.048100002 0.062300004 -0.014433332 0.08426666 0.044800006 0.12236667 0.040533334 0.020633334 0.109433345 -0.021600004 -0.06706667 -0.051033333 0.1013 0.008999999 -0.110400006 0.093899995 -0.20286667 0.05246667 -0.07823334 0.057866663 0.09126668 -0.048733335 0.098500006 0.1372 0.0591 -0.1168 0.029733336 0.034700003 -0.054466665 0.039133336 -0.14156666 0.0093 -0.023566667 0.0072333342 -0.036799997 -0.01876667 -0.014166666 0.042233333 0.02056667 0.019300003 -0.12786667 -0.13173334 0.034233335 0.0014999982 0.018033333 0.010600001 0.056133337 0.004766668 -0.58996665 0.12213334 0.024400001 -0.060966667 0.010666667 0.0629 0.05386667 -0.014033335 0.017233333 -0.041433334 -0.14556667 -0.104 0.06080001 -0.04286667 -0.0129 0.06866667 -0.04256667 0.015233333 -0.043700002 -0.049033336 -0.022333335 0.0833 -0.11616667 -0.0013999995 -0.1279 0.0016333337 -0.038100004 0.07086667 0.030933334 -0.0041 -0.07256667 -0.24523334 0.0028333329 0.10910001 0.05533334 0.06136667 0.10796666 0.006766667 0.06683333 0.08900001 0.008533333 -0.059133336 0.052933335 -0.11203335 -0.010466668 0.15996668 0.02203333 -0.0502 -0.2148 0.018866664 0.0985 -0.011366665 -0.1391 0.057600003 -0.0392 -0.03066667 -0.03686667 0.03666667 -0.025666667 0.0785 -0.09216668 0.048033334 0.019066667 -0.11263333 0.0417 -0.007966669 -0.07746667 -0.39490002 -0.009166664 0.0072999997 -0.055866666 0.063533336 0.07856667 0.2102 0.06986667 -0.010833332 0.0506 0.082033336 -0.11946668 -0.054166667 0.119266674 0.06933334 -0.089200005 0.034833334 -0.05163334 0.1376 -0.053000003 0.029 0.079966664 -0.10746667 -0.014366667 0.2046 -0.16716668 -0.009800001 -0.06863333 0.053500004 0.022633335 -0.1631 -0.06723334 0.036266666 -0.0117 0.007633335 -0.0853 0.0432 0.025433332 -0.015366668 -0.021166667 -0.057133332 -0.071600005 0.058866672 -0.12386667 -0.13113333 -0.017566672 -0.008066667 0.0631 -0.09926667 0.0425 0.025066664 -0.051433336 -0.03496667 -0.06943333 -0.13426667 0.021200001 0.07723333 0.29506668 0.027566668 0.0029666661 -0.063266665 -0.015433334 0.083333336 0.09393333 -0.13126668 0.014999996 0.013133332 -9.0000033E-4 0.06973334 -0.1164 -0.044533335 -0.054300003 -0.061566666 -0.06623334 0.03226667 -4.6666464E-4 0.0071 0.059033334 0.07886667 0.16260001 0.0641 -0.13216667 -0.029866671 -0.0045000007 -0.043966662 -0.0494 -0.0384 -0.041233335 -0.1551 -0.009366668 0.0528 0.09553333 0.069466665 -0.086500004 0.1859 0.09486668 -0.005066668 -0.17050001 -0.051733337 -0.062633336 -0.005466667 -0.15303335 -0.0071666664 0.018066665 -0.002066667 0.035499997 -0.05556667 -0.038000003 -0.015533334 0.022200001 -0.0649 -0.066466674 -0.021266669 0.35323334 -0.13460001 -0.08 -0.09273334 -0.15606667 0.057533335 -0.28836668 0.053833336 0.027800001 -0.0209 0.028633332 -0.05736667 -0.061200004 -0.009533334 -0.017600004 0.075366676 -0.032633334 0.34336668 0.028900001 -0.058933333 -0.07243334 0.1022 0.15940002 -0.018233335 -0.10433334 0.0551 0.031266667 -0.0026333332 0.0199 -0.0104 0.08043334 -0.0067000007 -0.5924667 0.094233334 -0.109 -0.06370001 -0.078700006 0.017233336 0.047933333 -0.018933335 -0.0582 -0.017099997 -0.058500003 -0.0563 0.016766667 -0.1555 0.0355 -0.018500006 -0.024866669 0.010333333 0.028066665 -7.0000195E-4 0.086733334 -0.097833335 -0.08156667 0.07513333 -0.105000004 0.0755 -0.08273333 -0.084866665 0.07656667 0.012633334 0.028166667 -5.9999776E-4 0.014433335 0.022266667 -0.011400001 0.015133332
