affiliation -0.015795624 -0.05625163 -0.019414945 -0.0014128047 -0.0040273517 0.044703078 -0.0019587758 -0.031614974 0.03959642 0.020147039 -0.010061677 -0.0042288806 -0.043968074 0.021238962 -0.054193012 0.039255254 0.05097994 0.06240364 0.01468939 -0.06385816 -0.01828303 0.009093785 -0.014671989 -0.0076831174 -0.031587806 -0.0044130227 -0.015419302 0.059117757 9.0185273E-4 -0.044401273 0.054692812 -0.077245295 0.03221268 0.014060257 0.1047929 0.07468103 0.057453148 0.009396929 0.013911768 -0.048904605 0.022307526 0.042050295 -0.0658366 0.031358756 -0.055658363 -0.1044408 0.028245464 0.008783838 -0.10701884 0.05257372 0.011774318 0.004491876 -0.014663426 -0.0059104254 0.06991023 0.021265937 -0.027530905 0.025448876 0.0033322126 -0.03322763 0.029916948 0.05536478 -0.04192607 0.012448356 -0.08595128 0.04436789 0.020710137 -0.019532075 0.0514784 -0.0040521203 -1.241751E-4 0.008424051 0.03017469 -0.055175737 -0.055005737 0.004949035 0.001621956 0.048434697 0.08291006 0.036529057 -0.00824711 -0.033829868 0.02335962 0.036849894 -0.061098713 -0.04008275 -0.06821206 0.036111854 0.033523455 0.066154286 0.03912321 -0.019378452 -0.018202608 -0.014991431 -0.011540979 -0.04032674 0.029329497 7.290053E-4 0.0034991223 -0.02743056 -0.007350483 0.017702626 -0.017552542 0.05636225 0.013941994 -0.042611122 -0.0072965724 0.019053727 0.0553953 -0.011354367 -0.049462512 -0.015622503 0.018372478 -0.062491074 0.054724276 0.012400303 0.039940238 -0.027140183 0.056733645 0.05283147 -0.05413875 -0.025953261 4.8126373E-4 0.06514287 -0.017462414 -0.0025928621 -0.0898463 0.03902523 0.03327382 0.056704424 -0.009410693 -0.02973794 0.016669331 -0.03160511 -0.0012003509 0.020340955 0.038465288 0.05514179 0.022313204 -0.021165822 -0.06011098 -0.01217758 -0.041884746 -0.003040581 -0.017169602 0.0042292476 0.011518858 0.017281702 0.0045952974 0.07586616 0.0031418167 0.008637195 -0.06428338 0.023163743 0.007278745 -0.023164423 0.012843294 -0.030473646 0.030646302 -0.0018968154 -0.019412667 0.008288244 0.0058058035 0.0055550523 0.0103806835 0.017764188 0.0241884 -0.055412177 0.026533335 0.04173947 0.032891795 -0.03797349 0.11726913 -0.086987406 0.029420368 -0.026734043 0.08168886 -0.035726596 0.018747706 -0.0067273155 -0.08388076 -0.049273163 0.024496006 -0.0102359485 0.033057153 -0.070775576 -0.0019105319 0.016115945 0.041952077 0.02957265 -0.040268555 0.011569645 -0.02361836 0.04954198 -0.014575103 0.020330042 -0.0232404 0.04509818 0.06054929 -0.03955167 -0.022029074 0.011776454 0.03663969 -0.014416982 1.5953463E-4 -0.037230358 0.0075466963 -0.046205632 0.057435654 0.007736793 7.5868476E-4 -0.035845146 -0.007602847 0.04393872 0.034573168 0.022100177 0.015642338 0.048741996 -0.021422293 0.013644149 -0.016542876 0.011786496 0.0011772192 0.07017444 -0.0041727955 -0.043258455 0.026829608 0.036912795 -0.008642121 -0.016638482 -0.02338114 0.018186653 -0.041173056 -0.041673955 -1.1205254E-4 7.029441E-4 0.037577733 -0.03042017 0.0019941176 0.00994225 -0.0034354539 -0.09111448 -0.018496256 0.055126593 0.0027908552 0.03335335 -0.013563611 5.0263776E-4 0.081123635 -0.0586128 0.015847905 -0.0059773913 0.0032471437 -0.011512823 0.0023389552 0.021966137 -0.025927838 0.022616018 -0.05092773 0.04612173 2.7058832E-4 -0.06893504 0.009901212 0.09528216 -0.026106484 0.066693775 -0.041773904 0.030817758 -0.04601986 -0.0026859222 0.017550189 -0.014458805 0.008097138 0.013498109 -0.016336067 -0.093661256 -0.056757957 0.03744609 -0.008063171 -0.019400055 0.001957362 -0.0073604374 0.01388488 0.03407446 -0.009686911 -0.059228502 -0.038637403 0.0077958256 0.020843225 -0.052878536 -0.029697131 0.061455257 -0.04989258 -0.013313023 0.011611969 -0.011889481 0.08031114 0.0451269 -0.05533784 -0.012319772
almaMater 0.007961225 0.050506778 0.08773078 0.013840847 -0.025646655 0.006228896 -0.030884236 -0.022569593 -0.014606451 -0.022810785 0.038187373 0.0064283926 0.0026989686 0.039566852 0.035252795 0.107097924 -0.03404405 0.017578788 0.0018694485 0.0446807 0.043392777 0.091825634 0.0018220996 0.012852627 -0.0065146023 -0.07197994 -0.058725066 0.046652213 -0.0012248778 -0.03927914 0.04033474 -0.036759935 0.015362025 0.01488165 0.06575227 -0.04411757 0.059283838 3.7599914E-4 -0.045550156 0.049412612 0.0073098512 0.011324908 0.0024548117 0.006207968 0.023664284 0.0038074965 -0.022915777 -0.0338087 -0.08982948 0.023575516 -0.0041802973 -0.032914653 0.010428072 0.01794127 -0.033314373 -0.05280237 -0.061437644 0.032481976 -0.015943727 -0.06433996 0.001081524 0.002143863 0.01682142 -0.065730944 0.006641737 0.0034515788 -0.079210445 0.086602785 0.029738469 0.0069677727 -0.105351865 -0.053892396 0.03712983 0.079133704 0.021227434 -0.022777652 0.016200528 0.019710356 0.07259591 0.04672324 0.01985833 -0.0144757405 -0.07322583 0.051517762 -0.047437042 -0.017334543 0.015454108 0.032846637 0.05918234 -0.03466813 0.048670728 -0.10081126 -0.009478479 -0.05429294 -0.017852612 0.023816008 0.0372983 -0.0074947122 -0.039683703 -0.032194242 0.03470449 0.029888341 -0.039472334 0.006736958 -0.020703794 -0.045605525 0.02032724 0.054805316 0.03698822 -0.092163965 -0.045140237 0.081321 -0.00690124 -0.034704663 0.04227097 0.018958963 0.08262095 -0.09108339 0.021624539 -0.01570864 0.018825507 0.064868726 0.035139177 -0.033038694 -0.0074401237 -0.0039692335 -0.03525471 -0.032303132 0.020995136 0.018641561 0.022063319 -0.08150028 0.04466466 -0.046330668 -0.021129075 -0.028940547 0.018133456 -0.023406874 -0.034524992 0.02555597 -0.0955933 -0.02315295 0.04072921 -0.09042714 -0.021813672 0.06955059 -0.0034887255 -0.055032037 0.009413954 -0.036261465 0.06266182 0.037892994 -0.07784387 0.03365811 -0.023564005 -0.04171054 -0.027585082 -0.12855016 0.028238025 -0.0066751344 -0.02255318 0.028288074 0.03576709 0.058872085 0.021909505 0.038361683 0.0061992053 -0.058105957 0.040007383 -0.019706607 -0.08173711 0.02761577 -0.0091286395 -0.07410967 0.009751171 -0.02895462 0.007010326 0.029174535 -0.0013379734 0.069839045 0.0012085736 0.0010807384 0.040706452 0.055117663 0.069082156 0.031005703 0.0020885803 -0.04214645 0.0028524362 0.06906193 0.0064403964 -0.055218205 -0.0050449576 0.036331788 -0.08810609 -0.019749418 0.036358472 -0.03156168 0.0674151 -0.018246118 0.019426264 0.0020512321 0.06092456 -0.060288016 -0.014388607 -0.098392725 0.047839902 -0.041877612 0.03352295 0.06292559 0.049024757 0.0012493813 0.046979077 -0.05472013 -0.07636009 0.013030946 -0.044658814 0.0077997334 -0.011138741 -0.026219726 -0.029043911 -0.05231266 -0.002441471 0.042956784 0.035145544 -0.03207755 -0.017512254 0.043235473 -0.010491814 -0.023620753 0.049129657 0.026317038 0.029451303 0.008303043 0.052381895 -0.011749326 0.024453081 -0.05357059 0.051129203 -0.027323483 -0.009774606 0.024052689 0.049072888 0.03587147 -0.02169011 0.009922147 0.02882609 -0.013507314 -0.0022415249 -0.0404071 -0.08142738 0.07166812 0.02479612 0.014085003 -0.026565032 -0.063237764 0.0122302035 -0.018082183 -0.06273437 0.083846614 -0.02328689 0.04830973 0.019823367 -0.02209022 0.033447612 0.04198546 0.029159885 0.079494536 -0.004041477 0.0419976 -0.020525923 0.010501493 -0.03474532 0.03690747 0.051325228 -0.11349411 0.05286498 -0.0365585 -0.018101761 -0.07860982 -0.0588018 -0.03013023 -0.025561595 0.041661013 -4.6616234E-4 -0.04043546 -0.012422607 0.027702536 0.04265124 0.054471523 -0.049947664 -0.06776651 -0.07502282 0.07966205 0.057345588 -0.06288217 -0.017425666 -0.05041697 0.041213684 -0.010859443
bandMember 0.01769202 -0.017780505 -0.005542099 0.01484016 -0.031844232 0.0049601193 -0.04795336 -0.050925333 0.026759956 -0.058284596 0.01925614 -0.023435246 0.0033967819 0.0026388238 -0.06277734 0.010941907 0.020953692 -0.010972285 -0.049182452 -0.031981517 0.01719526 0.059070382 -0.05888221 0.0087532215 -0.027333137 -0.022382291 -0.0665975 0.011706307 -0.04813751 -0.051118266 0.013401329 -9.5540367E-4 -0.03099516 0.026093105 0.025720045 -0.0034529546 0.014416445 -0.014749666 0.046242166 0.017937971 -0.012201827 0.049052935 9.861899E-4 0.043200083 -0.019964442 -0.0565141 -0.07405827 -0.02327369 -0.010565819 0.025819873 -0.008498005 -0.005153369 0.009787484 0.02552222 0.006318253 0.0057910522 0.010233381 -0.014859859 -0.050453685 -0.037560046 0.027900316 0.021502273 -0.03194744 -0.021757506 5.724517E-4 -0.0066612447 0.007717474 0.028073587 0.027304048 0.0765116 -0.02765369 -0.035672907 0.059907172 0.0015200326 -0.022907585 -0.043630846 0.0072039724 -0.01896474 0.04771092 -0.0038244717 0.026427915 -0.048552413 0.014361779 0.06329392 -0.043499067 -0.053494234 -0.061944988 -0.046503633 0.06252897 0.0063426173 0.054996353 -0.039759614 -0.0016809056 -0.056748126 -0.0043721334 0.012015021 -3.1679103E-4 0.028952638 -0.019011613 -0.056474973 0.021002162 0.00983462 -0.013398443 0.059120033 -0.026761042 -0.020362565 0.029719824 -0.022966934 0.027682558 -0.02347005 -0.04254622 -0.025213553 -0.008470654 -0.026605705 0.03326084 0.025852676 0.008044505 -0.003418262 0.05336789 -0.008899403 0.012853441 -0.048091106 -0.06433696 -0.0029250116 -0.014912054 0.001901965 -0.011712281 -0.013523279 0.004815782 0.054377034 0.051327996 -0.04373418 0.011302078 -0.024518374 0.008641888 -0.009356994 -0.014384498 0.0012428039 -0.012364792 -0.025736395 0.0047559664 -0.009243488 -0.031014586 -0.006520769 -0.006635361 0.019726673 -0.009156331 -0.04160118 0.010164811 0.0026095684 0.06312571 0.019020267 -0.035235472 0.06364847 0.082793504 -0.041756034 -0.023256952 -0.015884304 0.04597448 -0.017025566 0.028346786 0.029928531 0.042033408 0.030920062 0.005475136 -0.026838098 -0.0036387716 -0.00974429 0.023862332 0.027278654 0.006853675 -0.0346749 0.043228224 -0.08915595 0.06340219 -0.055809394 0.005068027 -0.013867987 0.018610973 0.006278188 -0.009931984 -0.022258438 0.0052042515 0.01893916 -0.004091685 -0.0020686546 0.0032276378 -0.0020021151 -0.011620072 -0.0060358807 3.1575726E-4 -0.034189004 -0.00587962 2.4061339E-5 -0.034250874 -0.006973693 0.029876743 0.020329596 -0.0075745615 -0.0442968 0.032396078 4.119273E-4 -0.017157285 -0.021951087 -0.05988809 -0.06442913 0.011154081 0.026999924 0.0042041247 -0.028795753 0.013176948 -0.025216725 -0.012257208 0.0069169346 -0.02210463 -0.0050935745 -0.050950546 -0.028777996 -0.039547753 -0.0505771 0.0071193418 -0.0022065782 0.0064818542 0.015429686 0.034244575 7.374748E-4 0.05693119 0.0056424052 0.026822189 0.0018614014 -0.015855487 -0.03523044 -0.03924266 6.695175E-5 0.004262886 -0.013115279 0.03562663 -0.021607494 0.010713296 -0.023740858 -0.022678968 0.01258925 -0.038619716 0.007954118 0.035245556 0.024303643 0.033427972 0.00777336 -0.026956556 -0.01812969 0.030604996 -0.007925615 -0.01677233 7.8739144E-4 0.020750599 -0.007288032 0.036099624 -0.012924275 0.014687042 5.0691114E-4 -0.015384012 -0.014822562 0.021758387 0.004209698 0.002094001 0.05097118 -0.031859443 0.065344445 -0.045241456 0.010484985 0.018821213 -1.7971822E-4 0.026590636 0.064297445 0.03447059 -0.07837167 -0.035364516 -0.0054590907 -0.06339443 -0.013257279 -0.007715454 -0.03606144 -0.04021786 0.037324484 0.0050953394 0.0023134782 -0.020590605 0.0081706755 0.05622415 0.023044981 0.029153036 0.014638409 -0.0712112 -0.018835286 -0.022399932 -0.025984313 0.028631939 0.03143118 0.01405611 -0.012776541
birthPlace 0.058600035 0.0034747228 0.0322047 0.028972099 -0.024381686 0.048869397 0.049046975 -0.037867762 0.043570396 0.038945954 0.028331954 -0.028018875 -0.046538502 -0.035733253 -0.015696675 0.058603764 -0.006046681 0.06796417 -0.026472172 0.03476369 -0.07182135 -0.04437157 -0.018320134 -0.03128033 -0.0060422057 -0.07615029 -0.06105277 0.04118285 0.013037701 -0.043733384 0.0013993729 -0.019640181 -0.057957944 0.041527506 -0.039601326 0.044841416 0.018754829 -0.021938855 -7.587597E-4 0.037311215 -0.009812715 0.040896136 0.0063788327 0.04063452 0.027157117 -0.009738406 -0.017519636 0.032269906 -0.042435832 0.01250312 -0.002071044 -0.04128593 7.397108E-4 -0.025964526 0.022735728 -0.0043802946 -0.018116204 -0.04643802 0.014088022 -0.004352799 0.057526648 0.038776107 0.013654961 -0.02566277 -0.0033961802 -0.018985143 -0.0016905211 0.061758835 -0.0025981949 -0.010286398 0.036364954 -0.031170333 -0.028995758 -0.019676343 -0.036473785 -0.016620174 0.030553663 -0.00813064 -0.010389575 0.05571909 0.05938675 -0.044365887 0.04019971 -0.0065347264 -0.05256616 -0.0012865037 -0.0018414569 0.030557198 0.029860128 7.6703803E-4 0.026665324 -0.030409927 -0.047601834 -0.041597597 0.008498228 0.057042398 0.055123724 0.015344984 0.016464693 -0.02577484 -0.04437822 -7.991895E-4 0.06344038 0.028459394 0.006597752 -0.05569755 -0.030684251 0.02889095 0.013237183 -0.017430916 -0.027859438 0.008088638 0.0026050769 0.016142542 -0.013622296 0.013877976 -0.02514787 -0.026365122 0.031048138 0.0023966895 -0.0016102277 -0.031839367 -0.023201682 0.033589106 -0.054042865 0.014807542 0.036172263 -0.027146498 -0.019705964 0.023755653 -0.012678933 -0.018703585 -0.02727305 0.011622708 0.0065082447 -0.04989198 -0.009842922 0.0055127055 0.025364002 0.009574154 0.008467522 -0.014940833 -0.0074396464 0.011945433 -0.0071172486 0.042210113 -0.023433045 0.054184843 -0.03999705 -0.008337139 0.02436876 -0.0071862848 -0.058306556 0.022016725 0.013624224 -0.030132085 -0.016057298 -0.055264678 0.05788335 -0.058576286 -0.03205673 -0.023337824 0.058478773 -0.0054943264 -0.054319113 -0.023854708 0.018050505 -0.010691023 -0.011682696 0.023585442 0.01829612 0.016715026 0.04242876 -0.053301763 0.049885254 0.02253502 -0.01015502 0.012877111 0.0033889816 -0.025226066 -0.024424061 -0.023590151 0.01965729 -0.075071566 0.0016850233 0.034712557 -0.016997918 0.0063010203 -0.0067194053 0.105041854 0.015903495 0.07631141 -0.024697164 0.02680989 -0.019734165 0.014494181 -0.031546906 -0.0041289288 -0.021230152 -0.030258281 0.0221953 0.01882861 0.0047382335 -0.037237734 0.022737239 -0.030500023 0.018813938 0.023763409 -0.020305524 -0.087096065 -0.049671788 0.0022200383 -0.017791439 0.020226076 -0.038385164 0.030682167 0.049287226 -0.0034738553 -0.0122616505 0.021494485 0.01052812 0.022714479 0.04670067 -0.011367648 0.02446778 -0.013765912 0.049972624 0.0023115561 -0.0025064177 -0.012614367 0.047436293 -0.022601774 -0.032054838 0.020965165 0.03891892 -0.025480991 0.0037583534 -0.027733792 0.020193994 -0.048207175 0.03226007 -0.050755203 -0.03773598 -0.037431072 0.03697562 0.04680416 0.013764891 0.025492359 -0.0071625086 -0.03370275 0.0403873 0.009459718 0.0159052 0.016596494 0.017210169 -0.029691149 -0.016860144 0.01709399 -0.035910964 -0.02345429 0.019384427 -0.025767555 0.010727212 0.018100211 0.0076951473 0.034427073 0.010779026 -0.026463402 -0.057479836 -0.016739354 -0.018531619 -0.0096060205 0.015288648 0.0055346224 0.0065820473 -0.07466207 -0.061276305 -0.02338226 -0.044235807 0.013918477 0.008878722 0.020285586 0.033733536 0.027085269 -1.0568649E-5 -0.018642208 -0.047608737 -0.015146359 -0.02265887 0.05664713 -0.053357285 -0.011907014 -0.11607317 7.2823925E-4 -0.019924872 0.017812056 -0.016096288 -0.022951182 0.019843759 -0.011122632
ceo 0.03181082 -0.028752547 0.015929673 -0.03099833 -0.029972952 -0.012530345 0.03847729 0.0026567578 0.016747698 -0.018961798 -0.009981144 -0.027093044 -0.009022404 -0.037425034 -0.06548402 0.06365354 -0.011461943 -0.042422634 -0.03356675 -0.05604548 -0.027991623 -0.030649524 0.028139662 -0.010360892 0.039244093 -0.020157497 -0.034056164 0.05105874 -0.040361177 -0.010670884 0.004319953 -0.023078658 -0.049743928 0.023820113 0.02786096 0.0144725125 0.021940678 0.030886691 -3.7345663E-4 0.025169855 0.00859633 -0.018968765 0.016986167 0.018098809 -0.010234855 -0.08817059 0.004748293 0.012225944 -0.054045953 0.03878835 -8.866314E-4 -0.023920296 0.021277813 0.024860587 0.018057957 -0.01055838 -0.03393338 -0.018410064 0.014974674 -0.026462018 -0.01233718 0.056424588 -0.072636805 0.024795279 -0.010222572 0.0062389616 -0.013599826 0.0451352 0.018151455 -0.013603151 0.03329639 -0.017469224 0.028847387 -0.02069768 -0.03961887 -0.021464214 0.014379303 0.01565082 0.009470755 -0.008470452 0.07457867 0.0154760685 -0.008932597 0.019951427 0.019464519 -0.013611401 -0.022557369 -0.0028483793 -0.002744519 0.0011190015 0.08203042 -0.027987897 0.00803864 -0.035322174 -0.006065489 -0.031799994 -0.017828878 0.008213761 0.03187896 0.0021301508 -9.224167E-4 -0.008645146 0.012352004 0.04988111 0.024498131 -0.03546929 -0.019407388 -0.0077508604 0.03916219 -0.0513978 -0.0011339316 -0.060951166 -0.02180158 -0.022005845 0.021018978 0.0027364295 0.008709297 -0.008688986 0.07603674 0.0372706 -0.03949713 -0.014917559 -0.046187177 0.03883828 0.009109105 -0.033695646 0.019660763 0.008406973 0.06972524 0.046993814 -0.021711033 -0.043670006 -0.02453374 -0.0010828029 0.0015395962 -0.018281043 -0.0139174415 0.006516381 -6.2659325E-4 0.027793735 0.015485874 -0.024724869 -0.031677816 0.006403256 -0.03213244 0.015511353 -1.6501857E-4 -0.0011573192 0.0075297034 0.0054178233 0.04094476 0.046628606 -0.037148688 0.058995496 -0.030172616 0.007841472 -0.0124045815 -0.0052013323 0.002217736 0.009822581 -0.009682192 0.00303222 0.032342132 0.024819374 -0.019135326 -0.010529827 0.006138533 -0.013184205 0.063101634 0.02455869 0.033800088 -0.0043993695 0.029180398 -0.080883205 -2.6255724E-4 -0.0222152 0.026161004 -0.020763513 -0.048257627 -0.011329357 -0.024968704 0.00800125 -0.01857249 -0.059976786 -0.015565384 0.006285999 0.049549066 0.027154814 0.008520337 0.04128657 -0.006337823 0.0069673248 -0.02193598 0.05000765 -0.035821564 -0.0035318285 -0.0016432945 -0.012049614 0.013690928 -0.019828748 -0.04918825 0.038430817 0.031111479 -0.022441339 -0.015335622 -0.021702569 0.014037094 -0.010670084 -0.015445799 -0.03614312 0.0047221947 -0.03683752 -0.015018709 0.03346119 0.007720666 0.039533474 -0.011115852 -0.0054724244 -0.02823311 -5.3071853E-4 0.010328925 0.004034184 0.019853983 0.0023502323 0.035406984 -0.017315866 0.058561295 0.022120547 0.043927573 0.008416665 -0.013374552 -0.048452877 -0.057091963 0.021626469 0.0075373612 0.0062201186 0.01919312 0.008671075 0.0071928776 -0.008447825 0.007884566 -0.04070741 -0.02665329 -0.010584563 0.014176212 -0.016615357 -0.03377837 -0.031793453 0.05759425 -0.028868508 0.014254164 0.00405745 -0.03173163 -0.022029936 0.050852038 -0.013629351 -0.010549053 0.047506325 0.0012292406 -0.04231163 0.010126689 -0.018649464 0.01304858 -6.818548E-4 -0.013693683 0.03518928 -0.009618491 -0.008690391 -0.088245474 -0.020711996 -0.01782679 0.01815378 0.024122957 0.013285562 -0.036617793 -0.0013819275 -7.558844E-4 -0.012644842 -5.4748764E-4 -0.019206258 -0.008082667 0.015819818 0.02129387 0.02021017 0.05097593 0.076982774 -0.02326934 -0.02220749 0.08085585 0.001800463 -0.017693639 0.01541376 -0.021453321 0.013927942 -0.02963122 0.017977294 0.022679955 -0.003580168 0.01552093 0.0193355
child 0.06026409 0.009609576 -0.010394201 0.039719585 -0.06429732 0.012105205 0.02712389 0.014042724 0.026150953 -0.029364765 0.042403284 -0.0361054 0.009532872 -0.023162466 -0.035414696 0.023867764 -0.049265932 0.05257297 -0.012236539 -0.010741603 0.028094327 -0.019425472 0.02748758 -0.012361878 -0.0056029926 -0.094005235 -0.029533809 0.09037196 0.05670106 -0.017872216 -0.019649532 -0.021411814 -0.073213644 -0.010908328 -0.024179168 0.01491051 0.03107862 -0.014625184 -0.030216737 0.07389947 -0.04601655 0.00163509 0.030540723 0.0029013543 0.05268572 -0.021281458 0.025760809 0.014130667 -0.015187176 -0.0082617635 0.024519928 -0.022126276 -0.02682689 -0.006833142 0.037189014 -0.042838182 -0.025061645 -0.03281852 -0.031409007 0.038130134 0.05986131 0.06088198 -0.033317804 0.009868555 0.025528785 -0.025594115 -0.02671766 0.029919345 0.046232052 -0.007243946 0.012884502 0.031729437 -0.009508994 0.04882814 -0.03249137 0.04902908 0.0058424314 0.022080429 0.05363452 0.064976156 0.036670223 -0.038271032 -0.017100248 0.006581487 -0.06118992 -0.006199949 0.008171488 0.052178107 0.03390286 -1.9990373E-4 -0.0010222364 0.0042979317 -0.073434874 -0.05027739 0.019349622 -0.058148313 0.10103064 0.02905051 0.007436412 -0.017139224 -0.034016106 -0.03722638 -0.023428775 -0.014124531 0.014437082 -0.047217954 0.030173901 -0.051729746 0.039511193 -0.038106725 0.0063981772 0.021237753 -0.023330601 -6.962288E-5 0.038197212 -0.04239344 0.021345288 -0.033707708 0.0047031823 0.03977686 -0.055009373 0.03173547 -0.046655282 0.051444486 -0.020240285 0.008799747 0.018570855 0.010352082 0.01219211 0.049115956 -0.013569883 -0.10998202 -0.07295503 0.023999216 -0.0053899097 -0.017024195 0.025666408 -0.011108266 0.021054603 0.021300122 0.056184907 -0.05068087 -0.044417463 0.03064254 -0.032365248 0.06525929 0.0046224045 0.070164725 -0.057565965 -0.026974509 0.1551829 -0.026929583 -0.039516132 -0.025634846 0.019830395 -0.0050362665 -0.025723893 -0.09122418 0.043804795 -0.064140595 -0.012460968 0.042027906 0.064439856 0.06487431 -0.06729412 -0.02955685 0.008289818 0.0071556 -0.017549008 -0.026574932 -0.0049882983 -0.0381556 0.03234537 -0.08432054 -0.0054245368 0.022639692 0.059378903 0.041061483 -0.044005454 -0.006298069 0.01949782 -0.025598537 -0.010883893 -0.0328243 -0.05329637 0.045946665 0.01045404 -0.025600933 0.0041468777 0.013573747 0.0027586743 0.03157078 -0.043641232 3.8879644E-4 0.047431745 0.04247743 -0.008945227 -0.009933116 -0.06956576 -0.037800472 -0.009366488 0.011752648 -0.030043926 -0.0906431 -0.019772148 -0.048013978 -0.027061354 -0.03187511 0.018776625 -0.05908461 -0.028494991 -7.404387E-4 -0.0035782368 -0.07573973 -0.046878558 0.01654021 0.013327651 0.057766713 -0.055073492 0.018743264 0.004468569 -0.054649416 0.06933414 -0.04328317 0.03777206 -0.02034976 0.06281595 -0.039032906 -0.0013514142 -0.029630423 0.019733801 -0.035873827 -0.015133923 0.034328323 -0.03471155 -0.06337224 -0.024406435 -0.05592759 0.010008341 5.0862925E-4 0.0636166 -0.044142775 -0.016096521 -0.02592699 -0.034753803 0.033964533 -0.025816191 0.0080924425 0.009954749 -0.025028532 0.042501017 0.010194765 0.03470594 9.5041096E-4 0.041797303 0.017200507 0.011742556 0.021409566 -0.02593173 -0.04540041 -0.031809583 -0.04861501 -0.041656174 0.0021739062 -0.0015757647 0.07209588 -0.019242864 0.047816254 -0.10790605 0.012050893 4.972131E-4 0.038015325 0.004174469 0.048942946 0.026806695 0.010908179 0.0029256912 -0.0338612 -0.01761913 3.6439253E-4 0.026362156 -0.055751897 0.02199008 0.056792025 -0.011575786 -8.983142E-4 -0.056100734 -0.051860325 -0.0027059373 0.095017664 -0.013167655 0.03995238 -0.05428057 -0.04576157 -0.04450127 0.051045872 0.029835626 -0.018002152 -0.0091441525 0.017132288
club -0.030567069 0.026022932 0.014870515 -3.3999484E-6 0.044346385 0.023581855 -0.025584495 -0.08724716 0.026146566 0.009092829 0.026981752 -0.030890252 -0.0052054445 -0.023350235 -0.016968021 0.02551051 0.056304213 0.083180904 0.047713123 -0.039100982 -0.0019213067 0.052573424 -0.018195486 -0.030856717 0.003883125 -0.0032381578 -0.048345827 0.029925548 0.03165637 -5.524078E-4 7.0722535E-4 0.032271076 0.035632685 -0.022891266 0.028296677 -0.0011223431 0.027548118 -0.001898604 0.06114898 0.020441938 0.045755133 -0.029876677 0.016894905 0.03277665 1.7143725E-4 -0.0655469 0.025130864 -0.0424992 0.0057589067 0.07168174 0.010011746 0.08191651 -0.017956201 -0.0016870102 0.0048820893 -0.0645061 0.041279387 0.0083249705 -0.040476453 -0.030542176 -0.029395986 0.0018684542 -0.029178187 -0.033940475 0.003766959 0.018046916 -0.015894981 0.0080816625 0.08018498 0.055653825 0.036212083 -0.0291337 0.03450432 -0.03092288 -0.04121419 -0.018901924 -0.021031402 0.0069085862 0.0011794753 -0.027577609 -0.022340452 0.001265141 0.02358374 0.060492955 0.046464354 -0.064268045 -0.07440248 0.027537873 0.029431123 0.060548436 0.010994641 -0.03253944 -0.051324703 -0.05711651 0.03735929 -0.052761763 0.009719575 0.026212268 -0.010110359 -0.0661295 0.0022590733 0.035304554 0.011913671 0.025876528 0.0033071148 -0.030823808 0.03985349 -0.037806995 0.022869853 -0.039676145 0.019425156 0.029096058 -0.043149687 -0.0022692638 0.051505458 0.010244887 0.046509787 -0.008287527 0.02345638 -0.0200268 -0.059423517 -0.051744603 -0.016079128 0.058245495 -0.017314179 -0.059526883 -0.05645218 -0.017227875 -0.034680672 0.03187428 -0.01961836 -0.066528276 -0.03452303 -0.038077753 -0.009147799 -0.07025232 -0.03301872 0.0930962 -0.06758232 0.0038592245 -0.052472956 -0.056532156 0.04447349 0.013920827 0.0208616 0.06501503 -0.00616014 -0.00234343 -0.011846963 -0.00717404 0.012825996 0.03620712 -0.07155798 0.0046211295 -0.010282351 0.017267823 0.019198453 -0.10358839 0.014354898 -0.018160908 0.038436145 0.040909514 0.05738584 0.012432317 -0.010865371 -0.07922427 0.0060049696 -0.054378837 -0.012513718 0.0061727143 -0.023334464 -0.052340165 0.049864456 -0.054901794 0.03497137 0.014136011 0.006792765 -0.050978936 -0.03226576 -0.0077350717 0.015893849 0.011789634 0.0014221855 0.0092486655 -0.02828921 0.026494347 -0.0071665714 -0.009374427 0.044193476 -0.03640438 0.016204482 0.020022778 0.028705567 0.007731351 -0.01900019 -0.02164387 -0.0023693717 -0.011197586 -0.07849844 -0.066107035 0.017044125 0.002975864 -0.019771978 0.0028006774 -0.041106224 -0.07189612 0.0324103 -0.033935755 0.021489646 -0.01735546 0.01883445 0.019609652 -0.010908993 0.04133065 -0.073669665 0.026177298 -9.4695145E-4 -0.0024719015 -0.09349869 -0.058832005 0.017742086 -0.05576953 0.013908913 5.494179E-4 0.037428033 -0.015630076 0.025787078 -0.028786242 0.05447517 -0.043994185 0.01199973 0.017695753 -0.03459064 -0.024911439 -1.310908E-4 0.008630831 -0.017574482 -0.045723885 -0.015257701 -0.05776283 0.014007537 -0.008985516 0.024598427 -0.07428559 -0.002385416 0.036392547 -0.043512873 -0.025420276 -0.028166568 -0.016106552 0.038186084 0.019742861 0.031413306 0.016796704 -0.025947079 0.0024273496 -0.018195037 0.023089474 -0.03850569 0.030671347 0.012100367 0.014066151 0.03322741 0.02405819 0.010781782 0.075855255 -0.029338531 0.0033962843 -0.017691296 -0.015185591 0.02198745 0.034083527 -0.05077469 0.014116479 0.03052783 -0.029419802 0.00986416 -0.025392279 -0.06669301 -0.038304217 0.0075381715 -0.04980772 0.04888516 0.012619458 0.009548239 0.0112824645 -0.041304257 0.04680073 0.012743773 0.029430747 -0.0025477097 0.055193927 -0.03930167 -0.021755349 0.0142454505 0.022003246 0.019804742 -0.018831778 -0.014483169 -0.036115095
deathPlace -0.0028809707 -0.0017120027 0.042203147 0.022074314 -0.05324455 -0.015922306 0.04180048 -0.055815924 0.03948903 0.006950654 -0.01861974 -0.01580164 -0.0012819084 -0.027596766 -0.025524624 0.02313233 -0.021925576 0.043301802 0.007248934 0.013240133 -0.032603297 -0.0431045 -0.020068923 -0.01228234 0.04181167 -0.052337483 -0.050118405 0.020411724 0.006524749 -0.060105935 -0.014563469 -0.010292311 -0.03054058 -0.009977578 -0.0044486136 0.025183816 0.0049179164 -0.018249456 0.0036833892 0.04711002 0.0045971437 -0.003905275 0.015014595 0.02343976 0.017552162 -0.028054455 0.0120027475 0.016383253 -0.010805994 0.0011912663 0.007771729 -0.016902374 0.0066321213 -0.039358553 -0.015141261 3.0390007E-4 -0.030796029 -0.015227147 0.021309659 -0.004302209 -0.014072844 0.020795962 -0.002168011 -0.022611886 -0.03275327 -0.009028762 -0.029023865 0.020426052 -0.013433743 0.005027961 0.026041754 -0.010079986 0.033189308 0.009057953 -0.03415027 -0.06597868 0.0054126075 -0.042968202 0.014925497 0.0716118 0.032626893 -0.02280743 0.010768343 -0.025386045 -0.020411724 -0.019902349 0.0036670608 0.016946532 -0.022314275 0.013836412 0.01925152 -0.031141182 -0.0029208371 -0.032994315 -0.013484213 -0.009230692 0.00642548 0.015821502 0.038988043 -0.031944185 -0.01488523 0.0030816842 0.0049160416 -0.0017583157 0.013497444 -0.055346373 -0.003815254 -0.029604733 0.010565818 -0.03190245 -0.03698231 0.0018129641 0.0011386067 -0.022100206 0.009201995 0.016523711 0.011993594 -0.0068491283 0.017633306 0.014563997 -0.04979292 -0.010851501 -0.008947618 0.050919797 -0.02968488 -0.02127485 0.0051815114 -0.042353876 0.005957192 0.0038880205 -0.0042715822 -0.04378323 -0.017484315 0.009937112 -0.017978234 -0.03503973 0.01662963 -0.020075006 -0.014607731 0.031861845 1.709573E-4 0.036923222 -0.009151177 -0.0064809537 -0.007122131 0.04028962 -0.029391974 0.022551985 -0.03670495 -0.032483745 0.039708346 0.013844219 -0.021931231 0.021752352 -0.0027547595 -0.016764281 0.006353736 -0.015161549 0.018721018 0.0027901598 -0.010867746 0.029385043 0.0041178013 -0.023936655 -0.031823177 -0.008287518 -7.5249973E-4 -0.019926555 0.013874776 0.0056434907 -0.022254549 0.0019879355 0.012537368 -0.053753648 0.009650613 -0.017742353 9.979556E-5 -0.012018924 -0.01921633 -0.030609347 -0.03459222 0.020045595 -0.01215409 -0.03962356 -0.026407098 0.003594079 0.024430897 0.04090214 0.024794022 0.08313165 -0.019135777 0.018310064 -0.017106319 0.029398734 -0.041397735 0.035953972 0.0066003576 0.011179546 -0.0073792106 -0.048693687 0.0044864886 0.029477915 -0.04180947 -0.0065758587 -0.012191785 -0.04544988 7.626083E-6 0.025335 0.008668779 -0.03745141 -0.017351795 0.0016055935 -0.04323369 0.033523347 -0.011253854 0.002862663 0.008913283 7.020178E-4 -0.023589317 0.0139113385 0.021921687 -0.013028805 -0.0020056388 -0.031858433 0.0064074504 -0.007112416 0.036821146 0.01905195 0.006305465 0.0036365793 0.06195849 -0.014732682 -0.0021498874 0.036870435 -0.012892901 0.0054152184 0.0011240393 -0.033988096 0.03785312 -0.00821806 0.027606169 -0.012822158 -0.004032897 -0.02895617 0.016807208 0.013684209 -0.012108462 0.0141503615 -0.0043739625 -0.032158364 0.015042005 0.021109605 -0.007877715 -0.0085945465 0.021671113 -0.043438084 0.0111742765 0.0011951287 -0.017227594 -0.022930298 -0.0086322855 -0.061823998 -0.005903193 0.0066381427 0.06181486 0.016286764 0.01212043 -0.0025390582 -0.030848792 -0.020019809 0.0016296788 -0.01719 7.1903155E-4 -0.0059817764 0.0058840862 0.003097148 -0.047258638 -0.032895174 -0.01559692 0.0023072322 -0.01949201 -0.009911128 0.030720698 0.043907434 0.0075417287 -0.013169272 -0.038509656 -0.006540146 0.010403089 0.015093974 -0.0381076 -0.0015512066 -0.07598397 0.0039930274 0.00669127 0.016262917 -0.0030345866 -0.02035618 0.031488676 -0.015559988
debutTeam -0.021806533 0.011106748 0.0015503748 0.012850355 -0.008692976 -0.02797022 0.018326357 -0.034855504 0.07498109 0.0066908733 -0.008307949 -0.05478521 -0.009032068 -0.011021225 -0.07037223 0.03678252 0.0065674903 -0.0013850253 0.04407507 -0.004450866 -0.012945305 0.01122079 -0.025960404 -0.013129358 -0.017782198 -8.6286414E-4 -0.025714051 0.04837676 2.5024845E-5 0.026200825 -0.026989335 -0.02528923 -0.005735344 0.029336592 0.03146845 -0.0029688263 0.016540494 -0.03371041 0.01728111 0.010951919 0.051841006 -0.030153219 0.0110472 0.037753683 -0.0054211416 -0.006775618 -0.005235373 0.008288473 -0.007481835 0.053928282 0.04617906 0.0031941615 0.021582203 0.016489686 -0.014142371 -0.008993444 -0.017445328 -0.015095395 0.013214 -0.029585073 -0.033070818 3.224959E-4 -0.047632612 -0.054794405 -0.0031612318 0.009715031 0.0019499366 0.025021808 -0.0013470801 0.021701198 -0.0045517185 -0.0098552825 0.014717917 0.013409103 -0.0022245136 -2.0770729E-4 0.021904996 0.018902933 0.016132258 0.0014002224 0.043210484 0.0037612058 0.031088773 0.016388483 0.022419566 -0.059978776 -0.05662524 0.0016627394 0.0042082355 0.05392527 0.024382839 -0.03975464 -0.008647841 -0.038428813 -0.0041970937 -0.030416423 -0.002475779 -0.0028093525 -0.0056729475 2.3303388E-4 0.030221535 -0.006557127 0.0041027474 0.0049533267 -0.002737393 -0.0056766975 0.004190631 -0.010942199 0.0030529706 -0.0014093841 0.022607794 -0.0040391525 -0.013891005 -0.035224415 0.04995595 0.036146775 -9.861841E-4 -0.01678529 0.04709848 0.0049802205 -0.045751445 -0.03526489 -0.03692463 0.034555413 -0.019985998 0.0018401527 0.006260669 -0.017017215 0.007980244 0.042012736 -0.030880446 -0.023047313 -0.03627748 -0.015432242 -0.0060620443 -0.033360586 9.388037E-4 0.0076540173 -0.019806754 0.01085273 -0.015239381 -0.018292947 0.022703106 -0.012410487 -0.04049082 0.023105484 0.0031354437 -0.020303259 -0.0057454254 -0.011895016 0.02730665 0.035368577 -0.06182594 0.06192387 0.0028997709 -0.031762533 0.015509708 -0.08080191 -0.010100173 -0.022420065 0.008570488 0.034280118 0.042651586 -0.0017205626 -0.00298747 0.011488353 0.011164667 -0.030058239 0.007797483 0.002130106 0.0053021396 -0.06421975 0.035428043 -0.06665078 0.016682204 -0.011483116 0.0293916 -0.017019652 -0.017760493 0.0025189284 0.006061439 -0.017784843 -0.013099051 0.021413168 -0.015310528 -0.00311972 0.0015878023 5.1539184E-5 0.012926046 0.014281922 -0.0054651126 -0.012436968 0.017981315 -5.2955747E-4 -0.026108602 -0.013509549 0.03471119 0.021335525 -0.04714887 -0.020323927 -0.0072860504 0.026071884 0.021940276 0.009153125 0.0048567518 -0.06407684 0.0079452805 0.0014451543 -0.008228953 -0.007980906 0.0017810778 0.024367446 -0.008842899 0.03102004 -0.028540565 0.010181343 0.025947252 -0.010277023 -0.05310656 -0.016781805 -0.03660514 0.010165531 -0.019710815 0.027250266 0.017858613 -0.0165865 0.004218624 0.015044653 0.0033817573 -0.0058133425 -0.012125139 0.016499689 -0.0115411775 0.0134779615 0.0033184965 9.0249564E-4 0.0064629563 -0.04288075 -0.0021975073 -0.02845891 0.023122756 -0.026439015 0.0153095145 -0.04443014 -0.0016785474 0.020259358 -0.008477678 0.0043150983 0.011541696 -0.0037137382 0.0074034682 -9.998555E-4 0.012054626 -0.010869858 -0.004455796 0.015748862 0.014693825 0.0045414283 -0.052144557 0.008207472 -0.01255339 -0.013126146 0.003965964 0.02053531 0.036849927 0.06966517 -0.0055375313 -0.019299783 -0.0586426 0.02193395 0.0069393707 0.011537028 0.035094615 0.008958119 0.044904105 -0.032219697 -0.021099458 -0.05539396 -0.03325878 -0.032788746 -0.007784138 -0.008632695 0.0511726 0.023224903 -0.0041456353 0.005753929 -0.032747645 -0.00568301 0.033200815 0.032341115 -0.045279156 -0.006919097 -0.05185945 0.009122524 -0.0018956927 -0.014267971 -0.020096956 -0.021007992 -0.017233614 -0.024999246
department -0.04088769 0.017854337 -0.019261114 0.0033390045 -0.040910147 -0.015404493 -0.0021209903 -0.06831842 -0.031229377 -0.016898198 0.00750561 0.004484262 -0.012728429 -0.03214462 -0.10381355 -0.0065450496 -0.03131227 -0.010619161 -0.036133792 -0.010843568 0.01654031 3.8136543E-5 -0.028363435 -0.017461402 -0.02130615 -0.031608786 -0.094791494 0.037526853 -0.081934705 -0.096817136 -0.028377106 -0.0114220455 0.018103324 0.01937047 0.04652364 -0.004333306 -0.012103376 0.0026149831 0.064035915 0.006335517 0.049369246 0.0032052852 0.0033914947 0.045482934 -0.04397829 -0.061524183 -0.021100823 -0.010046606 -0.048864152 0.007617984 0.015147495 -0.025463512 -0.0048498907 -0.003352678 -0.036311414 -0.0049514356 0.029992273 -9.319805E-4 -0.018131422 -0.019486092 -0.024876533 0.022212094 -0.037043028 -0.037284356 0.005993981 -0.0012227055 -0.05404822 0.025136515 -0.027568175 -0.016252773 0.008360898 -0.003632363 0.05680259 0.028282965 -0.041764412 -0.014044491 0.042521443 0.008780453 0.03591219 -0.032730263 0.040272977 -0.0033515282 0.021438073 0.02559697 -0.049640674 -0.080892965 -0.060262073 0.037013955 0.03325395 0.056097098 0.046953853 -0.028750662 -0.020795682 -0.046047002 0.008842196 0.010766521 0.01686382 -0.0035012716 7.9994573E-4 0.005911985 0.035670202 0.037340134 -0.036984093 -0.014803774 0.036918446 -0.042129304 0.013234461 0.016393572 0.045513358 -0.064005755 -0.014737936 -0.06740187 -0.024386158 -0.01436424 0.047293436 0.030390842 -0.006602052 0.016361292 0.06750818 0.034178004 -0.06644709 -0.048433542 -0.042779606 0.032256186 -0.007540962 0.036813285 0.016661748 0.015686652 0.03993612 0.014637522 0.06212419 -0.03021422 -0.019394286 -0.016958361 0.0073676887 -0.02092124 9.472162E-4 -4.0537227E-4 -0.042202916 -0.020374743 0.010898656 -0.038308065 0.027135972 0.013144146 -0.03540594 -0.01140307 -0.016027257 0.0028130729 -0.041672528 0.021160536 0.04332809 0.026915206 -0.065016404 0.073019855 -0.0026934699 -0.022311818 -0.017339386 0.026164612 -0.0059623043 0.010117259 0.025219793 0.018506642 0.0039678104 -0.04171803 0.03446734 -0.0032674551 -0.029698813 -0.08197331 0.032182913 0.008875663 0.014078281 -0.08181782 -0.0036132087 -0.08094596 0.06546918 -0.022944666 0.052717514 -0.013881448 -0.02970599 -0.01505464 -0.05260244 -0.051050734 0.0023639814 -0.026671384 -0.060723927 -0.020927548 0.012103264 0.01704782 0.003333774 0.06339654 0.015064256 -0.066472985 -0.014178502 -0.013767722 -0.059580494 -0.021610549 0.032311495 -0.037485525 0.0053492486 -0.0031278306 -0.022733744 0.008727758 0.02024812 -0.010185847 -0.057907373 -0.04520922 0.05346353 0.0040613725 -0.005997695 -0.014297194 -0.018473327 -0.054813515 -0.04489511 0.028593827 0.01805349 0.03474923 0.0035578446 -0.014582405 -0.050138373 -0.009272498 0.017704 0.035384297 -0.037678167 -0.013211233 -0.013114341 -0.047867876 0.033686113 -0.010747373 -0.0073282453 -0.017207285 -6.222874E-4 0.0067204745 -0.035040896 -0.013093165 -0.04951341 -0.01443183 -0.027277097 -0.0045316736 -0.013913847 -0.036997408 -0.0023293644 -0.0106258765 -0.037494786 0.0071281507 -0.003987949 -0.047424395 0.032265127 -0.026632223 0.0041917837 -0.059616145 0.014860329 -0.0060749426 -0.006940976 -0.009618632 0.044141192 -0.02606617 -0.03729613 0.020230575 -0.032156657 0.028527612 0.03441487 -0.024875302 -0.005001865 0.04841577 0.02338095 0.030777961 -0.006847729 -0.009694274 -0.038678262 0.048928227 0.010486361 -0.009936053 -0.0072017326 0.026282663 -0.010772176 -0.04146716 0.033442132 -0.027116869 -0.023735484 -0.025833458 -0.09460711 -0.0285541 0.044165343 0.03153859 -0.013942616 0.064771995 -0.002936514 0.02560556 0.057924535 -0.0031962257 -0.017358875 -0.011348071 -0.054210175 0.030922858 -0.014607933 0.006547648 0.024708617 -0.03009125 -0.02011078 -0.0013253907
district 0.007805554 0.012381595 0.053301286 0.009164097 -0.028613513 -0.041455455 -0.04836188 -0.0669047 0.017499343 0.0027181022 0.012445132 -0.0059404275 0.052755155 -4.978826E-4 -0.020339884 0.014655318 -0.05426248 -0.018431935 -0.0049708365 -0.012522819 -0.049085967 -0.0058726314 -0.05764719 0.010995812 -0.030030128 -0.058608435 -0.058677983 0.048991036 -0.0013271347 0.025539791 0.032409236 -0.04573223 0.03820651 0.05773267 0.012211407 -0.045557898 -0.018013272 -0.023995025 0.05490207 0.051336475 0.002524232 0.028690388 -0.012288179 0.021058694 0.024859091 -0.011414705 0.03074146 0.03756894 -0.06159836 0.0382539 0.03250268 -0.038890988 -0.03859521 -0.010375604 -0.025334885 0.016591212 -0.047188547 0.029998368 0.015158325 0.0064501017 -0.09130825 0.033056706 0.013739891 -0.056983035 -0.009196529 0.03019697 -0.030330196 0.04845716 -0.0013321539 0.015386428 -0.040183216 0.051835343 0.06859986 -0.008622088 -0.0047180858 -0.03912614 0.08228037 -0.015601262 -0.047540482 0.075947925 -0.028851165 -0.05514711 -0.05402033 -0.029576316 0.0026259958 -0.01498843 -0.027516812 0.0042534745 -0.005223687 0.031472735 0.048309397 -0.108408645 -0.039647248 -0.034222417 -0.024918761 -0.031512573 0.0027044374 0.04540969 0.02317187 -0.0014109414 0.04068514 0.04713015 -0.029268365 0.01656182 -0.004186145 -0.037462257 0.021367881 -0.05709588 -0.011973217 -0.044120677 -0.017475158 -0.021070069 0.008397216 -0.031488907 0.012700718 -2.0783022E-4 0.04581528 -0.031434953 -0.0067979745 -0.0023194551 -0.011608191 0.04791174 -0.03589833 -0.015983474 -0.007237821 0.017681658 -0.027831754 -0.07791903 -0.00734046 -0.06449212 0.03339949 -0.045281596 0.0219561 -6.1279413E-4 -0.0027100928 -0.011775738 -8.841356E-7 -0.023678806 -0.01258252 0.05803752 -0.0359966 -0.03876222 -0.02092505 0.0027191825 -0.059108794 0.051976286 -0.003247559 0.014701362 -0.07838948 -0.014895814 0.05970628 0.0052884514 -0.034126453 -0.012321982 -0.015864994 -0.02098999 0.012057014 0.07001306 0.04238633 0.009244743 -0.060139418 0.022780519 0.034254514 -0.013601964 0.0089310035 0.014120039 0.09389533 -0.087817445 0.09292558 0.049189817 -0.058021896 0.014509606 0.007961872 -0.10926687 0.059576817 -0.061331533 0.034123562 0.046735883 0.023426116 0.011671936 -0.09574881 -0.019700669 -0.0077063544 -0.002029074 -0.047385544 0.023794577 -0.009955085 0.042898796 0.032641467 0.08051472 -0.0011697299 -0.047960114 -0.03899318 0.035608545 -0.108846955 0.021636695 0.014099807 0.024467355 -0.020979203 -0.0137649905 -0.021949615 -0.026243916 0.04430136 -0.06690402 0.026808744 -0.04918891 0.0061685853 -0.014215357 0.01863223 -0.027125841 -0.0043459935 0.032979816 -0.049133576 0.026778791 -0.0010093761 -0.0077531314 -0.032621503 0.036941152 -0.013878207 0.050955176 0.0363901 0.026574185 -0.014695628 -0.01398414 -0.039529532 -0.0010106154 -0.0045729615 0.013023721 0.031087633 4.605527E-4 0.0017746439 0.009816117 0.010735666 0.041050028 -0.040391475 0.058278 -0.026754733 -0.024730448 0.056996267 -0.04138632 0.016400268 -0.020233387 0.06996517 -0.010733406 0.033152312 -0.018057056 0.013711894 -0.012050346 0.032435797 0.049540237 -0.04199896 0.014931495 0.037500616 0.014819106 0.008832844 -0.073995315 0.045228463 -0.0013276264 0.013087632 -0.013456613 -0.043367058 0.007828883 -0.004532206 0.03892484 0.10729383 0.033485897 0.045321535 0.030994099 -0.0038196694 -0.028597478 -0.001661111 -0.011681455 -0.029663643 0.014781343 -0.005518264 -0.04999342 0.01549723 -0.038334414 -0.018792685 -0.03030613 -0.109119885 -0.03927508 0.04757613 -0.0032083504 0.043353744 0.027097989 -0.03849963 0.0118033495 -0.012721747 0.0077211093 -0.057071146 -0.06646085 -0.024332112 0.0089728655 0.039980568 -0.07659447 -0.050185055 -0.047976673 0.066823155 -0.0079964
doctoralAdvisor -0.013129077 -0.021024387 0.0135414805 0.03216755 -0.0014773775 0.11186644 0.063118786 -0.0787638 0.035575964 -0.063296035 0.046764806 -0.010733481 -0.0076390486 0.012878479 -0.089726776 0.08435988 -0.0028742356 0.017979275 0.02436098 -0.07402667 0.07181108 0.047113992 0.007418287 -0.002849836 0.029765073 -0.035543427 -0.036821514 -0.010788739 -0.09063959 -0.0501986 -0.0016338123 -0.027911153 -0.033457704 -0.0152291 -0.014459653 0.0041931756 -0.058555745 0.012602581 -0.01489641 -0.05167252 -0.02880209 -0.052508846 -0.055443183 0.02292503 -0.04088949 -0.035091918 -0.013306828 -0.08352995 0.03210588 0.025403153 -0.054210134 0.037397247 -0.035366595 0.06331507 -0.060490012 0.0020943442 -0.017628007 -0.07891111 -0.03220585 -0.071199894 0.0032200932 -0.0487374 -0.021587927 0.0026282733 0.011493527 -0.0051543624 -0.02327066 0.029236091 -0.021379594 -0.026416507 -0.0031962572 0.0031853355 0.06114922 8.1820507E-4 -0.07017234 -0.044115916 -0.0042450572 0.06893701 -0.011647122 0.04467857 0.054642126 0.011318471 -0.019248404 0.031105377 0.03025792 -0.0033350168 -0.015308674 0.019509139 -0.033632502 0.015651654 0.020530695 -0.045558248 -0.08633749 0.05957851 0.046213415 -0.008034612 0.029805712 -0.0022744434 0.04205528 -0.050281923 0.028444951 0.0021578353 -0.051627357 0.020440485 0.0010040896 -0.028760087 -0.08185587 0.0020821337 0.037085317 -0.073817655 -0.018750153 -0.0011301804 -0.009676193 0.06339282 0.0015406185 -0.04656577 -0.05603142 0.026668448 0.0830833 0.008865519 -0.017847635 0.03739799 -0.04704959 -0.010605682 -0.034981392 -0.0044959784 0.023181897 -0.019429285 0.05659301 0.14489673 -0.055262685 -0.08807499 -0.045813285 0.011174889 -0.012570734 -0.014016339 -0.011622023 0.04519373 0.0076801362 0.051503003 -0.049788944 0.03394146 0.0053006825 0.014611833 0.035389934 0.041381266 0.0117780585 0.024953004 0.039082028 0.03451361 0.046492234 0.02926777 -6.5380894E-4 -0.009104143 0.020748256 -0.06712147 -0.016890643 0.007703752 -0.0031241989 -0.03017008 0.0031368013 0.014966374 0.036172837 0.058657013 0.028214527 0.03164906 0.033363912 -0.049538717 0.03234829 -0.007069234 0.030328628 0.081621535 0.032121878 -0.011578818 0.044368945 -0.020537768 0.016461805 -0.0027197008 -0.0049075945 0.029697087 -0.028759029 -0.029054143 0.03454683 -0.022228379 -0.05255958 -0.059975073 -0.033598315 -0.017153159 0.022958897 0.03793536 -0.048463337 0.012851809 6.036408E-4 0.030912008 0.017790243 -9.015128E-4 -0.01134601 -0.067201644 0.030969564 0.025194874 -0.05332803 0.07086608 -0.0321771 -0.013698263 -0.041778408 -0.03391442 0.004335208 -0.01610151 -0.035770535 -0.014364155 0.012484504 -0.048490856 -0.0012837639 -0.014282113 0.021928232 0.029894337 -0.018730711 -0.027597586 0.06368338 -0.016486192 -0.019399218 -0.013123346 -0.044704214 -0.01432869 0.007350745 -0.060073204 0.04150161 -0.030263903 -0.017978221 0.020697767 0.026547408 -0.014318008 -0.07266523 -0.07371281 0.018546311 0.0074468483 0.023175005 -0.033296954 -0.046821747 -0.012607245 0.028965669 -0.02498005 -0.054810237 0.012103776 0.016640732 -0.009561071 -0.015027653 -0.01915171 0.03181014 -0.030184317 0.014234386 -0.028719759 -0.011184694 0.03300363 0.027917014 0.040796205 -0.03199534 -0.02664816 -0.047792725 -0.020033725 0.045121163 -0.008191072 0.02148696 -0.041639484 -0.0057727234 0.043268763 -0.034949243 0.022185657 -0.058056116 -0.014558364 0.0052210093 -0.05693472 0.04203877 0.022862714 -0.025888776 -0.016833104 -0.003968334 4.7301315E-4 0.048472412 -0.008077303 0.016202716 -0.04227697 0.0024133679 0.028438056 0.017089136 0.040886506 -0.024347052 0.054650337 0.059293732 8.329733E-4 -0.0067735333 -0.0113609545 0.010215458 0.025702285 0.04108 -0.015506886 -0.019765425 -0.037715092 -0.011369283 0.043735214
doctoralStudent -0.02427778 -0.005433157 0.026363987 0.06818878 0.034161866 0.015676813 0.072161764 -0.015289458 0.012076352 -0.07601863 0.019682981 0.008238259 -0.012918214 0.002737859 -0.030151187 0.032168537 -0.0106422305 0.012836156 0.015343672 -0.042423785 0.026602997 0.028223537 0.015268028 0.01915234 -0.011441402 -0.092237525 -0.05029359 0.0014641498 -0.022056468 -0.02359484 0.011854857 -0.035346024 -0.035668243 0.01133646 -0.016062636 -0.028635599 0.01097548 0.011622772 -0.037662867 -0.014892559 -0.023756562 0.023049396 -0.014929308 0.030672004 8.952444E-4 -0.057415076 0.015017538 0.022814654 -0.029333387 0.02194066 -0.02482528 -0.031774543 0.010718429 -6.4091396E-4 0.05571237 0.023706784 -0.046873793 -0.046115756 -0.012239413 -0.05813785 -5.8105466E-4 -0.04280531 0.04113631 -0.061729234 -0.01539549 -0.0053582615 -0.017964333 -0.007878721 0.017304175 -0.008893128 -0.08016254 0.032006167 0.022928849 -0.013163753 -0.0028998754 0.026790697 0.015404548 0.010828378 0.04391119 0.0075837933 0.03150029 -0.014968067 -0.021855732 0.04951839 -0.04139621 0.029247265 -0.04281473 0.04363025 0.0038340213 0.013663851 -0.03141986 -0.08254775 -0.026321184 -0.032008544 0.01802068 0.0014448919 0.088703796 0.047864117 0.0057691922 -0.06104877 0.028206892 -0.021535922 -0.054951858 -0.03382808 -0.009810172 -0.06310127 -0.021589547 0.010593254 0.07810432 -0.048980203 -0.06230361 0.017225994 -0.01812731 0.0013526067 0.033576287 -0.008396333 -0.004465542 -0.035183482 0.08159637 0.024507433 -0.0043705013 0.049167745 0.015304155 0.028397959 -0.04117022 0.012966002 -0.010428118 0.012044906 -0.009144055 0.07244869 0.011305571 -0.07574305 -0.030219048 -0.04635177 -0.009295727 -0.04567748 0.010613717 0.0063684075 -0.0346598 0.042770587 -0.08231266 -0.037073888 -0.047282204 -0.0064170277 -0.013657774 0.03828022 0.022753384 0.0758926 -0.0073000393 -0.015663767 0.0774913 0.0077495533 -0.037097104 0.039620306 -0.0015595829 -0.061263464 -0.030196024 -0.037552737 0.0070977816 -0.015565935 -0.01627416 0.05633595 0.02384393 0.07358337 -0.0076374207 0.03582584 0.07851882 -0.037171643 0.013867619 -0.0032917592 -0.011731589 8.7946904E-4 0.00233242 -0.017008446 0.052049287 0.021230727 0.016466796 -0.02350849 0.0119876675 0.02193762 -0.01413327 -0.050993226 0.024095923 -0.03687374 -0.010921131 0.021639926 -0.027813215 -0.014417874 0.008103806 -1.7856061E-4 0.01651855 -0.042789903 -0.027006116 0.07324469 -0.056014 0.0033051025 0.060723603 -0.046086743 0.014515902 -0.011020111 -0.056206107 0.045295097 0.05668206 -0.061526492 -0.06330933 -0.07725024 0.021475878 -0.024166722 0.015207797 -0.012209693 0.05254314 0.0034907046 0.037204113 -0.03456823 -0.02825055 0.036878012 1.6996886E-4 -0.01118321 -0.021462929 -0.039458465 -0.016759181 -0.008993595 0.036116917 0.009619554 0.06053273 0.019790025 0.038701117 -0.030831307 -0.014289733 -0.014629624 -9.406358E-4 -0.010001409 0.0033230572 -0.0066484082 0.0052111493 -0.03129168 0.04280786 0.013614899 -0.022220232 0.069371924 0.04107829 -0.031759076 0.006110677 -0.00615297 -0.045137443 -0.055190533 -0.053635504 -0.011086663 -0.032622933 -0.022963135 0.0026727316 -0.032365527 -0.009391616 0.0507705 -0.010324209 -0.050421923 -0.014290391 -0.011592833 -0.072170734 0.04822368 0.027971413 0.013458464 -0.01719943 -0.026099902 -0.0012697466 0.02773662 0.009773514 0.019016197 -0.107715815 0.021547101 -0.02947506 -0.03506865 0.007399976 0.04087339 -0.03075572 -0.04747218 -0.008934337 -0.07566043 -0.012106037 -0.026206477 -0.010787196 -0.00675242 -0.020773306 0.030650299 -0.02111902 -8.956967E-4 0.008396889 0.023961406 0.08773321 0.0260865 -0.06828572 -0.0051537626 -0.0676496 0.010487071 0.020068016 0.042866565 -0.010306435 0.025409464 0.03122146 0.013934618
employer 0.03494697 -0.06435642 0.007635237 0.04220323 -0.0046405843 0.023569183 0.013451998 -0.002532615 0.03123278 0.0029272272 -0.006973839 0.032679982 -0.007093894 -0.058726586 -0.027087739 0.04558773 -0.05079449 0.035676733 -0.013330213 0.0011797429 -0.045222007 -0.029623235 0.015389727 -0.034964796 0.027407218 -0.035047866 -0.08887348 0.04860209 -0.003191176 -0.0606953 0.0010193952 -0.045048147 -0.06301811 0.021830797 0.013186459 0.025264835 0.027299663 0.036118675 -0.034017153 0.002307564 0.028671045 -0.028538734 0.003640415 0.015407547 -0.056601536 -0.055045374 -0.06555417 0.0038798437 -0.010737106 0.011926317 0.023980925 -0.042924237 0.03462191 0.019840261 0.021057779 -0.041558255 0.0046162093 -0.028863162 -0.035653826 -0.030404178 0.017921487 0.034276783 -0.09803926 -0.044582505 -0.022018768 -0.018788625 -0.015338204 5.927898E-4 0.043543972 0.00997618 -0.05545939 0.00708607 0.052022446 0.028795421 -0.008673731 -0.01055537 -0.01484001 -0.0060896114 0.010203953 0.0011105031 0.0024470598 -0.063229084 0.0097136665 0.061012693 -0.020301057 0.02229333 -0.041591723 0.050832015 0.008020307 -0.035977174 0.03691582 -0.03037013 -0.06414656 0.006293771 0.01838818 -0.0029757544 0.01929791 -0.0015719861 0.07865294 -0.032193623 -0.021886202 -0.10533642 -0.02612104 0.040014293 0.011042996 -0.07816184 -0.008122778 0.018510396 0.0034236384 -0.069157116 -0.021720331 -0.038306944 -0.05347183 -0.050126832 0.024589052 0.017921535 0.008561246 -0.010500505 0.05158756 0.059692305 -0.0038949482 0.0073440294 -0.06369847 0.011996527 0.033234574 -0.018174872 0.013582724 -0.06261452 0.007535023 0.011728225 -0.051648863 -0.0534181 -0.024932817 -0.03721708 0.0032230522 -0.035775386 -0.044359356 0.023838857 -0.01743429 -0.022111792 0.050716687 -0.037992403 -0.007983766 0.06897648 -0.037895486 0.009643494 -0.027584298 0.031899784 -0.0054213726 0.020445617 0.078619055 -7.8554155E-4 -0.017716078 0.0070083938 -0.018831749 9.130444E-4 -0.023948327 -0.010684344 -0.015066673 0.011859909 -0.011631737 0.032105085 0.022549104 -0.02460659 -0.022114206 -0.020207543 -0.049095217 -0.04663288 0.017504377 0.019922342 0.02755979 0.03227816 0.018879436 -0.047883768 6.058034E-4 -0.016667897 0.010658066 0.0275208 -0.024489073 -0.020754745 -0.0455279 0.007267486 -0.041194018 -0.052597083 -0.04304497 0.015814176 0.015517506 0.066731416 -0.007877494 -0.0134106595 -0.06252384 0.039983135 -0.0074221003 -0.0058198622 -0.03504357 0.006599851 -0.04738563 0.0010649062 -0.020644182 -0.036161777 -0.017640276 0.04759888 -0.017955333 0.025217367 -0.06795941 -0.036321957 0.0024738375 0.02323631 0.04667535 -0.07485386 0.039742254 -0.055670846 -0.029429067 0.049698327 0.033898063 0.03499895 -0.032546464 0.0155397 -0.0846409 0.06592523 0.002184298 0.010710513 0.019892951 -0.001656233 0.015437729 -0.021567343 0.029934956 0.01091852 -0.046735603 -0.035212513 0.03198738 -0.006730694 -0.034408025 0.006693475 -0.027991021 -0.04002415 0.011988556 -0.055740066 -0.014399486 -0.051000275 0.0033295862 -0.031401735 -0.026613748 -0.046366733 0.0695997 0.00916749 -0.055467345 0.034373134 -0.0075759827 -0.08957457 -0.025882274 -0.03847783 -0.024017313 -0.034874674 -0.011229354 -0.033582296 9.282306E-4 0.04386683 -0.034092534 0.056419212 -0.024726814 -0.04305044 -0.023535881 -0.012483044 0.005338879 0.062537335 -0.0042505697 -0.0033275455 -0.028867824 0.014652786 -0.007425709 4.8462674E-4 0.027001703 0.0028418154 -0.025851656 -0.01437259 -0.008027825 0.0150061725 0.012245779 -0.0032407604 -0.049663037 -0.037219692 0.004235841 0.100469366 0.012791636 -0.0033671816 -0.011094322 -0.013828443 0.058407035 0.032035742 -0.014161924 0.0028882846 -0.0548712 0.017291052 0.009824755 0.020302381 0.0267156 -0.013243769 -0.012746364 -0.03719305
formerBandMember 0.01059673 -0.016288567 -0.0020752882 0.0037392795 -0.0153692635 0.0035309964 -0.04605113 -0.04529734 0.036608268 -0.03266682 4.6016736E-4 -0.024708249 0.008922596 0.024141857 -0.05375463 0.013289922 0.030860797 -0.014093377 -0.024896108 -0.01735151 0.0036234944 0.0608191 -0.07010831 0.0056330105 -0.023443568 -0.020181904 -0.05382646 0.023073934 -0.037539903 -0.024239369 0.013232655 -0.011928272 -0.037834357 0.029525436 0.028762078 0.0032982202 0.014609901 -0.026951926 0.027115399 0.015551814 0.0018789711 0.014789173 0.006522463 0.009819501 -0.009789267 -0.049244992 -0.051117193 -0.026814492 -0.007872002 0.003632118 -0.0027180258 -0.005255807 -0.004233178 0.029081231 -0.018384201 0.026130611 5.174313E-4 -0.01402934 -0.025871107 -0.033653397 -0.010574262 0.027980182 -0.020672208 -0.015972793 -0.0036429542 -0.0074042846 0.010597765 0.024557957 0.009360949 0.05533109 -0.03294844 -0.029527945 0.05449624 0.0041618296 -0.02515501 -0.03081213 0.0054002847 0.0049005216 0.040877733 0.005397244 0.024995426 -0.033357996 -0.003433725 0.042011768 -0.029301746 -0.07177717 -0.05916912 -0.032564443 0.042428084 0.005224088 0.04339317 -0.028556442 -0.011849539 -0.049526826 -0.009391156 -0.00787308 0.006327807 0.03811793 -0.022483604 -0.036083005 0.027178187 0.0021765267 0.004751669 0.031367324 -0.022620922 -0.023407668 0.033748437 -0.01340642 0.02236161 -0.01197102 -0.025698029 -0.012557399 -0.005685303 -0.014852192 0.023102904 0.028613666 0.013262967 -0.005038347 0.06403293 0.007471664 -0.011357415 -0.03518379 -0.045972176 0.009822677 -0.013802577 0.016342625 -0.010307376 -0.010619827 0.0059650927 0.05426132 0.03371164 -0.047038414 -0.023818253 -0.016041135 0.0027002648 -0.018457685 -0.0036320963 0.0012511148 -0.0072271647 0.0076103765 0.0015745198 4.4888203E-4 -0.021763299 -0.005177747 0.0043962244 0.004814754 -0.0066527463 -0.022479123 -0.003767808 0.00581084 0.059498783 0.028489618 -0.027027456 0.045578822 0.053088162 -0.018592907 -0.023910774 -0.01745214 0.043449927 -0.017671926 0.029091187 0.03701607 0.031132016 0.010070187 0.01234835 -0.020818993 -0.0051986794 -0.008218579 0.025248308 0.01581502 0.0031449506 -0.030138709 0.019344548 -0.07812788 0.052268893 -0.051506046 0.008467103 -0.008582483 0.028930772 0.00205622 -0.015746811 -0.014768028 0.013266974 0.029652303 0.007482749 -0.0056061023 0.021329239 -0.0033734785 0.005082172 0.010941872 -4.7172693E-4 -0.021949459 -0.0019535918 0.010706662 -0.033732403 -0.0064624534 0.02763155 0.014703516 -0.01069662 -0.042057533 0.023222929 0.0065090745 -0.0041304547 -0.0069885575 -0.018988892 -0.058879703 0.013266366 0.02248395 0.006145406 -0.017728105 -0.0024545935 -0.024625251 -0.0045586894 0.02265618 -0.010456097 -0.013782156 -0.045732684 -0.014003697 -0.03792325 -0.035917263 0.00419558 0.010781694 -0.0026738525 0.0062932055 0.0512538 -0.010444911 0.040463418 0.017405627 0.04113136 0.00896995 0.002543614 -0.026371395 -0.014123247 0.0039017228 -0.0025914386 -0.012369406 0.03407309 -0.030992527 -0.002959391 -0.020718265 -0.025368918 5.3071935E-4 -0.012705541 -0.0036998542 0.01641392 0.024249462 0.02081096 0.01888826 -0.010193204 -0.021723446 0.022485878 -3.5119816E-4 -0.022461016 0.0109953955 0.005472887 -0.009566486 0.04830365 0.0053124526 -0.0016194904 -0.008380377 3.1062905E-4 -0.007561802 0.011084744 0.012644785 0.019768951 0.054808773 -0.036385514 0.053398434 -0.034090575 0.0012963432 0.028049918 0.006276494 0.02304243 0.031146985 0.019548759 -0.0627698 -0.034810796 -0.009375443 -0.027242633 -0.02973538 -0.0125247715 -0.026296549 -0.030440891 0.04020553 -0.0036869915 0.005964821 -0.030782942 -0.0010138556 0.040034343 0.013790706 0.0024967454 0.012574953 -0.04931234 -0.0041955323 -0.011354743 -0.033467997 0.020374127 0.0037086024 0.0025328782 -0.022608377
formerTeam -0.032257967 -7.126238E-4 0.018778408 -0.01911446 0.00917602 0.008728635 -0.0031900853 -0.034320526 0.046126883 -0.0019390536 -0.011438733 -0.041347675 0.012035173 0.03175045 -0.0524229 0.032541312 0.020218797 -0.023979368 0.035244163 0.008264346 -0.018805832 0.04902357 -0.057944924 -0.02438779 -0.011957607 -0.01908385 -0.045635927 0.062359907 -0.007783141 0.009368923 0.0061899023 -0.030553125 -0.007160697 0.03276287 0.038377363 0.010442828 0.023923032 -0.04247248 0.020663857 0.018026046 0.042850792 -0.049480207 0.0010453211 0.005884243 -0.005834305 -0.042267796 0.017001264 -0.029374324 0.001462552 0.014082713 0.03185051 0.0053092474 -0.012218299 0.020966154 -0.019801911 0.016486926 -0.018043838 -0.0029033355 0.018312512 -0.03474598 -0.06484045 0.030194484 -0.030814957 -0.009879986 0.0045076767 8.054795E-4 0.011495094 -0.007306307 -0.009205456 0.010756996 -0.0114052445 -0.011137119 0.018865075 -0.003979042 -0.019557834 4.0157326E-4 0.006327349 0.024911288 0.024035858 -0.020321598 0.023016432 0.006663032 0.010728484 0.022165203 0.009401882 -0.09145217 -0.052917458 0.020112175 -7.826453E-4 0.023866344 0.025198935 -0.0070246207 -0.018034888 -0.0324276 0.006631744 -0.01098326 0.004207129 0.03207236 -0.014666897 -0.007153238 0.04812223 -0.0064594606 0.01691793 0.010129088 0.019723997 -0.008799571 0.02772376 -0.005828736 0.021365315 0.005644257 8.561141E-4 -0.0029490758 -0.014121171 -0.017482184 0.036066726 0.060486093 0.018416284 -0.0020098323 0.055956814 0.007494246 -0.06715095 -0.039545078 -0.041278865 0.04196518 -0.032063857 0.008142978 -0.0029495207 0.00323629 0.017067883 0.049529683 -0.007705588 -0.05096653 -0.052461773 -0.012957412 -0.0047913473 -0.017981606 0.004582339 0.027032629 -0.029761348 0.03884319 -0.006620416 -0.0049830866 0.01630992 0.006052288 -0.006560335 -0.010742897 0.008276782 -0.002702877 -0.02277569 -0.009861582 0.06206815 0.048403375 -0.038962632 0.036696732 -0.010059757 -4.63482E-4 0.014844291 -0.025517005 0.023459226 0.010004803 0.04126329 0.050521757 0.020680478 -0.012096469 0.017680865 -0.017548235 -0.002906689 -0.022843342 0.020561561 0.008892411 -0.0036177123 -0.038927823 0.008546019 -0.08235788 0.040518463 -0.036557265 0.037961327 -0.008634234 -0.0027672194 0.010686363 -0.012462283 -0.008273978 0.004623888 0.048261613 0.010891469 -0.011765745 0.04056704 0.011045626 0.023404088 0.029758174 0.0072460053 -0.003415526 0.012558164 0.020055294 -0.02923517 -0.01587411 0.028789023 0.0032798254 -0.023425367 -0.019536931 -0.0134078665 0.019164134 0.012727523 0.011795273 0.02305131 -0.057307616 0.025540266 -0.013512261 0.011435941 -0.009361553 -0.015094243 -0.018313166 0.005890716 0.05758743 0.009242837 -0.003335286 -0.0022493256 0.011809171 -0.07133713 0.0047943695 -0.016338754 0.022285705 -0.025705038 0.0031071915 0.030391805 -0.027047634 0.020759244 0.034014687 0.035272237 -0.005908096 0.015430524 0.0014697332 0.026213918 0.0011392692 -0.02765529 -0.00397889 0.0040511424 -0.039295517 -0.0017178311 -0.01678203 0.0016135466 -0.02968764 0.032671764 -0.006285147 -0.007837309 0.03161443 -0.025337148 0.010903781 0.010829546 -0.02424494 0.010769711 0.015332593 7.863566E-4 0.018588405 -0.019395372 -0.01569662 0.043218248 0.009661695 -0.031585928 -0.003758451 0.029283134 -0.0069777267 1.8693972E-5 0.046329785 0.054878883 0.08039507 -0.027542097 5.6083873E-4 -0.028865566 0.016168565 0.028952956 0.006368301 -0.0021273373 -0.029199181 0.011739222 -0.021502703 -0.009303434 -0.03039319 -5.4952316E-4 -0.0475206 -0.033051934 -0.007959206 0.035274945 0.027493455 -0.010805287 0.011691207 -0.036959738 -0.0037514437 0.034992978 -0.0012232317 -0.049506783 0.009440485 -0.021361768 0.014642259 0.0053397277 -0.017179944 0.0013751127 -0.034405526 -0.0212715 -0.019330114
foundationPlace -0.039457723 0.003082348 0.045310497 0.009329819 -0.047097195 -0.015143181 0.030346792 -0.07245833 0.03352493 0.02997644 -0.0077823224 0.004360093 0.031234156 -0.016828863 -0.029897971 0.0066875876 -0.015317754 0.03284151 -0.0063545895 0.015323432 -0.012893135 -0.007907135 -0.011039029 -0.017476033 0.018700816 -0.0402546 -0.04662098 0.02388753 -0.023508547 -0.046653733 -0.016229685 -0.035329908 -0.015763741 -0.007991591 0.006922008 -0.0023532053 -0.016169963 -0.013335722 0.020165194 0.013788812 0.019930065 -0.017342335 0.01126429 0.023175195 0.024943255 -0.050977767 0.0035009454 -0.005960379 -0.004251576 0.026186813 0.03866264 6.5838825E-4 -0.012191137 -0.047171008 -0.014648116 0.02060794 -0.052533906 -0.02631743 0.0035089715 -0.038835652 -0.015244912 -0.015777677 0.0042013084 -0.037144743 -0.019632597 0.0076507106 -0.04612322 0.025404092 0.016390223 0.004184567 0.008216035 -0.045959197 0.067192435 -0.0065308185 -0.016022174 -0.06915168 0.013578966 -0.025586396 0.02476627 0.041176043 -0.011277454 -0.03161964 0.0052539697 -0.03643906 0.01107 -0.05121954 -0.0050386875 0.03126628 -0.02852619 0.02375925 0.03254512 -0.05721513 -0.0021034135 -0.023862636 -0.007880542 -0.008994479 -0.019070089 -0.008647104 0.030358478 -0.044957615 0.001970599 -0.009509003 0.0010423381 0.019578656 -0.007153648 -0.04571729 -0.010889996 -0.008238574 -0.0063178693 -0.012066308 -0.03651637 0.0018062415 -0.018897831 -0.013977997 -0.0026253238 -0.005232199 -0.0035541216 0.0074937856 0.006284617 0.058609925 -0.039464492 -0.01623553 0.00939659 0.06771355 -0.03717426 -0.034124136 -0.02073478 -0.02030771 -0.020484373 -0.01799421 0.0010105129 -0.06204155 0.01391189 0.009818995 -0.012886527 -0.026001634 0.014066601 -0.01647329 -0.0058889603 0.030770779 -0.011784073 0.010595777 0.027968865 0.011716242 -0.024622846 0.019659894 -0.027907211 -0.0029947544 -0.026594104 0.0028096037 0.0045019006 0.008670768 -0.02457077 0.009522733 -0.01847111 0.007406602 -0.0063415114 -0.0015821857 0.011069106 0.016150162 0.014980957 0.03024827 -0.0034936452 -0.01781941 -7.2530657E-4 -0.005507127 -0.013083545 -0.023971647 -0.010307252 0.013084088 -0.02515539 -0.0033727698 0.024735264 -0.038790524 0.026972184 -0.01303949 -0.015515333 -0.056126446 -0.019139593 0.012571203 -0.07109919 -0.013086493 0.010299113 -0.016301867 -0.015098602 -0.01202631 0.024999881 0.021518797 0.051974006 0.0720896 -0.014325284 0.003694071 -0.0062287617 -0.01027838 -0.07188856 0.02258297 -0.01208192 0.02435383 -6.1371736E-4 -0.03867068 0.002720669 0.04462316 -0.031620767 -0.035549436 -0.0015485343 -0.0304147 -0.00850286 0.0072849086 0.021742612 -0.01952509 0.007845379 0.020466987 -0.046907082 0.034313876 0.007725184 -0.00698394 0.00889294 0.022531977 0.003262616 0.016977858 0.009379283 0.028475875 -0.0036801975 -0.0013648346 0.019632813 -0.014148731 0.026914474 0.018130656 0.013427887 0.0079501085 0.034650378 -0.019184424 0.011066517 0.018746218 0.02891711 0.019229038 -0.021827277 -0.018952684 0.05035735 0.008961992 -0.009848167 0.0067009227 0.0059981584 -2.478091E-4 0.008089929 0.004867017 -0.022044927 0.0068698414 -0.021325476 -0.0047682836 0.015820628 0.010174468 0.003530004 -0.0042878725 0.029054765 -0.041865174 0.003113294 -0.0024117748 -0.03478175 -0.023153078 -0.006729059 -0.022880219 -0.016732028 0.028086506 0.049114734 0.040355075 0.039953984 -0.04856021 -0.03386797 -0.023816036 -0.011425709 -0.008389566 0.01922509 0.028831353 0.008139068 -9.413115E-4 -0.047721382 -0.015724286 -0.038856976 0.013345111 -0.029536813 -0.024399081 0.03236509 0.06370475 0.015596891 -0.029026106 -0.026460692 0.010717757 0.011760986 0.008650918 -0.041623216 0.023190869 -0.0601432 -0.003300934 0.030417196 -4.666783E-4 -0.010580309 0.013282746 0.021152 -0.025835719
headquarter 0.008334362 0.014970982 0.079022095 0.005479071 0.030250646 -0.07408322 -0.07686134 -0.08396097 0.023922704 0.05247561 -0.05154957 0.007871342 -0.072539814 -0.005517656 -0.073465854 -0.031639706 -0.04691937 -9.260402E-4 -0.08334362 0.061427332 0.005363316 -0.030250646 0.045067288 0.026855165 -0.045684647 -0.05741449 0.074391894 0.013273243 0.012192862 -0.12717618 0.05895789 -0.073465854 -0.05648845 0.07099641 -0.028398566 -0.082726255 0.04444993 -0.011035312 0.034263488 -0.082726255 -9.10365E-5 -0.010340782 -0.039511047 0.06204469 -0.0075240764 -0.05741449 -0.065748855 -0.011961352 -0.035498206 0.07840473 0.043832567 -0.033800468 0.15742683 -0.013041733 -0.13273242 -0.10495122 -0.09383874 -0.040128406 0.031022346 -0.10556858 -0.023768364 -0.06698357 -0.017749103 -0.13705395 -0.012424372 -0.08889986 -0.0039549633 0.13273242 0.020527223 0.009954932 -0.017286083 -0.006135016 0.012655882 -0.0068681315 -0.04877145 0.028398566 0.020990243 -0.06821829 0.029170265 -0.10495122 0.10742066 -0.018983824 -0.06790961 -0.003221848 -0.05926657 -0.093221374 0.08581305 -0.04722805 0.015511173 0.004591616 0.042289168 -0.04722805 -0.014044942 -0.031639706 0.0038970858 0.042289168 0.040128406 -0.030559326 0.035035186 0.06204469 -0.056797132 -0.034263488 0.05093221 0.16668724 0.069453016 -0.027472526 -0.05432769 -0.029324606 0.0022282843 -0.035035186 -0.04074577 -0.10742066 -0.0851957 -0.1006297 0.037813306 0.05185825 0.091986656 0.008064266 0.019215334 -0.039511047 0.021144584 -0.11112482 -0.1703914 0.078096054 0.021761945 0.09075194 -0.06544017 -0.005054636 0.10618594 -0.012578713 -0.031639706 -0.011343992 0.09075194 -0.05587109 -0.04722805 -0.078096054 0.024077045 -0.039511047 -0.06266205 -0.033954807 -0.0095690815 -0.013581922 -0.007485491 -0.016514383 -0.015665513 0.04630201 -0.030096306 0.04167181 -0.013041733 -0.017131744 0.029633285 0.122854665 0.008488702 0.005479071 -8.6816266E-4 -0.08025681 0.032874428 0.023151005 -0.038739346 -0.043215208 0.011189652 -8.778089E-4 -0.07500926 -0.043215208 -0.021916283 -0.0010562646 0.035498206 -0.023459684 0.012578713 0.041980486 0.033337448 -0.019138163 0.10124706 -0.04167181 0.04815409 -0.113594264 0.06513149 -0.026392145 0.022224965 -0.1518706 -0.04784541 0.005517656 -0.06914433 -0.021453263 -0.004128596 0.058649212 0.028089885 0.05340165 0.061427332 0.025620446 -0.05062353 0.04167181 -0.10124706 0.082726255 -0.024848744 0.014585133 -0.027318185 0.072539814 0.10433386 -0.076243974 0.0027395354 0.124706745 0.021298924 -0.029941965 0.07007037 -0.05154957 0.09939498 0.015356833 0.124706745 -0.030404985 0.04537597 -0.04908013 -0.10865538 0.0018134953 0.029324606 0.04877145 -0.05185825 -0.019909864 -0.05401901 0.042289168 0.04630201 -0.0026623656 -0.05000617 0.0036269906 -0.05432769 -0.018520804 -0.17533027 0.028244225 0.023922704 0.018443633 -0.016900234 -0.05710581 -0.07562661 0.014816643 0.047536727 -0.06790961 -0.07192245 -0.014970982 -0.013350412 0.04691937 0.022379303 -0.034417827 -0.003106093 0.05000617 -0.023305343 -0.0074083214 -0.09136929 0.028707245 -0.008797382 -0.007948511 0.005208976 0.064822815 0.05525373 -0.076243974 -0.005980676 -0.063896775 -0.08210889 0.063896775 -0.023614025 0.009376157 0.0023536854 -0.06513149 0.045993328 0.011112482 0.12038522 0.069453016 0.05463637 -0.032102726 -0.016900234 0.06636621 -0.0011286115 0.004977466 -0.015974194 -0.11791578 -0.010417952 -0.06698357 -0.022533644 0.07161377 -0.033646125 0.010880972 -0.032257065 0.044758607 -0.065748855 0.041363128 -0.04444993 0.07686134 -0.029170265 -0.04877145 -0.009877762 -0.06513149 -0.115446344 0.023151005 -0.016823063 0.04444993 -0.036887266 -0.021144584 0.012501542 0.079022095 -0.028398566 0.008488702
hometown 0.003657747 0.05926265 0.011407901 0.0067325393 0.0029063667 0.016892508 -0.008583539 -0.03598229 0.014985895 0.019414172 0.0073348307 -0.032359645 0.005510876 -0.022971604 -0.040561285 -0.017098872 -0.022416629 0.049578715 -0.0010828472 0.010759312 -0.030740533 -0.021598594 -0.019696966 -0.007925693 -0.012045444 -0.03215465 -0.028301407 0.04391869 0.0040757414 -0.02450728 0.034981012 -0.013956489 -0.02465224 0.038089246 -0.011017948 -0.041927192 0.013078743 -0.06265841 0.03008831 0.0453524 -0.015759418 0.035654288 0.049180895 0.010808928 -0.046502665 0.025300652 0.0019193818 0.007400942 -0.028235732 0.03605827 0.02288788 0.018144207 0.029779617 -0.02532193 -0.02150874 -0.05153195 -0.028138293 0.040918775 0.0076750973 -0.006219439 -0.003836466 0.004525312 -0.038667835 -0.026203379 -0.026397798 0.00787866 -0.03594277 0.04490786 0.00995314 0.026001299 -0.0019422881 0.0079053715 0.023960046 -0.011578962 -0.01643878 -0.003908558 0.01881181 -0.0101472605 -0.0017765113 0.008129644 0.0047865026 0.017959036 0.008252849 0.0061431825 -0.017775971 1.3692398E-4 -0.052787587 0.036853615 0.06087499 0.018358853 -0.0041995076 -0.021738775 -0.0673814 -0.08498929 -0.07221014 0.035103664 0.001583887 -9.6641434E-4 -0.008157929 -0.045769826 -0.025342613 0.029163348 0.04322715 0.04670692 -0.04146857 -0.04464344 0.024995925 -0.036322884 0.010995036 -0.075752914 -0.011136377 0.0027197306 0.03966695 -0.033986248 0.017716836 -0.023463171 0.0048240926 -0.015934698 -0.023449019 -0.004909235 -0.055399135 -0.009162102 -0.06334935 0.01372418 0.016649116 0.03836394 -0.01864237 -0.0555149 6.189663E-5 -0.055270262 0.0017915629 -0.097321115 0.01602982 0.020932835 -0.014185373 -0.02457036 9.44701E-4 -0.038000226 0.031580172 0.051767223 -0.016992744 -0.01112483 0.024124429 -0.017358739 0.01732529 0.025279446 -0.026512487 0.015184465 -0.077205755 -0.022537168 0.061597258 0.058215536 0.0014929422 0.0033223382 -0.0047533372 -0.051482353 0.040067486 -0.02925065 0.045028217 -0.054755226 -0.03427378 0.05446098 0.021080647 0.0065337177 0.027231643 0.015527288 0.043836355 -0.047864493 0.033398803 -0.029479494 -0.057743654 -0.043872006 0.004887184 -0.049678214 0.024736099 0.01114988 0.015166737 0.010954246 -0.03309653 0.030728322 -0.0656434 -0.020938348 0.014104383 -0.030462159 0.010398462 -0.071392864 0.0123890415 0.02726296 0.054926857 0.042188726 0.027525306 0.007872306 -0.0023645926 0.012058062 -0.05425791 0.026440747 0.0102976365 0.008732552 -0.045098234 -0.01585049 -0.031500697 0.015693422 0.015233772 -0.06584655 0.045887798 -0.04625784 -0.006298689 0.0024185805 0.055933844 -0.013349546 0.005391631 0.009753279 -0.04523674 0.03944064 -0.06817253 0.025886714 -0.03031114 0.028967008 -0.057102535 0.0048368336 -0.012881918 0.0011229697 -0.030228913 -0.06729554 -0.013154797 -0.021894477 0.0056855907 0.06335819 -0.01804591 0.0101097375 0.053843554 -0.029209256 -0.00604498 0.012780951 0.025039047 0.024196137 0.011998228 -0.050323233 -0.0066677257 -0.013516425 0.022552533 -0.07707061 0.025962517 -0.07653265 -0.015977306 0.0097602755 0.050326273 0.012585403 0.00651135 -0.010077075 -0.006600326 0.032650616 0.060425445 0.048871234 -0.0027186116 -0.024975678 0.017071646 0.012714507 -0.05952481 -0.0052547297 -0.05681283 -0.05516004 0.026934145 0.042682417 0.069731474 0.055968177 -0.005945869 -0.013239957 -0.051437814 -0.032086052 0.011652417 -0.008731557 0.020722078 -0.03331666 0.021077987 -0.06577571 -0.0017780969 -0.023342084 0.014958058 -0.04996248 -0.0057068896 -0.05416783 0.052155882 0.023699787 -0.020228883 0.0077772196 -0.03888897 -0.010493037 -0.016726539 0.03055757 -0.063758746 -0.022590313 -0.093391314 -8.5121347E-4 0.010371252 -0.032136958 -0.058944218 -0.05057643 0.04658524 -0.061788812
leaderName 0.039774388 -0.0043507474 0.024843326 -0.003590726 -0.03328765 0.021244695 0.0016622603 -0.035969947 0.048261594 -0.03619976 -0.013750928 -0.030425603 0.008073869 -0.008626183 0.038897164 0.025956584 -0.022009024 0.0038999394 -0.026196247 -0.029176578 0.015212831 -0.008688392 -0.031189684 0.011960253 -0.002887837 -0.052128207 -0.060135644 0.036776092 0.021640623 -0.054091502 0.015908245 -0.010900574 -0.08304049 0.08468616 -0.011566489 0.03158662 -0.02748256 0.040740818 0.012716861 0.01307363 0.019666059 -0.079850756 0.04124854 0.038696017 0.05010233 -0.08251502 -0.05128452 -0.017216334 0.0169325 -0.013382502 -0.06939074 0.013019619 0.01074483 0.029810956 -5.5067096E-4 -0.0033715048 -0.022010457 -0.02705363 -0.003224836 -0.04179165 0.060397107 0.044990208 -0.021313798 -0.04291984 -0.011095737 -9.3124213E-4 -0.019047031 0.02714072 0.045278795 0.021725921 0.022124156 0.015271342 0.0068283877 -0.032387193 -0.008744644 -0.04563388 -0.024965635 0.03843381 0.050804496 0.018700583 0.04404701 -0.0019439545 0.01841414 -0.0059819957 0.018177137 -0.026572978 -0.051431287 -0.016754696 0.027751807 0.020703798 0.057232242 -0.034263857 -0.03322374 -0.03164799 0.045352425 -0.050614595 0.024816444 0.022818636 0.017597774 -0.017262507 -0.024738047 -0.023596834 -0.024845896 0.03062175 -0.060695898 0.0046100644 -0.017237736 -0.010825976 -0.0030097712 -0.05052215 -0.011629886 -0.0108780665 -0.00915105 -0.00539998 0.028556535 -0.0051131463 -0.058594644 -0.027451996 0.021724457 -4.8822016E-4 0.0038672097 0.033419795 -0.027266506 6.120697E-4 -0.026097193 -0.019702837 0.008980557 -0.03377053 0.004068941 0.06197362 -0.040546015 -0.032231424 -0.01018359 0.020028023 0.032601237 0.005104179 -0.010086215 0.009637696 0.008860975 0.02514714 0.03836968 -0.00768432 -0.031802207 0.040359758 -0.004081299 -0.014716986 6.726578E-4 -0.045859206 0.024504336 -0.026275948 0.032070544 0.021614684 -0.050314575 0.033229508 -0.018224189 0.003637132 0.0058719763 0.01262202 -0.015523451 0.0081836255 0.018472094 0.031037143 0.04749865 0.02269929 -0.026840676 -0.0084208585 0.05386522 -0.019466514 0.021144649 0.029216567 0.0046101767 0.038011968 0.015109397 -0.061547875 0.016161805 0.020873478 -0.034002073 -0.03939115 -0.009562368 -0.037776034 -0.07523321 -0.047576424 -0.002069182 -0.040186744 -0.039159168 0.0068460456 0.0032375194 0.03132352 0.0341066 0.0022941795 -0.0016088181 0.051809203 0.035636682 0.036538176 -0.014211952 -0.019251918 -0.050989367 0.03399406 -0.041448183 -0.064151786 -0.025090797 0.010763454 -0.03354279 -0.0064709852 -0.055501174 -0.033629052 0.013568506 -0.04262517 0.0011903503 -0.082579955 -0.023170637 0.017389169 0.0045609735 -0.03721803 -0.021616606 0.02871477 0.01383575 0.03421111 -0.06005875 0.009852705 0.024447544 -0.009707066 0.042785134 -0.009811498 -0.0034603185 0.026398629 0.057300836 -0.021734504 0.02662012 6.5044913E-4 -0.019040443 -0.0029482723 -0.019823162 0.03225407 0.015582821 0.015729329 0.018942375 -0.008885722 0.021898808 0.0013161734 0.041711334 -0.06883975 -0.0054172426 0.0030762067 0.03150494 -0.025272066 -0.038720947 0.0092615215 0.028579688 -0.046851005 0.036740925 0.027133187 0.007700418 0.022883272 0.012945688 0.005568154 -0.032973494 -0.024705134 -0.012025145 -0.034108784 -0.008055486 0.019830152 -0.0089884605 -0.036158964 0.014817161 0.047488566 0.041327927 0.025713889 -0.010592396 0.023510134 -0.03991133 0.050961792 -0.0046916506 0.03526228 -0.00283649 0.0063841767 -0.04099749 -0.032660104 -0.022771738 0.011767565 0.039336603 -0.03832799 0.022242067 0.05938524 0.058752287 0.014035778 -0.05289122 0.01518288 0.037345823 0.027357096 -0.013607914 -0.0074115186 -0.07582454 -0.0325098 -0.030427372 0.021676939 0.009972873 -0.0053990465 0.03002949 0.060765754
locatedInArea -0.025019836 -0.0065518166 0.03206052 0.020646943 -0.029596355 -0.029852046 -0.032785896 -0.0592547 0.014203568 0.021625748 0.008259509 -0.008132131 8.9651294E-4 -0.04033832 -0.027238633 -0.0032361962 -0.0656374 0.035133827 0.011150158 -0.010153417 -0.026312534 -0.02025462 -0.0629123 0.0034380525 -0.001768238 -0.06418982 -0.076580256 0.00707831 -0.0075658974 -0.03512536 0.012445075 0.0069577075 0.005253038 0.011332514 -0.0115211 -0.03147276 -0.0209181 -0.029084006 0.04947078 0.01445909 -0.023046302 0.014617768 -0.014892565 -0.0036757523 -0.023986472 -0.0066149337 0.008908716 -0.0038683026 -0.044392634 -0.013718847 0.0010580549 -0.033399362 0.019375574 -0.058393817 -0.014029188 0.013347449 -0.01570888 0.0131159825 0.013438989 -0.03031634 -0.015564218 -0.008416 -0.0182979 -0.07790182 -0.04160584 -0.0016104985 -0.03695031 0.016992588 0.011384907 -0.010558305 0.002941944 -0.012653508 0.059522126 -0.032227848 -0.043143023 -0.055896487 -0.008258729 -0.038130537 0.0117386235 0.016570458 0.03513693 0.018622218 -0.0019831955 0.003003243 -0.00132482 -0.010715883 -0.003921265 -0.0046658185 0.00801625 -0.003326422 0.032967955 -0.06701126 -0.03830849 0.00585359 -0.015041343 0.023877284 0.005516051 -0.014108711 0.029526962 -0.03359008 -0.013180663 0.008755979 0.0027369682 0.031411495 0.027100971 -0.058394354 -0.034266517 -0.011025301 -0.0015924813 -0.024780383 -0.030792441 -0.04098425 0.022825545 -0.07436326 0.021616694 0.004864243 0.054730393 -0.0029918286 0.018329004 -0.029571928 -0.05377492 -0.011614904 -0.028835008 0.081847854 -0.06607091 0.04120739 -0.076739386 -0.046157215 0.013135359 -0.018738255 0.012350277 -0.03656429 0.01665301 -0.009995881 -0.01613126 -0.022673586 0.02740482 -0.017575106 -0.009640243 0.068367034 0.023565942 -0.0039263796 0.025394503 0.019394657 -0.029635863 0.021946877 -0.01852789 0.003506704 -0.07544637 0.022492377 0.027861135 0.047535136 -4.5327158E-4 -0.013929642 -0.016012141 -0.019868463 -0.022812027 0.006027492 -0.006782928 0.0057010143 -0.02868058 0.003788055 0.025081433 -0.051727075 -0.019339083 0.06515025 0.052055374 -0.060181577 -0.018488297 0.0033851946 -0.04621665 0.014250858 0.03203671 -0.07381869 0.031250987 -0.023961382 0.01728892 -0.05494534 -0.0022329714 -0.030512614 -0.07777065 -0.02798453 0.0069801286 -0.017422596 -0.02540684 -0.034629334 0.04814095 0.04354653 0.06904794 0.06348602 0.005005979 -0.037189122 0.011582936 0.01548924 -0.07304004 0.05718638 0.0055506337 0.011633213 0.022602383 -0.032403145 0.01074257 0.014262506 -0.0013201536 -0.04309949 -0.0025747374 0.016230816 0.05908856 -6.9718517E-4 0.04216334 0.023987018 -0.004533859 -0.002517491 -0.07112721 0.049358442 0.002665269 0.006237993 -0.012635706 -0.0030263742 0.0129707875 0.043857668 0.028673891 0.01344001 -0.027913908 -0.050501414 -0.037239056 0.016159251 0.035000198 -0.0156248575 -0.0155042 0.01882396 -0.0020413334 -0.047530413 -0.017252907 0.021855852 0.034374893 0.029126355 -0.022163875 -0.046646338 0.03760857 0.011127212 0.008665327 -0.014692441 0.035236288 -0.037292074 0.018787868 0.025238879 0.0018435759 0.014434297 6.428594E-4 0.0054343333 -0.008926011 -0.0021880725 0.023017647 0.020675864 0.067368485 -0.015392681 -0.001539325 0.025762068 -0.024395773 0.017301373 -0.0041731372 -0.05015793 0.014547424 0.07190684 0.110170335 0.049898498 0.03686315 -0.008910768 -0.053687733 -0.07542944 -0.03986035 -0.028678328 -0.030267268 -0.0075228424 -0.011944368 -0.0010690135 0.008108205 -0.052999735 -0.043521434 0.029548129 -0.04533981 -0.017283982 0.021118203 0.0300554 0.023070006 -0.010693054 -0.060580593 -0.014549685 -0.02243345 -0.012592998 -0.038945198 0.008955301 -0.06524003 -0.023687959 0.030900436 -0.009459772 -0.0031116945 -0.017996708 0.04831842 -0.027871247
nationality 0.0370018 0.018337851 0.085701756 0.075537145 -0.017394666 -0.011260824 0.0116698025 -0.012515948 0.029009406 0.018374478 0.005884329 -0.04880609 0.03692492 0.02795551 -0.033688657 0.053119704 -0.0431215 0.066585004 -0.029670412 -0.01755381 -0.05789299 -0.016237676 2.3262769E-4 -0.01663965 0.003893851 -0.01150589 -0.044521496 0.012529763 0.025653504 -0.038073704 0.022114031 -0.0042375005 0.0034089175 0.008719219 0.016065141 0.037298452 0.023545505 -0.04675288 -0.012589531 0.024471352 0.02395589 0.0040322365 0.0021778708 0.035640262 0.019184947 -0.027252862 -0.04924552 0.011946451 -0.013653607 -0.042372204 0.016042296 0.004684788 0.033727795 -0.0043413537 0.0074589048 0.028209724 -0.06957932 -0.020629596 -0.038401708 -0.048769694 0.054660846 0.028275516 -0.009501892 -0.021894174 -3.839045E-4 -0.0118243955 -0.03749544 0.052588664 0.006651587 -0.01300459 0.016598111 0.0071679624 0.007463539 0.005694232 -0.030783495 -0.04404581 -0.0072074817 0.02057987 0.007466845 0.05436691 -0.0057241325 -0.07812174 0.038249392 0.021569815 -0.0369334 -0.040099025 -0.06924855 -0.024998875 -0.0020181127 0.04931393 0.04412789 -0.027424008 -0.013978146 -0.03868526 0.019668926 0.016866392 -0.0014518921 -0.06606735 0.041402258 -0.013726246 0.013787257 0.009253713 -0.0030816735 0.02553455 -0.012678848 -0.043095544 0.008783947 0.016642107 0.036933422 -0.019389126 -0.017336592 0.02556225 0.015972555 0.008042581 0.027687663 0.045263123 -0.0099134175 -0.022646474 0.034332212 0.008530743 -0.049311675 -5.6544365E-4 -0.03232644 -4.346991E-4 -0.011913897 0.01669744 -0.016308717 -0.01648032 -0.053196926 0.03710599 0.009353279 -0.052558705 -0.05644417 0.01960725 -0.017508939 0.01003646 -0.017563157 -0.024583356 0.0166566 0.0047819647 -0.0060086646 -0.021347536 0.019762903 0.055965934 0.009861964 -0.012756902 -0.007908089 -0.018384987 -0.021688644 0.0031304525 0.025859918 0.014165694 -0.025946872 -0.028573338 0.009759258 -0.03323139 -0.025699612 -0.058078878 0.027068343 -0.06576579 -0.019357614 -0.02166815 0.008890903 -0.057211928 0.0011840363 -0.012143404 0.015817575 -0.0108364355 0.017121794 0.012400077 -0.034390576 0.033844784 0.013032229 -0.035618383 0.048623856 -0.0074013136 0.010723523 -0.022982381 -0.014961327 -0.045729525 -0.027466523 -0.03901373 -0.03341546 -0.039868224 0.0053312355 0.030202886 0.013373111 -0.019713797 0.045138013 0.058334686 -0.010842951 -0.01986914 -0.009851194 0.0065776305 -0.02655757 0.009048503 -0.0019232621 0.039272893 -0.056053817 -0.046111666 -0.0020039827 0.025222067 -0.018529631 0.0026665893 -0.028985092 -0.021854287 0.0337294 -0.022200646 -0.0054058614 -0.019510023 -0.03821471 -0.02923502 0.004579775 0.033765636 -0.010832826 0.032886524 -0.0021269945 0.042848635 0.0055951267 0.009862042 -0.009748075 0.014462524 0.014651732 0.0129387295 0.0023207846 -0.038957343 0.055159602 -0.01161376 -0.0035041992 0.027647162 -0.0137128215 -0.013757033 -0.008627813 0.056750104 0.034198083 -0.020895174 0.034165837 -0.019213626 0.025516577 0.0024697161 0.027782619 -0.03120397 -0.026412357 0.02427972 0.040628716 0.05923131 0.018986113 0.026690267 -0.016675306 -0.005031176 0.022128316 0.020308563 0.014695647 -0.018468764 0.032611795 -0.08622202 -0.0063554603 -0.010356331 -0.0072899363 -0.023237893 0.022348918 -0.022104908 6.962645E-4 0.012965999 0.010691027 0.035559103 0.011864661 -0.007319061 -0.04984754 -0.024804836 -0.033958197 -0.019953882 0.0078045367 0.020298237 0.040321197 -0.035531126 -0.027131721 -0.044048943 -0.051815245 0.0032647257 -0.01962098 -0.01888986 -0.017275825 0.020215368 0.010724056 -0.025902843 -0.017357334 0.030870982 0.015216271 0.003972565 -0.026143739 0.010456192 -0.034755588 -0.008459187 -0.0036550655 0.009082529 0.017397959 -0.018131295 0.05977557 0.012867419
parent -0.008663369 -0.07222357 0.0046659764 -0.014349699 0.018502941 0.01920961 0.024909738 -0.036426064 0.059233814 0.012812955 0.10851988 -0.07939993 -0.0168311 -0.043079786 -0.06931198 0.03683945 -0.04413409 0.03894989 -0.028330414 0.034581453 0.012626408 0.038396765 0.07543388 0.004400653 0.034993976 -0.06123012 -0.03319283 0.033965327 0.03139256 -0.05419722 0.07418652 -0.045609783 -0.08792319 0.0470018 -0.0065494636 0.07395105 0.10446932 0.0026412576 0.011009946 0.0068076453 0.0465112 -0.030915683 0.044406414 -0.062207878 0.062933505 -0.0015435182 -0.024052475 0.04851928 0.013276632 -0.032459263 -0.00996606 0.017391324 0.018695768 -0.003897082 0.05306357 -0.023861399 -0.11163232 0.034319427 -0.02764067 0.005350956 0.08581652 0.040511932 0.022598099 0.0025473468 0.021491265 0.008302698 0.0019094063 0.036484316 0.017413503 0.0041187834 0.059253626 -0.0011898478 -0.0695704 0.048038483 -0.03830256 0.12975764 0.038903248 -0.032972198 0.07851536 0.039959118 0.09832598 0.0031662672 -0.05255317 -0.008264471 -0.024667328 0.03171309 -9.0099906E-4 0.05770357 -0.025525782 -0.022396479 -0.03637746 -0.05493387 -0.060387515 -0.047471073 -0.0045368383 -0.02197942 0.05648799 0.005570039 0.022712892 0.012564067 -0.03159195 -0.06708858 0.044856217 -0.058727782 -0.03203259 -0.06745823 0.034059584 0.031289205 0.030425202 0.045119807 0.0044928566 -0.0038532864 0.015694212 -0.07549538 0.0040701022 -0.015864585 -0.040575735 -6.5159926E-4 0.04073418 0.013996504 0.0033051416 -0.0026674694 -0.018681955 0.021269288 -0.05236657 0.010799157 -0.020356571 0.0025470313 0.035338763 0.020455975 -0.031503897 -0.037621565 -0.041083273 -0.0019355351 0.015674587 0.0044320123 0.043907415 -0.0067907325 0.030876135 0.018753782 0.08336601 -0.029235428 -0.01749487 -8.512171E-4 0.0036902025 0.06912213 -0.06925177 0.05801947 -0.007734833 -0.024198115 0.13102129 0.032530602 -0.0077092983 0.04566267 -0.04282556 0.043843012 -0.016181171 -0.06030306 0.038129833 -0.0020679554 -0.017529488 0.02998275 0.08349182 0.102530114 0.0057763862 -0.029220864 0.049874168 0.0049187783 0.07006873 0.08347575 0.050900992 -0.036763873 0.033468556 -0.1014325 -0.0019307149 0.014359212 0.12528454 0.07880947 -0.0011626458 0.038872298 -0.0036561936 -0.028731912 0.026693806 0.009988548 0.028968941 0.04096359 0.011393135 0.045566585 -0.019825464 0.035850376 -0.058242895 0.01412338 -0.041707568 0.030769337 0.03921844 0.070537105 -0.031891983 -0.044645213 -0.003056581 0.010478104 -0.08315864 -0.016880793 -0.016253255 -0.046217307 0.05617866 -0.03254348 -0.003964916 -0.028210688 0.034781016 -0.102530584 0.010697598 -0.021924097 -6.049959E-4 -0.03245237 0.028862296 0.02317071 0.019255137 0.04536676 -0.04963594 -0.041916363 0.029713482 0.026347978 0.11176538 -0.024204478 -0.0061642374 -0.0921528 0.044840217 -0.050399736 -0.019237258 -0.036231153 -0.004568064 0.012939777 -0.051613033 -5.280326E-4 0.03147168 -0.014290161 -0.03278695 -0.08647009 -0.022138415 0.015836252 -0.04588709 -0.113626264 -0.06275423 -0.022511922 0.011287553 0.14267379 -0.033475753 0.015661985 0.02301177 -0.06370233 0.053276192 -0.013178682 0.061305624 -0.056473415 0.042456605 -0.03765271 -0.011936409 0.023109501 -0.079711586 0.048179068 0.057053015 -0.016201422 -0.0034331228 -0.04261681 0.016834162 0.08778222 -0.033148836 0.0099105 -0.06738057 0.051205844 0.008648353 0.00910509 0.027922533 0.05047632 0.009802621 -0.04505577 -0.02841368 0.022221401 0.020416126 -0.068458095 0.025694137 -0.06661702 0.003635298 0.05981105 -0.035789672 0.035589676 -0.05005785 0.08069765 -0.028104488 0.1410122 -0.07993388 0.0068775206 -0.0876237 -0.07086136 -0.016268637 0.015855648 -0.049982645 9.628137E-5 0.027183173 0.0030970061
president 0.0036529878 -0.050394583 -4.434951E-4 -0.029250715 0.009797578 -0.03774194 0.039507773 0.0044120997 0.024677923 -0.03517619 -0.023380458 -0.009516628 -0.03461657 -0.03234774 -0.09794261 0.08213486 0.008010706 -0.036081117 -0.025368193 -0.03632543 -0.052782454 0.00939415 0.011244266 -0.026347166 0.055145796 -0.034249213 -0.029175056 0.030347526 -0.080230765 -0.07069195 0.0031719028 -0.008210637 -0.052390616 0.04069663 0.05505242 -0.0127654625 0.032292426 0.056406308 0.053714942 0.031099036 0.016213134 -0.021186344 0.02364931 0.020267671 -0.063867845 -0.09559706 -0.01746476 0.026573911 -0.020525796 0.05430922 0.025954664 0.0011974842 0.040594112 0.030387089 0.006169114 0.023215806 -0.052763622 -0.042289548 -0.0032793728 -0.056830224 0.0034000613 0.032806627 -0.068203025 0.04698615 -0.027931908 0.008101967 0.009018513 0.029378284 0.06743698 0.008765097 0.0069052055 -0.028599817 -0.010718275 -0.005623746 -0.011232139 0.026576612 -0.024621604 0.0232269 0.054884534 -0.045585163 0.049156748 -0.0088786455 -0.039000746 0.0669714 0.0019281857 5.4333734E-5 -0.058666594 -0.014196264 0.0228698 0.026474899 0.09015679 -0.06396521 -4.6205745E-4 0.01663684 -0.017750828 0.0025621213 -0.029794548 0.018976687 0.062485702 0.011897993 0.04719183 -0.031656027 0.028746558 0.034539696 0.05290402 -0.04509982 -0.035314158 0.008138967 -0.02584129 -0.027231617 -0.033907223 -0.06665311 -0.017410921 -0.032809142 0.028600682 -0.015199597 0.010510033 0.0016382613 0.11040634 0.049968213 -0.0052314145 -0.044681173 -0.0523034 -0.007843773 -0.0015057124 -0.033358272 -0.011581481 0.0019628387 0.12170235 0.029451538 0.0035794766 -0.044886503 -0.039442196 -0.010702607 0.03151584 0.024121603 1.5119613E-4 -0.006592696 -0.0099684885 0.033289135 -0.018364925 -0.025333717 -0.013187076 0.02383966 -0.06243458 0.009738859 -0.0017529164 -0.0072156424 0.04666487 0.04089589 0.015754173 0.062060494 -0.02721945 0.092263244 -0.043145295 0.04000191 -0.022999262 0.021787548 0.019668369 0.009579558 -0.022022815 -0.024881294 0.055326987 -0.002815083 0.053100836 -0.008418579 -0.05516199 -0.051504213 0.11164625 0.039453667 0.06999107 -0.008543792 0.030189013 -0.078461245 0.056019194 -0.024580598 -6.05594E-4 -0.006439404 -0.009109767 -0.0131447045 -0.038074255 -0.0024967522 -0.012901259 -0.05122575 -0.005751967 -0.02092081 0.03164896 0.045071434 -0.0063108443 0.028513748 -0.06150768 -0.010593574 -0.008431631 0.047601227 -0.020085016 0.005957668 -0.058556814 -0.01203709 0.06781309 -0.014296308 -0.05141985 0.026948035 0.06746157 0.0149965435 -0.03439026 0.0109808175 0.047702987 0.027551094 -0.0063343644 -0.03921056 0.011092811 -0.03410946 -0.010745284 0.071252346 0.043849003 0.09951087 -0.02515999 -0.04773521 -0.0019907758 0.009065243 -0.0024176396 0.031293485 -0.0012371343 0.04949331 0.022901898 0.005692769 0.029214775 0.04483173 0.007190168 -0.005341969 -0.04788087 -0.025768891 -0.07955501 -0.018069575 -0.012192505 0.024792815 0.012432402 -0.0061940313 0.008093433 -0.03560222 -0.017473567 -0.073065415 -0.06641675 -0.0018533192 0.060904957 -0.04780995 -0.057454843 -0.027414335 0.07252886 -0.0391065 -0.004572087 -0.04690587 -0.008229277 -0.0503106 0.028764343 -0.014123526 -0.036391623 0.03034753 -0.023681162 0.017949745 -0.00881729 -0.007989301 0.06804468 -0.0100765545 -0.03068973 0.06458794 -0.04947103 0.011695261 -0.036913138 -0.0055159084 0.002335334 -0.0031458966 0.03213722 0.011939297 -0.08666463 -0.021346986 -0.019381767 0.03941556 -7.676689E-4 -0.01663726 0.0012694091 -0.007492786 -0.0044341213 0.04110352 0.015820354 0.10892816 -0.029525703 -0.028465986 0.08671452 0.0030897562 -0.008012542 -0.03218013 -0.07622549 0.031051029 0.0065624313 -0.02377637 0.032783072 0.027478606 0.010333997 0.0052784453
relative 0.004694248 8.004606E-5 -0.0036442578 0.01605562 -0.0063434863 0.057493497 0.048000183 -0.043719538 0.057506066 -0.0024858539 -0.003919262 -0.048098948 -0.056611147 0.019365314 -0.044144668 0.012080458 -0.007975754 0.022159709 -0.009927606 -0.03822355 -0.0063166334 -0.06934637 -0.028267821 -0.033109024 -0.029306872 -0.043738037 -0.055225033 0.07515523 0.017725466 -0.013849839 0.009702288 -0.052757498 -0.011418107 0.020371655 -0.057103615 0.024680343 0.0042280615 -0.021373032 -0.0029686328 0.036855366 0.026040334 0.013336186 0.035342928 0.006565969 -0.0066121104 -0.033050656 -3.5871006E-5 0.023948414 -0.010787926 -0.023170125 -0.0071895258 -0.06876611 -0.04468447 0.010610232 -0.006813828 -0.007218808 -0.07355239 0.033457514 0.03286652 0.006942308 0.03335292 0.01971964 -0.012528295 0.024200395 0.011815399 9.546578E-5 -0.009832499 0.038031098 0.0032446526 -0.023938183 0.010671637 -0.012247467 0.03537941 0.015194565 -0.06215754 1.08122826E-4 0.007410887 0.016124232 0.037681077 0.09051927 0.030639073 -0.032237474 -0.005620292 3.5584348E-5 -0.018393708 -0.021817377 -0.02166727 0.05015806 -0.013513624 0.014718791 0.053522866 0.008114229 -0.013950548 -0.03585714 0.0071898378 -0.0035652467 0.041055758 0.016490215 0.040162828 0.011486414 -0.017089622 -0.024651146 0.04461518 -0.028697008 0.011633194 -0.05842626 -0.011371002 0.011970398 0.044544253 -0.014491229 -0.009600133 0.028184524 0.012812033 -0.040019844 0.052620422 0.0077715376 0.0048482963 -0.035153557 0.034862436 0.05864043 -0.014709355 0.03112765 -0.025376916 -0.022527944 -0.0030927644 6.136537E-4 0.054042708 -0.008065171 0.030266935 0.049989965 0.0038708542 -0.052002408 -0.06658081 0.016106581 -0.0075255944 -0.0542337 0.020771548 -0.0082469825 0.007026604 1.1428036E-4 0.022737835 0.0041375584 -0.025765842 0.051545825 -0.008854504 0.03230092 0.011693013 0.014953357 -0.03591804 0.017261472 0.07235533 -0.0034490258 -0.046497855 0.011607366 -0.036430825 -0.0312905 -0.027951095 -0.052213486 -0.01244565 -0.027084434 0.0052575707 0.015731925 0.0745744 0.03656162 -0.02615915 -0.007234858 0.03842343 0.0015104708 0.011123237 0.019359672 -0.00587178 -0.056426793 0.026248056 -0.08294867 -0.02333124 -0.010396865 0.039863788 0.017672407 -0.019954223 -0.041095413 -0.0014499769 0.0058864052 0.014107795 -0.032692187 0.02830788 0.0197359 -0.007789695 0.008181172 -0.0027647435 0.033458408 0.015368715 0.027359188 -0.032196492 0.040195618 0.015577993 0.03699572 -0.028211249 4.7509858E-4 -0.027140973 -0.07131677 -0.0092997765 0.03935933 -0.046624266 -0.030406136 -0.011528388 -0.03852769 -0.04680103 0.00846785 0.035847288 -0.05113293 -0.034531154 7.8351947E-4 -0.05437733 0.037697807 -0.006319416 -0.0023056783 0.023026219 0.031225298 -0.039050546 0.010141196 -0.013858603 -0.032383144 0.055509675 -0.08954078 0.021038039 0.0019736886 0.070028104 0.03936834 0.01740924 0.01192297 0.019911055 0.009838042 -0.028198738 0.0017733142 -0.026342958 -0.066531196 0.013476156 -0.035046767 -4.6606362E-4 0.019132068 0.03744141 -0.011704512 2.0893737E-4 0.0015949082 0.0076091154 -0.0035452228 -3.8602427E-4 0.006337844 0.0054705925 -0.030514568 0.028909815 0.03433829 0.011180577 -0.005924616 0.02831456 -0.038303014 -0.012698546 0.0020142503 0.022987805 -0.011085111 -0.0053162235 -0.050932925 -0.0048709135 -0.034141496 0.00916492 0.06051576 -0.009768029 0.012296124 -0.035900183 -4.8537404E-4 -0.0183177 0.022081738 0.035420846 -0.0069353445 -0.013879947 -0.015539142 -0.011200668 -0.034016915 -0.03264637 -0.016052961 0.0069273724 -0.04731769 0.009604968 0.009772397 0.01179549 -0.023314444 0.014140989 -0.0056229443 -0.018535081 0.028756682 -0.0066443295 0.027830819 -0.033374466 -0.0027375803 -0.0024643473 0.043811638 0.02762419 -0.009709249 0.009335042 0.01240273
spouse 0.033039223 -0.003320504 -0.04364849 0.0645942 -0.052444935 -0.0014066153 0.048367884 -0.053522646 0.026445216 -0.048935074 0.031801052 -0.03145776 -0.0611228 -0.016020851 -0.030595308 0.07765334 0.046192355 0.016576614 -0.008694373 0.007537396 -0.046674356 -0.05416128 0.012525432 -0.04979196 0.019751102 -0.05358524 -0.05449895 0.04978925 -0.017013457 -0.040097393 -0.007113479 -0.011523167 -0.022650024 -0.002302694 -0.025036959 0.020324124 0.044011395 -0.0033316151 -0.0070971265 0.030938698 -0.012799275 0.0144549 0.027323121 0.014507155 -0.01996654 -0.020837208 -0.040819623 0.026589496 -0.0011297622 0.04481634 0.0038455562 -0.03021437 -0.0214565 0.02672256 0.012560561 -0.012340032 -0.030581582 -0.059550524 -0.007316235 -0.019807184 0.050859597 0.031965237 -0.006758032 0.015985433 -0.057207193 0.03554969 0.0032795675 0.019579945 0.0028097562 -0.0013145767 0.015146576 9.395182E-4 -0.004708697 0.0321832 -0.019814108 -0.024222001 -0.024026712 0.013586545 -0.018002307 0.022307962 0.042988464 -0.010649203 0.031867463 0.026012782 0.0062121376 -0.006018123 -0.029849445 0.012064473 0.051523246 -0.005428351 0.04914243 -0.014652686 -0.032847732 -0.015610649 0.005814954 -0.0030493294 0.0423688 0.013254404 0.022004789 -0.014454885 -0.047934793 0.005191784 0.027781291 0.02502364 0.035052057 -0.04101255 0.008337785 0.03599785 0.027119985 -0.012701563 -0.020599255 0.02306882 0.045821585 0.016297575 0.030912131 0.0077612437 0.0014947964 -0.026098147 0.042505935 0.020560915 0.015873795 -7.11973E-4 -0.041923787 0.042927794 -0.031489506 -0.047637258 0.05846858 -0.009612556 0.034976956 0.045883168 -0.023053242 -0.03547106 -0.052641857 0.014226878 0.042736072 -0.032056894 -0.032268364 -0.0117398985 0.03683228 0.013864088 -0.02426727 0.0062838555 -0.041865297 -0.017465705 -0.037136562 0.05240379 -0.030011272 0.028976236 0.012867927 -0.01283122 0.05793289 0.007576254 -0.055207726 0.019502075 0.014174468 -0.037197348 -0.050305273 -0.091846004 0.040315267 -0.057701297 -0.031145781 -0.0021602379 0.0593093 0.048271045 -0.052769292 -0.052595414 0.03658168 -0.0055481596 -0.040230747 0.008387025 -0.023710528 -0.046711653 0.055471253 -0.036316123 0.024203172 0.011359556 0.0037150506 0.023245638 -0.01658496 -0.039922595 4.1214956E-4 0.012202047 -0.0023561702 -0.026130093 0.01899792 -0.011303536 -0.0027857746 0.003031043 -0.003366612 0.034556564 0.007969641 0.050034642 -0.034326445 0.052288372 0.0047882744 0.07541966 0.018348752 0.030940253 -0.018047297 -0.043285687 0.013342428 0.018515212 -0.0020960325 -0.014993566 -0.04865433 -0.019332405 -0.0097583085 0.0064406926 -0.012241816 -0.065733515 -0.05676874 0.024831546 0.008338162 -0.036179047 -0.0069754752 -0.022903642 0.017740978 0.021401191 -0.020204319 0.032696255 0.031739105 -7.62618E-4 0.044377398 -0.040746104 0.040418774 -0.043182965 0.060482163 -0.009530812 -0.02864622 -0.027467886 0.031601008 -0.027342392 -0.022678241 0.0012688313 -0.0065096864 -0.011074451 -6.491766E-5 -0.04154413 -0.01587071 0.03868436 0.030874094 0.0015716127 -0.04155949 9.136759E-4 0.03496922 0.02811778 0.018038634 0.0035224706 -0.009905891 -0.057745844 0.020463215 0.0025284237 0.013748283 0.020129487 0.028883189 -0.03476138 -0.009275396 -0.007956385 0.006627758 -0.0018987097 0.0012819067 -0.020671358 0.018489813 -0.0045696967 0.03375849 0.046857454 -0.0015266341 0.013757275 -0.04429393 0.029359508 0.006287773 0.0130204875 -0.028742952 0.0096731195 0.012111676 -0.03972916 -0.046383616 0.004548838 -0.007354071 0.030810732 -0.00958007 -0.02141277 -0.011217553 0.03377096 0.035741832 -0.020007724 -0.037916232 -0.017517133 0.029476171 0.048376217 0.016441368 0.0113611305 -0.10873474 -0.015742987 -0.025230998 0.05228591 0.014896765 -0.021848233 0.036658622 0.04587277
