affiliation -0.13402212 -0.019674502 0.25467 -0.10713275 -0.14706753 -0.246465 -0.4763 0.13983026 0.15051751 -1.3325825 0.06987825 0.11676175 0.04124275 -0.17181751 0.06190099 -0.02447749 0.36580276 0.024280006 -0.1635055 -0.04103125 -0.0206925 0.014215004 0.10549 0.45432 -0.18767402 -0.1233575 -0.4007625 -0.30516145 -0.18983926 -0.26715 0.16478749 0.23373 0.08194275 0.24769175 -0.76828 0.5102525 0.20073175 -0.23651125 -0.04654499 -0.14723867 0.08396749 0.06103042 -0.033913 0.187821 0.3172625 -0.15208 -0.07059225 0.22955786 -0.05919875 -0.030837506 0.156202 -0.14609674 -0.018459998 0.081365496 0.12621701 0.231555 -0.032415256 0.4314175 0.006314002 -0.26129603 0.5538875 0.099859245 0.123165 0.040928256 0.17273073 -0.1532485 0.054690003 0.3067825 -0.206585 0.142365 -0.039253473 -0.040128503 -0.019352999 -0.001480002 -0.080197744 -0.03205675 -0.067315005 -0.15548424 -0.155884 0.13778026 -0.050539497 -0.06815251 -0.0546925 -0.13065262 0.21232674 -0.028667502 -0.0073236376 -0.38981152 -0.2150375 0.10362999 -0.52749 0.12673774 -0.16223001 0.213807 0.30359495 0.05351 0.09038925 0.216861 0.13381349 -0.34561253 -0.0855475 -0.20410074 0.003506748 0.06208751 0.27423948 0.030895755 0.28482726 -0.2216875 0.20614886 0.265183 0.20074727 -0.49639425 0.0057592504 0.1477535 0.303047 0.21256424 -0.1345294 -0.2778525 0.118953265 0.109612 0.082078755 0.20053428 0.47109002 0.17337249 0.16301925 0.11336275 0.13828501 -0.144894 -0.08317975 -0.448995 -0.041099 -0.24609451 0.20238174 -0.35155424 -0.10937499 0.08401201 -0.034975 0.071132 -0.09994 -0.1468425 -0.12850949 0.2577765 0.27906373 -0.2776175 -0.026964499 0.035675257 -0.1693955 -0.0982925 -0.0031687543 0.187547 0.38023248 0.053489998 0.120256744 0.0533875 0.062465504 -0.12027775 -0.098942176 0.084982246 0.07726625 -0.002814997 0.343023 0.18790674 -0.09881325 -0.02026251 0.05290375 -0.14581451 -0.24915284 -0.1869 -0.2621525 0.533205 0.18878326 -0.13756125 -1.2216926 0.2866575 0.27407998 0.07118 -0.14852592 -0.209971 -0.16577925 0.37944576 0.4093275 0.062667996 -0.10246701 0.091597244 -0.11109075 -0.17041999 -0.1607425 0.1775575 -0.028841 -0.27493924 -0.39495748 0.08194 -0.0743765 -0.0997265 -0.122805 0.0541829 0.090679 0.15041548 -0.099185005 -0.004374996 0.5900232 -0.33979475 0.25776476 -0.11570899 -0.019280253 -0.0069847517 0.193245 0.23096499 0.053489253 0.20103249 -0.109709 0.317208 0.23303099 0.1477475 0.118544996 0.014394246 0.09601526 0.3111875 -0.0033557452 0.175255 0.20744 -0.27778724 0.10192649 -0.11465875 -0.031207502 0.330895 -0.26974577 0.017686928 0.17500703 0.3475445 0.1453 -0.0340575 0.076408 -0.10245325 -0.2761 -0.39081776 0.32663724 0.031839754 -0.3052775 0.15307015 0.318605 0.030370248 0.36456063 -0.34266424 -0.64575493 0.408205 -0.04183 -0.2702305 0.24516249 -0.016205747 0.1275465 -0.10280025 -0.04642525 0.02498775 0.1456425 0.010240242 -0.177847 -0.0417275 0.25631124 0.25818124 -0.322864 -0.063407995 0.15722117 0.14210749 0.1327725 0.161696 -0.13398 0.019243747 -0.036333248 0.09005249 -0.045433 0.4512585 0.15877649 -0.35119 0.30385524 -0.122641504 -0.86828506 0.030252494 0.8360175 0.26942 -0.37144977 -0.196885 -0.109464005 0.06335275 0.026035 0.36986223 0.2933225 0.3335135 0.232695 -0.039113 0.075352505 0.022914752 -0.28790152 -0.18447 -0.074750245 0.19644001 -0.14682649 -0.059035506 0.048948027 0.1522375
almaMater -0.46706003 0.181135 0.11417238 0.1776105 -0.00899565 0.2160015 0.32896498 6.4499676E-4 -5.435003E-4 -0.576562 0.019685 0.536125 -0.0881755 0.563745 0.109900996 -0.12264901 -0.0350355 -0.439965 0.0772485 -0.455825 -0.054009996 -0.27544498 -0.016900498 0.18085401 0.0023281502 0.32893002 -0.3362985 0.028984498 0.16432649 -0.0017100051 0.823525 -0.083505 0.23320849 0.63861 -0.72571003 0.074269995 0.133545 0.28593498 0.04501 -0.69828 -0.1816 -0.445375 -0.33296502 0.33775002 0.061262 -0.0292905 -0.024371449 0.636095 0.61344004 -0.2897467 0.034670003 -0.013112 0.068275005 -0.26782 -0.0651365 -0.08185 0.057395004 0.36228502 0.2886115 -0.123125 0.0623195 0.051935 0.06829 0.181595 0.13342 -0.44052 0.49798998 0.0010059997 -0.682105 -0.09555001 -0.396075 -0.62664497 -0.27844 -0.19522999 0.024784997 -0.095262 0.04404 0.72525 -0.31303 0.0305815 0.2566685 -0.32961 -0.094858006 -0.12988001 0.082945004 0.020825999 0.48473 -0.52767503 -0.09524801 0.24143499 0.033385 0.1175625 -0.32641402 0.60562 0.1064995 -0.320055 0.36681 0.059749 -0.73724496 0.286125 0.093398005 -0.33468 0.10931499 -0.016620003 -0.086081 -0.100275 0.23495999 0.072223 -0.1661635 -0.047199994 -0.366715 -0.90252 0.469075 0.41358498 -0.118765 -0.030789101 -0.036840502 0.17131549 -0.06711915 0.013537999 0.1914835 0.39297 -0.067725 -0.30251 0.19104749 -0.051695004 -0.07806499 -0.241128 0.232235 -0.17329 -0.191834 -0.06198 0.43252498 -0.272746 0.106458 -0.145335 -0.386495 0.045354 -0.298245 -0.0249785 0.50123 0.0331225 -0.060362503 -0.37518 -0.055127 0.075849995 0.79777 -0.380255 0.034579992 0.459965 1.1692 -0.14366534 0.27128 0.461235 0.039637 0.122500494 -0.30636948 -0.45334 0.33122498 -0.1404805 0.27872 0.064347 -0.257505 -0.12735 -0.47771502 -0.28722 -0.120436996 -0.0955395 0.2110812 0.018234998 0.15660551 -0.0932 -0.62221 0.22513501 0.34938648 0.31839502 0.07024999 -0.218825 0.647915 0.51374495 0.030534998 0.5066095 -0.244768 -0.03095025 0.092520006 0.382135 -0.668355 -0.030030005 -0.005704999 -0.115995005 -0.23594001 -0.38476503 0.23729 0.040289 0.615215 0.346845 0.16199999 -0.263997 -0.005850002 -0.34649497 0.4214 0.280765 0.202876 0.03182 -0.13468 -0.284085 -0.12555501 0.231862 0.15993705 0.121415004 0.161135 0.173548 -0.2678675 -0.407655 -0.049032003 -0.047078 -0.234635 -0.110455 0.270735 -0.38022 0.71849 -0.068849996 -0.07349 -0.0278695 0.070495 -0.112900004 0.02191495 -0.154545 -0.12625 0.206265 0.0471375 0.0076450035 -0.3469955 -0.1305725 0.051960006 0.047355 0.519195 0.0032249987 0.035848003 0.1516665 0.1351415 -0.026089996 0.2598243 -0.18080199 -0.17940001 0.1758385 -0.1586445 -0.08243249 0.0023350045 0.108655006 0.46438497 0.17858401 -0.1774995 -0.0012580007 0.08413251 0.0936165 0.33252 0.025574997 -0.0766875 -0.045494996 -0.13715 -0.080705434 0.34314945 -0.31031948 0.1865925 -0.48736 -0.5295 0.0941855 0.08704001 0.553415 -0.69109 0.42962 0.065278 -0.04874865 0.076924995 -8.549988E-4 -2.1008 -0.0397797 0.210375 0.131055 -0.13267499 -0.148166 -0.123889 -0.075605005 -0.134317 0.75303 -0.153695 0.177578 0.124575995 -0.0957665 -0.06978501 -0.621795 -0.40613002 0.504485 -0.14954 -0.21745 0.183198 -0.609255 -0.141161 0.0027450025
bandMember -0.23570244 0.24225505 -0.12380101 -0.12897167 -0.19017752 -0.13359001 0.06163878 0.2758451 0.08662343 -0.86003333 0.032771785 0.019218512 0.10810316 -0.024822155 0.31900832 -0.25848857 0.004958772 0.22123162 -0.016091788 -0.22120357 -0.04429758 0.36876723 -0.007820891 0.22586134 -0.29770955 -0.22020668 0.0491102 0.21360092 -0.3280289 0.04251756 0.12887488 -0.08815882 0.23061384 -0.08345679 -0.4014342 -0.22377335 0.45965222 0.083411224 0.004163891 -0.036411885 0.009783 -0.20615388 -0.016009057 0.20059656 0.092055224 0.0179 -0.046543557 0.0065668933 0.11340739 -0.08662867 0.09121567 0.16320466 -0.15871644 0.33601922 -0.11503567 0.10635478 -0.25195375 0.44447666 0.10946234 -0.11629335 -0.06428067 0.25199 -0.047764666 0.0025776639 0.044139113 -0.059131 0.17402142 0.30324104 -0.2911996 0.08941821 9.600321E-5 0.093108885 -0.10683256 0.06333711 -0.28616163 0.013620108 0.19667812 0.10711444 -0.112167254 0.089829445 -0.2408469 -0.0060699945 -0.15126334 -0.10574222 0.11305878 -0.10562333 0.074165 0.24266668 -0.2555328 -0.014231334 -0.13317223 0.14519735 0.027344996 -0.13542335 0.056548554 -0.08509044 -0.0031346653 -0.22492579 -0.010814452 -0.19171709 -0.08445455 -0.19295667 0.18208243 -0.18664223 -0.013380759 0.004642566 0.07261087 -0.20034777 0.14100814 0.116267115 0.13888021 -0.107143775 0.15507533 0.27563778 -0.0035445227 0.010822002 -0.21639945 -0.2643067 0.049532898 0.066271104 -0.3457274 0.12794933 0.29817477 0.14024356 0.20809744 -0.13212667 0.08657322 0.08215 0.09449678 -0.059741665 -0.16412167 -0.35952446 0.06747327 -0.3965711 0.101107545 0.13037144 0.078572236 0.08704389 -0.26027003 -0.12508632 -0.1381721 0.17518444 0.04563811 -0.23688865 0.047684226 0.20931624 0.16734222 0.13957167 -0.083190165 0.15732686 0.45538336 -0.14957617 0.10961166 -0.0030680038 0.14773867 0.16300821 -0.014654779 -0.018996783 0.023750003 -0.08948622 -0.29099613 0.09671221 -0.05820041 0.04026975 -0.265986 -0.14726077 -0.17514113 0.33207312 0.11788 0.2694417 0.10299366 -0.002056761 -0.293593 0.30295435 0.09636223 -0.15624468 -0.11758665 0.010257008 0.066023216 0.84588075 0.19111617 0.1929181 -0.048467286 0.0028914579 -0.17500234 -0.018978445 -0.79059666 0.08809301 -0.08597766 0.027785122 0.02115856 -0.069099784 -0.06265966 0.08603566 0.11393588 0.20556922 0.14963967 0.09757488 0.004898926 0.03501245 0.7812166 0.13629511 0.115485564 0.2583551 -0.08743266 0.24856588 0.0034822226 0.18182911 0.08885733 -0.085893445 0.039151777 0.16328405 0.16716644 0.17111823 -0.23999222 0.15977497 0.14965686 0.19716445 0.1342399 0.259559 -0.005815564 -0.17200112 -0.3353789 -0.026882997 -0.05305778 0.034105886 -0.08955378 -0.098075 -0.22402477 0.092340894 -0.03934099 -0.10995354 -0.16646844 -0.19038512 0.31465998 -0.13297644 -0.079597786 -0.09379879 -0.22102712 0.11618451 0.13537757 0.06992132 0.18049145 -0.07789698 -0.09544221 0.15264377 0.38409445 -0.21566711 -0.16452299 0.23421556 -0.07136555 -0.043806333 -0.119909115 0.21347912 0.30631998 0.06232344 0.09278177 -0.26111445 0.11312968 0.34055963 0.12390778 -0.037938 0.11292025 0.018936591 -0.16064934 0.13025178 -0.24913545 0.10510833 -0.065871105 0.19534023 -0.07475911 -0.08509999 0.22708876 0.0018042161 -0.014811669 0.07959933 -1.6274499 -0.059220016 0.59107435 0.21958111 -0.048767675 -0.32136446 -0.20668449 -0.0027838896 0.09152988 0.4351718 -0.046914447 0.6635233 0.285396 0.0041094455 0.07949389 -0.48999825 -0.43537313 -0.017078675 0.085955106 0.43857664 0.04731467 -0.0050843335 -0.3188701 -0.27635875
birthPlace -0.1768294 0.0323822 -0.35176402 -0.01753254 -0.08775841 -0.1851232 -0.15441921 -0.012945607 -0.0011753 -1.201688 0.12736794 -0.1148198 -0.19190201 0.13373661 -0.017329996 0.0974034 0.3430338 -0.06390559 -0.1810424 0.06665601 -0.08272321 0.27725542 -0.15575181 0.32927 0.023595205 0.012539995 0.013531816 -0.1456904 0.049970195 0.1342008 0.0023254752 0.53691 -0.707272 -0.078701995 -0.071352206 0.21281739 0.1784414 0.1289112 -0.26764798 -0.186946 0.2816854 -0.049869757 -0.035859205 0.16940439 -0.1295416 0.072896205 0.0071642073 0.3546588 0.15373196 0.1214172 0.18912594 0.1877058 0.1740732 0.1674494 0.0707494 0.050160598 0.042306002 0.064605005 0.16950361 -0.05400599 -0.025927398 0.1597954 0.206192 -0.013151196 -0.102318004 -0.29883 -0.071122 0.1342984 -0.16584241 0.142992 0.052952405 -0.126597 -0.026612682 -0.231364 -0.37213442 -0.0613992 0.14170401 0.145608 0.052816607 0.3158288 -0.0716966 -0.015625993 -0.093592204 0.3804612 -0.32396197 -0.039111596 0.079702005 0.199948 0.089050405 0.17217141 -0.345032 -0.067964695 -0.044541996 0.15376 0.2274004 0.0791614 -0.050532192 0.052142408 0.0812216 -0.2041494 0.17977579 -0.15555914 0.1741704 0.012038002 0.018253997 0.2753142 0.3850272 -0.050754797 -0.07861039 0.2547558 0.15563633 0.191052 -0.041125398 -0.09147401 0.074243 -0.04422 0.3822364 -0.16952921 -0.0068996074 -0.2565906 -0.23448661 0.32938403 -0.072596006 0.128808 -0.063528 -0.0531124 0.013047198 0.181842 0.06754601 -0.20633541 -0.15450402 -7.279903E-4 0.218817 -0.087641 -0.058482 -0.093259595 -0.06098199 -0.030500794 -0.159758 0.027914 0.10098641 7.448033E-4 0.0815164 0.037533995 -0.011455307 -0.1191644 0.2172536 0.024923205 -0.72234714 0.1000062 0.13697541 -0.2294168 -0.12438381 0.1205014 0.054794002 0.0039660037 -0.12743202 -0.0757306 0.29728842 0.0032588006 0.19439515 0.21057081 0.2337542 -0.096700005 -0.13069598 0.083082005 0.017005993 -0.13870001 0.15266402 -0.0899304 0.127044 -0.15409401 -0.318566 0.154241 -0.1759942 -0.040993165 0.0424882 -0.27081499 -0.0775256 0.33428058 -0.031662006 0.240472 0.14009559 0.3018756 0.17528401 -0.042141195 -0.4190112 -0.06436401 0.25458202 0.293022 0.16778341 -0.2235384 0.0549298 0.043992408 -0.2709496 -0.012983999 0.1626976 -0.47575003 -0.0843258 0.295214 0.911716 0.08616241 0.216224 -0.15248859 0.07040148 0.009031993 0.0337738 0.262508 -0.14968584 0.248839 -0.069620006 -0.037233602 -0.1641918 -0.23170678 -0.0334484 0.3896388 -0.1562356 0.009456003 -0.18017836 0.239204 -0.3229304 0.14586043 0.028195996 -0.04044199 0.15962428 -0.12154021 0.1353294 0.086311996 0.0552144 0.41027603 0.10357361 -0.058955997 0.07741358 -0.276436 -0.4500588 0.184602 -0.1281838 -0.08847841 -0.102742456 0.06511201 -0.009678001 -0.1444261 0.573316 -0.19498599 -0.174544 -0.020279754 0.010356403 0.04206561 -0.085311405 0.1172626 0.003005606 0.047816798 -0.080624394 0.20451401 0.41217995 0.395154 0.25166658 -0.3404391 0.016939014 -0.140196 0.1414566 -0.0589966 0.059631467 -0.034694 -0.082098 0.111166 0.13383721 0.078752205 0.19063 0.15160361 -0.26355335 0.008511997 0.15699981 0.021049997 -0.018271342 -0.0519076 -1.365082 -0.36368603 0.24053648 0.061015796 -0.0800478 -0.23782142 0.099705994 0.198626 -0.24582718 0.16967462 -0.09897104 0.26345202 -0.084874004 0.22193602 0.15495202 -0.14009461 0.21301441 -0.25114202 -0.054873604 0.08023201 -0.030749803 0.0435394 -0.086834006 0.120007
ceo 0.01339671 -0.20234108 0.06373909 -0.19526117 -0.03203183 -0.27602208 -0.10144243 0.33207554 -0.09390725 -1.6519799 0.030246586 -0.008591995 -0.21927276 -0.07703701 -0.073356256 0.32519013 -0.013061668 -0.077596 0.09441997 0.06764279 0.1581327 0.14222741 0.2965057 -0.017536912 -0.265672 -0.016334413 -0.121498495 0.09225025 0.13530533 -0.03239283 -0.16421 -0.059539016 0.12336792 -0.019172082 -0.6391392 -0.05807084 0.26502448 -0.081936255 -0.3477393 -0.14738251 0.007940082 0.07459347 -0.08904584 0.3400677 -0.04583187 -0.21813983 -0.029212337 0.030158749 0.038349338 -0.03111167 -0.10854583 -0.09309049 0.22070259 0.4083428 0.09714018 0.310903 0.021970171 0.31128585 0.081194386 -0.22843122 0.073140755 -0.021718334 0.33594808 0.026325252 -0.10219078 -0.2006849 -0.3233342 -0.063060984 -0.35330194 0.07426309 -0.057123087 -0.09814225 0.046009168 -0.0727998 -0.073893666 0.065514244 -0.033134427 0.2073385 -0.04389584 0.10707408 -0.09430908 0.12634434 -0.12224059 0.2053259 0.2350925 -0.0023809983 -0.18367383 0.13419683 -0.0911756 0.13430835 -0.6174017 0.2642075 -0.39766845 0.009336665 0.05453178 -0.15021135 -0.38986918 0.15208867 0.17714027 -0.135985 -0.19156134 -0.07562453 -0.011985167 -0.15674368 0.3051454 -0.0739768 0.06504175 -0.07343891 -0.06977344 0.13222063 0.061726615 -0.032569833 0.03351175 0.043219 0.012622459 0.22084919 0.058864027 -0.34442705 -0.15200785 -0.087847255 -0.11588834 0.16888575 0.08181525 -0.16910702 0.005984336 -0.21836035 -0.07777892 -0.12097144 0.19704291 -0.0071779243 0.16092649 0.08946723 0.015238332 -0.06552692 -0.10287078 0.13058484 -0.041697245 -0.069751754 -0.032565504 0.09853417 -0.15455876 0.15849575 0.27623945 0.17724477 -0.3717017 0.26841435 0.12579659 0.015890678 -0.19622725 0.10153451 0.7045685 0.13668142 0.4940585 -0.12848334 0.1191846 0.20491159 -0.08288824 -0.14917134 -0.024667084 0.14936107 0.06768533 0.111376844 0.17533843 0.035692506 -0.12579042 -0.15013026 -0.026553884 0.10392332 -0.115593255 0.56075335 0.16642529 -0.03434317 -0.5553475 -0.282951 0.028265996 0.28898302 0.02810861 -0.1431475 -0.19523184 0.21103108 -0.016785752 0.15018634 -0.074952334 0.01419015 -0.005860756 -0.122182935 -0.48972043 -0.0030823401 -0.20643604 -0.008499503 0.33589363 -0.011589332 -0.09456615 -0.21993642 0.05850967 0.070734836 -0.092371166 0.13087317 0.10982697 -0.0031745038 0.535236 0.07235536 -0.12131309 -0.097065 0.04879428 0.06201383 0.19653682 0.044277173 0.118079506 -0.2694494 0.11528276 -0.17259848 0.10194375 -0.24987134 0.094765 0.004381 -0.21523476 0.23902997 -0.11446667 -0.056257084 -0.25294667 -0.078985326 0.061550837 0.197215 0.005203735 -0.05798109 0.0012412481 -0.034521107 0.051473837 0.034506418 -0.009675863 0.24867833 0.2382633 0.01703408 -0.045482915 -0.090948336 0.13310477 -0.08413218 -0.19902109 0.19297588 -0.0029435009 -0.21044528 0.38751516 -0.2609892 -0.14370666 0.118411504 0.1993365 -0.5078839 0.14247525 0.14612417 0.28178903 0.26151443 -0.20422718 0.008179332 0.41620395 -0.08091143 -0.121458575 -0.0056092367 0.031590164 -0.23765159 -0.20111935 0.074322835 -0.068745695 0.1514132 -0.15513702 -0.07575534 0.29607236 0.0944885 -0.12137775 0.30511317 0.035519633 0.041006166 0.08104059 0.18703018 0.086328 0.20379059 -1.3753618 0.16664009 0.4821175 -0.27780694 -0.026670266 -0.12308118 0.15750168 0.09481599 0.03983842 0.19619575 0.1384725 0.25472528 -0.031726252 -0.18061543 -0.07244383 -0.1767725 -0.22064 -0.20382743 0.061451912 0.41456002 -0.2696753 -0.08039201 -0.40641093 0.032885168
child -0.31774753 0.086517006 -0.12188001 0.0066260006 -0.143204 0.34944502 -0.157985 -0.13646574 -0.100374766 -1.206445 0.18304825 0.034841508 -0.26927 0.04879375 0.032977246 -0.30015576 -0.2289325 -0.3660245 -0.120146 -0.1221925 -0.34842652 0.696455 -0.20954275 0.20951375 -0.1517785 0.020247497 0.172528 -0.180798 0.24623749 -0.077122 -0.3130175 0.49507 -0.2662855 -0.3803125 -0.77667004 0.27557 0.00801 -0.050406005 0.07605176 -0.1117525 0.48775524 -0.276213 -0.012664497 -0.191437 -0.2243625 0.0052957498 0.21226925 -0.056731503 -0.018163253 -0.0686115 0.17797375 -0.19381952 0.104720004 0.2690955 -0.06167475 -0.11209 0.15921874 0.122739494 0.081442 -0.251861 0.11149526 -0.080128 0.26604003 0.29632849 -0.16263999 -0.3682925 -0.028821744 -0.18302602 -0.371267 0.083142504 -0.16474675 -0.51585996 -0.232952 0.04808 0.35476202 0.04633475 0.022600498 0.07752125 0.2035825 0.093505 -0.115624994 -0.15838975 0.055827506 0.08783875 -0.27517998 -0.040530495 -0.255513 -0.17938074 0.0019432493 0.24165502 -0.574735 0.19402175 -0.42342928 0.06334281 0.06797499 0.033846244 0.06637251 -0.08075249 0.033221498 -0.470585 0.09402701 -0.21237266 0.01962025 -0.14487211 0.34889 0.036522496 0.21322826 0.1304775 0.016802 -0.072941005 0.19342664 0.259489 0.094005495 -0.12718475 0.49431998 0.55749 0.35922 0.271235 -0.28914362 -0.2751225 -0.046620004 0.41479748 -0.14894249 0.06827 -0.1097225 -0.06771 -0.043045245 -0.173025 0.27049503 -0.2156455 0.29697248 -0.19643998 0.047642425 0.318295 -0.049541026 -0.0189685 -0.07328574 -0.09582575 -0.21599 0.098128244 -0.031076998 -0.121031 -0.047633875 -0.10522897 -0.124299996 -0.22572374 0.1776505 -0.095105246 0.26279375 0.19579351 0.070289746 0.121956505 0.15198901 0.510337 -5.499944E-4 0.084998 -0.105527505 -0.1257275 -0.043040752 0.03335025 0.23958951 -0.09154501 0.17421 -0.1648675 -0.320875 -0.0700275 0.0030222535 0.3062975 0.361265 0.09163 0.1119775 0.04451375 -0.800805 0.23507601 -0.09082451 -0.2582125 0.02077975 -0.099607244 -0.504155 0.5273397 0.164745 -0.13078499 -0.280335 0.093217 -0.046306003 -0.17786925 -0.073526256 -0.10392049 0.17277001 0.016631752 -0.068297744 -0.22715 -0.18038325 0.104349 -0.12625399 0.016782485 0.06084326 -0.34506148 -0.24751274 -0.2437 0.98611 0.123375006 0.184345 -0.13894501 -0.011000495 0.1256105 0.08847025 0.24663925 0.052130744 0.177745 0.02846276 -0.25019825 -0.04237775 0.103617996 0.015019499 0.0836775 0.101631746 0.146448 -0.1457225 0.025473004 -0.44519573 0.45502 0.043446247 -0.0780285 -0.31944716 0.20755324 0.12784624 -0.4633475 -0.01638975 0.45401752 0.19709086 -0.14988226 -0.052522503 -0.23384249 -0.202781 0.24640125 -0.083348505 0.44940948 -0.538 0.0680777 0.21671176 -0.24531 0.420138 -0.0213215 -0.36212498 0.2677075 0.17914024 0.20506975 0.019809995 0.2148275 -0.123495005 0.08550825 -0.06790925 -0.031662747 0.79968 0.0963875 0.22315626 -0.2240531 0.2704125 0.059512552 0.023974251 -0.34633577 -0.039672002 0.19046725 -0.38678 -0.100490004 0.14323 0.0645364 -0.143365 0.44136 -0.24512918 -0.42351002 0.25868702 -0.027170502 0.016989002 0.1600415 -2.076275 -0.070205 0.21278726 0.0640632 -0.020209499 -0.135453 0.06331751 -1.9275025E-4 -0.3664325 0.52842504 -0.05811076 0.545045 -0.23822825 0.13461375 -0.08360951 -0.31733 -0.1304235 0.009779699 0.2412005 -0.22371584 -0.17840326 0.314065 -0.1958915 -0.04814745
club -0.08156802 0.57809335 0.06371466 -0.10238136 0.103143 0.14894617 -0.25809836 0.30594933 0.011720216 -0.88791835 0.15966335 0.008773332 0.11006882 -0.20920168 -0.08810683 0.030412 -0.012413001 -0.04944962 0.17307389 -0.25172 0.011212165 0.07321967 -0.14408019 0.15767801 -0.12138467 0.008978 -0.24755935 0.36219436 -0.208621 0.04811117 0.22660634 -0.031208828 -0.0486035 0.13902351 -1.4612302 0.10651749 0.32666835 0.30839664 -0.20215166 -0.24379268 0.02444899 -0.12540317 -0.13753334 0.037894335 -0.009636502 0.032122836 0.47115836 0.17040567 -0.25322533 0.06814611 0.13539633 -0.16981167 -0.29294583 -0.026315002 -0.1001605 0.28082985 -0.11900824 0.25868002 0.07858267 -0.09832393 0.08374822 0.12070434 -0.06581584 -0.09705517 -0.054495156 -0.34108353 0.058034837 -0.12068926 -0.078734174 -0.59357333 0.35691234 0.23675583 0.017673325 0.10014567 -0.23198834 0.052874 0.08433008 0.1184285 -0.08437733 -0.07907167 -0.13663983 0.09200916 0.057799336 -0.15274 -0.102684006 -0.156476 -0.01311033 -0.11300933 0.0858035 0.18270616 0.041134335 0.4537867 0.096960664 -0.09200683 0.35936114 0.36499923 -0.1544 -0.34377667 0.14424334 -0.61215067 -0.099475786 0.017828165 -0.24148284 -0.138955 0.047058664 0.202175 0.36232668 -0.059338164 -0.14012885 0.33108303 0.22085819 -0.1992685 0.13715385 -0.120000504 0.088574335 -0.022026991 0.11345334 -0.27132735 -0.15874733 -0.17931667 0.07182584 0.092276655 0.3944745 0.14284167 -0.024139505 0.18871234 -0.05151416 0.0656535 0.13393168 0.033274993 0.031808835 -0.02406856 -0.10413333 -0.38108167 0.11123668 0.08984734 0.117345825 0.11362217 -0.45409173 -0.04867701 -0.061016798 -0.19547334 0.12540483 0.094756335 -0.017311832 0.05265484 0.21923016 -0.105771184 -0.47985885 0.07566331 0.21996167 -0.34701252 -0.17203216 3.283384E-4 0.43895334 -0.33133668 -0.31540015 0.016872166 -0.061780497 0.094414994 0.1440095 -0.29470468 -0.33519 -0.07462784 0.12640366 -0.14277698 -0.26579 0.23613833 0.07477516 -0.21596651 -0.0051656663 -0.05634436 -1.0331467 0.21610169 -0.048480004 -0.011963164 -0.106134 -0.12788317 -0.23759167 0.74635 0.17294216 -0.088648334 0.17193636 0.10731733 -0.12544835 -0.2566037 -0.641245 0.011586165 -0.112343 -0.18192433 -0.05768466 0.30360132 0.2494215 -0.19681595 0.23483002 -0.31939167 0.0909085 0.11851718 0.17465095 0.061254993 1.451725 0.11474717 -0.09294817 -0.012655497 0.095460996 -0.03477333 0.16735403 0.21637768 -0.09102024 -0.24823117 0.06817033 0.051610004 -0.25949335 0.25200385 -0.009715162 -0.10890516 0.124815166 -0.005141671 -0.036876667 -0.19735667 0.056224883 -0.16500203 -0.28925833 -0.12245168 0.14523502 -0.13404433 -0.13040265 0.028681753 -0.12632501 0.026954718 0.09112169 -0.16026233 0.24534182 -0.47557005 0.13660851 0.10053256 -0.12827364 0.30711 -0.008189997 0.3823467 0.44452032 0.18124285 0.47103998 -0.048639666 -0.12254017 0.26013482 -0.36853835 0.018778 0.06568651 0.1011787 0.36263835 -0.035228487 0.01066423 0.038145836 0.26789668 -0.11716994 0.15126014 -0.127823 0.07182534 0.2355905 -0.1732165 -0.36370167 0.23988466 0.08117917 0.06859617 0.045210015 -0.34630054 -0.024214998 -0.2223419 -0.33028334 0.05068467 0.055649996 0.25031954 -0.11259 0.6487117 -0.1115235 -1.7278166 -0.048924163 0.17174546 0.23257999 -0.13756251 -0.019392338 -0.047996 0.47377285 -0.0029879909 -0.1764805 -0.089168005 0.05858084 0.11696165 -0.4140787 0.033088334 -0.04099951 -0.46608287 -0.034383006 0.35611182 0.027100503 0.10500932 -0.33534467 0.036791675 -0.39697334
deathPlace -0.157016 0.10906801 -0.17224772 -0.21736126 -0.016509116 -0.06983578 -0.051930558 0.11225568 0.13884266 -1.4922521 -0.02098189 -0.07464177 -0.14883408 -0.008615229 0.118113786 0.2791841 -0.091396675 0.3559122 -0.19325224 0.025457213 -0.09580958 0.17125566 0.05517867 -0.11322223 -0.11455212 2.9997574E-4 0.0047915643 -0.0324209 -0.10865078 0.038358893 0.17132996 0.3581542 -0.31052777 -0.023948783 -0.2040201 0.02385266 0.18725355 -0.047706887 -0.13238113 0.0011242231 0.114912845 -0.09608022 -0.07615388 0.122612454 -0.115863115 0.12490378 0.32907444 0.24668166 0.13394277 0.11713035 0.109387435 0.04872989 0.03644667 0.13164623 0.12096078 0.021053672 0.017838478 0.02592 0.2260578 -0.11102167 0.017601106 0.032911442 0.23753148 -0.11492124 -0.07309111 -0.36165065 -0.059174664 0.11439667 -0.055320002 0.08537744 0.133889 -0.23061678 0.053018667 -0.07885445 -0.227768 -0.102071784 0.14367634 -0.07028045 0.048844554 0.09409223 -0.011054997 -0.1802939 -0.11893545 0.2305602 -0.14437224 0.0019285564 -0.014076769 -0.09137718 -0.015535222 0.06259323 -0.17136176 0.043776553 -0.049533553 0.04347778 -0.0135945575 0.122678675 -0.21084666 0.054325555 0.18054254 -0.036652777 0.13817866 -0.119757585 -0.049645226 0.063545994 0.010462999 0.3695871 0.25367156 0.027850667 -0.0068829954 0.14379545 -0.008733717 -0.110347785 -0.039455224 -0.06603311 -0.08681723 -0.029181812 0.07754832 -0.06488734 0.11857767 0.009297488 -0.080460384 -0.058227334 0.09137089 0.22054106 -0.050931383 0.017329888 -0.020437444 0.053167444 0.104147844 0.041465998 0.01241021 0.10630064 0.253975 0.081704445 -0.14655657 0.027543219 -0.06110378 -0.0083411075 -0.10315343 0.14448734 -0.088238 0.15154488 0.033432998 -0.043366134 -0.3105374 -0.164518 0.024674224 -0.112816006 -0.325977 -0.07213822 0.1966045 -0.042977445 0.11109622 0.009101884 0.3071944 0.08527267 -0.09562523 -0.040036354 0.12502134 -0.06863 0.16392499 -0.2538271 0.05889196 -0.10382411 0.15712845 -0.021937221 0.24320446 -0.076945886 -0.009567213 0.03473911 0.14813311 0.025521113 -0.08065933 0.051893447 -0.07017678 0.051115554 0.009082115 0.004737026 -0.21375914 0.027460331 -0.03407255 0.11291146 0.13719055 -0.010582168 0.05467667 -0.082649775 -0.087801896 0.035266664 -0.13559039 0.12139111 0.25339556 -0.030668557 0.08996236 -0.048278306 -0.06522222 -0.13659188 -0.022336006 -0.20604777 -2.072172E-4 0.23151475 0.79986596 -0.06974922 0.008110557 -0.097525455 0.16191804 0.0045381105 -0.0452662 0.0024781127 -0.04433735 0.14574963 0.04061534 -0.080075555 0.028717892 -0.18807699 -0.05251811 0.099301115 0.010246098 -0.045445327 -0.11008183 0.0054565435 -0.032538902 -0.16192277 0.004685557 0.039131504 -0.021169836 -0.016025713 0.08491189 -0.132139 -0.14750034 0.24846442 0.16473478 -0.006196663 0.012273442 -0.22255813 -0.12072823 0.014129666 0.0055898908 -0.0073468853 -0.021816889 0.106706224 -0.10666655 0.013006668 0.6096675 -0.06745 -0.36173555 0.04567181 0.11670766 0.09364756 0.069752336 0.019164437 0.076862216 0.004210444 0.04901216 -0.008191775 0.2609819 0.27306333 0.1374731 -0.042505264 -0.011982334 0.09210645 4.2800108E-4 -0.081708446 0.14707857 0.027972884 -0.095024444 -0.10464244 0.06655848 0.097061224 0.32242945 -0.0053631463 0.059017036 -0.07121711 0.20073313 0.19164355 0.16843747 0.073188335 -1.7265222 -0.11585634 0.37422934 0.24136035 -0.07299024 -0.165721 0.091154166 -0.061783228 -0.19483745 0.22148612 -0.097668886 0.054359328 0.14634891 0.050215773 -0.12424944 -0.21191192 0.01293167 -0.27521443 0.072698 0.34213224 -0.07375419 -0.12867482 -0.059418786 0.08886263
debutTeam -0.20820901 0.38372222 -0.030936996 -0.24246822 -0.0025426596 -0.0020983352 -0.20441389 0.06373734 0.00806678 -1.3005422 0.11542723 0.120626 0.043182325 0.06562134 0.031934187 0.1754011 -0.12831905 -0.14260955 0.04930399 -0.22129479 -0.022914836 0.033243664 0.19216388 0.33498013 0.10425333 -0.021343334 -0.0544937 -0.075460225 -0.08586154 0.047275558 0.036056783 -0.12633021 0.05946678 0.19804388 -0.9884912 0.1841759 0.07307555 0.14222312 -0.0061728987 0.030909559 0.012956003 -0.057159107 -0.009999522 0.28839532 0.03466745 0.03911855 0.075486116 0.18503922 -0.11133356 0.10833531 -0.11890577 -0.049878005 -0.07081399 -0.017748011 -0.0030307753 0.27428114 0.02147208 0.25634056 0.13356167 -0.09250222 -0.05584554 0.020482553 -0.038446534 -0.26205444 0.05869712 -0.06978876 0.022509882 -0.02215455 -0.08010067 -0.22284587 -0.037521105 0.26663533 -0.12848043 -0.013666885 -0.23368311 0.028935917 0.11340311 -0.006240352 -0.020152923 -0.031058516 -0.06712955 0.0084144445 0.07077078 -0.06775823 0.041517563 -0.04147122 -0.06471533 -0.05107811 0.02461756 0.14298934 -0.055932444 0.1719222 0.13610345 -0.12757881 0.012658889 -0.12696058 -0.1464253 -0.15043348 -0.08059999 -0.4289189 -0.03888218 -0.035701223 -0.06263246 0.06113989 0.1329231 -0.058401108 0.24751435 0.09500755 -0.041629963 0.14132434 -0.013113197 -0.18522923 -0.21576001 -0.03334656 0.07238622 0.044141665 -0.08030937 -0.09799402 0.04733111 -0.124963894 -0.18040036 0.1725079 0.24911907 -0.020486781 -0.19607766 0.06695367 -0.039110005 0.18144712 0.034605775 0.08601855 0.109395996 -0.0024335533 0.038929004 -0.22896655 -0.19683044 0.021397773 0.13296334 -0.10639733 -0.11511733 0.108190335 -0.13151424 0.0055428124 0.33837456 0.07502456 -0.010073443 -0.15527618 0.18875495 -0.037868783 -0.008832444 0.07009078 0.5331556 -0.11691001 0.09092345 -0.07008111 0.27616778 -0.13505566 -0.18720846 0.09209605 -0.07874422 -0.041649964 0.01797 -0.104779005 -0.19259144 0.030445447 0.11129522 -0.034178887 -0.104721226 0.072884336 0.10991768 0.2773438 0.23384333 0.15419357 -0.66544324 0.18267335 0.012619674 0.1713989 -0.015068169 -0.17482105 0.049605556 0.34987333 0.089481674 0.19197667 0.012830776 0.043318227 0.0023510722 -0.077659115 -0.2826542 -0.0034445557 -0.18471734 -0.017431999 -0.05885878 0.14844777 -0.06914544 -0.14774488 -0.065747775 0.045465995 0.08943289 0.15529333 -0.038809333 -0.029536333 0.9577767 -0.087572776 -0.08430018 -0.13564159 0.076681234 -0.04731534 -0.104905345 0.16758157 -0.03178667 -0.06243233 0.05957611 0.014906555 -0.19818956 0.049397577 0.08000689 -0.04218967 0.00583411 0.13115396 -7.3363056E-4 0.12003312 0.18578357 -0.104745544 -0.15468666 0.0034755536 0.13648911 -0.107344024 -0.026331434 -0.044447552 -0.12672345 0.046906445 0.16525547 -0.05555798 0.072804116 -0.19653545 0.05498867 0.06847328 0.119754344 -0.03644367 -0.06467456 0.2641363 0.10169256 0.010283773 0.26840433 -0.13568078 -0.42198578 0.08033211 0.07914566 -0.07346739 -0.102836885 0.06024319 0.2680749 0.031372678 -0.040712476 0.07206644 0.2790871 0.03385711 0.06621543 -0.098222114 0.17930421 0.04300044 -0.12639101 -0.080866605 0.250684 -0.017662555 0.02471811 0.052022222 -0.0814021 0.08033278 0.16481379 0.06178155 -0.033788 -0.032289557 0.09685524 -0.07981167 0.29430524 0.10841122 -1.6037111 0.014185712 0.41504014 0.13413414 -0.23034902 -0.22240533 0.011059789 0.11683122 -0.0012964425 0.15390733 -0.22445366 0.10445599 0.14775534 -0.14405413 -0.1747529 -0.06479301 -0.36908656 -0.21310578 0.20938583 0.3598658 0.07922888 -0.2153351 -0.06864134 -0.07756913
department -0.20579301 0.22888982 -0.0966334 -0.2458664 -0.10139199 0.09530159 0.19204499 0.43433198 -0.123571396 -1.6551402 0.0714824 0.15191478 -0.10907741 0.16969721 0.19487001 -0.1197646 -0.0800408 0.030129401 -0.0027653934 -0.11815601 0.17655602 -0.038413595 0.3013455 0.22671202 -0.100886 0.186584 -0.0059025916 -0.030159999 -0.12073541 0.2599444 5.298376E-4 0.010777998 0.008305322 0.014540002 -0.31236324 -0.06535081 0.254762 -0.0341006 -0.021592993 -0.19280282 -0.0796052 -0.136888 0.2737918 0.352786 -0.135964 -0.128776 0.020874007 0.1275832 0.19216561 -0.010221398 -0.088721804 0.22743359 -0.0319324 0.239983 -0.19506119 -0.2393734 -0.37662503 0.026962196 0.10089439 -0.22505961 -0.003323596 0.056322075 0.1857908 0.0878504 -0.15022181 -0.13923138 -0.25697657 0.278792 -0.11637012 -0.16696 -0.049486406 0.14551361 0.14798538 -0.041129995 -0.32366 0.12328 0.057900008 -0.070572995 0.10516441 0.0018855929 -0.011295206 -0.104532 -0.38637564 -0.3065066 0.047665603 0.075497806 -0.0139940055 0.062487777 -0.056051206 0.2050172 -0.064775996 0.2799664 -0.0632304 0.081394605 0.1279084 0.08234341 -0.289622 0.13265541 -0.13037734 -0.2278682 0.11819019 -0.2669568 0.0060256007 -0.35374203 -0.1291186 -0.22448802 0.09857909 -0.015699003 0.13725601 0.39784 -0.2359958 -0.1652672 -0.169348 -0.12701403 -0.1274798 0.050005 -0.21500099 -0.08327999 0.0502333 0.360426 0.11374181 0.2809922 0.3882086 -0.07711802 -0.12093001 -0.013428795 0.010642201 0.017754598 0.109310806 0.133794 0.3355802 -0.19487399 0.0918648 -0.251448 -0.008388995 0.0061252 0.045993168 0.263718 -0.28417403 0.17191172 -0.08366519 0.017571604 0.20943332 -0.11797881 0.0829512 0.1914764 0.2541452 0.040288195 0.0059230863 0.14218816 0.643086 -0.106083 0.12553297 -0.0953404 0.18894802 -0.02899601 -0.22934599 -0.172436 -0.07823219 -0.122858 0.10330381 0.19448665 -0.063552 -0.012427998 0.1533808 -0.21591501 0.080178 0.083191 -0.0865828 0.50332 0.0066935956 -0.25585803 -0.650416 0.035094224 0.1721674 -0.04816 0.0608054 -0.18172018 -0.12663603 0.06098959 0.181756 0.030290598 -0.0301458 -0.0646932 0.278176 -0.2176084 -0.464962 0.2005596 -0.038230825 -0.17178021 -0.011721601 0.30069488 -0.27372283 0.074510716 0.1807646 0.40770122 0.024149206 0.1619824 0.012423999 0.1905604 0.23939 0.0918422 -0.09330845 -0.13991301 -0.11264081 0.06794041 -0.32835004 0.1030872 0.23187561 -0.026510406 0.18291107 0.23000701 -0.08384161 -0.0251386 0.026323725 0.028650796 -0.059054025 0.2119596 0.23490222 0.074389994 0.059267607 -0.43380404 -0.3184286 -0.11043421 0.23782599 -0.3385646 -0.116372004 0.13255624 -0.0706252 -0.07832134 0.32658958 -0.0055063963 0.14994201 -0.046164002 0.12255579 0.045568 0.18750626 -0.051414985 -0.243082 0.25278422 0.017463606 -0.030326009 0.53465 -0.15847121 -0.554192 -0.32287002 0.172612 -0.23430021 -0.123082995 0.028348658 0.1992606 0.23297761 -0.0160176 0.032990802 0.44674405 0.051188804 -0.297959 0.050658 -0.2027856 0.22036941 -0.31106523 0.023325605 0.0727238 0.16580187 0.241208 0.012583799 -0.436932 0.2752816 -0.010151801 0.2356622 0.06388458 0.035456 -0.1090282 0.20541202 -0.044383604 0.13872401 -1.6099621 0.3292112 0.28969604 0.1354128 -0.23589301 -0.21453281 0.23053177 0.010739803 0.0725598 0.2928394 -0.11167979 0.37282202 0.337048 0.0659338 -0.14341338 -0.21173202 -0.3675596 -0.0036616088 0.12023101 0.82027006 0.19224298 -0.2280662 -0.0629758 -0.141282
district -0.18163233 -0.20881802 -0.09197333 -0.45196998 -0.06934801 -0.161635 -0.05060668 0.4347303 -0.15242068 -1.24222 -0.21195 -0.08956667 -0.25565666 0.40542328 0.4643433 -0.049979985 -0.32795703 0.183734 0.07302667 0.05157332 0.06119 -0.25396335 0.023241332 0.07533 -0.27158672 -0.4549367 -0.14983901 -0.44409665 -0.09941 0.0023710034 0.67230004 0.15768334 -0.33177 0.15623367 -0.21801 0.004059665 -0.13699134 -0.15518707 -0.35762584 -0.178031 0.165198 -0.23352134 -0.32204336 0.52173 0.058813334 -0.08207327 0.10152666 0.27072668 0.16955666 0.022389999 0.14683999 0.17859969 0.3781967 -0.0302 0.58748335 -0.137521 -0.08044501 -0.12245333 0.34963334 -0.31133604 -0.12567668 -0.32077467 0.06515334 -0.5252367 -0.06973334 -0.263572 -0.3818333 -0.048560664 -0.13304 -0.19352368 -0.16788332 -0.6437967 0.10909667 -0.10427366 -0.222206 -0.5397067 0.32918 -0.056929998 -0.107370004 0.062451 0.13627267 -0.17345 0.029168703 0.114522666 0.342589 -0.112053 -0.41825664 -0.27466667 0.12732731 0.48636335 0.07321334 0.0045699975 -0.18628334 -0.13434666 -0.059202336 0.2109956 0.22536 0.07080667 0.10000666 0.25816303 -0.0012506638 0.14075534 0.17806968 0.023026666 -0.27893335 -0.15212002 0.20301768 0.25632 0.48104602 0.17651665 -0.066740006 -0.22103667 -0.10987967 0.022870665 0.06339767 -0.058850005 0.11484667 -0.07461001 0.11133533 -0.11491001 0.09462219 0.034726664 -0.0046159998 -0.15232468 0.012900672 0.16454002 -0.019836664 -0.067981005 0.20420901 0.016508333 -0.23658435 0.15412566 0.08829868 0.0013633271 -0.15832368 0.048386335 -0.014754 0.24121001 0.11920467 0.050526 -0.28645968 0.21195 0.042040013 -0.18107334 -0.32722002 -0.31149668 0.20478001 0.13034001 -0.43969965 0.12675 0.5929267 0.082155004 0.17565668 -7.2000426E-4 0.6057567 0.055461667 -0.028573003 -0.08318766 0.3896973 0.22658335 -0.089859 -0.3699937 0.013071401 -0.101830676 0.106710665 -0.08407335 0.222709 -0.117883325 -0.18460801 -0.03282197 0.10658233 -0.014742996 -0.34502 -0.011956672 0.18249902 0.20806333 -0.19537 0.053160667 -0.33010334 0.33040333 -0.138494 0.30958 -0.31939334 -0.32993 0.34120667 0.17043135 -0.008407667 -0.01934867 -0.40165704 0.135671 0.192493 0.19005668 -0.11774691 0.29801974 0.022283658 0.17943732 0.19599001 -0.13344334 0.060223334 0.45137137 0.64339006 -0.03455334 -0.224344 -0.09730333 -0.20190871 -0.16333234 -0.37928665 0.29398102 0.0434 0.29169333 0.030125003 0.113596335 0.06223334 -0.21695666 0.17942905 -0.36698002 0.12506299 0.15493266 -0.047833335 -0.13745104 0.09128334 -0.34501466 0.22083001 0.031244269 0.38092703 -0.25839764 0.21250002 -0.17170505 -0.6676843 -0.23728701 -0.14403 0.3691257 -0.25659168 -0.031647336 0.18382667 0.06774001 0.044830002 -0.008686001 0.39071 0.18035667 -0.124453336 -0.037080336 0.8261468 0.2691967 -0.51245 0.230405 0.38975334 0.009908667 0.122133 0.043733396 0.3237967 0.11355867 0.020342669 -0.31757998 0.14419833 0.09624973 0.09960668 0.090003334 -0.066093996 0.31077802 0.031146666 0.37400365 0.3546 0.26768333 0.038825665 -0.5013467 -0.044777 -0.058701005 0.46328998 -0.10794934 -0.12382635 3.6066648E-4 -0.10279518 0.09848999 0.06785667 -0.009541 -1.6723669 0.31028333 0.6311734 0.032353003 -0.26883435 0.12596367 -0.37484217 -0.20413034 -0.4061037 0.2860098 0.059070002 0.17275333 0.17807333 0.26259 -0.020441666 -0.058787346 0.12667666 0.20128334 -0.07334934 1.0397834 -0.12877166 -0.49625266 -0.027298003 -0.18499666
doctoralAdvisor 0.123555 0.0602208 -0.044115003 0.1447425 0.33173752 -0.123224996 -0.1400375 -0.2694211 0.18370625 -1.0617975 0.35238498 0.09518099 0.05065 -0.025322497 0.09526675 0.06678875 0.18628076 -0.007074252 0.07467999 0.026612505 -0.18370575 0.10871225 -0.009570003 0.11519375 -0.5382625 0.3471435 0.017275989 0.31033248 -0.13882126 -0.21768695 -0.04698225 -0.17326327 0.12148 -0.021748248 -0.48404 0.05532175 0.2203494 0.35202003 -0.181324 -0.2816925 0.46972 -0.055888005 0.013605002 -0.056019753 -0.095791996 -0.08108225 0.043800425 0.05187325 -0.18156375 -0.050985 -0.04606425 0.0025275014 0.1311575 0.07720325 0.1452475 0.008406999 0.19839025 0.06652 -0.06269 0.0866825 0.029306753 0.0682295 0.119090006 0.37771726 -0.010880001 -0.275304 0.21919388 -0.1778306 -0.39633524 -0.12616749 0.15111704 0.037534002 -0.0024307538 -0.14810002 -0.18028 0.568655 0.07658957 0.27479824 -0.035333153 0.063870005 0.57239 0.123211 -0.294375 -0.052639253 0.310727 0.14658749 0.21536249 0.035194248 -0.3592 -0.4130925 -0.34499753 0.118842505 -0.19233751 -0.17130275 0.22525749 0.33886248 -0.195598 -0.024165 0.033043504 -0.15626575 -0.16594401 0.126835 0.25283474 0.23460625 0.075655 -0.33709747 -0.080764994 0.17326999 -0.30106 -0.13290876 0.100577 0.058589995 -0.13774051 -0.165395 0.1725375 0.1354035 -0.385375 -0.062862754 -0.1095325 0.4292385 -0.02315025 0.75324 -0.35408002 -0.17587525 -0.122324996 0.009705003 -0.022001248 -0.2007547 -0.103525005 -0.16904324 -0.0457145 -0.6739925 0.007557001 -0.5223525 -0.31537 -0.27071825 -0.38230625 0.18837175 -0.12810676 0.21281 0.3543775 0.049778245 0.23518476 -0.31557873 0.095021755 0.19676556 0.128885 -0.22080925 -0.10019751 -0.045511752 0.65186995 0.09353775 0.0048882524 0.27291 -0.2560875 0.386863 -0.056685 -0.41566247 0.26344424 -0.083225 -0.023187 0.010427501 0.029329997 -0.17253098 -0.297193 -0.1456325 -0.04900126 -0.1812225 0.2533914 0.17322749 -0.149625 -0.21725662 -0.7374375 -0.203725 -0.031268753 -0.034480758 0.1292175 -0.2927825 -0.2821875 -0.49186003 -0.1647625 -0.072846495 -0.037174247 0.196205 -0.060332492 0.012154125 -0.7788325 0.1927985 -0.16011824 -0.450768 -0.1098072 -0.058836248 -0.0652497 -0.108818755 -0.35137 -0.19255099 0.186354 0.17004725 0.2500365 -0.1762385 -0.01853925 0.26774502 -0.10292626 0.14098251 -0.0783245 0.35555 -0.30575824 0.18844551 0.22807476 -0.111687995 0.4628325 -0.45605752 0.405025 -0.240485 -0.025709994 -0.153995 -0.43812126 -0.0738575 0.1602415 0.07587225 -0.3489375 -0.13075499 -0.23550498 0.208285 0.3199125 -0.05135375 -0.23198374 0.18449724 -0.08936251 0.17154251 0.009180665 0.148934 0.42216277 -0.1036225 -0.052934997 0.321966 -0.09001425 -0.2345675 -0.12090876 -0.013856754 0.17336126 0.5026325 0.3986475 -0.21336074 -0.29375148 0.1040045 -0.4118875 -0.47115475 0.22715476 0.23138675 -0.068819985 -0.073503 0.1349025 0.092257746 0.4233675 0.042385247 -0.14998502 0.12858325 -0.022157244 0.288755 -0.19855401 -0.12321158 0.0046125017 -0.0915035 -0.05014825 -0.06411001 -0.156325 -0.1268525 -0.29715997 0.069232486 -0.459795 -0.1539075 0.1535075 -0.16282248 -0.193682 -0.22068053 -0.59548897 -0.05980313 0.45626473 -0.457705 0.234722 -0.325515 0.08472575 -0.2248555 0.38081473 0.07390676 0.43544975 0.19658576 0.048895698 -0.04201425 -0.50103474 -0.32729748 -0.26716927 -0.008682499 0.1608275 -0.105648756 0.03975226 0.30171824 -0.43601328 0.300175
doctoralStudent -0.34616134 -0.23119448 0.036933497 0.17451 0.09495434 -0.040637173 0.09517034 -0.30791634 0.15473059 -0.58694166 0.119767666 0.34028667 0.32590467 0.06624667 0.092763506 -0.048301168 0.28595567 -0.221248 0.072500676 -0.060171 -0.11486577 -0.11364167 -0.2670782 0.33978254 -0.22788128 0.33320716 0.016633164 0.24698952 -0.070056334 -0.15201351 0.19532333 -0.2385912 0.1289255 0.0023891702 -0.25230336 0.202022 0.12409567 0.10537833 -0.05121667 -0.037196167 0.24959984 -0.30910337 -0.15500002 -0.055599503 -0.010955 0.08543034 -0.01347972 0.5225301 0.008466665 -0.5343183 0.08497445 -0.21324518 0.2619683 0.071480006 0.21602516 -0.09902184 0.50791836 -0.08043159 0.07783732 0.2226005 0.12290668 0.123643 0.23198211 0.28897333 -0.10547616 0.16256168 0.28773 -0.12099373 -0.44528335 -0.041131333 -0.142605 -0.012670333 -0.056799006 0.017538337 0.020871667 0.14490703 -0.11049913 0.29048383 0.03558057 -6.7183375E-4 0.10497117 -0.18421751 -0.27476668 -0.4085097 -0.016734153 0.21399334 0.12493901 -0.23882216 -0.21630618 0.13279602 -0.058648013 0.01311033 -0.16312417 0.23176765 0.5183434 -0.010585002 0.13813467 0.24621916 -0.29340434 -0.036728367 -0.10270767 -0.30471602 0.05405283 0.057345167 0.18644166 -0.14710866 0.10250834 0.30025932 0.023742832 -0.028670331 -0.13171254 -0.40847 0.29712835 0.064796835 -0.11435833 -0.13267949 -0.16169935 -0.045142673 0.023395836 0.60151166 0.20075262 1.01417 -0.081505015 0.39352667 0.24079967 -0.15844968 0.1487305 -0.385104 0.38975805 -0.14817835 -0.06860167 -0.42438233 0.10000616 -0.41228282 -0.17657167 -0.05782967 -0.25245818 0.2571267 -0.12714218 0.22382234 0.43504232 0.10829884 0.034811333 -0.38546333 0.4427867 -0.1343633 0.008328341 -0.24455601 0.15481332 0.19958034 0.57725334 0.10705949 0.2752157 0.28090715 -0.094510004 0.070206 -0.09148835 -0.29283533 -0.122923516 -0.26591516 0.12154167 -0.03696334 0.014163333 -0.33908033 -0.32268366 -0.5318533 -0.27957502 -0.13678584 0.23449934 0.23975167 0.27482468 -0.29687002 -0.543337 0.018799668 0.35266817 0.004768829 -0.257935 -0.39502335 0.052412175 0.26816502 0.05413501 -0.20259951 -0.12694518 -0.034405164 0.27265117 0.15750352 -0.45401168 -0.060990494 -0.010760328 0.12204282 -0.18089502 -0.0058968356 -0.017408999 -0.035713 0.06974366 0.240817 -0.11133361 0.269746 -0.0063828668 -0.4864902 0.02698712 0.18159662 -0.16971168 0.084300004 -0.113555 -0.15043917 -0.43659005 0.308718 0.050343495 0.090123504 0.48864216 -0.24447519 -0.1346228 -0.1694725 -0.07464201 0.121582836 -0.30835968 0.17755768 0.15219001 0.010191498 -0.4000717 0.24609432 -0.32978904 0.3070625 0.1276954 0.070550665 -0.15374169 -0.14578518 -0.08674134 0.27611336 0.060106337 0.08752667 -0.05427715 -0.31720835 -0.29513368 0.21979499 0.10278098 0.1390395 -0.020802839 -0.0010566637 0.407848 0.353467 0.13622001 -0.35386 -1.005 0.27069002 -0.10972257 -0.039396837 -0.049050383 0.09599516 0.1544055 -0.0056043305 -0.117520325 -0.009027502 0.14512151 0.06263684 0.12552333 0.30201834 -0.011381502 -0.08724518 -0.20609683 -0.029384732 0.103034995 -0.060674172 -0.012829997 -0.086660504 -0.063188344 -0.092422836 -0.09939836 0.419923 -0.32173163 -0.09505867 0.33578652 0.0126284985 0.0012423372 -0.33398503 -1.1169751 -0.14871001 0.19756135 0.21589766 -0.015391904 -0.39489016 0.14305618 -0.239405 -0.04874372 0.33214334 -0.15711516 0.31013533 0.043447927 -0.08915351 -0.11884149 -0.38820666 -0.19405383 -0.18128833 0.26302 0.10971867 0.28465003 -0.12878901 -0.31833684 0.029620666
employer -0.2471588 0.3398214 -0.074948005 0.0026851997 0.001376003 -0.38666 0.042592 0.2904856 -0.12127336 -1.332524 -0.046362 -0.10565 0.33946002 0.012869805 0.25726742 0.035284296 -0.097264 0.085403204 -0.2331666 -0.20331421 0.3068408 0.14886041 0.32913402 0.27868742 -0.28784162 -0.10141599 -0.13730021 0.21514261 -0.19028601 0.095575795 -0.24528138 0.617624 -0.16698924 -0.18813002 -0.475502 -0.012713194 0.2605628 -0.16890521 0.19052601 -0.384806 0.118218005 0.010663601 0.08080841 0.3910664 -0.4027216 -0.270303 0.017508194 -0.015944604 0.072583996 -0.01550361 0.266418 -0.020721868 0.45966277 0.41420603 0.1096578 0.06673717 0.22202002 0.261 0.088529006 0.0523578 0.13723661 -0.0094506 -0.022503598 -0.11909399 -0.043246593 -0.3653014 -0.199386 -0.22939001 -0.124653794 0.033962604 -0.11713054 -0.23880601 0.22570458 0.117785595 -0.030925 0.23548634 -0.22498222 0.086467 0.033723205 -0.002777195 -0.336836 -0.02065801 -0.25564 0.0368154 0.0512452 -0.09422799 -0.017297996 -0.35869 -0.24406262 0.2066712 -0.13139442 0.27839398 -0.053653803 -0.0990192 0.18944019 -0.2220834 -0.31882042 -0.17829923 0.22922902 -0.1646208 0.10686799 0.038285267 -0.22541182 -0.43109497 0.23304258 0.0772164 0.41679057 -0.0644884 0.0572836 -0.134028 0.020609517 -0.353886 -0.1843542 0.14161162 0.07023519 0.216386 0.020025998 0.15113981 -0.1941304 0.3101918 0.017273195 0.172484 0.0933082 0.29433998 0.23401718 -0.0046899915 0.1665778 0.16758601 0.064468205 -0.0720392 0.1880858 0.28509602 -0.06370441 -0.0577644 -0.47108397 0.1489928 -0.311872 -0.078342 0.341962 -0.23123601 -0.16242759 -0.005380002 0.029504621 -0.1151336 -0.19175157 0.10097859 0.16299121 -0.082755804 0.030434001 0.049355794 0.52944124 0.016396403 0.369142 0.1060464 0.008066202 0.0050359997 -0.068784006 -0.06118719 0.1432886 -0.370132 0.09734001 0.21354234 -0.016092403 0.0217102 -0.036091205 -0.1694474 -0.014759001 0.29051402 0.122288 0.49063998 -0.122172 0.0768668 -0.502728 0.19238001 0.01636072 -0.050997008 -0.14700662 -0.23941003 -0.109312795 0.3504838 0.4306522 -0.09495061 0.010539597 -0.0209106 -0.185516 -0.23592201 -0.086912 -0.072419204 0.114845805 -0.14112401 0.104372 -0.021623988 -0.10600801 -0.06210159 0.10178399 -0.14054582 -0.189554 -0.14263253 -0.1034606 0.050576597 0.31405944 -0.059455402 0.0288696 -0.031051999 -0.09784866 0.309584 -0.005494207 0.009202016 0.1381476 -0.34594202 -0.056535996 -0.142783 0.005044198 -0.1675378 0.1227242 0.24721599 0.039646655 0.32391003 -0.167704 0.0787028 -0.15562199 0.33118603 0.03893 0.24401681 0.10082608 -0.112528004 -0.1355104 -0.103488006 -0.023166005 0.18091561 0.14270881 -0.1338932 0.302954 0.50576603 0.13821581 0.26681 0.09820961 0.10665851 -0.522068 0.06047201 0.38052002 -0.34148803 0.446506 -0.396898 -0.13540399 -0.013244006 0.156148 -0.305402 0.152528 -0.1211622 -0.1502978 0.2472362 0.13582759 0.043789405 0.44597602 -0.0712792 -0.3034 0.26287514 0.069942 0.118034005 0.1304446 -0.04598861 0.0862662 0.1392702 -0.128794 0.25681922 0.240292 0.006598002 0.0563984 -0.132732 -0.26596734 0.07680201 0.08501359 0.10552199 0.29900262 -0.22524782 -1.3681201 -0.048712004 0.20405553 0.2982576 -0.1190444 -0.217724 -0.044697996 0.0312484 0.20480421 0.329588 0.40609 0.17785239 -0.22739701 0.122744 0.23764943 -0.20787154 -0.13360201 -0.105860196 0.22518201 0.006105393 0.0219556 -0.1585904 -0.060789 0.05361836
formerBandMember -0.11824046 0.15119843 -0.046950158 -0.15278193 -0.091152444 -0.17051387 -0.043114696 0.14405663 0.10071292 -1.0145847 -0.08065262 0.050575737 0.010410503 -0.054413106 0.21307808 -0.16063824 -0.028879002 0.12594998 -0.065515086 -0.13238463 -0.015159166 0.27190518 0.07831553 0.18345085 -0.2436667 -0.15524308 -0.036515478 0.13704824 -0.2422367 0.030829158 0.09970108 -0.060457498 0.18012306 -0.07094778 -0.50706756 -0.214317 0.37177557 0.05736323 0.042333618 -0.05897807 0.054765996 -0.14207308 -0.11449781 0.16317016 0.10263907 -0.0050284606 -0.063551694 0.041388623 0.06599473 -0.006943689 0.042435464 0.061084684 -0.10651293 0.30492878 -0.074167155 0.09834492 -0.14322528 0.3132771 0.057406694 -0.13763778 -0.074565314 0.13832623 -0.033870846 -0.09419315 0.066587545 -0.18971777 0.18940867 0.19476227 -0.21594085 0.02225323 0.07812546 0.04656346 -0.074265696 0.01920061 -0.21129271 0.07165477 0.17835717 0.11539139 -0.0825761 0.024710461 -0.17913754 0.03926624 -0.11754517 -0.006798003 0.12267215 -0.1194907 0.0769313 0.20187618 -0.19610117 0.023892079 -0.14341693 0.15357086 -0.046902157 -0.07128171 0.019653464 -0.035116848 0.0019809238 -0.23126772 0.12687576 -0.20676354 -0.078775465 -0.1510701 0.12944783 -0.09887132 -0.019122912 0.0014287143 0.054628987 -0.14760001 0.06116056 0.107599534 0.097564995 -0.11623409 0.08713062 0.16745873 0.07296087 0.05348369 -0.13006862 -0.20754422 -0.0056545394 0.026227847 -0.19495817 0.17158046 0.18116982 0.08175017 0.1732934 -0.0130915465 -0.008931615 0.10626553 0.10417971 -0.02381423 -0.135212 -0.20450464 0.015683804 -0.35269845 0.11317235 0.09492377 0.08822995 0.08978667 -0.18833923 -0.077130385 -0.13898985 0.06725285 -0.004022847 -0.08976828 0.023565153 0.13302755 0.07961072 0.11980124 -0.056631114 0.022942672 0.5202216 -0.1565662 0.093297854 0.07534446 0.1988474 0.12205455 -0.016158465 0.0068709995 0.073330075 -0.062268928 -0.1397567 0.11158728 -0.08179553 -0.01570725 -0.24784449 -0.028357385 -0.11523472 0.21884842 0.09412916 0.2292884 0.14003478 0.009351471 -0.3285659 0.16246171 0.054536927 -0.071429625 -0.029947685 0.031010766 0.108423345 0.70701134 0.1302566 0.19201793 -0.007417661 0.0379787 -0.16502415 0.048847154 -0.7069208 0.063990615 -0.0397793 0.05258201 0.0020810813 -0.08107131 -0.07359285 -0.017581467 0.074421 0.11121253 0.21392055 0.026295634 0.09250326 0.044892084 0.7974808 -0.005403379 0.083930545 0.130806 -0.10022067 0.19531563 -0.029346155 0.12000861 0.07302977 -0.07109524 0.055926077 0.11414188 0.10038552 0.08730679 -0.1616954 0.08344575 0.047141682 0.10765118 0.093742795 0.12085869 0.10199693 -0.2137004 -0.22457762 -0.07543337 2.3564583E-4 0.011489463 -0.017586766 -0.08064808 -0.12832484 -0.0037840016 -0.06289808 -0.040331677 -0.111858375 -0.15064332 0.17826475 -0.100628085 0.032006696 -0.06332531 -0.13542184 0.11544729 0.014692307 0.073309 0.25443333 -0.09763406 -0.17021309 0.14139877 0.42701417 -0.16113685 -0.107822865 0.18666653 -0.08075216 -0.065985076 -0.09385669 0.116906315 0.26652464 0.05426623 0.10874447 -0.19446385 0.041898556 0.30322054 -0.050763078 0.06766601 0.07357001 0.017929178 -0.17322618 0.1751551 -0.22079909 0.09323346 -0.047099847 0.13554347 -0.06758924 -0.038331002 0.18270585 -0.054438163 0.055842616 0.057522688 -1.6824038 -0.021934545 0.6250915 0.1429524 -0.052931465 -0.16893308 -0.080749646 0.06445046 0.11740939 0.29294696 0.037247926 0.44335967 0.23205785 0.002599233 0.012971078 -0.30949974 -0.2169297 -0.006416925 0.10955993 0.4672223 -0.027793065 -0.01889558 -0.30794978 -0.1581477
formerTeam -0.018210633 0.326168 0.04850438 -0.30665028 0.109875254 -0.18853176 -0.22500074 0.068911254 0.017686747 -1.3067238 -0.06422937 0.0014572516 0.012700112 -0.025803499 -0.008079998 0.2275775 -0.07278742 -0.14449814 -0.09572913 -0.101625994 -0.0066176876 0.027751999 0.2772925 0.22738627 0.054427125 -0.019075252 -0.18159012 -0.0381445 -0.070882246 -0.04894737 0.056776248 -0.168836 0.09390725 0.03998563 -0.76258373 0.08422624 0.29893404 0.08643261 0.032914743 -0.04062675 -0.0027363747 -0.084088 -0.12807426 0.10173638 0.05385001 -0.11702487 0.009190876 0.12780413 -0.0026873723 0.12704349 -0.1671955 -0.14667639 -0.03634751 0.08846099 -0.043686494 0.21283887 0.04089681 0.25217277 0.013732746 -0.29782638 -0.0043241233 0.036086343 -0.053934 -0.377975 0.053860746 -0.10485548 0.020045502 0.010552503 -0.12792388 -0.2203115 0.10497637 0.124243 -0.20110261 -0.0295445 -0.2111375 0.09449488 0.13883838 -0.012374874 0.095211074 -0.045987375 0.050377127 0.09998138 -0.09006551 -0.011544254 0.04674238 -0.16600174 -0.050348658 -3.8862787E-4 -0.060259003 0.09873612 -0.0789375 0.3450119 0.093890876 -4.3253973E-4 0.0991085 -0.050223757 -0.036367 -0.15791738 0.17656812 -0.31062278 -0.04973938 -0.067127876 -0.016361628 0.08239488 0.12346763 0.038097523 0.23329613 -0.025730379 -0.023232963 0.14624248 -0.03236512 -0.27116767 -0.11549025 -0.07019457 0.15973648 0.17145863 -0.05557479 -0.176974 -0.10287376 0.09949339 0.10198472 0.19987775 0.24582313 -0.056327507 -0.078386635 0.284295 -0.066967495 0.22350451 0.06647938 0.064117506 0.0300515 -0.022232503 -0.13539475 -0.32335925 -0.0783443 0.008171625 0.112653635 -0.004260909 -0.09758126 -0.008965872 -0.14037862 -0.05377587 0.21910875 0.09024213 -0.01824775 -0.009789214 -0.041411333 -0.063779876 0.055160627 -0.076475754 0.5114975 -0.15391314 0.14161938 -0.020889621 0.30888975 -0.16643025 -0.0713695 0.07325256 -0.01359725 0.082868785 0.078035995 0.03107221 -0.20814086 -0.08744663 0.059098497 0.0045113713 -1.4652312E-4 0.012016445 0.016098622 0.23774925 0.21394363 0.072319 -0.6452 0.102701634 -0.05002775 0.16972962 0.11751044 -0.061133254 0.15493932 0.26790625 0.06486812 0.115375124 -0.009151874 0.08009663 -0.022368044 -0.07795262 -0.40041727 0.025425248 -0.09446512 -0.025795875 -0.08081288 0.07263012 -0.15191737 -0.18330538 -0.041715503 0.036041126 0.22717038 0.14257991 0.12586151 0.09215875 0.7438313 -0.25179425 -0.048208952 -0.08238581 -0.08330795 0.027220003 -0.11507713 0.019398741 0.019186623 0.044047758 0.0986725 0.11161838 -0.2628483 -0.0012544971 0.066632494 -0.12367999 -0.0797645 0.079009056 0.0025600232 -0.020929761 0.29557025 -0.22147062 0.060381882 -0.09555462 0.15053317 -0.0923505 -0.0025533624 0.0019762442 -0.04812875 -0.10399163 0.045227904 -0.003903497 0.1276995 -0.06908463 -0.055872496 -0.020581186 0.22998714 -0.085578755 -0.091911264 0.20798 0.037894756 0.10128063 0.3680621 -0.231285 -0.27511188 0.006758008 0.25407937 -0.10401013 -0.0590745 0.089222506 0.1372665 0.06848739 -0.079669505 -0.03816375 0.28658625 -0.0069411322 0.07069775 -0.07660726 -0.011787251 0.06477924 -0.32969123 0.0682085 0.13689576 -0.008890633 -0.01690175 0.21408375 -0.19352987 0.16921912 -0.014959499 0.0030142441 -0.109009996 -0.012471627 0.060446512 -0.19118989 0.335183 0.16044849 -1.6040413 0.09248762 0.55356634 0.11351928 -0.204606 -0.010536002 0.10531215 0.120371 0.19832413 0.070399255 0.04791125 -0.041957505 0.160546 -0.22428 -0.17458776 -0.004323598 -0.16342975 -0.17223899 0.17101915 0.4945413 -0.06965012 -0.12148282 -0.14646164 -0.05050625
foundationPlace -0.117863014 -0.116478875 -0.10931869 -0.22013637 -0.04345875 -0.076996505 -0.07019625 0.11205888 0.24125975 -1.6100376 0.054287497 -0.08370638 -0.053102463 0.07005638 -0.038470753 0.22827502 -0.25320587 0.28938663 -0.013701374 -0.033839256 -0.040702894 0.086528376 0.056367002 -0.014415495 -0.042140007 0.043646127 -0.12656638 -0.01714576 -0.22651249 0.11102338 0.23946577 0.3305434 -0.2190495 0.0072538704 -0.2993375 0.11007562 0.12901725 0.03856625 -0.049915 0.04692226 -0.024111427 -0.04883875 -0.0775135 0.09409776 0.0033830032 0.06563263 0.3218065 0.32430112 0.0940075 0.11659637 0.09251137 -0.032547757 0.033777498 -0.012793746 0.02299525 0.11187312 -0.06716884 0.039073758 0.030188754 -0.024906501 -0.011272877 0.0128235 0.27501 -0.15665515 -0.122940004 -0.156278 0.1105385 0.07129125 -0.19648999 0.14511299 0.07619675 -0.10897625 0.047336243 -0.1656285 -0.1692725 -0.08498 0.20428713 0.08503212 0.0966965 -0.0665955 -0.145146 -0.036116876 -0.19467126 0.049277745 -0.12924325 0.15625313 0.05405451 -0.14920308 -0.14809924 0.06741 0.0071281195 0.045982745 -0.045538 0.030537495 0.1219365 0.0024421234 -0.012703745 0.20257126 0.008393247 0.08005251 0.2579985 -0.10738625 -0.02988239 -0.134325 0.074908994 0.3649106 0.25100863 0.035767503 0.0070470795 0.08800012 -0.08865501 -0.5840312 0.08854437 -0.17959462 -0.2776275 -0.11453642 0.0030937344 -0.079261884 0.036763817 0.1494788 0.003536813 -0.061093252 0.20058754 0.12689944 -0.037662197 -0.0643575 -0.033362247 0.06170587 0.016831197 0.1533805 -0.1637775 0.15892363 0.23712263 -0.032500498 -0.008911128 0.0014373735 -0.0450905 0.11827213 -0.19829887 -0.053198878 0.0332525 0.12813063 0.08933762 -0.20190915 -0.21531913 -0.24904424 -0.059916623 -0.05230625 -0.31095785 -0.012225505 0.3812643 -0.053867258 0.12174962 0.05939625 0.35220498 0.005654879 0.039190363 -0.07900065 0.14044705 -0.014502499 0.049360882 -0.26200426 -0.09160441 -0.09699526 0.13021201 -0.11247037 0.17389789 -0.026037248 0.010056637 0.17056637 0.21085726 -0.07145625 -0.0967475 0.11813037 0.21875751 0.15729988 -0.16021976 -0.08936146 -0.15102002 -0.16079137 0.06597912 0.13533 0.19740313 -0.14185345 -0.085922495 -0.06970538 -0.068166 0.07089013 -0.20081937 0.1128086 0.09718351 0.19660798 0.20030667 -0.044409975 0.020636015 0.037088998 0.038640514 -0.11223249 0.048743747 0.09090535 0.76923287 -0.10511366 -0.06942687 -0.071782 0.20059237 -0.0025946256 -0.019797504 -0.14751437 -0.04017625 0.22647294 0.04715988 0.0038834978 0.04273875 -0.059572883 -0.073685125 -0.03346762 0.0018761083 0.053735636 -0.022171088 0.0012111142 0.16702375 -0.11384224 -0.074993744 -0.0011391491 -0.065719746 -0.13117705 0.112634994 0.07221612 -0.15789588 0.07618713 0.025536254 -0.039547026 0.011590253 -0.0111953765 -0.113141246 0.027320748 -0.18463938 -0.016347498 -0.08138025 0.26529425 -0.120023005 -0.06344187 0.527977 -0.060079634 -0.59255874 -0.037250005 -0.025373757 0.062338624 0.057261877 -0.015471254 0.061472002 0.08296975 0.16055925 -0.024356749 -0.062304124 0.11312887 0.08812802 -0.23635526 -0.04896475 0.07200712 0.19984974 0.05373687 0.112840556 -0.0463565 -0.005713366 -0.141238 -0.07454687 0.11593401 0.44998872 -0.059944414 0.11368126 -0.10103176 0.090208635 0.16474275 0.11015375 0.02296425 -1.3621975 -0.20846376 0.591208 0.17674387 -0.16525766 -0.007283747 -0.24317232 0.016006498 -0.013645511 0.07134274 -0.076396875 -0.007727377 0.323944 0.0075306185 0.025598746 -0.15030712 -0.15688811 0.0046499968 0.01600995 0.47012374 0.039369293 -0.20593378 0.0103704985 0.10796158
headquarter -0.25475 -0.2374 -0.27081 -0.12163 -0.046901 -0.35564 0.28336 0.4838 -0.10432 0.10422 -0.30082 0.20046 0.36438 0.37267 0.10508 0.19724 -0.38303 -0.16991 -0.15781 -0.17208 0.54471 -0.25523 -0.0085043 -0.07069 0.036209 0.11109 -0.40334 0.12379 -0.0061726 0.50844 -0.12817 -0.51238 0.089138 0.19279 0.92632 -0.070416 0.014041 0.11861 -0.21779 -0.61156 -0.11192 0.31014 -0.26984 0.13142 0.29747 0.34983 0.1318 0.19791 0.11142 -0.2187 -0.13196 -0.40638 0.23075 0.20486 0.49208 -0.33534 0.28066 0.82794 -0.16094 0.14898 -0.12453 -0.13256 -0.29045 -0.043835 0.12291 0.40968 -0.39441 0.25583 -0.22844 0.070013 -0.0074558 -0.32197 0.25326 -0.12953 -0.16276 0.15395 0.14449 -0.16765 0.020729 0.011348 -0.36468 0.21021 -0.29268 -0.15078 0.011688 0.002458 -0.28469 -0.20355 0.39163 0.31685 0.15733 -0.056976 0.60992 -0.12159 -0.21854 -0.40515 -0.19325 0.31187 0.078278 0.3081 0.10588 -0.055 0.028452 -0.025883 0.28778 -0.71999 -0.13122 0.26108 0.22722 0.4402 -0.2678 -0.18783 -0.76316 -0.12436 0.016122 0.07123 -0.51523 -0.027729 -0.20039 0.30917 0.2349 0.094258 0.62354 0.033045 -0.12467 -0.082959 -0.15622 -0.40053 0.18065 0.054912 0.37939 0.12065 -0.07789 -0.72583 0.075803 0.43774 0.4611 0.057557 0.18143 -0.13553 -0.76951 0.18635 -0.18371 0.18058 0.24931 -0.4376 0.068023 0.31847 -0.25044 0.18817 0.48409 -0.086663 0.62528 0.17818 0.027829 0.0044034 0.12872 0.263 0.25401 0.18732 -0.35231 0.58339 -0.18149 -0.28155 0.36348 -0.021506 -0.48603 0.21873 0.2324 0.20609 -0.45803 0.29834 0.39687 -0.33898 -0.15982 0.41746 0.082636 -0.32026 0.080698 -0.29479 -0.28855 -0.037186 -0.18212 0.090289 0.42494 0.32825 0.17128 -0.38258 0.088933 -0.010569 0.65715 -0.0345 -0.58481 -0.032457 0.10038 0.50099 -0.2383 -0.036934 0.18127 0.46867 -0.41593 -0.36413 -0.04133 0.31735 -0.064854 -0.10519 0.2766 -0.53437 0.14804 -0.10892 -0.067541 0.36654 -0.45189 -0.2414 0.31852 0.093344 -0.097116 0.15502 0.090837 0.28228 -0.66483 -0.37552 0.16111 0.6269 0.22631 -0.44514 -0.41605 0.051455 -0.92615 -0.50948 0.22934 -0.067561 0.27497 -0.085005 0.4143 -0.0084039 0.48849 -0.056682 0.61869 0.53593 0.3431 -0.23801 -0.033509 -0.12054 0.014816 0.33328 0.34523 0.52037 -0.083344 -0.047075 0.2897 0.021144 0.37816 -0.12219 -0.44328 0.027742 -0.20951 -0.058309 -0.74472 -0.078328 0.071492 -0.11395 0.22699 -0.020396 0.41759 0.0043567 0.013152 0.052243 0.409 -0.22499 -0.26404 -0.42976 -0.1428 0.36797 0.073297 0.050294 0.49796 0.13473 0.052493 -0.14024 -0.10038 0.079472 -0.29493 0.10745 0.19955 0.14948 0.30586 0.45652 0.085404 0.49242 -0.1058 0.16307 -0.13739 -0.42513 -0.2699 0.43358 -0.10344 0.033421 -0.006085 0.0051209
hometown -0.29139614 0.09573001 -0.08597138 -0.044750374 0.12926826 0.10904623 0.015820377 0.15395097 0.066130996 -0.84221005 -0.09473263 -0.21103363 0.010806255 0.3853515 0.45495623 0.19880874 -0.12959838 -0.1022902 0.3731675 0.14316699 -0.083420366 0.07201138 0.13985375 0.11145 -0.24345587 -0.19765794 -0.100323424 0.116138995 -0.23480488 0.121811755 0.16153276 0.14479999 -0.3584885 0.2882725 -0.55046815 -0.053613123 -0.08347103 0.0080664605 -0.2676391 -0.22772539 0.28592592 -0.20637211 -0.07455125 0.25157827 0.18673712 0.19356462 0.31505626 0.27440977 0.08777925 0.28221977 0.109657615 -0.025279373 -0.037663877 0.08375689 0.1389895 -0.0022062548 -0.027644627 0.004559746 0.2197275 -0.010361999 -0.34837288 -0.26780248 0.16042387 -0.09204112 0.23836048 -0.047024257 0.22087088 0.13190125 0.104651384 -0.15147862 0.11714625 -0.32198912 -0.14096394 0.04215075 -0.272241 0.19846 0.06122575 0.29473 0.050203964 -0.15068862 -0.17537738 -0.053409122 -0.02191355 -0.14597374 -0.0456425 -0.08924593 -0.16278249 -0.106778756 0.20867863 0.23599373 0.099872746 0.036502752 0.31100285 -0.078719124 -0.02748275 -0.07188687 0.17959574 0.0412815 0.13494512 -0.378317 0.017823383 0.10208906 -0.06933887 0.06460775 -0.111888885 0.10920049 0.59533876 0.112065755 -0.061537877 0.19880562 0.01193146 -0.45163524 -0.10487188 -0.17486162 0.13051625 0.06847954 0.13458788 -0.0621119 0.038105752 -0.06597225 -0.030531596 0.07211728 0.10140088 0.15038374 -0.038564563 0.14682312 0.11317088 -0.07657224 0.046453 -0.0043735 0.08821524 0.09819999 0.16505049 -0.030029997 0.07380925 -0.140495 -0.066760376 -0.2277025 0.08218375 0.14221011 -0.17007938 -0.10185484 -0.13970566 0.26296753 -0.2131155 -0.152641 0.21480483 0.013872117 -0.46629626 -0.014589496 0.44611496 -0.15156353 0.037281774 0.15793234 0.45720747 0.069223 -0.07857362 0.16166276 0.17870189 -0.033222888 0.13669261 -0.12659714 0.060392 -0.24732456 -0.07847176 -0.24337876 0.090850756 -0.15925613 0.08314413 -0.018117502 -0.1544045 0.012801126 -0.45898473 0.37166625 0.0933075 0.30134213 -0.08077312 -0.08125475 -0.091468245 0.36971313 -0.22437912 0.24975125 -0.008221375 0.18354401 0.29453775 0.15801899 -0.05991375 -0.060431495 -0.03854037 0.23605835 0.15099575 0.23027426 -0.098022625 0.030651435 -0.014731128 -0.028378874 0.006781874 -0.15579736 0.006132871 0.08653187 0.9316904 -0.19610226 0.069655046 0.10650175 -0.010495124 -0.095451996 0.023236252 -0.042729877 0.055685002 0.0327905 -0.44795376 -0.038297724 -0.07686125 -0.21043937 0.2921095 0.24587876 -0.07962681 0.08583765 -0.059678625 0.06235377 0.417785 -0.311911 -0.0038937423 -0.087086596 0.114150114 -0.14102231 0.36566687 -0.20522743 -0.013462169 -0.08998862 0.010619653 0.27709 -0.11122137 -0.31739813 0.32445252 -0.010058381 0.052635252 0.14359161 0.04194785 0.25405326 -0.016908875 0.033781126 0.51250064 0.25407273 -0.48370975 0.048164003 -0.0568835 -0.04336609 0.0033762455 0.056805376 0.16294375 0.14560586 0.089785874 0.100750625 0.44380873 0.19091412 0.10637188 -0.2175195 0.08270925 -0.029387746 0.06717912 0.026156135 0.15979625 0.049153376 -0.16000788 -0.072905 -0.015306875 -0.018901212 0.2549875 -0.075854994 -0.38861376 0.028219499 0.038308624 -0.09117712 -0.008416373 -0.146089 -2.1084251 0.25905243 0.16971876 0.13511926 -0.51232123 0.12888727 -0.2120975 0.115663 -0.5090954 0.473092 0.038151994 0.24624148 0.08608674 0.009604253 0.020703249 -0.10255413 -0.031389005 -0.051421247 0.10993864 0.36044174 0.13626695 -0.074924625 -0.32808 0.21819474
leaderName -0.29311544 -0.1957502 0.1134512 -0.2222564 0.15566401 -0.049154814 -0.191796 0.16392802 0.004409796 -0.87800115 0.060663998 -0.1827326 -0.027811198 -0.0715866 0.22829083 0.30468738 -0.1937882 0.0728482 0.012667 -0.073659204 0.0939708 0.21379142 -0.012253994 0.22650401 0.06646939 -0.50566196 -0.0447686 0.34508 0.350488 -0.0721518 0.04558761 0.07218054 -0.15557079 -0.15610202 -0.38375327 0.0227 0.22183262 -0.18092039 -0.2143164 -0.17173 0.2101842 0.004559204 -0.0882836 -0.25211784 -0.3008156 -0.2828818 0.479992 0.036080416 -0.10530879 -0.023163581 0.2027366 -0.14006202 0.2218556 0.2557244 0.225614 0.279804 -0.052846003 -0.014419994 0.28435603 0.2745802 0.1719144 0.1586826 0.139152 0.20296438 0.052818503 -0.005084002 -0.069092594 -0.36714703 -0.1419762 0.31647402 -0.079336196 -0.085866205 -0.1662456 -0.1553226 0.20597962 0.050674606 -0.020233799 -0.1755544 -0.05608199 0.03726881 -0.0864008 0.14912161 0.0901946 0.190238 -0.213519 0.08388281 -0.022137595 0.078494996 -0.048741408 -0.017092196 -0.4343442 0.037759993 -0.0731106 -0.13904162 0.17278281 -0.009875596 0.027611002 0.1542256 0.14724621 0.20313202 0.18105601 0.037936524 0.26640818 -0.049261607 0.27731797 0.13506399 0.025800442 0.13410199 -0.008499389 -0.2007776 0.23925172 0.0872918 0.114275396 -0.083124004 0.210638 0.046428002 0.057184007 -0.17724799 0.15491542 0.019409997 -0.1353014 0.489482 -0.025292406 0.066802 0.12037599 -0.123868 -0.08777501 0.160872 0.10062619 0.015303994 0.06815039 -0.061428394 -0.073685996 -0.118758 0.11579939 0.1750876 -0.016388997 -0.194398 -0.051854003 0.2000558 -0.10764314 0.1514616 -0.023214197 0.191465 -0.17333882 -0.0602232 0.0471698 0.026486997 -0.21509206 -0.0698052 0.1549452 0.030005604 0.099317804 0.3813996 0.09947479 0.24974398 0.083486214 -0.2467188 -0.0427396 0.005540398 0.056771405 0.08844345 0.328154 0.08592401 0.11580662 -0.04582488 -0.0028636083 -0.0014070005 0.026336003 -0.085469805 -0.010610002 -0.257786 -0.573314 -0.0996926 0.17648524 -0.11983927 0.058735408 -0.14694801 -0.1610142 0.50408953 0.0011668027 0.0759234 0.162158 0.2410836 -0.1489756 -0.016969396 -0.17274101 0.17778881 -0.16587222 0.17521201 -0.080446 -0.11772201 -0.14178601 0.0546584 -0.08136081 -0.0045920075 -0.22709933 -0.0987344 -0.0099771945 0.09681034 0.830839 0.064484 -0.059593804 -0.20796601 0.07919799 0.07603921 0.10129181 0.22227798 -0.1148744 0.15855263 -0.1100194 -0.34675798 0.14594541 -0.23244022 -0.14432566 -0.032397997 0.109688185 -0.16379939 -0.26240322 0.037219796 -0.279514 0.16475809 -0.142576 0.11169 -0.009909719 -0.1410778 0.07448491 -0.02364601 -0.1859132 0.19188201 -0.2384794 -0.088091396 0.066098 0.14301999 0.166179 0.005778003 0.037332598 -0.2665254 -0.14758602 -0.029501004 -0.04283401 0.15279339 0.053524293 0.0154252 0.23313318 0.02840446 -0.010178185 0.12453641 -0.0045539974 0.09826441 -0.0066830018 -0.048201796 -0.07198141 -0.12214899 0.36907938 0.19025439 0.24273773 -0.03424548 -0.232891 -0.20989421 -0.04635339 -0.21542124 -0.081808 -0.019597998 -0.48121068 -0.13394281 0.18885517 0.002850199 0.10801554 0.06549222 -0.032061346 0.076655805 0.3028656 -0.041783 0.15118681 0.15950839 -1.017651 -0.1750946 0.3914574 0.039638 0.34985 -0.11959179 -0.045871798 0.3312362 0.1967896 0.09377121 -0.1969998 0.45668998 -0.13453601 0.0376876 0.06778741 -0.306928 -0.21587041 -0.1597244 -0.037442002 0.06586402 -0.09306719 0.0528106 -0.176162 0.059448
locatedInArea -0.16543055 0.079440214 -0.21269266 -0.13836879 -0.153759 -0.026304113 -0.212213 0.23781668 0.19000378 -1.2489556 -0.21932034 0.041471 -0.006080222 0.25882235 0.32182446 0.14012444 -0.39966777 0.19961877 0.101236105 0.050067227 -0.19743223 0.18420723 -0.038339105 0.09666222 -0.31054777 -0.07520933 -0.22179078 0.037934 -0.26665524 0.13802223 0.52116364 0.14290188 -0.30492443 0.24711657 -0.0853359 0.12199778 0.09165351 -0.10200144 -0.30857223 6.891059E-4 -0.011494336 -0.16186666 -0.035271194 0.1917251 0.16366255 0.19183944 0.3592447 0.26553926 0.1792229 0.12969811 -0.032468993 -0.099208556 0.22440344 -0.08078599 0.2250029 -0.133342 0.027588667 -0.11889556 0.19330944 0.09932456 0.020271897 0.14105844 0.16011578 -0.14010957 0.11644545 -0.07011523 0.064799786 0.14794578 -0.20862834 0.10616337 -0.080704026 -0.135684 0.07341178 -0.2232805 -0.44266 -0.22186601 0.028306779 -0.009159999 0.037671074 -0.33157444 -0.03933846 -0.19224079 -0.43235525 -0.18753412 -0.015421663 -0.018085552 0.009609895 -0.15122963 0.030758228 0.27866554 0.10435089 0.09042624 0.2829178 -0.06414722 -0.07793311 0.25152403 0.1171389 0.20663577 -0.0741 -0.023881698 -0.14366166 0.1287019 -0.18216333 0.06718389 -0.299241 0.20504133 0.32141635 0.32154888 0.12669432 0.30920658 -0.010040997 -0.59232324 0.016455999 -0.23407006 -0.0694451 -0.19917478 0.0016165602 -0.13380022 0.097917326 0.30023822 -0.079594396 0.11794167 0.1194661 -0.16969466 -0.115219556 0.3345958 0.04993683 -0.05736333 -0.01339182 -0.21473332 0.1415679 0.02094678 0.02811655 -0.18567802 0.045877557 -0.14172833 0.15713578 -0.051789112 -0.24230511 0.039618444 -0.29688534 0.076258995 -0.091618136 -0.24975978 -0.26393813 -0.37579167 0.15751578 0.012144556 -0.30262676 -0.10224523 0.41224858 0.06289656 0.31979445 -0.20004089 0.32715222 -0.07483634 -0.1829489 0.18500021 0.44221443 0.092202336 0.04684766 -0.12763612 0.27684152 -0.16259557 0.08976478 -0.23812968 0.16624758 0.05972134 0.05734523 0.14482322 -0.20450921 -0.16795222 0.060701676 0.06037144 0.21108201 0.21380989 -0.17429544 0.032643337 -0.23015179 -0.26227444 -0.15759423 0.19059959 0.010115975 -0.023344941 0.30803886 -0.2171808 0.063996226 0.0056108404 -0.25102723 0.39635333 0.24675809 0.42991334 0.21999569 -0.10759348 -0.025167448 -0.06500244 0.1028429 -0.3196822 0.115511335 0.4862143 0.86940575 -0.16233745 -0.37282768 -0.22150111 0.10005067 -0.103986554 -0.34878355 -0.10662956 0.3124422 0.18675657 -0.042032 0.14871134 0.24739745 -0.22048302 -0.0059565553 -0.09699817 -0.03795474 0.10878612 0.10158234 -0.032912236 0.029718885 -0.29721445 0.039708998 -0.001510991 0.2807948 -0.078314714 0.09402 0.006558054 -0.4216299 0.14790457 0.121164575 0.27640778 -0.11968999 -0.0809186 -0.11911578 -0.09849956 -0.20948933 0.0780997 0.25421876 0.39138642 -0.09333534 0.13918278 0.7427166 0.030228777 -0.6880611 0.064864784 0.024858892 0.3439021 0.12903795 -0.072602235 0.07260844 -0.010840002 0.098114446 -0.24934854 -0.17204334 0.29017535 -0.22662134 -0.13353111 -0.1541171 0.11124633 -0.031273227 0.016973555 0.18694223 0.08654 -0.14770289 -0.4434928 0.047846433 -0.020692552 0.41423255 0.0705433 -0.16988134 -0.10675 -0.012597665 0.20828445 0.102462 0.08652292 -1.15802 0.24635206 0.4412578 0.31219268 -0.20726733 0.019179778 -0.19670823 -0.22676335 0.04075666 -0.02386645 0.14369227 -0.07124301 0.36686155 0.30879012 0.20658556 -0.06910778 -0.03354762 -0.1692359 0.03947467 0.6146822 0.007947843 -0.033374 -0.06299666 0.09704995
nationality -0.13482851 -0.107879296 0.00930872 -0.037458565 0.025659572 -0.06883728 -0.103040144 0.47391284 0.13600329 -1.1662716 -0.10532289 0.027779 -0.20221685 0.07615942 0.14395729 -0.26097715 0.141525 0.2750143 -0.14109114 0.039727584 -0.07192647 0.25405788 0.04315243 0.54418147 -0.17569572 -0.030315647 0.010010858 0.062325217 -0.12134 0.11395486 0.12433858 0.37917003 -0.36276433 0.059294283 -0.25647986 0.0037425738 0.47278458 0.023737026 -0.11761375 -0.0047418103 0.16343945 -0.40434572 0.2839523 -0.023508431 0.30780476 -0.047328148 0.050855573 0.092022575 -0.11368856 -0.046313714 0.03746128 -0.08987573 0.33026144 -0.07038958 -0.16329737 0.02749214 0.13189527 0.033417717 0.15629828 0.077360004 0.079878144 0.18863986 0.2511836 0.023176977 0.025384717 -0.05319581 0.13899314 0.51439285 -0.15123628 0.15830773 -0.037507143 -0.21859509 -0.28605402 -0.08218872 -0.013338516 0.034217723 0.24385215 -0.0058838567 -0.048692867 -0.051145997 -0.08348181 0.020404572 -0.13501287 0.16304488 -0.0033560013 0.014330429 0.02349857 -0.28956503 -0.0061679995 0.37602958 -0.31356287 -0.18053386 0.21873614 0.14680044 0.2521035 -0.105852865 0.12786058 0.25946146 0.140569 -0.07682772 0.08476915 0.06546857 0.24952102 -0.06703573 -0.11776615 0.11647771 0.25814146 -0.14959857 -0.12370172 0.3096329 0.30080348 -0.2510843 -0.15131229 -0.04190958 0.08334086 -0.10157429 0.013791758 0.11778301 0.27506718 -0.046712153 0.0045508607 -0.03547255 0.0057097143 0.26198 -0.15661259 0.14262128 -0.17415014 0.40943602 0.023539148 -0.088394575 -0.15702271 -0.14653365 0.37270573 -0.23069644 0.17286745 0.0601608 0.11041272 -0.03558829 -0.10538601 -0.030147143 -0.05765 0.051185574 0.10160743 -0.11164228 -0.024571428 0.112896286 0.017393423 -0.06562447 -0.22995469 0.34775656 0.06517287 -0.0073481183 0.31565586 0.03422514 0.18084244 0.07322585 -0.4499829 0.106080994 0.2478263 -0.07747258 0.29737577 0.1385793 0.13272241 0.20045573 -0.24093287 0.10037073 0.021553863 0.052055713 -0.08542986 -0.20629016 0.27931145 -0.06106371 -0.21706729 0.25156575 0.20509212 -0.09670415 -0.174279 0.020567145 -0.06258826 0.29919428 0.091755144 -0.020616675 -0.00585647 0.13115387 0.07542401 0.13456288 -0.16892086 0.06270962 -0.035307825 -0.037486136 -0.106003 -0.21022215 0.176172 0.18003258 0.04806714 0.020373996 -0.0011484836 -0.23329474 -0.33068043 0.06297957 0.52930146 0.124806434 -0.092937134 0.039330143 0.33375427 0.1186043 0.056015864 0.32380572 0.013497146 0.42160198 -0.138722 0.10360657 0.06829655 0.16012914 0.0026537129 0.23030473 0.0077265697 0.14881857 0.16875888 0.417993 -0.1413117 -0.013638574 0.107561015 -0.2703907 -0.0059628743 -0.23333628 0.010057572 0.054121718 0.05896692 0.28198785 -0.11666557 -0.03916686 -0.23583429 0.35508987 -0.00785086 0.01773665 0.10211185 -0.20891872 0.03977529 0.18382142 -0.06510614 0.11540515 0.6989515 0.07517844 -0.40019527 -0.08549858 -0.16215459 0.14183229 0.12569858 0.154859 -0.010684427 -0.06796886 0.21610501 -0.14783227 0.11529444 0.23118958 0.019252151 0.149284 -0.1325163 0.028486433 0.13336472 -0.14810531 0.29194584 -0.14706258 -0.06848072 -0.07254386 -0.06596527 0.13922729 0.076644644 0.12062385 -0.14137286 -0.123934865 0.2895823 0.09460385 0.048590723 -0.013478717 -1.4784029 0.10807854 0.63808 0.03704859 0.26194784 -0.24727716 -0.046910156 0.13858148 0.17226367 0.14441858 -0.13343039 0.16112557 0.119753286 0.017727856 0.20180158 -0.25163907 -0.032461423 -0.091285095 0.0066568535 0.2358413 -0.18795647 -0.10028729 -0.19991745 -0.113681436
parent -0.15450066 -0.065824635 -0.03240934 0.00156567 0.063010335 -0.23697233 -0.20622334 -0.07704333 -0.15094967 -1.0841668 -0.0022259976 -0.009414668 -0.06303667 -0.17313832 0.09306833 0.10704534 -0.031473335 -0.7102933 0.007911002 -0.097160004 0.08204334 0.32566333 -0.22377267 0.190517 -0.08359067 -0.04217 -0.058789335 0.10606533 -0.19892767 -0.144514 -0.33777332 0.68965006 0.120526336 0.014480005 -0.65124005 0.17987132 -0.0044326633 -0.089084 0.001854334 0.14334 0.14020067 -0.15965667 0.34515333 -0.11076933 -0.03516367 0.014867663 0.3573 0.44134665 0.119716 -0.181117 0.22226135 -0.158061 0.25669667 0.12234666 -0.42697668 0.017779341 0.5963267 0.35917565 0.25103998 -0.47016 0.19012034 0.28835332 0.5720534 0.42692766 0.0345333 -0.51660335 -0.28357333 -0.096436664 -0.30819035 0.137822 -0.3022067 -0.43918568 -0.57102334 0.13971636 -0.16350234 -0.050693005 -0.067766674 -0.27405334 -0.34368333 0.19675002 -0.16104865 0.18462032 0.25295 -0.14594033 -0.30404335 0.22268467 0.115302 0.16914001 -0.10854001 0.3679267 -0.24548635 -0.06489 -0.49360332 0.32017335 -0.07112333 -0.11663934 -0.036849335 -0.05961334 0.23861668 -0.32293668 0.44247 -0.20774524 0.25214332 -0.07437297 0.31459665 -0.043304667 0.50780666 0.09972967 0.15871333 0.34695834 -0.04624067 0.34489667 -0.056366667 0.103621334 0.053316668 0.079020336 0.16486667 -0.065125674 0.231445 -0.03053334 0.11014911 0.41370332 -0.15555 -0.3317427 -0.076522 -0.12172967 0.15214801 -0.2093061 0.183098 -0.0476952 0.54282665 -0.035445668 -0.002173332 0.071184665 0.11171534 0.19861667 0.062260002 -0.12659934 -0.27201998 0.007302334 0.47797737 -0.074370004 0.10464999 0.063140675 -0.14851665 0.017672334 0.11893666 0.16015866 0.18718366 0.05896334 0.067886665 0.027004002 -0.036401667 0.17939699 0.033658996 0.19458136 0.14768767 -0.17731868 0.15677 0.22644566 0.70853007 0.12821467 0.42638636 0.19207668 -0.052806 0.22073334 -0.262142 0.043902665 0.058310002 0.22888234 -0.016117003 0.16773334 -0.69128 0.14974521 -0.09522333 -0.040902004 0.024243336 -0.40291733 0.028640669 0.5827 0.09389834 0.122543335 -0.24430168 0.34041 -0.095939666 0.088315666 -0.72784996 -0.035240002 0.33036333 -0.12359734 -0.13117334 -0.49334 -0.234202 -0.010145001 -0.58852667 -0.066676006 0.09103434 -0.42403334 0.05467 -0.39789003 1.3041867 -0.003924 0.27178702 -0.024430674 0.32740667 0.033426683 0.08495834 0.20310001 -0.07777034 0.030727327 -0.43741667 -0.066107675 -0.07355434 -0.32620335 0.22237667 0.187756 -0.008726401 -0.27538002 0.19470835 0.2173003 0.09831833 0.030053 -0.021167329 -0.14255667 -0.43772334 0.2917567 0.27061 -0.13090366 -0.0028699986 0.021462334 0.11287999 0.07288 -0.20611833 -0.13274333 -0.10645667 0.18292001 0.16934064 0.20831868 -0.38211668 0.12887162 0.25005138 -0.29816332 0.096621335 -0.024083328 -0.347033 -0.028332334 0.09644033 -0.25872335 -0.021909337 -0.060813334 0.058392666 0.41562003 -0.18270734 0.25975 0.92151135 0.35237667 0.067096666 0.0014553238 0.18469632 -0.19451168 -0.014857665 -0.106248006 -0.11767334 -0.026250234 -0.075099364 0.51569 0.283836 0.048266664 -0.0929 0.087533 -0.40857333 -0.36467 0.29607135 -0.53026336 0.11146034 -0.17026928 -1.30341 -0.20843235 0.056681003 0.19329032 -0.08955334 0.3295627 -0.13771701 -0.33389336 -0.5569633 0.44088668 0.48846337 0.56131 0.074741535 0.004159992 0.31092668 0.14776665 0.3100841 -0.4703467 -0.12730667 -0.009252667 0.26392 -0.07211967 -0.19145334 0.42118335
president 0.2338546 -0.184706 -0.025614802 -0.20812039 0.067058004 -0.455926 -0.1400042 0.252444 0.031615 -1.5902 0.11702112 -0.1637376 0.064081214 -0.2916318 -0.08065599 0.460824 -0.078686595 -0.1285032 -0.006123482 -0.2784295 0.354376 0.017759604 0.44012198 0.11792221 -0.248268 0.1170912 0.045982007 0.17902522 -0.139688 -0.2431848 -0.180054 0.05961001 0.34693477 0.20815602 -0.92186004 -0.09166396 0.10341179 0.014825979 -0.17486082 -0.25011 -0.0049709915 0.126966 0.0522888 0.5989496 0.0509224 -0.290516 -0.241394 -0.067817606 0.29930422 -0.12309799 -0.21664262 -0.030185044 0.3210028 0.80263996 0.06474841 0.13983801 0.01674099 0.461724 0.073528826 -0.25466862 0.0838372 0.079916 0.33637962 -0.19439399 0.14380996 -0.16453743 -0.380712 0.117534004 -0.3531826 -0.2155776 0.04372086 0.11707441 -0.077732 0.25777003 -0.28417 0.180522 -0.1655444 0.22288762 -0.08081763 0.047767997 -0.17052856 0.23202801 0.064959995 0.29368803 0.3111854 0.1560576 -0.1020996 0.12369441 -0.098472215 -0.0048505994 -0.44413444 0.0835522 -0.4081358 0.051147003 -0.051905658 -0.009306202 -0.21936059 0.15481478 0.19242702 -0.33136064 -0.0210452 -0.11743601 -0.25268403 -0.17164999 0.07349001 0.18723148 -0.0361758 -0.19447039 0.0704218 0.058324605 0.1476938 -0.186497 -0.2198698 0.12629761 0.16780993 0.07216441 -0.022082796 -0.44044638 -0.04061259 0.2435516 -0.136066 0.2089848 0.26106802 -0.295944 0.010123998 -0.455372 0.134784 0.036780007 -0.161488 0.1444598 -0.135524 0.21012132 -0.009748399 -0.10143 -0.20315664 0.0748114 0.052634407 -0.22630082 0.079158 -0.0793 -0.010415002 0.053057402 0.485421 0.181906 -0.18500403 0.27286622 0.12485999 -0.1334105 -0.257674 -0.034529 1.1178 0.21115601 0.5965874 -0.120586 0.1706334 -0.0043245973 -0.034994405 -0.1607958 0.0990526 -0.033155996 0.15594 0.29982722 -0.0545824 0.18350999 -0.25445318 -0.2540308 0.12850381 0.28899002 -0.268996 0.931402 0.0695496 0.0291272 -0.77669203 -0.0940582 -0.122510396 0.566316 0.044821482 -0.2075628 -0.1541796 0.37161204 0.0119646 0.41203603 0.1536846 0.030279363 -0.013895998 -0.176974 -0.680926 0.085867 -0.0935294 0.008796796 0.39703566 0.021033997 -0.067390405 -0.16938561 0.0045279968 0.0012264006 0.20997219 -0.106353596 0.13366541 0.0799334 0.507248 -0.076113 0.047596004 -0.1784778 0.12305261 -0.046203993 0.263246 0.069352806 0.032152195 -0.708708 0.37823796 -0.20605159 0.10234602 -0.3703704 0.2053082 0.105381206 0.021199996 0.16315798 -0.374775 -0.18372062 0.015604007 0.061298598 0.059691995 0.071168 0.038721 -0.063949995 -0.037005007 -0.11356745 -0.098912805 0.035871603 0.20837195 0.2498138 0.102372006 0.28718802 0.138685 -0.17347622 0.103824 -0.2287695 -0.25530204 -0.1704876 0.16647041 -0.229178 0.2112876 -0.348178 -0.1560802 0.216734 0.12358381 -0.87204 0.1612608 -0.06257001 0.43706003 0.11724495 -0.149278 -0.048456397 0.48354998 -0.16054544 -0.28525862 -0.10223981 0.362784 -0.124676004 -0.37058997 0.19205098 -0.041784003 -0.08227361 0.265158 0.1595166 0.21221618 0.17563799 -0.14047019 0.37301084 -0.1487392 -0.13962801 0.037358202 -0.027602395 0.26921257 0.010046012 -0.8592041 0.065919 0.428044 -0.2715868 -0.17986731 -0.386384 -0.11215401 -0.1790356 0.0762766 0.2122662 0.29445 0.17756061 0.0680928 -0.25219798 0.0592026 -0.0671508 -0.23148201 -0.12330001 -0.012882191 0.72856396 0.0477292 0.06341081 -0.30890322 0.06597836
relative -0.20672062 0.14465141 -0.0772292 -0.09829841 -0.124165595 0.19895999 -0.0090242 0.091574006 0.039132204 -1.56808 -0.005268398 -0.11614541 -0.3022697 0.0702208 -0.1997776 -0.2948744 -0.116445996 0.002380395 -0.311602 -0.12139239 -0.5507612 0.2030632 -0.047312398 0.0759306 -0.076062 -3.1240136E-4 -0.05096221 -0.1410784 -0.043782007 -0.2843002 -0.3137368 0.54743403 -0.22336225 -0.054084856 -0.51566803 0.0115287965 0.071103394 0.0591298 -0.3179546 0.169416 0.1726242 -0.1013514 0.1025452 -0.28602362 0.1298188 -0.28047842 0.003422004 0.19332878 0.011523999 0.178 0.1567658 -0.071036 0.005250004 -0.1003235 -0.0037089975 -0.126164 0.10462401 0.14990799 0.047116615 -0.0984284 0.28291002 0.13318041 0.543256 0.1628648 -0.021200404 -0.36737 -0.103563786 -0.063622 -0.024629006 0.53675 -0.02777741 -0.21011904 0.024785995 0.07553899 0.24925101 0.014644793 0.09169341 -0.153246 -0.025381401 0.111316204 -0.08589541 0.030633602 -0.03680801 0.31200203 -0.22350638 0.107301 0.077861205 -0.055228002 -0.16793641 0.1816573 -0.295402 0.156116 -0.30678797 0.027746314 0.25478402 0.1747772 -0.12471701 0.0534976 0.420866 -0.215384 0.0373042 0.007264656 0.1705368 -0.0439152 -0.03095801 0.22848001 0.165724 0.015744401 0.0074621635 0.15700401 -0.10890669 0.291466 0.014826 -0.002566597 0.19196099 0.1732558 0.24548002 -0.15604602 -0.12157059 -0.1666038 0.073026 0.1732728 -0.25114542 0.11175159 0.043028194 0.19634257 0.1706658 -0.048451994 0.13591641 0.024276001 0.047439992 0.12319782 0.154614 0.1606268 0.1417716 -0.022131598 -0.1557642 -0.21778801 -0.176495 0.10796398 0.1083009 0.040274005 0.08557566 0.22639601 -0.1265748 -0.205122 -0.176248 0.1706866 0.08170919 0.232684 -0.0981428 0.1031312 -0.1186698 0.14024985 -0.049654007 0.098448 0.125964 -0.014102823 0.1064868 -0.1389442 0.24863017 -0.27062 0.1246014 0.1023404 -0.026641203 0.20308681 0.011365992 0.021395605 0.049732596 0.51379 0.17863119 0.1623838 -0.4338704 0.114128195 -0.20947461 -0.3816592 0.08152386 -0.3296298 -0.23802641 0.1681818 0.24988042 -0.140256 -0.171232 0.29584762 -0.27011102 -0.1854412 -0.032018997 -0.057327 -0.1311752 0.034670006 0.1825682 -0.3141292 -0.100912586 0.028097603 -0.3919816 -0.21448301 0.0683118 -0.1537912 -0.33747402 -0.056166 0.47869202 -0.0479518 -0.032855995 0.015881602 0.10335479 -0.015117203 0.0791202 0.1946582 0.114271216 0.18870881 -0.13941 0.066264 -0.06633859 -0.16011399 -0.0100818025 0.1115578 0.42241403 0.061339606 0.25463304 0.126926 -0.380794 0.11164401 0.1312806 -0.11185 -0.14164571 0.097765595 0.013372803 -0.04964 0.0521348 0.4156904 -0.19989441 -0.155518 0.069641 -0.19429421 -0.1135442 -0.037298802 0.1330534 -0.021010404 0.023143796 0.13059801 0.1284644 -0.22393914 0.47762537 0.053234 -0.652522 0.080200404 -0.0261962 0.07224088 0.004817605 -0.07281401 -0.0919232 0.14406887 -0.059845008 -0.20553921 0.33256602 0.1790528 0.055880405 -0.060579088 0.191146 0.21040602 0.105728604 -0.08849781 0.1138562 0.028457776 -0.27024397 0.14835174 0.13023122 0.055441406 -0.054737996 -0.013364595 -0.21735334 -0.1357734 0.040082008 -0.088414 -0.316156 -0.074393004 -1.8535 -0.36364582 0.45382744 0.052510202 -0.055379804 -0.15747581 0.23571602 -0.051658202 -0.1431638 0.31164062 -0.1601638 0.1285564 0.01761 0.12614821 -0.027975399 -0.240646 -0.055352002 -0.26225 0.0109792 -0.28313503 0.011755997 0.1397476 -0.040912002 0.18267311
spouse -0.421108 0.050344408 -0.09144202 0.027719809 -0.055955794 -0.14956908 -0.07269001 -0.033950806 0.1383162 -0.93887407 0.068686 -0.077938996 -0.20076402 -0.0510534 0.0516822 -0.019686604 0.2339474 -0.100529805 -0.07191089 -0.049714006 -0.23171885 0.32471 -0.021160802 0.18635039 0.122498 0.182673 0.1298012 -0.0303004 0.14402024 -0.057667207 -0.07054452 0.30426413 -0.110300004 -0.14261799 -0.34354421 -0.022479996 0.085847996 -0.07469 -0.0961342 0.0794096 0.1775908 0.04614201 0.033260603 -0.020488799 -0.0257734 -0.0742734 0.140334 0.31866282 0.12373179 0.0049376027 0.0019744039 0.1244164 0.039042007 0.1918922 -0.015950402 -0.1080334 0.1383356 -0.064802006 -0.107985996 -0.16381401 0.1372674 0.0346178 0.21626401 0.12201041 -0.15089521 -0.349002 0.1299764 -0.009597999 -0.16701001 -0.06715 0.07557141 -0.0991348 -0.1968716 0.0022471994 -0.09640961 0.2001648 0.27176198 0.043904 -0.022558797 0.17846839 -0.0786336 -0.029000198 -0.014142597 0.17950238 -0.035753995 -0.095564 0.18123 -0.050809998 0.058028203 0.028980006 -0.315346 -0.0037556053 -0.036864996 0.06345518 0.024821991 0.013146201 -0.17519926 0.047846008 0.114889584 0.005735457 0.002240392 -0.29774395 -0.0858938 -0.0778912 0.20702799 0.17257999 0.1714288 -0.10948819 0.0647816 -0.070922196 0.0888833 0.314196 -0.014518799 -0.003490001 -0.009896996 0.1142656 0.19779001 -0.139684 -0.12709682 -0.1354546 -0.25977376 0.28624484 -0.0073615997 0.300114 -0.023177786 -0.203474 0.1927938 0.077644005 0.13197999 -0.2287718 0.015561992 -0.1220384 -0.0016608015 0.05549699 -0.053437807 -0.1639172 -0.12185999 -0.06549 -0.42701003 -0.028317994 -0.010229217 0.183291 -0.119483404 0.047616 -0.04818858 0.113089 0.07435562 0.094846 -0.3260008 0.075592004 0.2179832 -0.14684841 0.009662605 0.35018164 -0.10257001 0.033891987 -0.1888124 -0.23177038 0.19478641 0.032006204 0.23348919 0.039677203 0.169896 0.157182 -0.161616 -0.0090585975 -0.04460701 0.145007 0.282738 0.1804956 -0.018129999 -0.03679618 -0.30133942 0.0981182 -0.3179662 -0.11221 -0.1528066 -0.20061901 -0.0734412 0.3523386 0.39878 0.24474001 0.0872588 0.089569025 0.194238 -0.2678724 -0.629811 -0.060770392 0.10526999 -0.015839988 -0.027386218 -0.26357672 -0.131176 0.028339798 -0.087561205 0.070439994 0.07687401 -0.272912 -0.1365736 -0.15666 0.66157 -0.035077002 0.28288803 0.27017742 0.08025547 0.1445298 0.2734718 0.29871997 0.10482615 0.009748 -0.238742 0.098745994 0.058730196 -0.09892141 -0.0063103973 0.3106744 0.02128378 0.0914086 0.027458442 0.21962519 -0.24171601 0.1649426 0.021896005 0.061294 -0.08589172 0.094824195 0.08054679 0.005122 0.123531 0.46003205 0.086094804 -0.1664082 0.1745602 -0.48765203 -0.22800219 0.031688597 -0.059057195 0.1857076 -0.2016768 0.027464682 0.063202605 -0.058511596 0.513398 0.032990005 -0.10108602 0.34738967 0.0106498 -0.025239998 0.1252478 0.085911594 -0.180108 -0.1081044 -0.0226012 0.2870162 0.440482 0.209517 0.18950117 -0.18103707 0.3124488 0.24157201 0.0817402 -0.1366392 0.135448 0.046282 -0.051126003 0.24630801 -0.156714 0.1041788 -0.096154 0.24926782 -0.08769834 -0.0020640015 0.011192406 0.08101 -0.097901344 -0.0054336013 -1.1623448 -0.393078 0.12623201 -0.0782406 0.021440674 -0.300928 0.18462223 -0.013174199 -0.30830398 0.3736706 -0.1425798 0.49139997 0.047829803 0.091647245 -0.08313861 -0.26518622 0.070138 -0.20007761 0.066463195 0.0100268 0.0077896 0.03160001 -0.016150592 0.2152838
subsidiary 0.085084006 -0.265541 0.1294924 0.04182661 0.11280201 -0.23557568 0.043332 0.2398376 -0.03945401 -1.530046 -0.29051742 0.0028355792 -0.21373539 -0.1316742 0.3173186 0.258284 0.064316 -0.11066621 -0.134122 0.066003 0.0398976 0.1561488 0.14813761 -0.074053995 -0.07291 0.14924806 -0.255038 -0.005627401 -0.104176 0.12968402 -0.058025606 -0.21623822 -0.0658014 0.19437002 -0.52854604 0.025625397 0.1378582 -0.059164 -0.17537199 -0.025231991 -0.122216 -0.13695799 -0.180831 0.2533772 0.0680906 -0.1262102 -0.24238522 0.0015243962 0.06700181 0.14009802 -0.086673565 0.0968426 -0.075346805 0.21345799 0.22071742 0.13262121 0.1745224 0.1521932 0.208552 -0.1399228 -0.012664995 0.1804518 0.17999183 0.093076006 -0.039374802 0.020056007 -0.39582598 0.058457803 -0.029055608 -0.0060994 0.14777581 0.23849998 0.024059797 -0.111251354 -0.1520086 0.102108575 -0.18363401 0.11889001 -0.003576404 -3.839016E-4 -0.0230106 -0.1022084 -0.225274 -0.0322002 0.034436595 0.2270964 -0.037938 0.35027403 -0.10292461 0.30635 -0.5866742 -0.0019498647 -0.060793 -0.0356264 -0.22164741 -0.25425202 -0.38224798 -0.07327641 0.021695403 -0.24220999 -0.017618598 -0.2256408 0.0042385994 -0.14045201 -0.021458259 0.0279948 -0.161512 0.35863003 -0.0059198025 0.1914518 0.1841336 -0.29586622 -0.1662786 0.06901701 0.034470603 0.31875 -0.1580597 -0.10406839 0.0934954 0.0847071 0.158968 0.23322542 -0.0012402006 -0.261078 -0.171024 -0.206761 -0.22682118 0.19904856 0.014455597 0.1515262 0.51738 -0.031173402 0.1303744 -0.055813994 -0.16917 0.1374454 0.12899521 -0.14947401 -0.26610824 -0.1146336 -0.1442979 -0.13321571 0.292907 -0.07519412 -0.09868012 0.132232 0.13152541 -0.06830241 -0.057505995 0.0017084003 0.75907606 0.026145402 0.361792 -0.09360341 0.090560995 0.1757866 0.014227998 -0.28763202 0.096715204 -0.0947836 0.21255565 0.18335402 0.1267082 0.06803801 -0.057193995 -0.072919406 0.01659 -0.19847201 -0.26790962 0.57699 0.0740548 -0.07229664 -0.50640696 0.2525262 0.122875 0.33191562 0.022744557 -0.11701039 -0.20271519 0.14127462 -0.026014997 0.0065662013 -0.18406902 0.2512184 0.054094803 -0.243185 -0.30086914 -0.0821188 -0.104428925 -0.216342 0.17265199 0.0363278 -0.2581346 -0.29807636 0.22931781 -0.15557764 -0.043054003 0.1519542 0.16795401 0.0903162 0.381056 0.30702123 -0.31360137 -0.3604624 0.11470409 -0.08297888 -0.1937536 -0.0990436 0.1905566 -0.066152 0.11402299 -0.050613403 0.1982168 -0.022923196 0.29050598 -0.26560602 -0.04719841 0.15971307 -0.044009745 0.08095001 -0.263232 -0.173896 0.016950011 0.17423299 -0.0903336 0.0580448 -0.13166259 0.1974812 -0.107575856 -0.18165539 0.1944062 0.09428072 0.15245299 -0.05965228 -0.0422604 -0.022392798 0.042651117 0.15133701 -0.2586816 0.0908188 -0.12265599 0.10134381 0.382512 -0.40293714 -0.335316 0.13025084 -0.022897 -0.42890483 0.081976 -0.11292819 0.14796041 0.1510446 -0.09443674 0.005965996 0.1521558 -0.254718 -0.2518832 -0.0927884 0.097555 -0.052782 -0.1869476 -0.0433086 -0.035578802 0.116458 -0.087416 0.011979994 0.11730861 0.038115207 -0.23711462 0.20475681 0.162352 -0.028277261 0.0685552 0.019879 0.055204 0.105833605 -1.432516 -0.08836199 0.3525782 -0.054584004 -0.09313401 -0.19096802 0.036259003 -0.21590541 -0.024264006 -7.970035E-4 0.0812728 0.18123 -0.0762878 -0.2121412 -0.1623944 -0.035326004 -0.0715332 -0.362072 0.17805879 0.577692 -0.060029205 -0.2292664 -0.1462868 -0.031204
tenant -0.17171834 -0.06732316 -0.17704168 -0.1532295 0.15511668 -0.01657134 0.14005353 0.045751672 -0.226259 -0.93764675 -0.15452318 -0.26909834 0.32099998 -0.060996674 0.194348 0.40644833 -0.040844332 -4.6199933E-4 0.1795635 -0.0276665 0.0043193377 0.39088652 0.26099783 0.25053966 0.048929498 -0.028400052 -0.14242584 0.22352567 -0.4232567 0.049827337 -0.13578835 0.124822184 -0.2552335 0.26030535 -0.29103535 -0.056620024 0.032352 -0.59690833 0.08367111 0.08785634 -0.0715325 0.059706833 -0.30118 0.35109454 0.0069606653 -0.27754653 0.32506883 0.26731032 -0.09811639 0.15798248 0.23964664 -0.1657553 -0.026491832 0.11409767 0.14028834 0.004687657 0.1118445 0.13627101 -0.18013501 -0.26631668 -0.11800083 -0.06308967 0.19189236 -0.06536224 0.012423335 -0.016309664 0.098341666 -0.29326835 0.0667255 -0.12658484 0.020945992 0.15042135 -0.06548333 0.29993334 -0.35117134 -0.04480533 -0.38005662 -0.32461417 0.24660635 -0.22661516 0.12226033 0.3234616 0.2557825 0.2459425 0.037097 0.08701234 -0.020698836 -0.22919369 -0.27076 0.039247 0.4331555 0.16711304 0.25374836 -0.066157825 0.1119515 -0.44125497 -0.042866003 -0.15323901 -0.08379149 0.027184984 -0.13722134 0.13843116 -0.08064085 -0.07659751 -0.0384715 0.10059633 0.107872 0.015628297 0.088414 -0.336127 -0.18354636 -0.297445 0.057504833 0.07171118 -0.16860567 0.24622099 0.30448687 0.05913251 0.058719665 0.028045837 0.17954183 0.13620451 0.17165832 0.011546671 0.11475801 -0.062869 -0.0016963992 0.18298668 0.10990184 -0.06604 0.28475425 0.25957242 0.026506841 0.19418399 0.06889 0.12411233 0.021268684 -0.123685166 -0.29075837 -0.07786367 -0.01297083 0.16899851 0.32227102 0.3002705 -0.45914268 -0.16369566 -0.1076445 0.38009 -0.16576874 -0.0018039992 0.13336065 0.059926167 -0.05524267 -0.28214002 -0.04788834 0.19258335 0.048294835 0.1494845 0.07475583 0.07270892 0.446365 0.03783317 0.013696497 0.04278783 0.08775808 -0.11674034 -0.06472183 -0.067865334 0.14512986 0.2116915 -0.14078534 0.04053884 -0.15357283 -0.0246025 0.12028001 0.0739765 -0.401325 -0.07472733 0.059776336 0.13292833 0.12557518 -0.15049335 -0.257542 -0.06573933 0.23270814 -0.003796672 0.31347716 0.13125634 -0.07666901 0.32001567 0.25992018 0.026868334 -0.27024502 -0.13047534 -0.02799666 0.08477016 -0.5495667 0.19104001 0.15974134 -0.126982 0.47749949 -0.18482433 -0.026925672 -0.067836165 0.24059868 -0.013547744 -0.018355168 -0.30144387 0.09707352 -0.10311833 -0.34269 -0.105034165 -0.11181849 -0.34010336 -0.32312337 0.15588433 -0.19129567 0.38979667 -0.08406227 0.17487083 0.044855 -0.22596484 0.100033574 0.15130883 -0.0032973837 0.120779 0.15086517 0.13966168 0.128174 0.08795827 0.17980967 -0.163485 -0.10140499 0.20841384 0.52018005 0.027320765 0.059260678 0.0021164964 -0.22197668 0.099731326 0.12556018 0.19568369 0.62028 -0.09538393 -0.5528667 -0.088644505 0.20595047 -0.19750004 0.08102425 -0.15122133 -0.006481666 0.18228167 0.052029163 0.055584997 0.34167334 0.016373992 -0.26293084 0.17065835 0.30836833 -0.16472517 -0.27627352 -0.14572334 0.0016619315 0.046895396 -0.09793916 -0.15713917 0.18068314 0.05982333 0.042134 0.14570835 0.15482666 0.3514417 -0.14629833 -0.08148034 0.06727667 0.099454336 -1.7879782 0.12985668 0.4076692 0.13081284 -0.173134 0.050104216 0.074016824 0.069907844 -0.181325 0.795805 0.30435663 -0.070048325 0.016949838 -0.13287917 0.06244267 -0.09176667 -0.090022504 -0.27998334 0.19056505 0.25146002 0.0020068313 0.10059817 0.20353884 0.09198501
trainer 0.050883334 0.10632967 0.126065 0.12082434 -0.358074 -0.22091 -0.025506675 0.15061334 -0.32273 -0.9182267 -0.013577988 -0.13586968 -0.13946334 -0.27562 -0.004074996 0.23663668 -0.08241801 0.3205017 -0.30780968 -0.19738333 -0.016118001 0.108665004 -0.37651104 0.4694067 -0.12302667 0.15597668 0.03284666 0.094596654 0.16582334 -0.23091035 0.10714566 0.29275 0.06295066 -0.39211333 -0.24545532 -0.111136675 -0.1225 -0.04462233 -0.19649832 -0.24266434 -0.27790666 -0.17742202 -0.3689618 -0.41589165 0.05479 0.13727933 0.197135 0.44039667 0.3554058 -0.20092332 0.071347 -0.24973999 0.08782701 0.16525668 -0.120910995 0.13506001 0.04502943 0.09322333 -0.32046336 -0.27639002 -0.22901934 -0.13627866 -0.10304834 0.015425327 0.087349676 0.020018667 -0.36866003 0.13932002 -0.3459167 -0.16813669 0.33025667 0.50534 -0.18273 -0.59016335 -0.09868001 -0.152702 0.14752434 0.34315333 -0.06084333 -0.16588533 0.17471334 -0.15174 -0.22434667 0.17618632 -0.06643934 -0.2172189 0.26952702 -0.36564335 -0.049408 0.66409004 0.12472999 0.19982335 0.051074006 -0.32003868 0.2625717 0.0065913326 0.16349667 -0.20368034 0.40698668 0.14383267 -0.015787033 -0.24989766 0.0762566 -0.10700067 0.08240167 -0.08316063 0.14185 -0.31769767 -0.19317123 0.32435668 -0.3799617 0.11932866 0.13385701 0.03295666 -0.2769467 0.38248667 -0.07689534 0.117070004 -0.17288333 0.28637668 -0.137659 0.041176666 -0.034552336 -0.028613329 0.17434667 0.05481867 0.015759666 0.33530003 -0.011126667 0.07257934 0.045656674 -0.15881667 0.24707934 0.47200334 0.14350334 0.119876 0.015196994 -0.160583 -0.20427667 0.23354 -0.07269667 -0.073359996 -0.20929933 0.018321736 -0.09106666 -0.076846674 -0.030240005 -0.134763 -0.42789334 0.19500667 0.46376002 0.32018003 0.11160666 0.29464865 0.38629335 0.03622 0.09394334 -0.07890633 0.2711317 0.06942733 0.100773335 -0.07780141 -0.065429 -0.33536333 -0.025864404 0.23651001 0.25595334 0.06439534 0.122617334 0.250122 0.3644167 0.139359 0.18733333 0.16967201 -0.33894667 -0.13718635 -0.033719994 -0.24633 0.06923668 0.14623132 0.34087 0.19041483 -0.20021 -0.17072164 -0.057637006 0.28094137 -0.37733 0.093785346 0.34901333 -0.2585 0.045243338 0.110143326 0.15966101 0.30242667 -0.16412334 -0.35476002 -0.6197 -0.2820167 0.2536727 -0.236014 0.43756336 -0.14708668 -0.031544205 -0.36446762 0.36396 0.24740998 -0.067113005 0.19968168 -0.11883466 -0.24241668 -0.011168001 -0.20787665 -0.034816667 -0.32177 0.058510005 -0.39498 -0.39367002 0.13415433 0.06533335 -0.03588335 0.18490666 0.06103629 0.30116135 -0.48992 0.23207335 0.07218 -0.04760673 -0.03248667 -0.119289 0.38356003 0.014786681 -0.057391666 0.12024667 -0.36407667 0.206141 0.21177402 -3.0133128E-4 0.43962067 -0.70578 0.019920334 -0.10177666 0.09604867 0.27969268 -0.166536 0.09731334 -0.20986335 -0.05420667 -0.29626334 0.15273234 0.38732 -0.5404167 0.10372667 0.010356332 -0.013295671 0.28287166 -0.123050004 0.13376066 -0.06589334 0.33916664 0.20051768 -0.16522 0.10892033 0.13124067 0.37604666 -0.004986669 -0.04437334 0.22782001 0.09807266 -0.15136334 0.044306666 -0.3139267 -0.37922668 0.17575501 0.07353 -0.074097 -0.027853 -1.4662035 0.20943233 0.10351001 0.42106003 -0.05539867 0.06274234 0.16115335 0.24426201 0.149127 0.18424666 -0.10681002 0.48075837 -0.20837533 -0.13321 0.015566677 -0.17270333 -0.35610935 -0.38352665 0.042156667 0.04518334 -0.36034998 -0.17031667 0.241899 0.011420665
