affiliation -0.035154514 -0.069833584 0.00662141 0.0023069642 0.02108257 -0.011449885 0.013329357 -0.057277244 0.034637723 0.03439502 -0.0215132 -0.008203215 -0.064957425 0.04767042 -0.06688684 0.021916842 0.06585884 0.04603843 -0.0349496 -0.07581981 -4.5325546E-4 0.024199437 -0.019855758 -0.007393404 -0.038464613 -0.008592978 -0.047645032 0.0450374 -0.03745834 -0.047002338 0.05900098 -0.014311741 0.07524814 -0.0026327935 0.08977537 0.03378717 0.046343237 0.005427552 0.012093991 -0.029269964 0.029565122 0.014366145 -0.032291956 0.02502818 -0.02766138 -0.07553157 0.01738195 -0.003170846 -0.074426055 0.061286774 -0.0058885803 0.03961828 0.033990435 -0.014298356 0.017577061 -0.03416203 -0.0044954694 0.005366502 -0.004591388 -0.03700163 0.058954954 0.008829459 -0.012632212 -0.024687937 -0.10335496 0.030180048 -0.006453426 -0.012060674 0.07807955 0.03288887 0.050511144 0.016459871 0.028447375 -0.078397736 -0.05344691 -0.052679475 -0.006478153 0.021769978 0.10223059 0.027527113 0.016813343 -0.06356333 -0.0058345525 0.04395413 -0.04212611 -0.021846911 -0.07157074 -0.003924915 0.022410795 0.07457808 0.008577898 0.015693761 0.03260188 0.0020371987 0.03377296 -0.024342947 0.043392953 -0.026393158 -0.034869965 -0.018623658 -0.006229639 0.025580343 -0.034847476 0.020070337 -0.021222692 -0.046314858 0.05440518 -0.0025318614 0.019099783 -0.03146921 -0.025522068 -0.0053594224 0.044481274 -0.06522824 0.038653776 0.02956402 0.047517702 -0.024947327 0.0149451215 0.08032989 -0.013093218 -0.025463857 0.0073446254 0.055767205 -0.010526198 -0.011914897 -0.037532873 0.0018979659 0.031068569 0.051155902 0.027534258 -0.057261717 0.012320368 -0.052332632 -0.01598508 0.018028794 0.036943372 0.07109279 -0.070681795 -0.049038213 -0.072758995 -0.02199405 -0.021342084 -0.006660902 -0.01748468 0.048118394 -0.022337748 -0.005074968 0.01349832 0.07124377 -0.042921137 -0.024685493 -0.08509647 -0.018032987 0.057328045 -0.0478974 0.0132054 -0.033072285 0.048449144 -0.015293874 -0.048671495 -0.03499968 0.008795919 -0.011567652 -0.0013474947 0.039491225 0.014245952 0.0019526662 0.05242843 0.06733264 0.047512397 -0.029691858 0.083052576 -0.062655084 0.01632676 -0.036979415 0.06523233 -0.08189165 0.03326198 0.024990942 -0.08556854 -0.07471651 0.028831996 0.01754402 0.022633601 -0.027566649 0.025439255 0.028264418 0.029391833 0.003922743 -0.011416098 0.020919856 -0.01807238 0.049735084 -0.01477246 0.010992434 -0.009109528 0.03615898 0.0022792062 -0.032787584 -0.023159686 -0.0020168624 0.069021724 -0.017490316 0.035871573 -0.04374368 0.034938376 -0.06799301 0.089110956 0.013130641 -0.018608708 -0.03683109 -0.021139918 0.045690857 -0.0064862343 -0.028602507 0.005599474 0.008298971 0.015243027 -0.035807304 -0.0012290208 0.008678682 0.031919323 0.06675014 0.0026892237 -0.018811239 0.04055956 0.0078022755 0.02534261 -0.018876983 -2.654431E-4 0.03901908 -0.06875484 -0.024931474 0.031683348 5.4508634E-4 0.05083482 -0.04217708 0.040660363 -0.015209689 0.021177655 -0.114215516 -0.008362826 0.02291986 -0.025786702 0.06739041 -0.011747452 0.03589446 0.05908772 -0.07901417 0.025926158 0.0026992324 -0.017307403 -0.013508602 0.018655201 -0.013227323 -0.0071471124 -0.01019101 -0.05753439 0.014287512 -0.0054470627 -3.1861756E-4 0.013993286 0.057530165 0.04321636 0.037321642 -0.0075207646 0.056282386 0.015554069 -0.022697544 0.037580736 0.0010983472 -0.0051750913 -0.0062979935 0.007635511 -0.07798662 -0.06367048 -0.024570629 0.0098737 0.030329345 -0.020271532 -0.013150234 -0.044282086 0.0073654577 -0.04572722 -0.026642624 8.365959E-4 0.020703329 0.02198622 -0.10689365 0.0025362512 0.036147915 -0.059198715 -0.0061497064 0.029235972 -0.021814905 0.04583269 -0.00620115 -0.05561423 0.008782227
almaMater -0.031923644 0.02243652 0.010293988 0.09367874 0.059540726 -0.057158567 -0.04769913 -0.08490199 0.012295057 -0.029815147 0.03642631 0.009719636 -0.00652693 0.041397303 0.005244467 0.021157322 0.037426542 0.020597124 -0.007105419 0.01983371 -0.019354224 0.11160864 0.075488135 -0.022926781 -0.024610436 -0.0704714 -0.016697071 0.03741921 -0.06993838 0.00826232 0.065460086 -0.029674126 -0.05657653 -0.024578484 0.05652542 -0.017846344 0.060615934 -0.013411305 0.012534156 0.03314754 -0.0064022816 0.004961607 -0.089684315 -0.044327017 0.028233176 -0.037592806 -0.047365513 -0.04769399 0.036356114 0.03850816 -0.052385516 -0.043307204 -0.018485248 0.076102756 0.010491711 -0.034248173 0.0053748167 -0.0047621615 -0.021271853 -0.031808775 0.021355907 -0.01785008 -0.041310646 -0.022724684 0.027443618 -0.021804832 0.01489409 0.030488914 0.063407935 0.07031563 -0.06682751 -0.008948627 0.059161153 -0.11291607 0.037301276 5.728256E-4 -0.03338099 0.07003257 0.0029217768 -0.027684709 -0.047848124 -0.047658134 -0.029811624 0.04201072 -0.049908902 -0.030828638 -0.09254655 0.03705383 0.043543257 0.018083833 -0.07048252 -0.09278949 0.017924322 -0.03051051 0.022787806 0.0655933 -0.019859796 0.10747229 0.0099831745 -0.08220615 -0.025550364 -0.07141068 0.014584087 -0.066037275 -0.030640533 -0.024172483 0.0088893315 0.033843193 0.096954696 -0.008261889 -0.025076983 0.07246628 0.025732515 0.062295713 0.088166475 0.040973216 0.06337728 0.002402112 0.02831222 -0.061910715 -0.011698166 0.05738045 0.05174483 -0.038956773 -0.005009768 -0.06502699 -0.0496476 0.025203029 0.021553142 0.095661335 -0.026803602 -0.11720409 -0.0022597432 0.044754066 -0.0024327438 0.016365558 0.008428988 0.011478304 -0.024027515 -0.0145198 -0.09254003 -0.05997643 0.029331202 -0.0492737 0.06988879 0.0881517 0.06960903 0.04235523 0.07239174 -0.011320381 0.09248348 0.055545177 -0.057587635 0.03197795 -0.010394777 -0.036820192 -0.007906507 -0.004493077 0.020253805 -0.007512769 -0.054133918 -0.019442134 -0.027785778 0.057151075 0.10358739 -0.029802281 0.07764812 0.04651383 -0.042644072 0.02808087 0.018686859 0.007950856 0.012648011 -0.035373665 0.021293787 0.017940773 0.021767072 0.027501607 0.0018253282 0.002499383 -0.0030219443 0.010381333 0.019301748 -0.027064083 0.011438138 0.016226454 0.047406133 0.008338344 0.042688385 -0.0046279966 -7.8941946E-4 -0.051938068 -0.042652097 0.06746005 -0.08726435 0.0065466347 0.030761594 -0.028712524 -0.013198474 -0.020841995 -0.0051916786 0.022541927 0.036112767 -0.028364409 -0.061867665 -0.077743344 -0.020496732 -0.095465854 -0.02970456 0.062025934 0.0020240487 -0.043211456 0.014320411 -0.023336003 -0.05506691 0.09131016 -0.04645669 -0.028679464 0.0027787734 0.014174635 -0.04382625 -0.055677325 -0.016630862 0.03399725 0.076037444 -0.0033415735 -0.025806053 -0.020102737 0.011717013 -0.017961672 -0.045830432 0.06743486 -0.02357181 -0.021811863 0.035867717 -0.03411601 0.0035951193 -0.10460683 -0.02979233 0.05579816 0.06732259 -0.03217246 -0.037139326 -0.04222695 -0.06320806 0.05857714 -0.066171944 0.070574015 -0.06201693 0.031331565 -0.0042058877 0.031600147 -0.013910839 -0.011470771 -0.06596777 -0.09187807 0.081915535 0.0266968 -0.10475787 0.112009026 0.015795631 0.022828307 0.048960026 0.0014237501 -0.035398092 0.023524057 -0.01924783 -0.0027007838 0.024764607 -0.016382195 -0.027002865 0.031796027 0.0888487 0.05802841 -6.5781176E-4 -0.03843186 0.027751002 -0.021217462 0.011559761 0.035685204 -0.010482359 -0.07376647 -0.07272648 0.05299128 -0.013103792 -0.02332422 -0.05346467 -0.0056548575 0.07443936 -0.019175915 -0.012029944 -0.019156065 -0.1703278 -0.024135316 0.11446165 0.016784398 0.022090409 -0.016548563 0.018955959 -0.0143866455
bandMember 0.052005745 -0.07762692 -0.015077149 0.01401134 -0.041499127 0.043902446 -0.044875283 -0.090085804 0.014960705 -0.054920662 0.053177524 -0.045365404 0.008431044 -0.009601097 -0.02229376 -0.026457971 0.023270769 0.0049190717 -0.069446035 -0.053414352 0.004398407 0.07459203 -0.02705572 0.0032754974 -0.053250283 -0.008595751 -0.03605429 0.00930808 -0.021895334 -0.042394068 -0.004457367 0.050637316 -0.054726172 0.060990274 0.016089382 -0.062793784 0.092401184 0.027946262 0.059464533 0.018476771 -0.04854266 -0.0042045424 0.0053315903 -5.9270486E-4 0.030020097 -0.0407909 -0.020190265 -0.01819626 0.018287327 0.024267245 -0.024611497 -0.014605388 0.0066426783 0.0040944847 0.06481726 0.015463771 -0.02797404 0.016045693 -0.020739915 -0.061956275 0.050042976 0.030258063 -0.021231791 0.012658647 0.03132871 -0.02611179 0.02130343 0.012267398 -0.021055112 0.07082437 0.005619298 -0.050559916 -0.017159732 0.033159252 -0.11180629 0.026236763 -0.010821543 -0.045989793 0.012381072 -0.054561365 -0.043528445 -0.05233221 0.0044356096 0.0012888481 -0.040867735 -0.03476121 -0.07000407 0.036259834 -0.017207952 0.014370039 -0.04013408 -0.07265133 -0.0027420097 0.041927423 -0.037101906 0.022605551 0.01778237 0.012741319 -0.021609394 -0.08185549 0.013006771 0.055358943 0.0076045305 0.02554487 -0.06096257 0.002246301 0.04232655 -0.01912427 0.018416775 -0.049342614 -0.049073484 -0.0014949233 0.03337048 -0.033120465 -0.0010645852 0.07247235 -0.009277445 0.020056909 0.052772414 0.00981355 0.050835777 -0.08063056 -0.05769677 -0.053149052 0.018403158 -0.04407325 -0.09876331 -0.030389143 -0.0042440607 0.0023576915 -0.002152875 -0.054621335 0.09020429 0.018613627 0.026676109 0.047898855 -0.020046623 -3.7448548E-4 0.019995978 0.035902537 0.035401966 0.028369365 -0.055837084 0.032384444 -0.0376188 0.035078596 0.039763387 0.015648967 -0.03870803 0.04155555 0.07362044 0.025885684 0.030414442 0.07619928 0.004419981 -0.05080995 -0.016401112 -0.011644988 -0.019223902 -0.058069598 -0.046363186 0.04580481 0.051639777 0.126093 -0.013831246 -0.045855347 0.027986562 -0.020674286 -0.051763214 0.02879031 0.0762057 -0.039857995 0.05017067 -0.049312245 -0.010927266 -0.060970385 -0.018139077 -0.04062075 0.012408558 0.01869837 0.024069661 0.064808 0.06162106 -0.025900904 0.027851349 0.014940813 -0.028508892 0.003552934 0.057178736 -0.014226099 0.0021341369 -0.029376 -0.0033324778 0.01659904 0.005723848 0.012445298 9.605267E-4 0.039502226 -0.009157932 -0.03124631 0.025029749 0.007997294 -0.020285888 -0.024362272 0.010055966 -0.06096184 0.004240466 0.008810352 -0.061469723 -0.026187316 0.023139054 0.01556077 0.040554952 -0.019721724 -0.005294385 -0.042520765 -0.02700988 -0.045352813 -0.040246807 -0.046711873 0.017467473 -0.009038679 0.07242347 0.012110444 0.02699015 0.028146787 0.0027713298 -0.03911204 0.018139526 0.028947756 -0.07652527 -0.018746909 -0.058238715 -3.958568E-4 0.059469175 -0.0077377795 -7.2298537E-4 -0.057763714 -0.015718866 -0.015496592 0.05061158 -0.06108438 -0.023094105 -0.059045214 0.042926718 -0.0062121856 0.024616404 0.04934575 0.039996825 0.015556916 0.020022992 0.030994708 -0.0214073 0.019453097 0.031093819 -7.446073E-4 0.06239016 0.027193844 0.017534956 0.012826825 -0.007962531 0.014314336 0.046676185 -0.029740209 -0.038796075 0.029632429 -0.109565236 0.019133724 -0.026979238 -0.032244038 0.0051087034 -0.050933845 0.05216037 0.12651657 0.021430457 -0.044356033 -0.0028059462 0.02695567 -0.03763184 -0.06313739 -0.020234581 -0.010649161 -0.026372788 0.019867627 0.04711687 -0.03261314 0.0011188313 0.015821205 0.074347295 0.06271219 0.062473502 -0.006527375 -0.056682076 -0.033777233 -0.0072341175 0.014578613 0.019840525 0.020946529 0.04744783 -0.010378578
birthPlace 0.03402216 0.03915789 0.031635102 0.018691916 -0.014907278 0.0030893073 0.05031653 -0.064979464 0.051776346 0.0853156 0.041653562 -0.050356667 -0.029643986 0.0067223297 -0.029964192 0.014654951 -0.02735174 0.057213426 -0.031485993 0.0055803093 -0.03329156 -0.023784919 -0.0131369 0.030262446 -0.028414464 -0.03432351 -0.035170265 0.030054359 0.014739583 -0.021069115 4.368294E-4 0.0108207865 -0.032322098 0.07314118 -0.00943081 0.008328488 0.012016512 -0.044788916 -0.027516974 0.02251461 -0.04182687 -0.008546679 -0.022725953 -0.001470799 0.015960662 -0.040365733 -0.0306741 0.02714823 -0.008499282 -0.024813885 -0.009641833 0.047222417 -0.027275989 -0.09642696 -0.012766886 0.026622027 -0.007250409 -0.027067214 -0.03013644 -0.044045616 0.0440124 -0.005954851 -0.022136467 -0.083481066 -0.033281006 -0.052843954 -0.07323557 -5.5849145E-4 0.0048049483 0.003518066 0.041558802 0.030706162 0.018230591 -0.081859834 -0.054093283 0.0012253483 0.02304109 -0.010295843 -2.2470653E-4 0.0497455 0.03827856 -0.046450652 0.057633843 -0.039539803 -0.035639863 1.2948104E-4 0.021911353 -0.009929003 0.008007153 0.046412174 -0.0038788826 -0.018142132 -0.021325229 -0.06883322 0.052511502 0.02630339 0.026034037 -0.031698316 0.038016807 -0.024215406 -0.04782272 0.011396542 0.026545158 0.018430619 -0.06127445 -0.086815 -0.056218196 0.016219651 0.018558858 -0.024302863 0.00476159 0.060878146 0.009964329 0.007206445 -0.016305521 0.033766855 -0.042900957 0.003948707 0.0028671415 0.022382243 -0.049714636 -0.027457355 0.040964317 0.024618719 -0.002809113 0.021222437 -0.026327534 -0.042834286 -0.08448704 0.03937541 -0.02539964 -0.009509673 -0.028407235 7.7863055E-4 -0.022829372 -0.0020221581 0.023874724 -0.0045669875 0.02942428 0.04774019 0.016532535 0.008052055 0.029384041 -0.0039949045 -0.010884796 0.041873295 -0.031978093 -8.3820074E-4 -0.077454105 0.012652992 0.05131438 0.031522114 -0.035045367 -0.011817148 -0.0051023834 -0.032611806 -0.06276135 0.024350664 0.035224732 -0.07281419 -0.054868758 -0.04610863 0.04148009 -0.05700413 -0.025682492 0.020585192 -0.0146925645 -0.025343154 -0.04518378 0.036713492 -0.005227164 0.016353888 0.0222431 -0.020855475 0.027640378 -9.343982E-4 0.008862595 -0.013081807 0.045251396 0.040418696 -0.05995051 -0.03478301 0.009149834 -0.0715553 0.043677516 0.013074428 -0.0064372304 0.03393523 0.005480014 0.10075124 0.0067588487 0.036076143 -0.019176727 0.0016183 -0.062023472 0.004969204 -0.050726056 0.011558063 0.034368213 -0.038677763 0.018258354 0.04603919 -0.022270283 -0.01600128 0.035818797 0.01101387 0.059765615 0.01042313 0.0114217475 -0.017046923 -0.019233432 0.030260516 -0.03250062 0.045832284 -0.03176369 0.03113082 0.036613893 -0.007474082 0.014557237 0.001181347 -0.009009841 0.008445608 -0.013424545 0.016529305 0.0033436723 -0.018895835 7.4809045E-4 -0.016035253 0.0022179298 0.023204047 0.03807641 -0.04217379 -0.06760709 0.06565469 0.06638373 -0.028552974 0.045605298 -0.01312341 0.033137903 -0.059633292 0.017706824 -0.062274385 0.0040009893 0.03472411 0.02446348 -1.0166476E-4 0.021814473 -0.0075351074 0.008814496 -0.056315638 0.001607401 0.03676202 0.030087126 -0.03582942 -0.020062072 -0.0014354776 -0.0133805545 -0.031116996 -0.02708557 -0.04787239 0.023731112 -0.012379865 -0.032797236 0.0080753 0.04236728 -0.0059234635 -0.013891962 -0.08560892 -0.022841131 -0.05181647 -0.031757575 -0.04106101 0.046544984 0.035521634 0.022500586 -0.073017314 -0.028084336 -0.054879386 -0.062931426 0.032442555 0.046254754 -0.0014310897 0.019211812 0.01774085 -0.03147521 -0.018700268 -0.027930051 0.019414002 -0.06672713 0.019877512 -0.04918371 0.007414266 -0.06355913 0.014576408 0.011861145 -0.008094401 -0.008792869 0.0100142555 0.032905895 -0.017762793
ceo 0.023512112 -0.035393473 -0.009370982 -0.03985278 -0.0068862587 -0.022922559 0.015213624 0.0073317513 0.016414318 0.004842016 -0.0039847894 -0.02244436 -0.023359556 -0.0363034 -0.051557012 0.055831227 0.02263614 -0.014779361 -0.033655055 -0.033222478 -0.026651526 -0.02620365 0.0048320014 -0.00950576 0.06247206 -0.041090123 -0.035386544 0.03127535 -0.051834896 -0.0121917045 0.012261109 0.013418809 -0.025205646 0.040016297 0.050466 9.620264E-4 0.027048988 0.072003394 0.028634511 0.009348545 0.0068593053 -0.039529864 0.016015548 0.03156917 -0.041085884 -0.1046425 -0.017205033 0.0059167575 -0.016181372 0.05289721 -0.027618064 -0.027737414 0.0058969716 0.02724515 0.0024608318 -0.028313624 -0.04425861 -0.014711074 0.021662168 -0.054081835 -0.024773128 0.06284246 -0.05985886 0.048087522 -0.0041769305 0.0021739157 0.0052454844 0.023919797 0.062296867 0.012797026 0.02773109 -0.02993171 -9.3616033E-4 -0.014377197 -0.04332237 0.01663706 -0.007734489 0.02465583 0.011123008 -0.041475248 0.072516516 0.026824582 -0.051263005 0.038082298 0.037776295 0.0035632793 -0.03884652 -0.008359827 -0.012874903 0.021931965 0.072136775 -0.048415363 -0.013862209 0.019572537 -0.024221655 -0.0166413 -0.024608536 0.034523312 0.048777822 0.007897133 -0.010062298 -0.037241265 0.02828786 0.04383191 0.021136422 -0.029689247 -0.020476349 0.02124188 0.0075534256 -0.023644831 -0.0110072475 -0.049600698 -0.012741976 -0.053601302 0.017530393 -0.015860014 0.026767984 -0.008602333 0.0924502 0.025220409 -0.02593691 -0.0018834602 -0.063618354 0.005256295 0.030167501 -0.048590183 -0.04187741 0.0048280437 0.07301587 0.015186546 -0.017450722 -0.080684446 0.0061168754 0.021343093 -0.018166253 0.036048807 -0.018944345 0.014921405 0.0154943075 0.06330739 0.01819338 -0.029715281 -0.0113706095 -0.01673865 -0.0085763335 -0.0058493465 0.009491669 -0.016657954 0.040002696 0.0041581867 0.020016886 0.061189 -0.022811754 0.07822457 -0.04112414 0.023290597 -0.019931339 0.030352397 0.02555839 -0.02773863 -0.0491473 -0.024502978 0.015630437 0.02417618 0.023112692 -0.039495196 0.016745677 -0.034796968 0.06269686 0.06755522 0.062082797 0.008798512 0.020963725 -0.04266071 0.026205063 -0.01309147 0.011285383 -0.025433205 0.019085648 -0.033619776 -0.025935736 0.00893159 0.020725042 -0.06471583 -0.027963534 -0.022913922 0.021778524 0.025130749 0.0125611555 0.04131115 -0.038683265 -0.031504005 -0.018842978 0.076384895 0.037550822 -0.01576418 -0.04448978 0.022119466 0.025654536 -0.003745919 -0.0786825 0.027052084 0.046157263 -0.0025799228 -0.00633871 -0.014871042 0.021707837 0.0062939706 -0.035026804 -0.047093235 -0.0042842412 -0.02057822 -0.009399788 0.040076636 0.05465833 0.05052069 -0.016936738 -0.042111345 -0.007952254 -1.417147E-5 0.009679587 0.0024166293 0.0126864705 0.041459877 0.05260007 -0.0058482615 0.03741605 0.030182384 0.039228722 -0.0037366105 -0.03364105 -0.021642968 -0.061714754 0.006165998 0.0020135404 -0.0021375972 -2.7568545E-4 -0.008789077 -0.020598225 -0.012276363 -0.007123141 -0.06508792 -0.008003904 -0.0039315755 0.021841243 -0.020102283 -0.067191035 -0.021419857 0.0809993 -0.036089946 -0.0022674128 0.0075414777 -0.004912651 -0.033508483 0.043987133 -0.006880639 -0.020422146 0.048519727 -0.013320453 0.0057037533 0.0130277 -0.027356096 0.05426173 0.015288264 -0.04097975 0.028312383 -0.047178894 0.02135752 -0.047998898 -0.004293491 0.009990785 0.016932702 0.0023310063 0.008680019 -0.057576437 -0.015367852 -0.009770585 0.013506797 0.0024057052 -0.0165756 -1.6781548E-4 -0.0014696699 0.023419375 0.00700301 0.065945625 0.086274065 -0.021218888 -0.023194432 0.07460786 0.011879239 -0.015856352 0.0061462903 -0.046515062 0.016163953 -0.0030126302 -0.0052475035 0.03688744 0.0031786477 0.014439225 0.019308355
child 0.02002497 0.01718099 -0.02043326 0.021535669 9.891577E-5 -0.007838968 0.011359341 -0.027644431 0.0063658776 0.008077096 0.07223492 -0.071426734 -0.001277358 -0.04287204 -0.07598161 0.028547838 -0.029118335 0.06525391 -0.041986 0.012657228 0.01348494 0.031880237 0.046888426 2.0486738E-4 0.014215941 -0.07099824 -0.042381994 0.055436604 0.06694575 -0.06817012 -0.0016902692 -0.00931573 -0.05309103 0.032197025 -0.04788688 0.0040132888 0.08819556 -0.032330163 0.009115813 0.017342666 0.024901584 -0.042617973 0.06569468 -0.026542842 0.06725114 0.010355834 0.01654134 0.05242154 0.005122721 -0.032228574 -0.029772427 5.2523956E-4 0.039568223 -0.021748144 0.065232754 -0.014121616 -0.016255846 -0.037125923 0.0063457703 0.007115869 -0.005295067 0.029835593 0.010944771 -0.029244766 0.029297289 -0.01917845 -0.04613637 0.008002603 6.529034E-4 0.040486127 0.08521229 -0.011995006 -0.04418029 0.031032559 -0.054700177 0.07460126 0.009420691 -0.039412178 0.010360897 0.011838475 0.01963672 -0.0035700637 -0.047845535 -0.03267903 -0.02837774 0.0317327 0.052479893 0.0298459 0.017284404 0.0038096774 0.005333677 -0.019025572 -0.045437604 -0.01572489 -0.035201784 -0.0072766775 0.032446794 0.005372738 0.020194044 -0.01845111 -0.011179606 -0.038860403 0.045092404 -0.04625815 -0.03291264 -0.04405343 0.030452624 0.014718289 -0.0019087885 -0.0068329847 -9.4539113E-4 0.0354735 0.040813815 6.7628286E-4 -0.013609428 -0.028971737 -0.03743325 -0.017512992 -0.018740304 -0.014839938 -0.003804582 -0.015732959 -0.04529366 -0.016033478 -0.01867704 0.022121033 -0.0017763842 0.023379244 -0.013227792 0.016488856 -0.020592596 -0.020729205 0.007146464 0.0134117305 -0.016780607 0.028440114 0.046276353 0.033230405 0.009048928 0.048163705 0.06501561 -0.05205396 -0.0015306026 -0.007352787 0.042225987 0.09475776 -0.033799186 0.06925829 -0.04058054 -0.029181272 0.10518579 -0.0027177832 -0.07381006 0.022730932 -0.0121984035 -0.0011937072 -0.019490412 -0.049164694 1.4111027E-4 -0.015285633 -4.7597912E-4 0.03719731 0.07149729 0.016719123 -0.021181393 -0.06906856 0.03613485 0.0011925108 -0.006860403 0.027374998 0.026815377 -0.02368842 0.02468901 -0.03465293 -0.03508578 0.020701306 0.09085717 0.018391628 0.003896886 0.05242097 -0.0043979003 -0.031354293 0.039322373 0.006706552 -0.030709144 0.05523684 -8.817359E-4 0.0046685445 -0.027737789 4.357758E-4 -0.03703959 -0.01677797 -0.02451032 0.02249397 0.045267545 0.070286304 -0.020844787 -0.0078123463 -0.019862672 -0.033840246 -0.06282603 -0.047067977 -0.038646065 -0.05139833 0.036999777 -0.027583767 -0.01869832 -0.025224455 -7.544812E-4 -0.032259483 -0.02737121 -0.010998871 0.004345415 -0.015508443 -0.045051172 0.035785474 0.03015624 -0.021825781 -0.011448853 -0.014372903 0.0057128295 0.009417848 0.07455876 -0.024197534 0.012480292 -0.018336583 0.006101317 -0.07148184 0.01857604 -0.060320623 0.003991171 -0.010973666 -0.0022237196 0.0018381331 0.006337398 0.026140098 -0.03905667 -0.06756365 0.019171577 0.025443092 -0.010226032 -0.067002624 -0.020508036 -0.018816723 -0.004291102 0.07390925 -0.044426776 0.025682755 0.012540876 -0.013875762 0.01996322 -0.051385086 0.03847764 0.0308877 0.030791853 0.021711713 -0.013640627 0.01923346 -0.07752794 -0.019170064 0.020395895 0.013330607 -0.017427674 -0.030449264 -0.010491652 0.050331663 -0.05453406 -0.010516347 -0.069135904 0.020871399 -0.0431476 0.02875543 0.035760306 0.035329416 0.01844569 -0.05613509 0.017783958 -0.013178988 -1.5034465E-4 -0.013458214 0.059784204 -0.0283147 0.019072838 0.06682994 -0.018591126 0.0050898455 -0.05814928 0.015203974 -0.00871745 0.09829669 -0.024021704 0.025367102 -0.07972474 -0.047206357 -0.012333836 0.003189331 -0.020174624 -0.028759867 -0.033910148 0.025734767
club -0.021402836 -0.009516117 0.04230016 -0.02254374 0.044696838 0.0026203878 0.070267715 -0.05836395 -0.005823055 0.008700795 -0.006287694 -0.06808402 0.036409877 -0.019749552 0.009553818 0.06041236 0.008077586 0.07746385 0.07544638 -0.027660057 0.0018157879 0.08453561 -0.040985532 -0.054674774 0.0010092973 -0.08090345 -0.08605999 0.1441515 0.1021031 0.023557892 0.0077996566 0.0050051115 0.09356205 0.053215902 0.016903877 -0.033318743 0.080308154 -0.0141522195 0.052620187 0.051300786 0.020245587 -0.043906406 0.028608693 0.053728163 0.010247841 -0.020956276 0.058611654 -0.03616187 0.015369649 0.061715752 0.026913073 0.016679613 -0.036283255 -0.05717992 0.06727809 -0.045620143 0.0038268256 0.02284924 -0.053283274 -0.05404265 -0.03156657 -0.054419648 -0.015994104 -0.046978988 0.029577509 -0.020246869 -0.014472203 0.030398995 0.029857814 0.031760275 0.015695728 -0.020289505 -0.016067024 -0.030240372 -0.013678834 0.0027638003 -0.034328196 -0.03528401 0.02499412 -0.057118475 -0.02739334 -0.035599485 0.013646639 0.08803364 0.047764197 -0.06309137 -0.06093934 0.07724382 0.048262175 0.004425239 -0.013583673 -0.01682675 -0.045505524 -0.05241081 0.0151073 -0.03262986 0.046709742 0.053706314 0.05337628 -0.05898605 -0.040749107 0.10915663 0.045154124 -0.007399536 0.020425618 -0.0070115156 0.05349005 -0.032705676 0.012358057 -0.022931397 -0.04686916 0.06325835 0.019452348 0.047513507 0.07358274 0.03332546 -0.023038736 0.0035992307 -0.04432293 0.019926725 -0.06064325 -0.04672737 -0.0017298212 0.048094865 0.0021017035 -0.07988199 -0.015328398 0.05577013 -0.03622757 0.011723697 0.018354408 -0.07561941 -0.022464216 -0.023210427 0.00245136 -0.064984754 -0.02992117 0.06711086 -0.032776248 0.047357254 -0.014977116 -0.025555745 0.014305787 0.026085198 0.035868384 0.06664898 0.014252955 0.020089721 -2.4191632E-4 -0.050070923 0.051357783 0.046211623 -0.07785913 -0.032732245 -0.03513568 0.05918638 0.044876516 -0.061344877 0.034003668 -0.049637627 0.058806848 0.059433065 0.11205596 0.045421537 -0.047199488 -0.078636214 -0.032330826 -0.056480482 0.020855166 0.045153715 -0.04412983 -0.0020313598 0.015186718 -0.079328135 -0.0032432755 0.001441865 0.053904127 -0.04637827 0.038541406 -0.007986177 0.07079354 0.064674884 0.014456069 -0.016895488 -0.011330656 0.026618598 -0.040818505 0.02877078 0.055757623 -0.011436942 0.055715255 0.024715807 0.026228614 0.054731093 0.022076175 -0.042663172 0.06640765 0.04006482 -0.05491565 -0.04684423 -0.010515953 0.008350253 -0.0461891 -0.022095859 -0.02472056 -0.09732111 0.019371703 -0.05618699 0.010919474 -0.010491735 -0.032998316 -0.00982781 0.009226512 0.021929644 -0.054396927 0.04154282 -0.0134132905 0.011550965 -0.07043102 -0.019573381 -0.017743845 -0.046754953 -0.0067178756 0.020525731 0.043150038 0.016187686 0.0627466 -0.055795874 0.028813958 -0.026019534 0.05667798 0.023788318 -0.008288145 -0.012245577 0.0102020055 0.013353888 0.032439902 -0.042662203 0.054320298 -0.07632011 0.052898627 -0.081882894 0.018041562 -0.035784215 0.030459803 0.0047624838 -0.068036586 -0.032234713 -0.019191265 0.0064442167 0.028792283 -0.026215777 0.049709838 0.039955024 0.04148374 0.045310378 0.013019547 0.013311919 -0.083311096 0.077977985 0.04206118 -0.0031009852 0.03506428 0.012816014 0.01215852 0.0437998 -0.008274201 0.006118485 -0.026522368 -0.0047594896 4.7734016E-4 0.04363736 -0.09151622 0.03187106 -0.066559866 -0.031742103 0.021184316 -0.069962755 -0.039266672 -0.0056987954 0.0053098723 -0.015058349 0.05854237 -0.032085974 -0.020999193 -0.0046205036 -0.06771922 0.048276864 0.03432733 0.049487375 0.005330543 0.0038252128 -0.100061014 -0.060775273 -0.0034944937 0.019536681 0.012658174 0.023221862 -0.05439843 -0.027367767
deathPlace 0.025723537 0.04237121 0.0023334264 0.05267924 1.6695054E-4 -0.012649423 -0.0066729435 -0.0856863 0.10041604 0.069320865 0.0194787 -0.058232028 -0.058153775 0.040943414 -0.016045438 -0.008252879 -0.0058362666 0.019323414 0.019948255 -0.0057782996 -0.014593651 -0.01859644 -0.01815192 0.024926288 0.080560334 0.024678558 0.008710008 -0.023087436 0.042568516 -0.035110205 -0.012673425 -0.03229601 -0.034201697 -0.006267843 -0.021410799 0.05996131 -0.01440357 -0.017193217 0.0012657123 0.011095128 0.05778467 -0.04861818 0.060935155 -0.04021787 0.012056393 -0.041904118 0.014356402 0.023922652 -0.015391247 -0.011194271 0.015677344 -0.0048933052 0.0012414592 0.023498693 0.019720292 -0.014923071 -0.05281328 0.0058571324 -0.02550051 -0.007510512 0.008496354 0.043130904 0.013247248 -0.032946724 0.0045623095 -0.009185099 0.017320208 0.02857245 -0.05131287 0.017165862 -0.0073334724 -0.010116872 0.0056604096 0.03504621 -0.07430431 -0.0351989 -0.005397948 -0.027457787 -0.021544395 0.111195974 0.08419837 -0.040329862 -0.0052892687 0.018793589 -0.01930649 0.025222743 -0.010166569 0.057322543 -0.0084292255 0.009055061 0.04727632 -0.036041845 -0.007951067 -0.04280894 -0.012582565 0.013488227 0.039931584 0.013762731 -0.0047344286 -0.02110864 -0.03201901 0.01328484 0.024445482 -0.0040608975 -0.01277268 -0.048430674 -0.03504731 -0.0096740145 -0.008655335 0.0036899394 -0.015392244 -0.0074148793 0.022810126 0.003298983 0.021296816 0.005745896 -0.012673007 -0.019334966 0.03710376 0.043681912 -0.027996207 0.03498962 -0.008023704 -0.05282963 0.0037733347 -0.014463958 0.01337315 -0.044240423 0.0012868077 0.035161152 0.040610876 0.0025574928 -0.04483847 -0.05190137 -0.026114041 -0.006388241 0.0059962347 0.008357888 -0.050777424 0.048040047 0.007142091 0.026032137 -0.0502314 0.028618524 0.028719505 0.008766021 -0.057983007 -0.0065581906 -0.048674375 -0.024769535 0.044984475 -0.029622661 0.0016311182 0.028144475 0.015511285 -0.0079179425 0.022771455 -0.011362572 -0.002187773 -0.031936917 -0.025322625 0.040824793 -0.014936406 -0.025065834 -0.028424794 -0.037165325 0.02999244 -0.015694812 -0.011962557 -0.0053996467 -0.0038484542 -0.028808031 -0.036881316 -0.06259004 -0.010601202 -0.0255849 0.02577729 3.477095E-4 0.074358195 -0.017317187 -0.011211772 -0.037592817 0.021179946 -0.01649045 0.06015602 0.034138624 -0.011676197 0.05006067 0.062135432 0.09506968 0.031109681 -0.0075087044 -0.0060196244 0.011142494 0.04068933 0.015293588 0.0498764 -0.002270583 -0.0055825314 -0.0039920583 0.00119329 -0.013975198 -0.036029145 -0.022612888 0.04886231 -0.013455593 -0.013542341 0.028419064 0.005835734 -0.024969691 -0.067308635 0.020878077 0.010269552 0.02709748 -0.04152306 -0.028422879 -0.027324598 -0.04239816 -0.05956124 -0.011330659 0.0015221371 0.031582184 0.009857829 0.031181892 0.034481164 -0.027383173 0.023655543 0.010573415 0.0036272325 0.033991326 0.018225783 -0.0085162055 -0.0015166878 -0.008159803 0.01694422 -0.01729643 0.0027194784 0.016823541 0.019361936 0.009541777 0.0025833019 0.002306781 0.0031250243 -0.060649727 -0.024679357 0.03518492 0.04406718 0.021540752 0.017535798 -0.026143042 0.035198364 0.025901416 0.0010235073 0.018000145 0.0029437107 -0.014101126 0.035516094 -0.014589765 -0.014947029 -3.5900416E-4 0.013719503 -0.0020702737 0.008557138 0.017902656 -0.008271024 7.9440867E-4 -0.01674687 0.03520578 -0.014812362 -0.009552859 0.031702593 -0.007823863 -0.0055528157 -0.054925743 0.031474646 -0.0061396123 -0.030020688 0.065468214 -0.022460788 -0.03095903 0.0065555144 -0.007887602 0.018304804 0.015471336 0.012865126 0.0013415124 -0.038992044 0.0072138757 -0.0015376644 0.001364064 -0.015724044 -0.04848906 -0.060502965 0.044884842 -0.0029785014 0.024375992 -0.057961855 -0.03486188 -0.003337245 0.016342381
debutTeam -0.018991403 0.01564746 -0.03009188 -0.020622745 0.062121473 -0.030927252 -0.07474259 -0.09572365 0.048823237 0.056451432 0.025029395 -0.038204428 0.0035225002 -0.06840258 -0.039317306 0.001000083 0.046745613 0.011938212 0.02295256 -0.007886189 0.006719963 0.05624695 -0.03860887 -0.0442332 -0.03985397 -0.025009504 0.0026941856 0.025697332 0.02895168 0.067385055 -0.033916146 -0.036675848 0.012408599 0.0020492186 0.043454286 0.0040866076 -0.013774842 -0.022905622 0.053995997 -5.3328276E-4 0.055489928 -0.06196129 0.053441446 0.062581584 0.038150884 -0.03832976 -0.020528045 0.020158539 -0.001740687 0.037745748 0.026099792 0.024253033 -0.010833716 6.762172E-4 0.015402285 -0.01763751 0.013206995 -0.012994833 0.001345546 -0.026833251 -0.038221486 -0.015815604 -0.04136208 -0.05946573 -0.0084897615 0.014852114 -0.0066430173 0.022769243 0.017067201 0.07836151 0.0122595765 -0.022316132 0.03344384 0.0038766067 -0.02129007 -0.036309075 9.783506E-4 0.009249092 0.015800549 -0.016302291 0.067462966 0.023174588 -0.0083210915 0.015181425 0.045843422 -0.066249184 -0.041921776 0.007958917 0.034435164 0.047561437 0.0052635064 -0.048310786 0.009041245 -0.016362216 0.031632252 -0.034921747 -0.041093107 -0.016227413 -0.02680049 0.019845162 0.018800812 0.029512845 0.009763103 0.010254653 -0.014816831 -0.03515213 -0.011582863 -0.016241683 -0.023731608 0.0059713586 0.049924344 0.007765878 -0.05418417 -0.027061407 0.03957842 -0.004522397 -0.013071737 0.012925345 0.056479912 8.1894395E-4 -0.044357266 -0.024548866 -0.038861863 0.012278031 0.029928282 0.015825283 -0.02427214 -0.024194378 -0.005737298 0.09342667 -0.036386646 3.8761273E-4 -0.040189557 -0.017292853 -0.0038736535 -0.030439794 0.0012513127 0.037746027 -0.06894231 0.042270347 -0.040597208 0.0038256147 0.023144132 0.017982773 -0.012650432 0.0689173 0.02740438 0.018843295 -0.024659714 -0.011153082 -0.0083258 0.019951291 -0.01234249 0.015409908 0.020003043 -0.047283642 -0.03590984 -0.055458393 -0.01683254 -0.01951034 0.024504235 -0.006442409 0.075387605 -0.041546278 -0.048000988 -0.068808615 0.06363956 -0.036274683 -0.04416339 -0.01204708 0.032850027 -0.056895368 0.05244431 -0.07902562 0.0044353805 0.010357978 -9.6927525E-4 -0.046825975 0.0206213 0.0048645427 0.0038201194 -0.049374036 0.030173615 0.019450955 0.002725225 0.006032846 -0.01636913 0.008614345 0.026979608 -0.008246823 -0.022842351 -0.02736029 0.021419577 -0.015883408 -0.007095789 -0.012461428 0.010286505 0.053486016 -0.057192408 -0.029485758 0.022839565 -0.010052528 -0.019987414 0.041330423 -0.011089376 -0.055942476 0.0132739 0.022191321 0.0025698352 -0.0047941124 -0.008049414 0.055022385 -0.007279217 0.036733665 -0.051324915 0.04163268 0.030861486 -0.04954321 -0.0357684 -0.07715677 -0.050083917 0.034851164 0.0101991575 0.04075266 0.033601966 -0.055939212 0.03083064 -0.0017829066 0.0033019972 -0.028641842 -0.004122756 0.06809084 -0.02010417 0.037244946 0.009293535 -1.04007006E-4 -0.014870793 -0.026485458 -0.015403542 -0.06058065 -0.0036930393 0.0015720663 -0.001972219 -0.057857614 -0.0010032624 0.031969503 -0.0031810205 0.016357595 0.009904157 0.025370706 0.02032483 -0.018621668 0.011951948 0.0149025135 -0.03218279 0.060750067 0.020634234 -0.0012453863 -0.036255755 -0.012894832 0.030924622 0.036316793 0.012400394 0.044448473 0.02179188 -0.017514199 0.006651394 -0.041192483 -0.0498711 0.0087412475 -0.026831254 -0.015237475 0.012327551 0.03116947 0.061482042 -0.030801153 0.005647541 -0.05101213 -0.05308875 -0.02903809 0.036229968 0.010931796 0.0051730885 0.049561843 -0.019634364 0.008654097 -0.029331375 -0.0072936704 -0.011994666 0.01829845 -0.04281953 0.0026515794 -0.031932633 -0.01006541 0.0015070809 0.023370113 -0.0028592339 -0.03637154 -0.06280579 -0.023574028
department -0.07548131 0.037946284 0.013026152 -0.032666698 -0.044195466 -0.07794941 0.059278727 -0.06919137 -0.030767683 0.019917605 0.014657835 0.0061092246 -0.02710059 -0.060687028 -0.06737693 0.024300966 0.018835545 -0.059549972 -0.005533083 -0.013149925 0.040186245 -0.042271066 -0.008300598 -0.056091137 0.012214033 -0.018482797 -0.09465732 0.035608165 -0.07109648 -0.050580185 -0.06577054 -0.0125171095 -0.0055059576 0.019159827 -0.007996644 -0.0105392 0.029309284 -0.035069 0.029386044 0.05079 0.026747117 -0.05114335 0.030932084 0.010315927 -0.0023391899 -0.02665722 -0.022620292 -0.015778296 -0.056153532 0.051373854 -0.016841266 0.017173052 0.049868375 -0.090974286 -0.02459337 -0.05138135 -0.03424322 0.0050685 -0.009902233 -0.022573002 -0.040254787 -0.024841283 -0.03709754 -0.071917266 -0.031131906 0.01237083 -0.08847174 0.038966693 -0.042071246 -0.03529513 -0.0049832407 -0.013820577 0.0847065 0.008055016 -0.029266488 -0.011307992 0.010620134 -0.03956566 -0.015278138 -0.0142036695 0.07529443 -0.031105986 0.07924791 -0.02277555 -0.043505803 -0.03138457 -0.006542247 0.027243465 -0.04335237 0.09988746 0.054621466 -0.0136649115 0.017364252 -0.12644598 -0.033390615 1.6639382E-4 -0.026398068 -0.0068273563 0.015194006 -0.0044155177 0.009199447 0.018119842 -0.03276097 -0.020229349 -0.0014806055 -0.119705915 -0.0468141 -0.04152277 -0.027791198 -0.07799474 -0.014372123 0.037207186 0.037158914 -0.025341505 0.022675578 0.0038310345 -0.019950237 -0.0044638375 0.03391565 0.05887704 -0.13224077 -0.035275456 -0.03875269 0.09559779 0.023543268 0.015986713 0.019404989 -0.050355513 -0.008177001 0.033864595 -0.017635092 -0.11528802 0.009429123 -0.03317975 -0.008825068 -0.045268737 0.021206468 0.007250501 -0.0044574426 0.00984478 0.040319227 6.758645E-4 0.032022398 -0.038908225 -0.08000251 0.03435632 -0.049297135 0.004577142 -0.096492544 0.064256184 0.11327208 0.07252626 -0.011685278 0.04906353 0.010152004 -0.038096994 0.0011586789 3.2104645E-4 0.025200842 0.028422538 -0.015640646 0.013670795 -0.009012772 -0.031085894 -0.018003136 0.0227273 -0.028177366 -0.0100101475 -0.003352303 0.005139853 0.026593607 -0.04516848 -0.028121782 -0.025622148 -0.0043009426 1.5690038E-4 0.033679094 0.01939338 0.0020275544 0.06658449 -0.014115015 0.022132332 0.058545254 -0.08249483 -0.047475964 -0.06763781 0.03118688 0.06120329 0.054280646 0.059916377 0.02539043 -0.013115218 -0.05638719 0.050647635 -0.059499882 -0.03415171 -0.0011341572 0.005675487 -0.035824396 -0.006040357 -0.05986335 0.01661861 0.038681105 -0.008702076 -0.015191952 -0.07273052 0.014721465 -0.0145312045 0.008237695 -0.017083537 0.039974146 -0.010740896 -0.07644053 0.034084275 -0.0483918 0.007719456 0.008911157 0.048792884 -0.0284273 -1.084432E-4 -0.012365721 0.0097042825 -0.0052642273 0.014560705 0.029891519 -0.040892947 0.0306782 0.016157724 0.009653529 0.015921343 0.08214839 0.014898606 -0.07684662 0.056662228 0.035571102 0.006210482 0.022069326 -0.040977344 0.03414628 -0.008542522 0.024443835 -0.008716738 -0.012335715 -0.026190244 -0.024901789 -0.07123697 0.016740577 -0.073248826 -0.028972007 -0.072090484 -0.07040565 0.045745097 -0.033164714 -0.026220748 0.017140284 -0.054086946 0.014460116 0.047543842 -0.030554933 -0.021428619 -0.0037671141 0.003941861 0.032424726 0.009361678 0.092582054 -0.016587043 0.019714024 -0.031612594 -0.039075136 0.013742309 0.055658758 -0.01924047 -0.0054718833 0.078215376 -0.019073386 -0.02198998 0.0391554 -0.07924791 0.016211955 0.019898087 -0.0035831183 -0.0700928 0.05295091 0.035762385 -0.013793645 0.046642244 -0.016656786 -0.019910704 0.057670575 0.0169923 -0.09272663 -0.0099900365 -0.05486391 0.028375288 -0.0024565235 -0.0026317816 0.007618826 -0.034157824 -0.00792175 -0.010271958
district 0.0069313804 -0.017696993 0.03019032 -0.016705036 -0.049654387 -0.023002863 -0.03563796 -0.022866964 0.019259516 -0.019351065 0.026598267 0.010222364 0.038464718 -0.0043960502 -0.11129433 -0.022351542 -0.031983756 0.007126877 0.012758028 -0.028844573 -0.013511705 0.010844465 0.019807281 0.02211944 0.04503376 -0.03752514 -0.06628298 0.02991752 0.010254704 0.017428394 0.03805437 -0.022965917 0.008240395 0.052778535 -0.03480432 -0.022528656 -0.008802544 -0.04801858 0.06548342 0.0118858665 2.2369437E-4 0.028757136 0.059541814 0.019486377 -0.008553656 0.012874244 0.037189268 0.054000583 -0.017523497 -0.025046937 0.016402127 -0.033725712 -0.009305388 -0.0038385286 -0.04041469 -0.023042107 -0.025981266 -5.448628E-4 -0.010994536 -0.02337814 0.0078104427 0.0026389193 0.019580938 -0.03874194 -0.0617834 0.016940396 -0.017156852 0.059786126 -0.016153391 0.012385327 -0.028637426 0.030285718 0.016591763 -0.04999011 -0.018240865 -0.10817312 0.036342274 -0.05340219 0.033022918 0.04855206 0.0024338954 0.019053321 -0.027568296 4.0623988E-4 0.008699465 0.012370514 -0.005460577 0.036599338 0.024229497 -0.030906714 -0.023791634 -0.029917065 -0.059845597 -0.03176178 -0.037093915 0.02698892 -0.013361961 0.009152984 0.0376482 -0.0057939338 0.021003483 0.019237943 -0.016590845 0.0014723238 0.018636921 -0.112909116 -0.029212367 -0.03433855 -0.011032149 -0.03729509 -0.006945193 0.02969608 0.028331265 -9.2677405E-4 0.022834288 0.021456556 0.020013552 0.050695676 -0.020720407 -0.039113402 -0.04353352 0.0036491265 -0.036582846 0.043747082 -0.022424985 0.0073433556 -0.031751465 -0.045874715 0.026879836 -0.07933743 0.034069274 -0.01449457 -0.0016386192 0.023093887 -0.010782231 0.029566407 0.006612032 -0.014299588 0.0047213472 0.047739357 -0.054685585 -0.010867776 0.013015498 0.014423823 -0.015583388 -0.034847632 -0.04690042 0.0124483835 -0.076707125 0.02490454 0.05735281 0.018539289 -0.019662084 0.034621194 -0.020474784 -0.0043514976 0.021009685 0.01852396 0.03507515 0.014576688 -0.05862708 0.0705368 0.09987931 -0.056166664 -0.048702583 0.0018121004 0.053055078 -0.010307778 0.054751173 0.021947976 -0.006077748 0.055915855 0.058447663 -0.03380049 0.036943458 -0.04959073 -0.022356551 0.019759078 -0.042110458 -0.045363363 -0.10874109 -0.079487786 0.018639097 0.0052310172 -0.024417229 -0.024798991 0.064624496 0.03112387 0.0946558 0.019885337 0.013878342 -0.028387338 -0.028790805 0.07092266 -0.056996252 0.020637095 0.027741369 0.03037483 0.0020831432 -0.035904687 -0.015137261 0.010395026 0.036990225 -0.07458558 0.024764618 -0.046021428 0.04178392 -0.027224336 -0.0068266205 -0.02353058 -0.017443504 0.051962294 -0.03321237 -0.0037859995 -0.032398507 0.014251723 7.826332E-4 0.025389798 -0.018127961 -0.009144231 0.02433135 0.022150736 -0.0045778286 -0.02368896 -0.035970297 0.023664474 0.03271515 0.007263673 0.012808252 0.006077758 0.02332438 -0.023688804 -0.06916804 0.01704776 0.03717553 0.014676456 -0.017912757 -0.004913567 0.0378504 -0.049022082 0.023551466 -0.004816683 0.06856898 -0.023199825 0.004729776 0.039153833 0.018977161 -0.037934 0.05088548 0.030058434 -0.022949751 0.011127061 0.06419988 0.04765065 0.016307706 -0.10601395 -0.030098421 6.807343E-4 0.043087825 0.014133133 0.0037615476 -0.008078154 -0.025991732 0.039023843 0.041219577 0.03341545 -0.0013619945 0.031038042 -0.066725895 -0.023094906 -0.07017748 -0.012224694 0.0068835774 0.009520579 2.9978342E-5 0.011731718 -0.024195965 -0.028874317 -0.052775003 0.014930248 -0.074464716 0.043124087 0.07730342 -0.0032990687 0.057968378 0.0061892215 -0.017283361 0.0111739375 0.03086013 -0.0026018182 -0.040007345 -0.005584445 -0.014535576 -0.028671555 0.017186757 -0.051683318 -0.05009664 -0.04174909 0.0042852145 -0.01202999
doctoralAdvisor 0.021305254 -0.012032497 0.027891131 0.01798017 0.023714392 0.09947286 0.04009782 -0.044760827 0.037247397 -0.089332536 0.051453464 -0.030078374 -0.0021291333 -0.020406485 -0.090401344 0.082974635 0.025080027 -0.0019465848 0.02040091 -0.08257762 0.02050136 0.048302714 0.012145706 -0.027196174 0.04314776 -0.053145234 -0.02991676 -0.009317142 -0.11369233 -0.025509585 0.026294697 -0.009130532 -0.0400659 0.0026043218 0.053502843 -0.0077306195 -0.0350196 0.06326243 0.009946513 -0.0085649835 -0.007242263 -0.040765103 -0.045988426 0.029423611 -0.019439736 -0.04369714 -0.03045044 -0.054119784 0.05650829 0.018014662 -0.054967396 0.034074076 -0.023044055 0.018036744 -0.03923784 -0.01810985 -0.00984821 -0.06883429 -0.019010734 -0.07735822 -0.012965827 -0.00661455 1.3357667E-4 0.020288965 -0.0023793697 0.010489305 -0.008017231 0.049268827 0.035224356 -0.02532329 -0.023960555 -0.0069905487 0.02928197 -0.027389916 -0.05805329 -0.039464723 -0.030292407 0.07830235 -1.9654473E-4 0.012643934 0.09165635 0.030924909 -0.04970507 0.06263615 0.039826073 0.018290754 -0.030255368 0.01539672 -0.030678555 0.021758335 -0.008021071 -0.06697554 -0.08549168 0.03595244 0.05451852 -0.019857118 0.03741178 0.037608016 0.017789377 -0.049154002 0.005169789 -0.015523967 -0.034353863 0.0029368831 0.012311848 -0.016961802 -0.08527935 0.0019778188 0.016360406 -0.027201548 -0.030824166 -0.0044031804 0.013344261 0.018764755 8.675467E-4 -0.049947627 -0.075321995 0.014704828 0.1218712 0.026181545 0.011769766 0.039172467 -0.029427275 -0.009951534 -0.06191556 -0.011082241 0.03853809 2.0602506E-4 0.053409055 0.10817851 -0.017706793 -0.10828714 -0.032411903 0.0018135646 -0.018930709 -6.220985E-4 0.020560935 0.061405435 -0.010935422 0.053579956 -0.045731705 0.02038987 -0.02260465 0.022948714 0.02332137 0.042713035 -0.0053493506 0.048861463 0.02376632 0.03526641 0.07721225 0.019483415 0.006827741 0.0510125 0.025189918 -0.042905577 -8.5350237E-4 0.034072217 0.021964347 -0.03346052 -0.0054374626 0.0019290997 0.0654576 0.08689753 0.060910307 0.05246776 0.045325868 -0.054463953 0.065617785 0.056902252 0.03329953 0.083969004 0.028458113 -0.010529308 0.086016044 0.008787161 -0.011463187 -0.025695505 0.009443809 0.033682518 -0.044354368 -0.024450867 0.033483528 -0.0022724005 -0.03441052 -0.040963247 -0.008001752 0.005607909 0.015670083 0.06500079 -0.011410003 0.0047456636 0.009144915 0.055596095 -0.0024829386 0.028929777 -0.027912134 -0.027109364 0.031290334 0.04773109 -0.06701462 0.06091156 0.0355758 -0.042206686 -0.031881865 -0.0759825 0.011541999 0.014482748 -0.039377045 -0.02963242 -0.005119377 -0.041927442 0.008220737 -0.020778103 0.015415501 0.03780305 -0.053297766 -0.052844282 0.055887617 0.004588157 -0.0015220573 -0.025429476 -0.027335541 0.00786255 0.027679926 3.4026563E-4 0.050562646 0.0043833125 -0.009283105 0.017689388 0.0072563076 -0.030628316 -0.07646035 -0.04601266 0.0154906865 -0.01675709 0.01994511 -0.031871133 -0.057427477 -0.034193225 0.018557886 -0.040260635 -0.06995883 -8.951868E-4 -0.012760752 -0.036416125 -0.053921193 -0.0074796313 0.029538104 -0.030980214 -0.001338428 -0.010104047 -0.012936423 0.03685232 0.02640016 0.038880087 -0.027270135 0.0014617705 -0.04537137 -0.011297433 0.04069738 -0.005748289 0.037840027 -0.06361709 -0.010135298 0.024774719 -0.00288225 0.024709545 -0.02006174 0.03550423 0.008530301 -0.058482658 0.0028434878 0.025511077 -0.037083566 0.003826814 -0.015819214 -0.0069096284 0.001594714 -0.028044902 0.035099775 -0.039240774 -0.01298098 0.034993794 0.037990738 0.030467173 -0.009386394 0.040914536 0.07808821 0.012215367 -0.015873928 -0.02682535 -0.048098937 0.01000685 0.027495958 -0.021201048 -0.014880243 -0.005996218 0.02423857 0.037862908
doctoralStudent 0.0062671257 2.1639373E-4 0.05842635 0.057109497 0.044614833 0.060070343 0.096169814 -0.034711942 0.031193797 -0.09363745 0.04429444 0.010337341 -0.021711841 -0.022537146 -0.046890557 0.03935931 -0.030818652 0.019549556 -0.020486195 -0.042211097 0.009853225 0.0072011813 6.521518E-4 -0.009722449 -0.0058828946 -0.11449458 -0.053285804 -0.018529223 -0.0011330869 0.031427745 0.0063773356 -0.024936369 -0.006013471 0.008277087 -0.036902245 -0.054752827 0.0062460974 0.06681745 -0.06454832 0.03209967 -0.03893122 -0.019116106 0.010474276 0.026703065 0.03702327 -0.00367105 0.0455874 -0.020908354 0.018556572 0.012827872 -0.053374924 -0.058343258 0.010852257 -0.009548839 0.04557491 -0.042590737 -0.054911777 -0.004210459 0.0032480124 -0.040793054 -0.0063393656 -0.03160458 0.024907669 -0.034915 0.037185885 0.021881295 0.029774081 -0.030900214 0.035917178 0.018227808 -0.07373704 0.011730468 0.033574663 -0.029387465 -0.03784052 0.07677754 0.048065703 -0.0012338839 0.019576054 -0.022841474 0.03220795 -0.024246696 -0.023969304 0.056236453 -0.016893554 0.040764183 -0.012854724 0.07062136 -0.02457185 0.06873586 -0.030092195 -0.07578857 -0.06930599 0.023195151 -0.025091 0.038284328 0.06335432 0.047878604 0.014498766 -0.038236313 0.005290439 -0.049890395 -0.041825883 -0.05729088 -0.020160887 -0.046964496 -0.042766314 0.031885147 0.05413717 -0.04422631 -0.081389375 0.007984011 0.013628133 0.017573826 0.04255277 -0.044795256 -0.008154072 -0.063108526 0.035245605 0.030034048 0.035709187 0.058314335 -0.0067687994 -0.053824365 -0.042675428 0.018237405 0.01264034 -0.028740201 -0.020832716 0.10170665 -0.0049058255 -0.10195677 -0.024682594 -0.055631097 -0.038030304 -0.03696176 0.04203649 0.0135839125 -0.050490063 0.034996696 -0.089312814 -0.049518555 -0.045827597 0.020556875 -0.02262174 0.09067097 -0.008411998 0.0714903 -0.015953101 8.134755E-4 0.12801883 -5.761911E-4 0.013729628 0.03688472 0.01827441 -0.07521106 0.009808466 -0.031869456 0.036046267 -0.025808712 -0.056189578 0.034234967 0.05485634 0.09429839 -0.020761203 0.034616064 0.05900304 -0.04268066 -0.013177747 0.02430898 0.005436618 -0.020471731 0.0043536266 -9.175887E-5 0.017445887 0.04594576 0.038065176 -0.022406623 0.020717373 0.04267056 0.012108017 0.010763839 0.048833024 -0.033572957 0.013735745 0.03747265 0.022632737 -0.0088300165 0.039882388 -0.0103513505 0.0214772 -0.05195424 -0.022555772 0.09595068 -0.08986479 0.022073675 0.06942634 -0.060396157 0.0052031516 0.013190417 -0.039776888 0.066736266 0.06811326 -0.050215915 -0.065390736 -0.097129196 0.0011067105 -0.034124713 -0.032739803 -0.0467664 0.04044255 -0.0691654 0.03827209 -0.10980609 -0.046486344 -0.0015474006 -0.014228487 -0.029552465 0.039254367 -0.0033327565 -0.0076279207 -0.055016853 0.029314417 -0.003316418 0.037903722 0.015136457 0.0057325526 -0.041250348 0.055350102 -0.024580967 0.053517204 0.017484197 -0.0023257472 0.02652644 0.0061215935 -0.045052364 0.00805812 -0.04160443 -0.028039355 0.06800789 0.0783966 -0.074622214 -0.009142198 -0.019094829 -0.030543102 -0.027078247 -0.069158226 -5.960576E-4 -0.04677409 0.033149607 -0.0047977716 -0.025341637 0.0054580825 0.077958725 -0.016139163 -0.01977196 0.0036447155 0.013402469 -0.056420624 0.03716241 0.020301195 0.037243303 -0.05169951 -0.06749122 -0.018534057 0.0072270175 -0.012560345 0.014823131 -0.07812284 0.02455472 -0.016321322 -0.047859456 -0.008835855 0.024696907 -0.034166675 -0.048614196 -0.007868558 -0.11577968 0.002888286 -0.05507239 0.015446238 -0.00600753 -0.068315536 0.034383398 0.0043902225 0.033530585 -0.0050916295 0.036273003 0.11208646 0.05393819 -0.042666018 -0.042378884 -0.035717305 0.018210175 0.03707044 0.024622975 0.007049171 0.027108178 0.03227891 0.016251214
employer -0.0107707 -0.061050065 -0.029957777 0.031685755 0.04209841 -0.002661679 0.052446276 0.017619243 0.032531217 0.06447117 0.01833926 0.005000559 -0.010150262 -0.061379816 -0.03372495 0.061333053 0.010391442 0.04728105 0.03889311 -0.019819845 -0.017686008 -0.01867972 0.03622306 -0.0073151914 0.051103678 0.007895418 -0.11513882 0.033976585 -0.0076590474 0.007873373 -0.01052258 -0.07993476 -0.039626207 0.031769343 -0.027812783 0.017777855 0.09322429 0.037694674 -0.023031276 0.007306602 -0.02020869 -0.031442203 0.028847266 -0.040012054 -0.06690548 -0.0646368 -0.035415545 -0.0015584994 -0.018421412 0.03659537 -0.022581737 -0.06319599 -0.0087651275 0.041720178 0.03574116 -0.057474703 0.01256763 0.0030131857 -0.012170948 -0.035112422 -0.0072672656 0.06275709 -0.14099115 0.014362465 -0.019907152 0.040720403 0.0092212055 -0.053603344 0.050993502 -0.0034646932 -0.09696343 0.0030500959 0.044072926 -0.013563018 -0.043866094 0.029777747 0.019299066 -0.0022003339 -0.0055404184 -0.018520486 0.032577027 0.023799967 0.02271375 0.03171277 0.0055705286 0.0023452844 -0.054075025 0.07449449 -6.9084147E-4 -0.038071632 -0.014133317 -0.018473258 -0.11214711 0.029943582 0.059428047 -0.04094065 0.026525632 0.06022538 0.10148468 -0.036733378 -0.05880953 -0.10645324 -0.014702363 0.03906302 0.018737778 -0.14610343 0.00398561 0.0059251394 0.0071108285 -0.041779645 -0.0014526385 -0.07151065 -0.020316925 -0.06920816 0.009625896 0.0077731004 0.058178514 -0.031031288 0.07017722 0.076607525 -0.0074467314 0.04091372 -0.081811115 0.027401512 0.08414095 -0.024140833 0.020104483 -0.057398435 0.009108059 -0.0057212114 -0.0794525 -0.11521952 -0.07162377 -0.021010702 -0.043458775 -0.07136335 -0.12245841 -5.58801E-4 -0.010723519 0.0030892678 0.034836 0.01396463 -0.017609023 0.02714141 -0.05424939 -0.032214418 -0.044184756 0.057272464 0.01462136 0.10140021 0.06765263 0.045535874 0.01547502 0.0662955 -0.0046238173 0.021578953 -0.014152041 -0.06433093 -0.025025647 0.042673454 -0.03161075 0.042211205 -0.006815422 0.02348198 -0.014439741 -0.04423898 -0.02508471 -0.060213834 0.0094132945 0.07078207 0.06307279 0.020622134 -0.03140142 -0.055219993 -0.04263602 0.032816216 0.07474624 0.011973238 0.016010322 -0.04119155 -0.057832655 -0.019975135 0.0017701065 -0.07682438 -0.046401925 0.006189214 -0.009461114 0.06939532 0.011962028 -0.017416071 -0.049235582 0.020620491 0.015107634 0.060143463 -0.049077332 2.7889758E-4 -4.6020746E-4 0.03465492 0.02183792 -0.021060336 -0.034087967 0.06007261 0.016084349 -0.010920382 -0.046763387 -0.020299483 -0.06678497 -0.01391121 0.017536707 -0.041626465 0.058134735 -0.025544424 -0.06744984 0.0075432262 0.05662137 0.06319433 0.012434142 0.035993554 -0.084280595 0.030216713 0.040982388 -0.04125203 0.024165653 -0.048645403 0.027381187 -0.02485232 0.02511549 0.0058622225 -0.040224735 -0.048862718 0.024955004 -0.0053268643 -0.027274732 -0.027128747 -0.009527592 -0.06905236 0.049015917 -0.064523526 -0.054574095 -0.030297741 -0.0039414866 -8.2457066E-4 -0.0010413665 -0.08540466 0.03459538 -0.007902629 -0.06516025 -0.041435443 -0.0094886115 -0.11850941 -0.060884528 -0.014660262 -0.031405427 -0.041002855 -0.012846297 -0.007058108 0.00669914 0.089980476 -0.03491263 0.10015883 0.050145324 -0.014712138 -0.039588243 0.029986372 -0.028352723 0.048198543 -0.017493986 0.025852567 -0.07439083 0.025912162 -0.019539759 -0.007895717 0.03395188 0.033903465 -0.08966479 -0.040704634 0.0020132805 -0.047655176 0.058380894 -0.02613268 -0.029127922 -0.051032078 -0.028762167 0.09338864 -0.04199065 0.017420823 0.028634142 -0.030830702 0.06539076 0.02638251 -0.021213468 0.039925747 -0.08420577 0.001708629 -0.015791532 0.0499005 0.038781043 0.021598749 -0.050432157 -0.046053074
formerBandMember 0.048695117 0.011981143 0.015907817 -0.0010991237 -0.0010320034 0.020721167 -0.03492544 -0.03988843 0.01635589 -0.015839033 0.026522333 -0.02328763 -0.0037433624 0.03523707 -0.054249033 -0.0058911233 0.04079787 0.0054227803 0.011603509 -0.005791472 -0.024879958 0.052711513 -0.026034568 -1.1295081E-4 0.0074874223 -0.0032834231 -0.049096737 0.058356456 4.0456082E-4 0.0062459023 0.029935908 0.001902278 -0.03443795 0.04836614 0.010373898 -0.012465593 0.058140017 0.009073036 0.021391623 0.008120964 0.008822004 -0.04052484 0.04034451 -0.013668728 0.027905414 -0.025912745 -0.013187367 -0.004817634 0.024934962 0.0011031505 -0.01185255 -0.0089877015 0.004812108 0.013816403 -0.004589959 0.05148937 -0.01454015 -0.0184222 -0.0052857995 -0.0029782825 0.016669778 0.036347445 -0.007139796 -0.0011926881 -0.0032110384 -0.03784262 0.024747109 0.01262699 -0.011635494 0.05578873 0.022057764 -0.0045520538 0.0024043196 0.027727867 -0.07547211 0.043466225 -8.39824E-4 0.012508722 0.020101419 0.0032799772 0.001720383 -0.045030728 -4.06753E-4 -0.024414564 -0.008773311 -0.032303773 -0.023475079 0.028825982 -0.02107427 -0.0040186523 -0.028389527 -0.04187295 -0.01767534 0.008723704 -0.01244038 0.007829044 0.012035714 0.022336213 -0.041690122 -0.048292626 -0.014211965 0.0063641192 -0.005210223 -0.011212857 -0.03299086 -0.004282386 0.038235962 0.017600035 0.013490767 -0.015942702 -0.015557422 0.021514727 0.012993115 -0.015825411 0.011126344 0.032115452 0.009951082 -0.008409537 0.088668995 0.027109303 0.0013376806 -0.031256188 -0.04016396 -0.034966163 0.019041898 0.011931054 -0.034744035 -0.031164182 0.003935543 0.018881986 -0.003927083 -0.049748 0.005878089 0.03506897 -0.015136264 0.021070547 -0.013086862 0.014392795 -0.019995416 0.054252926 0.015179462 0.037802547 -0.027071623 0.010379436 0.023718938 0.008061103 -0.0061909626 0.023107624 -0.0038440442 0.024522483 0.05807264 0.015027789 0.014339175 0.06315509 6.4800336E-4 -0.021018043 -0.020412207 -0.012829187 0.03801457 -0.05254245 -0.008615273 0.024210747 0.04399524 0.028878018 0.018989598 -0.016161855 0.028130963 -0.029150216 -0.018342663 -8.333406E-4 -0.0049459725 -0.024432076 0.0132530155 -0.05107456 0.008048167 -0.033132885 0.0047872183 -0.028003851 0.05327516 0.019075222 0.005720062 -0.008302068 0.0022682142 0.019665558 0.018859878 -0.0025159079 0.00804255 -0.0045646615 0.045884818 0.026222805 -0.0019261615 0.006443482 -0.002471516 0.036427766 0.0151115535 0.019470671 0.0010250628 0.010503395 -0.0025432934 0.008283595 0.028072147 0.0150047075 0.0088217 -0.004730449 0.04309669 -0.026796622 0.010677129 0.022208117 -0.03208178 -0.023013348 -0.043155182 -0.0066256854 0.052897427 0.022211438 0.0019845662 -0.054818496 -0.021972798 -0.012880287 -0.057466406 -0.012281659 0.0073231296 0.011558907 0.03326577 0.010271941 0.054743297 -0.0049065575 -0.007758487 0.017241502 0.026329113 0.033682425 -0.015082997 -0.039490033 -0.029820982 -0.0033244197 0.023134578 0.005118233 0.012259129 -0.06351776 -0.037645508 0.01603747 0.026036615 -0.04911146 0.019082153 -0.047515944 -0.007495246 0.015546776 0.031935014 0.014529795 0.03671349 0.0026477908 0.011225331 0.01298534 -0.0041059256 0.03042181 -0.014968124 0.016048346 0.05610574 0.036140192 -0.026100522 -0.013509293 0.042381167 0.019219412 0.016765991 0.013012427 0.011016472 0.031008286 -0.080328874 0.0043817773 -0.0047215316 0.012201823 0.027807884 -0.04639493 0.02222815 0.024236763 0.016101636 -0.023588145 -0.019019634 0.0030578878 -0.01105596 -0.059880164 -0.017662147 0.0035237418 -0.030119272 0.014989817 0.01739152 -0.041734215 -0.038538694 0.008534497 0.034799166 0.031882297 0.007155082 -0.010623623 -0.03056781 -0.029701209 -0.027415816 -0.03407361 0.0037067356 -0.0053360015 0.0268748 0.02574916
formerTeam 0.015130803 0.054043874 0.039140563 -0.022511154 0.033654146 -0.0049377205 -0.027770888 -0.03110947 0.010975143 0.012058003 0.023127636 -0.013896225 3.3896448E-4 0.028071215 -0.07560902 0.019313423 0.04255886 0.010422651 0.043314897 0.009566279 -0.025635129 0.04605643 -0.03229346 -0.01838152 0.017334618 -0.018407263 -0.06774458 0.08823542 0.021287184 0.02377337 0.040177323 -0.01701811 -0.0059555117 0.036201216 0.02026236 0.007893393 0.038830232 -0.0074097244 0.03218913 0.016491424 0.048124515 -0.051821005 0.048595496 0.012912307 0.01530022 -0.03432872 -6.556646E-4 -0.0059991903 0.023622528 0.013812171 0.0064825225 0.014951906 -0.016952194 0.008947324 -0.022455793 0.037491716 0.013302955 -0.01942084 -0.00807419 0.009961675 -0.01249907 0.028284853 -0.010533227 -0.017253762 -0.010008414 -0.035270505 0.021364605 0.0049722046 0.011249499 0.05503407 0.015822394 0.013246123 0.0148290275 0.0092446 -0.036995247 0.030523187 -0.0042343214 0.028999796 0.03707788 0.0068933326 0.03424233 -0.025605902 0.0015020724 -0.01386001 0.007668664 -0.06018275 -0.013532808 0.021734621 0.004550285 0.012433877 -0.0064577647 -0.026561528 -0.014865257 -0.018899912 0.006777368 -0.0073595676 -8.269294E-4 0.016200284 -0.03905735 -0.032057833 -0.013188786 0.0040123058 -0.0056605893 0.00339536 -0.00671517 -0.0067477664 0.033160787 0.007689744 0.01719406 -0.0032378114 0.007721465 0.02251054 -0.011252314 -0.004131901 0.04133708 0.01428822 0.009041365 -0.01293645 0.07358246 0.018201951 -0.04949389 -0.021721652 -0.036557008 -0.00927007 0.0060907616 0.02278455 -0.0113736205 -0.024086084 -0.009171221 0.039073683 0.008298805 -0.06233924 -0.039907508 0.01405146 -0.021658536 -0.009942491 -0.0033991737 0.056635283 -0.054907676 0.0493294 -0.002445018 0.018494131 0.015273377 0.0019819122 0.04492908 0.0063309055 -0.0121675385 0.017617496 0.014603387 -0.0034425221 0.05558411 0.022407977 -0.016649388 0.042778146 0.004968996 -0.0076048337 -0.0056141536 -0.026470691 0.057269394 -0.027656034 0.03763414 0.028982414 0.06373191 -0.025247786 0.019284012 -0.03136555 0.013716349 -0.030919109 3.6710873E-4 0.00815798 -0.040388145 -0.01315809 0.005251332 -0.06945789 0.036431324 -0.015233401 0.024390295 -0.017736737 0.059606604 0.016053533 0.0054615415 -0.04003056 -0.021247623 0.04251218 0.0031901263 -0.014644837 0.022897726 0.0062282 0.03902533 0.028074954 0.0029789205 0.0142448805 0.001004128 0.033586476 0.005151322 0.007886329 0.014544485 0.008919801 -0.028120268 0.021746974 0.021653973 0.0053234706 -0.005868366 0.008708077 0.02548868 -0.028876988 0.014773208 0.02299792 -0.005668074 -0.039213203 -0.062846944 -0.022961034 0.023832005 0.044439472 -0.010258454 -0.03618729 -0.03252442 0.0034188493 -0.070923425 -0.0058549615 -0.014152135 0.0096437745 0.018181842 0.0083564175 0.04802721 -0.032456078 0.0141075505 0.031260192 0.03599757 0.021871394 0.014812596 -0.024748992 -0.008912585 -0.00266566 2.2865832E-5 0.010020449 0.010664383 -0.049444817 -0.019497689 6.975522E-4 0.009330552 -0.018892158 0.028916419 -0.031260967 -0.008891868 0.03147634 0.024648022 -0.020593805 0.0148876 0.004847334 0.009060465 -0.016398735 0.016318584 0.03013169 -0.02866531 0.022517882 0.043732665 0.025546845 -0.037783675 -0.022007544 0.059819262 0.014920814 0.0063406914 0.04551269 0.031655535 0.04839505 -0.05803777 0.0017510119 -0.002835673 0.034724846 0.033162765 -0.021598754 -0.008325014 -0.014374232 0.012284706 -0.023131985 -0.0063228696 -0.02174567 -0.020393757 -0.052949697 -0.015953822 -0.013993065 -0.0025442257 0.005401369 -0.016848743 -0.037565958 -0.046102315 0.013400963 0.024711777 0.013665989 -0.018258266 -0.0044069095 -0.033318542 -0.038161147 -0.037851997 -0.03832892 0.0026745102 -0.0209377 0.0028691876 0.024311662
foundationPlace -0.022167865 0.011685434 0.0077202828 0.019884136 -0.02892114 -0.04493195 0.025335003 -0.060562655 0.056060284 0.02487868 -0.008562821 -0.022422459 0.010736633 -0.002778127 -0.0247643 0.015735155 1.6669012E-4 -0.01014461 0.006482275 -2.1424291E-4 -0.010603556 0.011914437 0.012371836 0.026207542 0.0019100968 -0.021394411 -0.021391232 0.023123784 -0.020476209 -0.04304317 0.011332344 -0.059202068 -0.007665605 0.021244047 0.030601688 0.027453566 -0.0033436846 -0.012357336 0.029724075 -0.02465394 0.02149406 -0.02570963 0.028366353 0.016013134 -0.0021996535 -0.07677599 -0.008059004 -0.0030175925 -0.011278266 0.027816072 0.044851914 -0.02847148 -0.020954506 -0.01391602 0.01808061 0.0383987 -0.048768062 -0.030486785 -0.009830003 -0.057151977 -0.026478454 -5.460892E-4 -0.020861715 -0.017574543 -0.0055003427 0.003945572 -0.030690335 0.008037059 0.011118637 0.009817581 0.0034327526 -0.027616039 0.035974964 -0.006729697 -0.015049765 -0.051047668 0.02199525 -0.0064872447 0.012909642 0.0071976823 0.014528924 -0.04616278 0.031977963 -0.0058900714 0.014131991 -0.042086985 -0.02076252 0.031477004 0.008905147 3.930094E-4 0.023335472 -0.053327795 0.005200248 -0.051249072 0.033264413 -0.009386767 -0.0065058046 -0.01580822 0.007225535 -0.028199956 0.0043063415 -0.011376076 -0.022836823 0.057094995 -0.02475277 -0.04569103 -0.0421394 0.007444445 -0.017682297 0.010815513 -0.02114086 0.020788956 -0.014377261 -0.0010218929 0.051380403 0.015133612 -0.0138632525 0.022364166 0.03723276 0.03297355 0.008682338 -0.03534281 0.011148758 0.05224614 -0.025055997 -0.02131857 -0.0053094043 0.029430384 0.0050653517 0.0578719 0.011600802 -0.038914178 -0.011209234 -0.018109603 6.41783E-4 -0.007820522 -0.00840071 -0.024542823 0.0050670067 0.032396108 -0.021757076 -0.0064517995 0.0070728012 0.03987781 -0.021039093 0.0040604067 -0.01996456 -0.002222582 -0.006425415 0.031304955 0.019161668 0.007982319 -0.025208153 0.02964202 0.026758894 -8.064755E-4 -0.047035567 0.019111626 0.009547839 0.0034950683 0.01599532 -0.014144403 5.0621165E-4 -0.0026233706 -0.019910386 0.015899593 0.019339481 -0.04463304 -0.04113664 0.0037274952 0.013528917 -0.0038125718 0.03664592 -0.041116368 0.056819636 -0.029742414 -7.231941E-4 -0.05749304 0.026981417 0.022076208 -0.03395513 -0.03823304 0.038829695 -0.01113458 -0.0068255262 -3.9205185E-4 0.011221015 0.028243875 0.074610814 0.044763185 -0.020253476 -0.02389117 -7.273446E-4 -0.010711758 -0.0812273 -0.016056096 -0.023876524 0.027453337 0.026892485 -0.05380242 -0.018683305 0.065388516 0.008967078 -0.035080295 0.0043561887 -0.014788233 0.015808031 -0.0061308984 0.017274642 -0.0324696 -0.0012361689 0.029080909 -0.04132147 0.018678207 -0.008526884 -0.0022550367 0.010129186 -0.004529195 0.024866022 0.017550655 8.779019E-5 0.020700509 0.0100891525 0.02807257 0.03093331 -0.0048118057 0.016842717 0.025526755 0.02406097 0.04165739 -0.039417323 -0.028907966 -0.011406912 0.0055056512 -0.002352164 -0.015658086 -0.0045105205 -0.013108506 0.030355418 -0.01183433 -0.009376963 -0.01908879 -0.022974048 -0.004363089 0.0032627531 -0.029991405 -0.005880688 0.025065515 -0.024629472 -0.016638177 0.006334551 0.015092178 -0.027763698 -0.0032904057 -0.021769231 -3.7654736E-5 -0.005544312 0.0047705807 -0.061483465 -0.04014131 0.023709117 -0.010471915 -0.005516078 0.01793289 0.011292477 0.052066572 0.031641923 -0.05672777 -0.06928166 -0.020368127 -0.024097988 -0.021496778 0.027188042 0.029370012 -0.0024789486 -0.0123022925 -0.009002901 0.014271574 -0.025375066 -6.9128437E-4 -0.009900007 0.002422896 0.0059080035 0.066928506 -0.01739708 0.0023119806 -0.015185986 -0.006043471 0.024302576 -0.0024859037 -0.046874877 0.016415674 -0.048089102 0.018655518 -0.007244 0.018208208 0.0070910067 0.022450233 -0.008655052 0.0023353542
headquarter 0.008334362 0.014970982 0.079022095 0.005479071 0.030250646 -0.07408322 -0.07686134 -0.08396097 0.023922704 0.05247561 -0.05154957 0.007871342 -0.072539814 -0.005517656 -0.073465854 -0.031639706 -0.04691937 -9.260402E-4 -0.08334362 0.061427332 0.005363316 -0.030250646 0.045067288 0.026855165 -0.045684647 -0.05741449 0.074391894 0.013273243 0.012192862 -0.12717618 0.05895789 -0.073465854 -0.05648845 0.07099641 -0.028398566 -0.082726255 0.04444993 -0.011035312 0.034263488 -0.082726255 -9.10365E-5 -0.010340782 -0.039511047 0.06204469 -0.0075240764 -0.05741449 -0.065748855 -0.011961352 -0.035498206 0.07840473 0.043832567 -0.033800468 0.15742683 -0.013041733 -0.13273242 -0.10495122 -0.09383874 -0.040128406 0.031022346 -0.10556858 -0.023768364 -0.06698357 -0.017749103 -0.13705395 -0.012424372 -0.08889986 -0.0039549633 0.13273242 0.020527223 0.009954932 -0.017286083 -0.006135016 0.012655882 -0.0068681315 -0.04877145 0.028398566 0.020990243 -0.06821829 0.029170265 -0.10495122 0.10742066 -0.018983824 -0.06790961 -0.003221848 -0.05926657 -0.093221374 0.08581305 -0.04722805 0.015511173 0.004591616 0.042289168 -0.04722805 -0.014044942 -0.031639706 0.0038970858 0.042289168 0.040128406 -0.030559326 0.035035186 0.06204469 -0.056797132 -0.034263488 0.05093221 0.16668724 0.069453016 -0.027472526 -0.05432769 -0.029324606 0.0022282843 -0.035035186 -0.04074577 -0.10742066 -0.0851957 -0.1006297 0.037813306 0.05185825 0.091986656 0.008064266 0.019215334 -0.039511047 0.021144584 -0.11112482 -0.1703914 0.078096054 0.021761945 0.09075194 -0.06544017 -0.005054636 0.10618594 -0.012578713 -0.031639706 -0.011343992 0.09075194 -0.05587109 -0.04722805 -0.078096054 0.024077045 -0.039511047 -0.06266205 -0.033954807 -0.0095690815 -0.013581922 -0.007485491 -0.016514383 -0.015665513 0.04630201 -0.030096306 0.04167181 -0.013041733 -0.017131744 0.029633285 0.122854665 0.008488702 0.005479071 -8.6816266E-4 -0.08025681 0.032874428 0.023151005 -0.038739346 -0.043215208 0.011189652 -8.778089E-4 -0.07500926 -0.043215208 -0.021916283 -0.0010562646 0.035498206 -0.023459684 0.012578713 0.041980486 0.033337448 -0.019138163 0.10124706 -0.04167181 0.04815409 -0.113594264 0.06513149 -0.026392145 0.022224965 -0.1518706 -0.04784541 0.005517656 -0.06914433 -0.021453263 -0.004128596 0.058649212 0.028089885 0.05340165 0.061427332 0.025620446 -0.05062353 0.04167181 -0.10124706 0.082726255 -0.024848744 0.014585133 -0.027318185 0.072539814 0.10433386 -0.076243974 0.0027395354 0.124706745 0.021298924 -0.029941965 0.07007037 -0.05154957 0.09939498 0.015356833 0.124706745 -0.030404985 0.04537597 -0.04908013 -0.10865538 0.0018134953 0.029324606 0.04877145 -0.05185825 -0.019909864 -0.05401901 0.042289168 0.04630201 -0.0026623656 -0.05000617 0.0036269906 -0.05432769 -0.018520804 -0.17533027 0.028244225 0.023922704 0.018443633 -0.016900234 -0.05710581 -0.07562661 0.014816643 0.047536727 -0.06790961 -0.07192245 -0.014970982 -0.013350412 0.04691937 0.022379303 -0.034417827 -0.003106093 0.05000617 -0.023305343 -0.0074083214 -0.09136929 0.028707245 -0.008797382 -0.007948511 0.005208976 0.064822815 0.05525373 -0.076243974 -0.005980676 -0.063896775 -0.08210889 0.063896775 -0.023614025 0.009376157 0.0023536854 -0.06513149 0.045993328 0.011112482 0.12038522 0.069453016 0.05463637 -0.032102726 -0.016900234 0.06636621 -0.0011286115 0.004977466 -0.015974194 -0.11791578 -0.010417952 -0.06698357 -0.022533644 0.07161377 -0.033646125 0.010880972 -0.032257065 0.044758607 -0.065748855 0.041363128 -0.04444993 0.07686134 -0.029170265 -0.04877145 -0.009877762 -0.06513149 -0.115446344 0.023151005 -0.016823063 0.04444993 -0.036887266 -0.021144584 0.012501542 0.079022095 -0.028398566 0.008488702
hometown 0.021885166 0.02609784 0.009927599 -0.028893268 0.00890821 0.015864631 0.039933965 -0.035436105 0.041645095 0.033871993 0.055644702 -0.056570474 -0.047328632 0.04131172 -0.018685425 -0.009599166 -0.005206832 0.033442855 -0.019410891 0.044743013 0.0073148315 -0.05549573 -0.009391698 -0.048612002 -0.018218283 -0.06164332 -0.032131217 0.06686102 -0.012824284 -0.019239882 0.036271058 -0.023167836 -0.022217827 0.05416607 -0.04173924 -0.03018846 0.029830342 -0.05394382 0.034626238 -0.0046047857 -0.008730823 0.026651282 0.041175593 0.046059713 -0.003514197 -0.015191722 0.0054751574 0.026055763 -0.02457819 0.003546153 0.0014014519 -0.002390991 0.064278014 -0.012750071 -0.028750613 -0.074814096 -0.043347582 0.02117243 -0.011879447 -0.054769397 0.029802341 0.013278118 -0.009330031 -0.03162547 -0.04920968 -9.955264E-4 -0.03911261 0.0400969 -0.039670385 0.007936003 0.05184143 -0.0048916577 0.031310797 -0.03213553 -0.03521981 -0.008105032 -0.01907756 -0.03030076 0.005570413 -0.01119309 0.0074025844 0.0028549035 -0.03527451 0.024640728 0.032877322 0.004057418 -0.022259597 0.032596786 0.0660789 0.028068567 5.057098E-4 -0.01596549 -0.044406936 -0.067506574 0.00169707 0.04166875 0.03293997 -0.050821044 9.944828E-4 -0.064936124 -0.019705487 0.0070168083 0.08448954 0.05414691 0.012904489 -0.05846922 0.021952081 0.022721896 0.0041525755 -0.024990749 -0.02789343 0.0052538463 0.02773031 -0.02758751 0.018282719 -0.0010451355 0.022509865 0.0073902817 -0.02931025 -0.0037813955 -0.021592911 -0.033408146 -0.047572903 0.019295458 -0.016353425 0.019505646 -0.020692937 -0.056758426 -0.038478017 -0.013615605 -0.020105539 -0.030667434 0.007243457 0.022023614 -0.038665526 -0.020500872 -0.039847743 -0.014858927 0.044032026 0.022562688 -0.063423775 0.015253048 0.016587438 -0.005161598 0.027464734 -1.1686423E-4 -0.04545974 0.0543004 -0.052638184 0.027831497 0.037305355 -0.0233904 0.0420997 0.011175907 -0.049149077 -0.0557864 0.03205977 0.0146823265 0.05500226 -0.046212174 -0.034020983 0.049303483 0.05915207 -0.025360566 0.012695544 -0.015523057 0.040985305 -8.866324E-4 -0.020453462 0.021057928 -0.04578685 -0.042412214 0.011885311 -0.011405449 -0.011915476 0.041249525 0.046418153 -0.005552745 -0.018030893 0.029745154 -0.074952155 -0.03091821 0.02987603 -0.026947763 0.029230082 -0.05457042 0.0014937499 0.03546084 0.08071697 0.017237555 0.007668452 -0.020789837 0.0034085358 0.06769672 -0.024823101 0.038296975 -0.022278843 0.058054708 0.007020158 0.0076178266 -0.0074783266 0.024446985 -0.01650603 -0.07590908 0.031628598 -0.003926096 0.02169912 0.027180796 0.07985042 -0.057395898 -0.02841673 0.014135731 -0.042762283 -0.02813249 -0.034556948 0.08741362 -0.044458758 0.029654752 -0.08816396 -0.0020271507 0.017921656 0.038543597 -0.018058097 -0.036093913 -0.0013005435 -0.0038030196 0.023408767 0.075660504 -0.029681535 0.030419463 -0.002244614 -0.030891135 -0.033597365 -0.016329389 0.036841955 0.011535811 0.0040777014 -0.07087344 -0.04140816 0.008236796 0.049666073 -0.060177907 0.017873075 -0.02933699 1.9678687E-4 0.054070193 0.038912825 0.029519811 0.007690317 -0.009657648 0.006860676 0.043926258 0.07235594 0.06848982 -0.04381596 0.002650288 -0.026859706 0.034819283 -0.0256193 0.0063027604 -0.0048641264 -0.04884512 0.010307207 0.03295172 0.06279428 0.06628238 0.008722259 -0.031320505 -0.05396787 -0.029415851 0.012711999 -0.008689961 0.052333932 -0.010921117 0.008708837 -0.020170715 -0.016664501 -0.017976966 0.0115487985 -0.03390334 0.022038456 -0.048809838 0.012966636 0.020553002 0.010869237 -0.008658251 -0.023265023 -0.011342222 -0.060065612 0.028800013 -0.08456583 0.019478554 -0.072222434 0.009374651 0.019399963 -0.013954119 -0.034411084 -0.044569213 0.03408317 -0.0076184915
leaderName -0.03188033 0.0072448505 0.021994106 -0.031784847 -0.05117908 -0.08271851 -0.012123866 -0.07265735 0.07502176 -0.0019214421 -0.028924048 -0.0041310797 -0.06592564 0.0037262663 0.0061702235 0.020246832 0.025628965 0.014190979 -0.01653708 -0.027717546 0.012178041 0.012269666 0.014681081 -7.9092634E-4 0.017164879 -0.017778162 -0.044162642 -0.005214016 -9.131171E-4 -0.06779729 0.005381788 0.050329104 -0.03610451 0.05055114 0.02117616 0.033033922 -0.030533275 -0.006465315 0.023530677 0.059027117 0.003506106 -0.06500303 0.0814095 0.043664366 -0.0012889083 -0.06031763 -0.03925219 -0.008717921 -0.037634782 0.0336752 -0.05137474 0.04062974 0.03309744 -0.06628942 -0.022321707 -0.011559136 -0.024892125 -0.039591197 0.0018908686 -0.0708598 -0.0108447885 0.032511614 -0.033528477 -0.048600357 -0.034760546 -0.019272456 -0.05921967 0.07390468 0.023897585 0.019099655 0.050817743 0.025475029 0.050492607 -0.01713143 -0.014011542 -0.09422269 -0.008293346 -0.06319246 0.037648626 0.0056961393 0.027393758 0.0044337325 0.020810954 -0.032701127 -0.023623064 -0.052202918 0.027801631 -0.020852536 -0.050816696 0.04765874 0.061317366 -0.023368 0.048284184 -0.08617404 0.034247853 -0.05263637 -0.004041902 -0.08093639 0.008211555 -0.02849947 -0.006382646 -0.013075619 -0.018351763 0.040225398 -0.059347942 -0.09247812 -0.011657491 -0.047909833 -0.02104617 0.024596281 -0.004212807 0.016035862 -0.028490208 -0.01629234 0.003130976 -0.0154902 -0.004974598 -0.009637177 0.03957654 0.015104359 -0.024062421 -0.040423416 4.9249723E-4 -0.008072118 -0.044706367 -0.055778384 0.005004418 -0.070837066 -0.023496531 0.018751651 -0.015843123 -0.04629174 0.04513369 0.022866145 0.025221713 -0.0022217198 0.042745363 0.024467569 0.018965287 -0.037235014 -0.034765806 0.056024447 0.033515256 0.02699696 -0.020915288 -0.0020408693 -0.045268696 -0.025306828 0.010811488 0.04535725 0.063236326 0.0666197 -0.018694997 0.020187711 -0.0010669976 -0.0391609 -0.015340302 -0.0040606144 -0.026830351 0.019489288 -0.02161153 0.022362709 0.0053507807 -0.035345033 -0.023254372 0.04606431 0.011812195 0.0015276242 0.0032651662 0.024411775 5.857423E-4 -0.022488713 -0.034128435 -0.0685929 0.053676035 -0.026965534 -0.0109078195 -0.03582461 -0.022722963 0.01583397 -0.05757044 -0.02564998 0.047483873 -0.070126176 -0.019351995 -0.016959459 0.022863999 0.037582867 0.016304225 0.048545834 0.023620872 0.071319245 0.019730743 0.024675248 -0.056687072 -0.030453568 -0.035610754 0.04017363 0.010000641 -0.09049708 -0.055094413 0.047575183 0.038495596 -0.029739177 -0.053659122 -0.05163002 0.041404158 -0.03639438 0.008091397 -0.10377224 -0.006478966 -0.0021958025 0.02802078 -8.388578E-4 -0.056048386 0.037361383 0.035270013 0.005351655 -0.007360977 0.020557914 0.019960668 0.005179735 0.03000398 -0.0065761358 0.0075666234 7.4601424E-4 0.06175273 0.00487186 0.054276794 0.060013127 0.00536371 -0.015278785 -0.010910744 0.029938601 0.0656353 0.0014574795 -0.0013193414 -0.011090374 0.050424334 0.013264893 -0.027060281 -0.07250103 0.014067143 0.020855214 0.050963428 -0.083267644 -0.0066887904 -0.007329474 0.0024449201 -0.053192478 -0.025296314 0.014532297 -0.056891523 0.042965528 0.0029052976 0.004363892 2.2081286E-4 0.0127964895 0.007924912 -0.07007501 0.024774373 -0.031028047 0.059336644 0.01542899 0.070706956 0.021394331 0.043070357 0.021212723 -0.080061376 0.016173791 -0.009104359 0.054713994 0.027265254 0.003441298 -0.04702293 -0.0062797796 -0.06534459 -0.07120429 -0.02382948 0.019137539 0.056321885 -0.028968725 0.030939922 0.0632774 -0.012678306 0.01869025 -0.034921505 0.0034925826 0.006190288 0.011699031 -0.04060654 0.039169006 -0.03150675 -0.05830544 -0.07361567 -0.0026000373 0.026270619 0.038653832 0.022171639 0.016767245
locatedInArea -0.030358667 0.002709319 0.030555129 -0.018408298 -0.037827313 -0.030918619 -0.016518323 -0.074529625 0.027599124 -0.007983719 -0.00788846 -0.025849171 0.013028689 -0.048125863 -0.03159315 -0.013982166 -0.030512068 0.029082775 0.026695281 0.025104897 0.0069027254 -0.017038085 -0.032898203 -0.0016924919 -0.018686581 -0.06434549 -0.08419843 0.0113000255 -0.045072444 -0.06612755 0.0076625547 -0.036669582 -7.5530674E-4 0.017134355 -0.005594235 -0.054233503 -0.030557252 -0.027025856 0.05187669 0.010325183 -0.011380664 0.05086397 -0.007996653 0.031264808 -0.0056031058 -0.039447602 -0.003964207 -0.01454702 -0.022915341 -0.00576218 0.00537229 -0.013588344 -0.01526721 -0.06817893 0.008119764 0.009623488 -0.0027838047 -0.0032378063 0.025698483 -0.018819895 -0.045382686 -0.044123158 0.0053705266 -0.059231486 -0.04472371 0.0032362365 -0.03556438 0.012952656 0.01539231 5.4573227E-4 0.004115243 0.007781302 0.054721396 -0.013276755 -0.021457637 -0.080672026 0.027808078 -0.018032366 0.013751783 0.0060966425 0.017464966 -0.012367998 0.021769248 -0.0066559548 0.0036041534 -0.016551785 0.011017124 -0.0024765923 0.011774231 0.029735088 0.0088957 -0.07469202 -0.01026526 -0.018553095 0.0036030817 0.01757435 -0.0059149424 0.016315466 0.032863673 -0.018935898 -0.009116997 0.01943872 0.015825603 -0.00871096 0.010433113 -0.037256096 -0.01999576 0.01913824 0.017303819 -0.04764296 -0.012035569 0.002278424 0.0029622847 -0.027274117 0.03209982 0.0032510469 0.032726865 0.0042852047 0.020155033 -0.023656705 -0.042571783 -0.029970799 -0.040292248 0.049455874 -0.056823175 -0.0129396515 -0.05400509 -0.028555185 0.0287514 -0.010988024 0.018988878 -0.02164272 0.02330447 0.02831941 -0.021719286 -0.03260516 0.02205869 -0.015031434 -0.022789296 0.00511725 -0.018412301 -0.021361463 0.0088899555 0.010738689 -0.0045986464 0.025984915 -0.016825374 0.0037641956 -0.06547525 -0.017426698 0.045417283 0.048992712 0.006738093 -0.01117217 -0.021125516 0.0040953252 -0.03036353 -0.0042234734 0.006748331 0.007989697 -0.023161236 0.03713622 0.021653347 -0.07221846 0.017655937 0.020629227 0.022940734 -0.053555112 -0.0050469805 0.014504913 -0.07935166 -0.016801953 0.031739984 -0.07039039 0.018324565 -0.026031753 0.025857538 -0.048941392 -0.030510541 -0.03890979 -0.048940897 -0.0079982625 -0.013427439 -0.010386219 -0.02941061 -0.030004885 0.017488826 0.043246802 0.03155883 0.039110787 0.00840629 -0.001753305 0.009552592 0.021266619 -0.0620867 0.03770104 -0.015225121 0.022252249 0.020120988 -0.026932195 0.004057727 0.010243972 -0.019907223 -0.069206454 -0.006895486 -0.026518622 0.0627038 0.0071827364 0.009532356 0.021020237 0.0027395757 -0.030419767 -0.049851272 0.04839823 -0.018631298 0.032605946 -0.013963403 -0.00248927 0.0017181757 0.045209754 0.0023521185 -0.0012755493 -0.028608825 -0.04182282 -0.018575935 0.016577652 0.011190454 0.006307901 -0.00911173 -0.038128667 0.035671808 -0.052938767 0.0018186151 0.0039737215 0.012649743 0.03541759 -0.0034219755 -0.009515845 0.05414193 -0.036720052 0.009671477 0.011669357 0.016370244 -0.055298157 0.028248085 -0.0017222749 -0.016826466 0.035769854 0.010998446 0.007148403 -0.006665365 -0.017832842 0.05230177 0.009115261 0.049484953 -0.042240657 -0.0033271404 0.012473656 -0.046411563 0.0011817797 -0.038175475 -0.041275013 0.03361945 0.06110451 0.095000304 0.05406718 0.0049853777 -7.5789005E-4 -0.048550367 -0.015036372 -0.04847004 -0.03918671 -0.010623041 -0.041340012 -0.006529865 -0.007150631 -0.020847797 -0.03915898 -0.0457626 0.020077737 -0.04668837 -0.014623582 0.06841482 0.06203719 0.023837784 -0.02303352 -0.021433929 -0.0064271605 -0.01345218 -0.010923733 -0.045980204 0.005988969 -0.06500713 0.005597937 0.043649808 -0.015110079 0.004268026 -0.009270454 0.00914704 -0.003924693
nationality -0.016778527 0.002183739 0.09136456 0.030382788 -0.044446036 -0.024711056 0.034611624 -0.05017541 0.02882929 -7.731654E-5 0.034913182 -0.05235976 0.07516901 -0.024985075 -0.019965284 0.093274996 -0.045426928 0.12428424 -0.057243004 -0.08261183 -0.030776711 -0.032853715 0.002329206 -0.025102127 0.008861984 -0.035178814 -0.08067285 -0.016394455 0.055942185 0.007994791 0.039946333 -0.0439875 0.027870767 0.026967706 0.01151121 0.026153019 0.020240081 -0.08074034 0.0011082478 0.05304071 -0.020876514 -0.014345533 0.04691416 0.060093652 0.07178863 0.009760365 -0.020247007 0.09243569 -0.028449645 -0.016317401 0.017925952 0.0050366493 0.054067645 -0.004825877 -0.0020923056 -0.0026656846 -0.062128432 0.04814633 -0.082414374 -0.028257843 0.08798076 -0.008241385 0.03360427 -0.031643827 0.008959207 -0.003111546 -0.0047464054 -0.0030121484 -0.0012928927 -0.021645792 -0.06356591 0.04458706 -0.0045528165 0.019411698 -0.043430325 -0.057274964 0.019977534 0.053142644 0.027371679 0.049271625 -0.023475444 -0.04573994 0.014165175 0.06237657 -5.656122E-4 -0.04903391 -0.071128055 -0.01759059 -0.009351642 0.028886072 0.03795305 -0.040920112 -0.08260251 -0.06488989 0.023681473 -0.038166005 0.030988498 -0.066561446 0.06002907 -0.017371409 -0.029288188 0.1065982 0.008829005 0.029538058 -0.07127272 -0.05769947 0.0062809773 -0.058276415 0.055136874 -0.010862166 0.013987641 -0.043123078 -0.012258636 0.01790001 0.0076717064 0.0018389705 0.0013254713 -0.07385894 0.06079463 0.061876964 -0.07650486 0.027673189 -0.064561024 0.054417126 0.0064383447 -0.0049507557 -0.061049454 -0.046807494 -0.11557081 -0.037071887 0.03503193 -0.012833226 -0.06296578 -5.430975E-4 5.029186E-4 -0.06778022 -0.017628673 0.0015057698 0.05220803 0.042563707 -0.024831511 -0.025968228 0.0062170858 0.05008258 0.024118667 0.051372796 0.029275445 0.021193651 -0.04620485 0.0024302735 0.03374777 0.05159173 0.016099734 -0.035694316 0.048024163 -0.077151075 -0.03349416 -0.06893798 0.095421605 -0.05749062 -0.03186632 -0.01760035 0.11601377 -0.086435884 -0.022807222 -0.03596741 -0.048432898 -0.048692517 0.070509635 0.04223346 -0.029976638 0.0407356 0.02836978 -0.098000675 0.03186632 -0.044715483 0.066853106 -0.09180635 -0.012532607 -0.075929105 -0.050741386 -0.10855843 -0.07469039 -0.07045147 0.042370193 7.8419223E-4 0.007935932 -0.009841194 0.03737293 0.10559595 0.046038445 -0.023010593 -0.021140393 0.031949107 0.011120399 0.047991473 -0.019125376 0.08557969 -0.06816813 -0.03834394 -0.038736977 0.04106915 -0.002221899 0.011488358 -0.04130686 -0.011429345 0.003040675 0.011013114 -0.0027846806 -0.003337194 0.030172922 0.002979693 -0.029205188 0.048443444 -0.023073867 0.032409817 -0.051553793 0.060518913 -0.047416084 0.017798008 -0.04749619 -0.048003845 0.0153983645 -0.046148386 -0.021983856 -0.01721789 0.09129788 0.042412855 0.02828928 -0.018180829 -0.008263556 -0.025756003 -0.017918147 0.06241471 0.06670473 -0.01635312 0.022738125 -0.04583212 0.023161972 -0.04038684 -0.01757541 -0.051685866 -0.061273474 0.071465224 0.10171991 0.031232074 0.029368274 -0.045127388 -0.030653557 -0.037996955 0.055595547 -0.03567189 0.036872484 0.039627805 0.036758233 -0.05995226 0.015158209 0.066868976 0.051274948 -0.030096518 0.031661704 0.018139627 0.04921708 0.051424198 0.074165165 0.014877911 -0.033890817 0.012591652 -0.039821904 -0.04796763 0.023679318 -0.053812463 0.03197538 0.036062792 0.026704457 -0.004124714 -0.026543764 -0.047584273 -0.02349647 0.014832195 -0.030359272 -0.03482872 -0.011567723 0.038217846 0.023533236 -0.014930764 -0.0028021522 0.04945681 -0.012261631 0.012706013 -0.045123022 0.06023446 -0.05630398 -0.067318484 0.020681642 -0.009645631 -0.032081857 0.007815511 0.03776987 -0.017233334
parent -0.008663369 -0.07222357 0.0046659764 -0.014349699 0.018502941 0.01920961 0.024909738 -0.036426064 0.059233814 0.012812955 0.10851988 -0.07939993 -0.0168311 -0.043079786 -0.06931198 0.03683945 -0.04413409 0.03894989 -0.028330414 0.034581453 0.012626408 0.038396765 0.07543388 0.004400653 0.034993976 -0.06123012 -0.03319283 0.033965327 0.03139256 -0.05419722 0.07418652 -0.045609783 -0.08792319 0.0470018 -0.0065494636 0.07395105 0.10446932 0.0026412576 0.011009946 0.0068076453 0.0465112 -0.030915683 0.044406414 -0.062207878 0.062933505 -0.0015435182 -0.024052475 0.04851928 0.013276632 -0.032459263 -0.00996606 0.017391324 0.018695768 -0.003897082 0.05306357 -0.023861399 -0.11163232 0.034319427 -0.02764067 0.005350956 0.08581652 0.040511932 0.022598099 0.0025473468 0.021491265 0.008302698 0.0019094063 0.036484316 0.017413503 0.0041187834 0.059253626 -0.0011898478 -0.0695704 0.048038483 -0.03830256 0.12975764 0.038903248 -0.032972198 0.07851536 0.039959118 0.09832598 0.0031662672 -0.05255317 -0.008264471 -0.024667328 0.03171309 -9.0099906E-4 0.05770357 -0.025525782 -0.022396479 -0.03637746 -0.05493387 -0.060387515 -0.047471073 -0.0045368383 -0.02197942 0.05648799 0.005570039 0.022712892 0.012564067 -0.03159195 -0.06708858 0.044856217 -0.058727782 -0.03203259 -0.06745823 0.034059584 0.031289205 0.030425202 0.045119807 0.0044928566 -0.0038532864 0.015694212 -0.07549538 0.0040701022 -0.015864585 -0.040575735 -6.5159926E-4 0.04073418 0.013996504 0.0033051416 -0.0026674694 -0.018681955 0.021269288 -0.05236657 0.010799157 -0.020356571 0.0025470313 0.035338763 0.020455975 -0.031503897 -0.037621565 -0.041083273 -0.0019355351 0.015674587 0.0044320123 0.043907415 -0.0067907325 0.030876135 0.018753782 0.08336601 -0.029235428 -0.01749487 -8.512171E-4 0.0036902025 0.06912213 -0.06925177 0.05801947 -0.007734833 -0.024198115 0.13102129 0.032530602 -0.0077092983 0.04566267 -0.04282556 0.043843012 -0.016181171 -0.06030306 0.038129833 -0.0020679554 -0.017529488 0.02998275 0.08349182 0.102530114 0.0057763862 -0.029220864 0.049874168 0.0049187783 0.07006873 0.08347575 0.050900992 -0.036763873 0.033468556 -0.1014325 -0.0019307149 0.014359212 0.12528454 0.07880947 -0.0011626458 0.038872298 -0.0036561936 -0.028731912 0.026693806 0.009988548 0.028968941 0.04096359 0.011393135 0.045566585 -0.019825464 0.035850376 -0.058242895 0.01412338 -0.041707568 0.030769337 0.03921844 0.070537105 -0.031891983 -0.044645213 -0.003056581 0.010478104 -0.08315864 -0.016880793 -0.016253255 -0.046217307 0.05617866 -0.03254348 -0.003964916 -0.028210688 0.034781016 -0.102530584 0.010697598 -0.021924097 -6.049959E-4 -0.03245237 0.028862296 0.02317071 0.019255137 0.04536676 -0.04963594 -0.041916363 0.029713482 0.026347978 0.11176538 -0.024204478 -0.0061642374 -0.0921528 0.044840217 -0.050399736 -0.019237258 -0.036231153 -0.004568064 0.012939777 -0.051613033 -5.280326E-4 0.03147168 -0.014290161 -0.03278695 -0.08647009 -0.022138415 0.015836252 -0.04588709 -0.113626264 -0.06275423 -0.022511922 0.011287553 0.14267379 -0.033475753 0.015661985 0.02301177 -0.06370233 0.053276192 -0.013178682 0.061305624 -0.056473415 0.042456605 -0.03765271 -0.011936409 0.023109501 -0.079711586 0.048179068 0.057053015 -0.016201422 -0.0034331228 -0.04261681 0.016834162 0.08778222 -0.033148836 0.0099105 -0.06738057 0.051205844 0.008648353 0.00910509 0.027922533 0.05047632 0.009802621 -0.04505577 -0.02841368 0.022221401 0.020416126 -0.068458095 0.025694137 -0.06661702 0.003635298 0.05981105 -0.035789672 0.035589676 -0.05005785 0.08069765 -0.028104488 0.1410122 -0.07993388 0.0068775206 -0.0876237 -0.07086136 -0.016268637 0.015855648 -0.049982645 9.628137E-5 0.027183173 0.0030970061
president -0.001155775 -0.07717314 0.032949317 -0.06231935 -0.032320846 -0.07961302 0.060955275 -0.032068104 0.02102857 -0.041285995 -4.2055058E-4 0.01696415 -0.049889944 0.0027785716 0.021835588 0.10838917 0.060818475 -0.011068144 -0.055466734 -0.032095905 -0.04717896 0.048388567 -0.018781258 -0.003967485 0.049553428 -0.062408656 -0.029735833 -0.008680153 -0.08985324 -0.06704785 -0.07055937 0.004442336 -0.05026274 0.021581935 0.08477767 0.020445138 -0.031063918 0.10166441 -0.009532929 0.0058973855 -0.03746649 -0.026946487 0.0042041903 0.0075590718 -0.12902945 -0.11340384 -0.054788187 0.03188831 -0.01700819 0.081843674 -0.02410647 0.006528979 0.03041027 0.0095359925 -0.0303495 0.031040583 -0.06433019 -0.055592347 0.03832807 -0.061405122 -0.05630485 0.052257717 -4.904233E-4 0.05237821 0.03670682 0.033218227 0.0075748432 0.06462026 0.094182484 0.07035819 0.07196583 -0.066507556 -0.0028673161 -0.016142137 -0.048787817 -0.03917031 -0.023456225 0.040597066 0.065510996 -0.023091048 0.07644892 0.013774941 0.0034000198 0.06408681 -0.01717655 0.02017111 -0.08415235 -0.08063833 0.018541308 0.0034661503 0.113685034 -0.05987059 0.045298934 -0.019361854 -0.032440804 0.020512111 -0.017013367 0.048035495 0.013528151 0.031071912 0.017723983 -0.019277519 7.91476E-4 0.053989105 0.0095072305 0.032719932 -0.07210838 -0.042519003 -0.02551184 0.01121134 -0.034468643 -0.054219827 0.05641602 -0.027635355 -0.015322913 -0.050897032 0.050595343 0.009684129 0.12477819 -9.4587565E-4 0.00430326 5.26955E-4 -0.041572057 -0.029018827 -0.0018669574 -0.056543756 -0.07638036 0.009185588 0.08151361 0.008649249 0.05290068 -0.035482705 0.021928962 0.011494566 -0.030710079 0.0805332 0.06616513 -0.013163447 0.03475017 0.034101315 -0.033965632 0.01782275 -0.018840253 -0.027718022 -0.049045693 0.022574317 -0.001395694 0.007752821 0.08096468 0.033947773 -0.018157467 0.07384516 -0.012074894 0.08020327 0.017134115 0.035956617 -0.017737249 0.017470032 0.01843917 0.004822544 -0.013676603 -0.057541464 0.07976365 0.062087588 0.07553535 0.009164924 -0.010879781 -0.010526714 0.09889194 0.085090816 0.117522754 0.083845474 0.0021195477 -0.07350339 0.049306653 -0.08002973 0.055300154 -0.020015914 0.07360702 -0.004949352 -0.020352092 -0.011659329 0.052378975 -0.062300242 0.035697877 -0.0026426637 0.025728583 0.005662361 -0.01986773 0.02693195 -0.03149282 -0.010117268 -0.043277927 0.14712942 -0.023701519 -0.020505592 -0.021390632 0.014783934 0.08502632 -0.0076630814 -0.044501144 0.027416395 0.08068849 -0.08661784 -0.02661026 -7.672497E-4 0.054046176 0.010334533 -0.034485295 -0.046750735 0.04039099 -0.00717854 0.014466584 0.047340747 0.07915157 0.057173003 -0.027054554 -0.078131095 0.033016376 0.04848209 0.060233355 0.015203828 -0.0051506762 0.09203493 0.07580937 -0.00929078 0.064927176 -1.261062E-4 0.035699185 0.059929162 -0.1365008 0.021447022 -0.07511716 0.04397176 -0.0091378465 0.0119424965 0.013411239 -0.026800808 -0.016130608 -0.047304187 -0.017698606 -0.10493447 -0.0643634 0.007058854 0.036391832 0.029366933 -0.0022561708 0.028209705 0.019950856 0.0048322347 0.012451494 0.04867725 -0.03974357 -0.065081604 0.059423555 0.012637953 -0.0024207707 0.040726267 -0.035341468 0.007754632 -5.233297E-4 -0.0056233727 0.08454423 -0.039555427 -0.013891872 -0.031770714 0.016290251 0.057740267 -0.0186865 0.08114223 -0.015398549 0.09317701 0.026363011 0.080654524 -0.065972514 -0.058910336 0.034024883 -0.0080114 -0.043897744 0.02186874 0.058612883 0.018197957 -0.007495925 -0.053373925 0.08460471 0.0927878 0.006833002 0.01645562 0.059692033 0.01508255 -0.04033821 -0.014415527 -0.08929996 0.024056502 -0.03520295 -0.026841853 0.025550403 0.07174346 0.08467631 0.0054648938
relative 0.010676928 -0.013930722 0.00230066 0.013740475 0.052874636 0.07236536 -0.016084889 -0.08383792 0.067307666 0.0038428127 0.0880579 -0.09506481 -0.020942386 -0.020138301 -0.035900578 0.01584494 0.015835347 0.03044918 -0.056746434 -9.214798E-4 -0.005443692 -0.025280666 0.013918279 -0.010505021 0.016617268 -0.058168612 -0.103645705 0.12248989 0.048950624 -0.029173387 0.032535717 -0.028955903 -0.018406862 0.055457085 -0.0325409 0.023681115 0.06331223 -0.04416838 0.02247378 0.0094684325 0.06361588 0.014088018 0.045497112 -0.015490207 0.049341913 -0.007319214 -0.0077553103 0.04495305 0.0352185 -0.052018993 0.00241674 -0.043499764 0.05708435 0.012059218 -0.0020422577 -3.79147E-4 -0.098408125 0.12697689 0.020961626 -4.37536E-4 -0.008990025 0.043788385 -0.0014363341 0.042970985 -0.010980993 -0.031403664 0.019584171 0.023188477 0.02861562 -0.010580132 0.008228952 -0.01343802 -0.022794865 0.008522648 -0.04905521 0.073421106 -0.03384178 -0.06060053 0.07752018 0.07954201 0.06915353 0.03660486 -0.03652188 -0.016041702 -0.029652487 -0.023331953 -0.05145056 0.07324789 -0.03202287 0.008390032 0.018903755 -0.059856884 -0.051659472 -0.02051491 0.0017293205 0.0052716765 -0.01742338 0.039072584 -0.004382958 -0.057665408 -0.018335098 -0.05970058 0.07484603 -0.043193728 -0.034219865 -0.07690014 -0.043009683 0.045042284 0.048788782 0.043317463 0.024730407 0.05954481 0.032257665 -0.05492507 0.006557524 -0.02162103 -0.0156556 -0.048800513 0.038451616 0.054898135 0.003990181 0.03208477 -0.025523847 -0.049007706 -0.05015102 0.03933932 0.050768852 -0.05848358 0.0016335193 0.012949029 0.0068917116 -0.018219033 -0.02383459 -0.0024389874 -0.014963109 -0.028622633 0.054577596 0.035551712 0.047401756 0.039921172 0.045134466 0.0084583 -0.036271073 0.04046167 0.071784645 0.034950834 -0.034809 -0.0022748373 -0.0039245985 -0.0050559025 0.11093273 0.032370497 -0.014580417 0.029253103 -0.041247156 -0.058515824 -0.026915688 0.011720411 0.009656403 -0.046880692 -0.03346512 0.05653442 0.08490801 0.03483415 -0.002128112 0.031812936 0.0588348 -0.007872998 0.021505352 0.07790168 0.028053686 -0.029800987 0.033269767 -0.06563009 -0.045003977 0.04953512 0.056263532 0.049066678 0.04513718 0.0982029 0.026483282 0.024702227 0.039111108 0.009262832 0.03800848 -0.069498345 0.032558188 0.032245748 0.0067935837 0.023081353 -0.02723211 -0.004388654 -0.026516568 0.02011266 0.014283369 0.05588632 -0.052644994 -0.0036468403 -0.026030784 -0.05216141 -0.06904407 -0.0038382418 -0.079937324 -0.048793532 0.021019075 -0.0044066845 0.020454643 0.022064617 -0.02897735 -0.06310941 0.011472531 -0.009099865 -0.057380207 0.039071314 0.0024390533 0.0034785706 -0.03418985 0.047434367 -0.085724875 -0.021876588 -0.018020367 -8.931073E-4 0.038322873 -0.0659509 -0.030923655 -0.083324745 0.07759756 0.07209185 0.019227374 0.024885973 -0.026514878 0.019111268 -0.010825582 0.0040816693 0.014508013 -0.03785932 -0.015676899 -0.0562564 -0.068568915 0.011142015 -0.06393908 -0.034460872 -0.044722628 -0.03053061 0.028002784 0.12632471 0.038047105 -0.008525912 0.026703587 -0.010814707 0.035057895 0.06713425 0.08291995 -0.01663968 0.014556269 -0.044564273 -0.027517011 0.025183544 -0.033100292 0.0042093643 0.002500544 -0.093868 -0.040504497 -0.038527265 0.03007679 0.09188433 -0.019873064 -0.05766025 -0.02514499 0.033891298 0.0067104804 0.0011422544 0.028171182 -0.020369958 0.032454398 -0.0763166 -0.012146533 -0.020289904 -0.049915396 -0.072091565 0.035317704 -0.08561628 -0.01655468 0.006894519 -0.0072057955 0.012449722 -0.033380274 0.048632525 -0.010124337 0.04745695 -0.0656414 0.054085057 -0.084771655 -0.0295187 -0.008741322 0.026640937 -0.023043541 -0.04185238 0.031037632 0.021229576
spouse -0.006950802 -0.050887235 -0.07807271 0.02142097 -0.007719812 0.02514719 0.010288563 -0.059089717 0.034639157 -0.022608079 0.072305374 -0.03457418 -0.08702151 0.0309579 -0.025685467 0.0597847 0.04493364 0.031247742 -0.004231881 0.009728384 -6.309524E-5 -0.032346107 0.0511382 -0.06392721 0.046792824 -0.04320085 -0.06981833 0.06672821 -0.04399998 -0.014225455 0.02156791 -0.019337017 -0.037937924 0.017822126 -0.024241515 0.02054646 0.047991015 0.021274077 0.008419181 0.011114066 0.02467372 -0.01970911 0.047820162 -0.0051092682 -0.041287977 -0.018399345 -3.2971427E-4 -6.6185044E-4 0.0067068175 0.02945847 -7.2800554E-4 -0.0055086557 -0.014851572 0.022150658 0.016926732 -0.030248031 -0.07846831 -0.051282495 -0.010640393 -0.026947668 0.060642973 0.0011646855 -0.007602006 0.021944685 -0.020349065 0.045042202 0.002208846 -0.036236703 0.018875476 -0.003365538 0.05933234 0.047092576 -0.004662248 0.043797184 -0.074281335 0.031144097 -0.034918256 0.028651617 -0.015688404 0.034872513 -0.002863943 0.0117692035 -7.15144E-4 0.028679773 0.031698786 0.006109528 0.0029724985 0.047598626 -0.0272503 -0.00851331 6.510727E-4 -0.03242358 -0.037455834 0.02409476 0.009071315 -0.021520609 0.060762707 -0.06112925 0.052359365 -0.0058897957 -0.033239 -0.064192265 0.03531532 0.009546418 0.0055088974 -0.06713675 0.013905043 0.042888414 0.064323135 0.040670164 0.018919807 0.027993005 0.05765537 4.0804967E-4 -0.01859042 -0.04472591 0.017447032 -0.031783756 0.04074312 0.049814843 0.031131119 0.029186636 0.0027843053 -0.010205194 -0.01783568 -0.043694098 0.01986815 -0.02902795 0.02097508 0.051348433 -0.038102683 -0.03660953 -0.066127375 0.04913977 0.012068419 -0.017931353 -0.0058821323 -0.0048027793 0.06366367 0.03797654 -0.015602054 0.018922385 -0.009747546 0.017969685 -0.021454543 0.013026248 -0.083423376 0.077196404 -0.012773056 0.03009728 0.13662998 0.04105749 -0.0043210867 -0.028247638 -0.026125668 -0.03942147 -0.017516796 -0.05839833 0.028515134 -0.045868002 -0.06872827 0.044815827 0.07290518 0.08989785 -0.021611031 -0.046886213 0.06480045 -0.0057606474 -0.029259723 0.057525963 0.019266026 -0.046431914 0.02359189 -0.05630128 0.015758734 0.039588742 0.07718396 0.009498181 0.0022064047 -0.0011516972 -0.0034416178 0.0056594117 0.01922665 -0.010948772 0.027668867 -0.006896508 0.013246036 0.05386465 0.014534484 -0.0070341844 -0.035731174 -0.0047527 -0.022104852 0.06717546 0.061634418 0.11145257 -0.015026956 0.037801176 0.013991069 -0.0024238331 -0.047114052 0.007845736 -0.03882827 -0.026831947 0.041320734 -0.00902639 -0.044354364 0.029198285 0.014433005 -0.05922398 -0.039640684 0.008918156 0.005795973 0.012469952 -7.28555E-4 0.004256117 -0.014727296 0.07617065 -0.050642256 0.033074588 -0.016485982 -0.025259072 0.06670421 -0.018279817 0.0053139636 -0.06300514 0.053611927 -0.0033326573 -0.021970594 -0.023973271 -0.040820077 -0.014469711 -0.057283305 -0.04418763 0.0060081687 -0.015488157 -0.02495274 -0.050774112 -0.07896562 0.019852772 -0.032250885 -0.044248514 -0.024660163 0.01776272 0.030016739 0.05583895 0.025622662 0.0115017835 0.023822885 -0.049467362 0.021995952 0.005975308 0.057021692 -0.019338228 0.018503413 0.018172698 -0.06010897 -0.008689041 -0.039252423 0.034437217 -0.013044231 -0.019253673 0.045293845 -0.01878535 0.036101446 0.0685947 -0.04948091 0.0016605994 -0.012704287 0.036104135 -0.014544554 0.027976379 -0.01298399 0.031318795 0.032487303 -0.016714577 -0.013391629 0.02558513 -0.027413893 -0.03806596 0.05992312 -0.05597494 0.009245726 0.029936612 0.039639883 0.04806274 -0.038839996 -0.025842827 -0.0069831302 0.09867088 0.0020421837 0.059774365 -0.07916654 -0.079864055 0.007912194 0.018640073 -0.019333744 -0.018773865 -0.0034559744 0.03128557
