affiliation 0.119433336 0.0723 0.10693334 -0.041433338 -0.0090333335 0.0911 0.06533334 -0.018566668 -0.0027999997 -0.005833333 -0.0085 0.07553334 -0.0214 0.005766665 -0.036933336 0.0056333356 0.07503334 0.115 -0.037733335 0.0208 -0.10886668 -0.029800002 -0.038833335 0.0213 0.16110002 -0.106366664 -0.078433335 -0.030633334 0.031833336 -0.0155333355 -0.069133334 0.08233334 0.03496667 -0.046333335 -0.10493334 -0.053500004 0.09563333 -0.0721 0.003200002 0.053766668 -0.10506667 0.013833335 -0.016633334 0.15236667 0.033033334 -0.0018333334 2.3333232E-4 0.040066667 0.14563334 -0.012666665 0.15946667 0.07076667 -0.62006664 0.028333334 0.1117 0.1358 -0.070866674 0.0476 0.056266665 -0.0803 0.06600001 0.09053334 0.07026667 0.044 0.0507 0.040233333 -0.013799998 0.017366668 0.06526667 -2.6666623E-4 -0.12546667 -0.075 0.032633334 0.016966667 -0.06006667 0.111033335 0.0724 -0.12096667 -0.062533334 0.015333334 0.0132 -0.0063 -0.022500005 -0.19963333 -0.013866666 0.14893334 0.05406667 0.028133333 0.10023334 -0.0173 -0.0051333345 -0.087866664 -0.1002 -0.017433336 0.097666666 0.20496666 0.031266667 -0.0333 -0.111266665 0.18546668 -0.2221 0.06290001 0.019000001 -0.087233335 -0.014766666 -0.026600001 -0.1322 8.6666644E-4 -0.010433334 -0.07806667 0.068 0.0361 0.044999998 -0.06323333 -0.0010000005 -0.060833335 0.1232 0.06786667 0.041300002 -0.3154 0.11856668 0.044766665 -0.019033333 0.08176667 -0.07733333 0.19219999 -0.018466666 -0.008 0.04683333 -0.020566666 0.060933333 0.08870001 0.040433336 0.10956667 0.059866667 0.08670001 0.024366667 -0.08236667 0.089 -0.13046667 -0.0032333322 -0.13586667 -0.09126668 0.22733334 0.066633336 0.116100006 0.058766663 -0.028666666 -0.0045333356 -0.015566668 0.016200002 0.095800005 0.075733334 -0.0432 -0.019266669 0.038233332 0.030000001 0.040766668 -0.01856667 -0.116233334 -0.1897 -0.03333333 0.060300004 0.10236667 -0.09313333 0.021599999 0.07693334 0.0048333313 0.03826667 0.099800006 0.09390001 -0.09716667 0.011666667 -0.08253334 0.049366668 0.012399998 0.28883335 -0.14340001 0.002 0.08866667 -0.0353 0.1232 0.016600002 -0.1121 0.035533335 -0.15006667 0.06380001 -0.044166666 0.0013333361 -0.029866666 -0.037 -0.122 -0.076733336 -0.036133334 -0.08606666 -0.04186667 0.08513334 0.021433335 0.165 -0.023599997 -0.0384 0.13103335 0.106 0.1448 0.037100002 0.1109 0.013 0.056766666 0.119799994 -0.0343 -0.013700001 0.097600006 0.06266667 -0.096366666 0.013800001 -0.0538 0.061533332 0.036366668 -0.0528 -0.13766667 -0.038966667 -0.019333333 0.095699996 0.026733337 0.021033337 -0.123500004 -0.067200005 0.14406668 -0.011000002 -0.12233334 -0.21403334 -0.025399998 0.34833336 0.034933336 -0.0895 -0.100700006 -0.022966666 0.096200004 -0.26806667 0.1394 0.051700003 -0.024933336 0.12676668 -0.040233336 0.062066667 0.08896667 -0.0749 -0.06386667 -0.057166666 0.33580002 0.0101666665 0.23586667 -0.0828 0.100866675 -0.014000001 -0.06290001 0.13520001 0.012133333 0.0161 0.068500005 -0.08806667 -0.012666667 0.09843334 -0.0493 -0.2544 -7.666679E-4 -0.013133335 -0.0041000005 -0.17700002 0.10143334 -0.051966667 -0.10076667 0.08653333 0.038333334 -0.051 0.0714 -0.05916667 -0.09463333 -0.028433334 0.021000002 -0.036800005 -0.04886667 0.03266667 0.12726668 -0.0183 -0.067666665 -0.07013333 0.046233337 -0.054700002 0.08883333 -0.012166667 -0.0075999997 0.016066667 0.0057666674 -0.065633334 -0.12203333 -0.011133334 0.018833335 0.050333336 0.007033333
almaMater -0.090780005 0.025040004 0.004819999 -0.09218 0.0120399995 0.04588 -0.08758 0.10090001 -0.01522 0.047399998 -0.16852002 0.066920005 -0.087759994 -0.01758 -0.11138 0.15184002 -9.0000074E-4 -0.16324 -0.016220002 0.007680001 -0.43866 -0.071880005 -0.06146 -1.0000006E-4 0.057299998 -0.10724 0.036760002 0.28108 3.1999985E-4 -0.1073 -0.013579994 -0.01888 -0.023000004 -0.02408 -0.05264 -0.0068000006 -0.123440005 -0.0749 -0.039720006 -0.0701 -0.094359994 -0.125 -0.07838 0.06690001 0.0974 -0.018480001 0.13728002 -0.008119999 -0.042299997 0.006340003 0.12898 -0.01056 -0.6608 0.20616 0.09273999 0.09196 -0.06802 0.1398 0.11674 -0.025920002 -0.025400002 0.03342 -0.07142001 -0.24301998 -0.12936 0.051040005 -0.005559999 0.09436001 0.062400002 0.096200004 0.008920001 0.04096 0.0629 0.084819995 0.05664 0.16604 0.113759995 0.23549998 -0.0031799995 0.0407 0.06492 -0.1346 -0.044140007 -0.22573999 -0.13552001 -0.0808 0.09543999 0.01232 0.050839998 0.08704 0.025180003 0.03494 -0.22501998 -0.018700002 0.105280004 0.094620004 -0.14692 0.03136 -0.036960002 0.17618 -0.12912 0.09878 0.03008 8.8000076E-4 -0.23826002 -0.017279997 -0.08422 -0.097320005 -0.03218 -0.021459999 0.02478 0.0023000003 -0.016320001 -0.04128 -0.046160005 -0.03072 -0.09784 -0.07894 0.00894 -0.31704 -0.03894 0.122659996 0.06542 0.032059997 -0.14474002 0.15070002 -0.13020001 -0.058380004 -0.025659997 -0.31118 0.17558001 0.19998 0.093619995 -0.08402001 -0.01412 0.046740003 0.099640004 -0.22844 -0.027600003 -0.024160001 0.12966 -0.088199995 -0.19024001 0.10590001 0.017259998 0.13388 0.06616 -0.12638001 -0.04184 -0.17758001 -0.090500005 0.12731999 0.1054 0.02712 0.057640005 0.043320004 -0.046520002 0.0102 0.21121998 0.1186 0.13634 -0.15390001 -0.24008003 0.07838 0.14674 -0.06486001 0.099 -0.021680001 0.04794 0.11826 -0.016560001 0.09568 0.004519999 -0.11758 0.01798 -0.08052 0.20724002 -0.01832 -0.32432 0.053940006 0.09218 -0.09600001 0.06136 -0.0054200008 0.16712001 0.07226001 0.16706 -0.0153 -0.19462 -0.07738 -0.030460004 -0.14576 -0.18464 0.057920005 -0.12036001 0.024139998 0.07646 0.04486 0.04684 0.10962 0.15652001 -0.08332001 0.17738001 -0.024079999 0.19764 0.0101 0.00784 -0.093 -0.023000002 -0.02748 0.012840003 -0.04562 -0.07378 -0.10722001 0.01378 -0.25082 -0.0412 -0.16826001 0.10854 0.08778 -0.05616 0.10532 -0.07750001 -0.11354001 -0.008640001 0.13898002 -0.11829998 0.00518 -0.17121999 -0.09136 -0.07634001 0.0070599974 0.26472002 0.09398 -0.14328001 -0.09602 0.10174 0.15460001 -0.19999999 0.06562 -0.078779995 0.035240002 0.1086 -0.019700002 0.036620002 0.03368 -0.03128 0.13894 -0.08816 0.30923998 0.10192 0.10632 -0.25540003 0.06504 0.30136 0.007359998 0.07982 0.034100004 -0.10627999 0.14145999 0.042820003 0.1264 -0.07021999 -0.03812 -0.68038005 0.044940002 0.06684 0.022280002 0.03272 0.07794 0.045380004 0.19082 0.03268 -0.0999 -0.0833 -0.04668 -0.050619997 -0.06616 0.046299998 -0.09108 0.01826 0.03856 -0.06916001 -0.07970001 0.054320004 -0.24726 -0.14676002 0.04032 -0.07736 0.08058 -0.120340005 0.021599999 -0.15508 0.2027 -0.04572 -0.17682 0.09200001 0.078779995 -0.19616 0.17378001
bandMember 0.078379996 0.073400006 0.0308 -0.0688 -0.06298 0.0881 -0.0908 0.022920003 0.0072400006 0.0775 0.07348 0.0016000003 -0.12427999 -0.08146 -0.1316 -0.045240004 0.00382 0.026139999 -0.044840004 -0.04752 -0.25970003 0.005980001 0.07610001 -0.039359998 0.12962 -0.02906 -0.014020001 0.04036 0.01252 -0.09268 0.07448 -0.03404 0.023980001 -0.014620001 0.14052 0.0971 -0.011360002 -0.053139996 -0.0026400003 0.07422 -0.105799995 -0.04568 0.05046 0.0056000003 0.01278 0.021440001 0.07622 0.026920004 0.061459996 -0.08318 0.051740002 0.04052 -0.66668004 -0.05656 0.043380003 0.03804 -0.0407 0.102979995 0.03166 -0.12040001 0.070879996 -0.0383 0.0045800004 0.0067200037 0.020019999 0.05288 -0.0551 -0.07316001 -0.076120004 -0.10118001 0.088800006 0.04712 -0.03746 0.004000002 0.0539 0.02538 -0.05272 0.076239996 -0.02706 -0.00486 0.04148 0.0449 -0.102720015 -0.1751 -0.104779996 -0.08814 -0.0026200004 -0.0704 0.20646 0.0744 0.0794 0.09424 -0.055160005 -0.0036 0.08784 0.18722 0.022020001 0.018480001 0.07754 -0.00674 -0.06954 -0.05912 0.11145999 -0.12692 -0.10045999 0.10345999 -0.0148599995 -0.093219995 -0.05770001 -0.04342 -0.03468 0.10784 0.15718001 -0.10394 -0.07554 -0.01954 0.006440001 -0.10936 -0.01214 -0.24028002 0.0391 -0.003539998 0.084819995 -0.092700005 0.04416 0.10332 0.01706 -0.06542 0.15641999 -0.075940005 0.07300001 0.11668 -0.05578 -0.053000003 0.061120003 0.08306 -0.04668 -0.07630001 -0.09032 0.0012199999 0.019 -0.015300001 -0.041860003 0.12848 0.09927999 0.0040200013 0.025280003 -0.09438 -0.048839998 0.04348 -0.078600004 -0.03846 0.024259998 -0.006339998 0.010240001 0.0051400005 0.09268001 0.0042600003 -0.04442 0.0342 -0.02384 -0.09154 0.011500001 0.0878 0.03692 -0.06156 0.04556 0.04646 -0.101600006 0.05276 -0.008940002 -0.065460004 -0.009600001 -0.03951999 0.08178001 0.052840002 0.24822 -0.13584 0.15036 -0.012120001 0.082559995 0.004880001 -0.07884 0.0556 -0.0187 -0.00458 0.013340001 0.00992 -0.1018 0.03702 -0.010900001 -0.010999998 -0.008100001 0.042600002 0.02624 0.0021000013 -0.029340003 -0.08336001 0.05014 -0.1171 -0.04478 -0.057339996 -0.05444 -0.105799995 0.24412 0.03308 -0.047340002 -0.062200006 -0.039820004 0.016979998 0.10364 0.18126 0.00534 0.08756 -0.021879999 -0.054980006 -0.027239999 0.0353 0.062300004 -0.01936 -0.097440004 -0.041120004 0.0155799985 0.12144001 -0.0208 -0.06634 0.021379998 0.005320001 -0.050120004 -0.0103 -0.13494001 0.031799998 0.29264 0.08008 -0.09966 -0.027740002 -0.04018 0.073319994 -0.23870002 -0.06474 -0.054759998 -0.05122 0.02534 8.999989E-4 -0.0454 0.039680004 -0.041959997 0.08682 -0.033660002 0.32136002 -0.048860002 0.11448001 -0.09358 0.07151999 0.084640004 0.021960003 0.05242 0.03686 0.02944 0.04852 0.0010399999 0.03516 -0.035880003 -0.104100004 -0.5049 0.11528001 0.028039997 0.13088 -0.089940004 0.051779997 -0.1312 0.02774 -0.03998 -0.023520002 0.03118 -0.10622 -0.03186 0.030720001 0.02824 0.064279996 0.03348 -0.039180007 0.016579999 0.0204 0.0066599995 -0.0016000003 -0.114080004 -0.13976 0.13340001 0.03398 -0.01134 0.15502 -0.007599998 0.051260002 -7.400006E-4 -0.083960004 0.0011799991 -0.009580001 -0.096080005 0.092920005
birthPlace 0.12406667 -0.08881667 0.027500002 0.10243334 -0.014983333 0.12194999 -0.006016667 0.00785 0.043300003 -0.015266668 -0.064166665 0.018516667 -0.0095833335 -0.107300006 0.06763334 0.09296667 0.05865001 -0.019116666 -0.025766667 -0.048583336 -0.10113333 -0.007833336 0.045866664 0.16796666 -0.023616668 -0.064833336 -0.052150004 -0.057016667 0.08365001 0.05676667 -0.040850002 0.060150005 0.03356667 -0.08870001 0.015583332 0.022366665 0.022500005 -0.065733336 0.08400001 0.004333332 7.99999E-4 -0.026616668 0.004766668 0.059850004 0.054399997 0.029283335 0.047483336 -0.05616667 0.07785 -0.09058334 -0.016149998 0.15896668 -0.69235003 0.09356667 0.053300004 0.03316667 -0.042983335 0.007183333 0.06406667 0.006433334 -0.0083166715 0.0036500003 -0.06661667 0.0045166668 -0.008566665 0.056900006 0.026866667 -0.05935 -0.019066669 0.020800002 0.06483333 -0.083716676 0.06683334 -0.114866674 0.0010500004 -0.020849999 -0.012 -0.041266672 -0.087950006 0.09023334 0.0198 -0.07988334 -0.0034500002 -0.20275 0.100033335 -0.08938335 0.15826668 -0.021683335 0.15495001 -0.045166668 0.093883336 0.002016666 -0.0035333335 -0.05268333 0.10605 -0.07968333 0.11246666 -0.111216664 0.038333334 -0.025750007 -0.15081668 -0.029600007 -0.09926667 -0.0647 -0.012733332 0.14903334 0.0015000006 0.03553333 -0.030850004 -0.02465 -0.011150001 0.0014999982 -0.0060499995 0.0023666653 0.0060166656 0.039883338 0.12326667 -0.028450003 -0.08350001 -0.29715002 -0.089200005 0.059800006 -0.017183334 0.018966667 -6.666649E-4 0.19046667 -0.08761667 -0.0144 -0.042333335 -0.04856667 -0.10838333 0.005899999 0.027516669 -0.07281668 -0.025700001 -0.023433335 0.0539 -0.053316664 -0.003266666 0.039850004 -0.01785 -0.012500001 -0.0707 0.18190001 0.042716667 -0.030033333 0.07455 -0.026300002 -0.018400002 0.055033334 0.056116667 0.035966672 0.12585 -0.062083334 -0.037100002 -0.028483337 0.09418334 -0.16051666 0.043366667 -0.12563333 -0.12498333 -0.007433334 -0.015883332 0.017366668 0.025133334 -0.037016667 0.093899995 -0.08936667 -0.03431667 0.010683332 0.079783335 -0.014533335 -0.008216666 -0.016666666 0.2633 -0.009266668 0.19808334 -0.036466666 -0.017799996 0.0044500018 0.028800001 0.06420001 0.08041667 -0.0337 -0.0825 -0.039483335 -0.009866668 0.047300003 -0.03861667 0.024900002 0.088 0.047100004 0.0026999998 0.12173333 -0.08696666 0.007066667 -0.040416665 0.066183336 0.100933336 0.02558333 -5.0000846E-5 0.11538334 0.13776669 0.08773334 -0.14011668 0.043633334 -0.050233334 -0.0014666661 -0.03066667 -0.055633333 -0.066983335 0.0278 0.06605001 -0.12195 -0.060333334 -0.0187 0.0047166673 0.035333335 -0.19941667 -0.09046667 -0.013449999 -0.13258335 -0.12990001 -0.05676667 -0.004400002 -0.017649999 -0.024716672 -0.040633336 -0.13115 -0.08086667 -0.24351667 0.008733332 0.27823335 -0.11505 -3.4999973E-4 -0.07838333 0.027750004 0.02955 -0.19534999 0.060650002 0.028183334 0.11156666 0.13715 0.006533332 -0.046916664 0.13180001 -0.04885 -0.017549999 -0.10596667 0.2791667 -0.055116665 0.061950006 0.03631667 -0.0015833329 0.0104 -0.028050002 0.024999997 -0.056849997 -0.0914 0.019316668 -0.010233334 -8.500001E-4 -0.008533334 0.05121667 -0.34183335 0.027666666 0.014099998 -0.036916666 -0.1986 -0.07815 -0.1298 -0.017483333 0.015350001 0.0022000012 0.045366667 0.0249 -9.333333E-4 0.0683 -0.06141667 0.056900006 -0.047550004 -0.12291666 -0.02711667 0.09335001 0.0065166666 0.057900004 0.013083334 -0.057083335 -0.06973334 0.04958334 0.0017833337 0.08008334 -0.04683333 -0.015066667 -0.13955 0.15491667 -0.0661 0.11344999 0.020366667 -0.078700006
ceo 0.055925 0.0245 -0.020175 0.012900002 -0.0143749975 0.0835125 0.011975002 0.0358125 0.09047501 -0.083037496 -0.013075 0.031875 -0.009975 0.025724998 0.0529875 -0.046987496 -0.0476875 0.076112494 0.015987497 0.008 -0.24246249 -0.027675 0.0042749997 -0.035875 0.023475 -0.045562502 -0.076574996 -0.030187499 -0.0384 -0.20721251 0.13782501 -0.055275 -0.058124997 -0.0037 -0.020587502 0.0334375 0.037199996 0.0656125 0.049025 8.8749826E-4 0.0530625 -0.021462498 -0.038125 -0.042525 0.13589999 -0.0450625 -0.024825001 0.031900004 -0.028524999 -0.018150002 0.0347875 6.375015E-4 -0.676975 -0.064475 0.1310625 0.0069124997 0.1117875 -0.022087501 -0.0024624988 -0.005149998 -0.008512503 0.082725 0.0409875 -0.088975 0.049850002 0.1037 0.0284875 0.071712494 0.017999995 -0.0135375 0.031449996 -0.0486625 -0.049000002 0.011699999 -0.034062505 0.0671875 -0.0149625 -0.040974997 -0.0572125 0.034225002 -0.0202 0.0152875 -0.007887501 -0.2353125 -0.0453125 0.0725625 -0.057862498 0.0425875 0.178325 0.012774996 0.090900004 0.0693 0.013325 -0.05045 0.023375 0.076175 -0.0424375 -0.0027250005 -0.027450003 0.0526125 -0.115987495 -0.02175 0.075325005 -0.151225 -0.10955 0.05065 -0.055562504 0.0296625 -0.105137505 0.055525005 -0.0376625 0.1757125 0.048475 -0.0135375 -0.1432125 -0.134975 -0.004675001 0.020525001 0.0084625 -0.285075 0.0706375 0.080974996 -0.024987502 -0.05495 0.028762499 0.134675 0.019425 0.002337501 0.1853375 -0.0132875 0.008912501 0.100187495 -0.0558875 0.0191 -0.058262497 0.031550005 0.069762506 0.076537505 -0.142475 -0.078525 -0.057312496 -0.051525 0.0148749985 0.09905 0.005824999 0.0372625 0.078125 0.017987497 0.1046625 0.035000004 -0.0094875 -0.027175002 0.0848375 0.110025 -0.0282375 0.0030125007 0.050225 0.006374999 0.1214875 0.025850002 0.037012503 0.019137502 -0.012887493 0.047925003 0.053375 0.0112 0.0101125 0.0421625 0.009487499 0.124725 0.020737503 -0.009125002 -0.0222875 0.034424998 0.02 0.028125 0.2301 -0.04415 -0.054675005 0.0737375 -0.01045 0.1288375 -0.018337497 -0.07965 0.025149997 -0.018174998 0.0145375 0.006437499 -0.1126875 -0.040887497 -0.024987502 -0.091725 0.058225002 -0.10526249 -0.0513 -0.0070625003 0.054737505 0.08195 0.088825 -0.06385 -0.051375 0.0417125 -0.056 -0.0790875 0.067499995 0.0501 0.0607 -0.104075 0.037825003 -0.0816625 0.0018374994 0.040750004 -7.250004E-4 -0.046125002 0.0450375 -0.098425 0.0328 0.0427 -0.07705 -0.058225002 0.11580001 0.069262505 -0.0168125 0.014612497 -0.034825005 -0.124712504 0.071125 0.012287501 -0.12782499 -0.024050001 -0.1447875 0.0428125 0.264975 -0.021000002 -0.079537496 -0.1697375 -0.1023375 0.095249996 -0.2145375 0.0511 -0.009062499 0.037125 -0.0256625 -1.2500444E-5 0.006212498 -0.0339 0.0526375 7.750001E-4 0.0307 0.2619375 0.0065624993 -0.1204625 -0.1505875 -0.0234375 0.15626252 0.030400002 0.040925 0.0887125 0.036112502 -0.069350004 -0.074975 0.100475 -0.051387496 -0.0807375 -0.45926252 0.0559 -0.046862498 -0.0029749996 -0.232675 0.026587501 -0.098574996 0.10181251 -0.021737501 -0.08635 0.07465 0.0262125 0.021087501 -0.1200875 0.0695125 0.061162498 -0.0549875 0.046187498 0.010287502 0.020049999 0.149875 -0.04225 -0.0964 -0.052124996 -0.011562499 -0.10079999 -0.033887498 -0.015675 0.030199997 -0.107700005 0.016575001 0.102625005 -4.374995E-4 -0.0021625003 0.021875 -0.0386125
child 0.0040166667 -0.030291667 1.6666701E-4 -0.092541665 -0.032925002 0.008658335 0.022441667 -0.015933335 0.07765 0.07541667 -0.103033334 -0.005958335 -0.07630001 -0.032250002 -0.038566668 0.02204167 0.031858332 0.017316667 0.031483337 -0.118425 -0.14071667 0.006600001 -0.0449 0.042541664 -0.058683336 0.017291665 0.0014833349 0.10443334 0.016608335 -0.034783334 0.09935 0.018225001 0.030441668 -0.07688333 0.110541664 -0.0060416665 0.108325005 -0.0025333315 -0.0025083355 0.032133333 0.036608335 -0.0010666668 -0.014566667 -0.034166668 -0.015225001 -0.027066668 -0.028474998 -0.12178334 -0.06410833 -0.06194167 -0.054766666 -0.09789167 -0.6908083 0.046383332 0.052100003 -3.2500178E-4 0.004516664 0.15854168 0.043083332 0.003016667 2.4166642E-4 0.009416668 -0.073825 0.011566667 0.039208334 -0.05579167 -0.006091667 -0.004058335 -0.022608336 -0.063625 -0.0081916675 -0.026958331 0.037666667 0.08658334 -0.065725 0.09441668 -0.10965833 -0.061041668 -0.06933334 0.045774996 0.011691667 -0.0069750003 0.09925 -0.15803334 -0.0052083335 0.06334167 0.022908336 0.017375 0.059100002 9.33333E-4 -0.024383333 -0.041091666 0.005983334 -0.08760833 -0.049383335 -0.002533334 0.06705834 0.03384167 0.020058334 -0.130025 -0.10209167 -0.017033335 -0.053725 -0.055433333 -0.05781667 0.06961667 0.10786667 0.0153749995 -0.13965833 0.048916664 0.09383333 0.1074 0.03721667 -0.008199999 -0.025491666 -0.040816665 0.052433334 0.0073166667 -0.18315 -0.25695837 0.014241667 0.0448 0.11596667 -0.02046667 0.09656667 0.13099167 -0.08405 -0.015341666 0.018108334 0.043458335 -0.040725004 -0.043958332 0.015591668 -0.021575 0.010533333 0.073425 -0.017283335 -0.0076000015 -0.130775 0.003783334 -0.0564 -0.048049998 0.007858334 0.07828333 0.085983336 -0.03201667 0.036116667 -9.4166584E-4 -0.06029167 0.019716665 -0.06333333 -0.056133337 0.011733334 0.047575004 -0.070475005 0.014066666 0.0030499995 0.0466 -0.032083333 -0.048008334 -0.021958334 -0.07435834 -0.029308334 0.07038334 0.06939167 0.018199999 0.034666665 0.07445834 0.026775 -0.020241668 -0.013133334 -0.014675001 -0.07525833 0.014249999 0.1452 -0.07243334 0.17874166 0.0028499998 -0.053025 -0.073125005 0.028708335 0.067075 -3.333514E-5 -0.017916668 0.10616666 -0.061175 -0.017266668 -0.08979167 -0.11083333 0.0052 -0.003891667 0.037916668 0.022183333 0.006066667 -0.0062166657 0.08083334 0.06390001 0.029933333 0.08865001 0.05875834 -0.049633335 -0.070250005 0.0379 -0.05064167 0.009158334 0.12589167 -0.016166668 -0.074149996 0.06716667 -0.047291666 -0.013516667 0.0066916677 -0.05425834 -0.018608335 -0.013775001 0.057775002 -0.0030833331 0.03246667 0.0034000003 -0.008575 -9.3333237E-4 -0.07218334 -0.055658333 -0.016866665 0.014808336 -0.098333344 -0.0019499997 -0.048924997 -0.0013499993 -0.036783334 -0.097425 0.050566666 0.2415 -0.084275 -0.06528333 -0.016308334 -0.047775 -0.054166667 -0.15218334 -0.10696667 -0.04461667 -0.023283333 0.0049916655 -0.030116666 -0.031266667 0.027008336 -0.057483338 -0.007791666 -0.10769999 0.31589168 0.0033999998 0.07846667 0.060458332 -0.052783336 -0.009991667 -0.032575004 -0.015849998 0.06294167 0.01675 0.042183332 0.044175 -0.006483333 -0.004266667 0.035825 -0.397475 -0.024691667 0.0068999985 0.028775 -0.109958336 -0.07874167 0.043575 0.0093583325 -0.10717499 0.045050003 -0.011283333 0.022566667 0.097541675 -0.003083331 0.045875005 0.06677501 -0.042458337 -0.06089167 0.035025004 -0.0046666674 -0.021324998 0.005333332 -0.09440833 -0.15181667 -0.07926667 -0.011091666 0.07085 0.045966666 -0.07755001 -0.026925001 0.099199995 0.096141666 0.052500002 0.06555834 0.076466665 -0.040641665
club -0.021866668 0.09346667 0.089200005 0.013366668 -0.062633336 0.09206667 -0.0368 0.12716667 0.060066666 0.0563 -0.1196 0.048333332 0.03466667 0.0776 -0.100033335 0.043633334 0.040733334 -0.025366668 -0.006899999 -0.0598 -0.25413334 0.0045999996 -0.09193333 0.13966668 0.13893333 -0.058266666 -0.018466666 0.09373333 -0.07153334 -0.028900001 -0.14720002 -0.12100001 -0.0027666665 -0.080066666 0.027233332 0.038066667 -0.051433336 0.095 0.044600002 0.07676667 0.0589 0.065733336 -0.001266667 -0.070533335 -0.026533334 -0.05576667 -0.02596667 0.048133336 -0.045500003 -0.09613334 -0.013966668 0.0051666666 -0.6383 0.049099997 -0.0038666676 0.14553332 0.05906667 0.08393334 0.0627 -0.052466672 0.092133336 0.12953334 -0.04743333 0.0462 0.08343333 -0.007066667 -0.053833332 -0.039133336 -0.0139 -0.003133332 -0.025833335 -0.07506667 0.1331 -0.005099997 -0.15673333 0.118499994 -0.14046666 0.0317 -0.0992 0.15046667 -9.3333365E-4 0.058333334 -0.038966667 -0.20993334 0.08533333 -0.10363334 -0.088 0.08083334 0.24123335 0.0187 0.024966668 -0.011033334 -0.017999995 -0.044933334 -0.017233333 0.081133336 -0.021233333 0.10723333 -0.044466667 0.019966668 -0.16763334 0.043966673 0.045666665 -0.11763334 -0.008066664 -0.036 -0.12640001 -0.0061666667 -0.033666667 0.053666666 -0.042766668 0.12956667 0.056466665 0.07396667 0.039100002 -0.032800004 -0.0369 -0.032633334 -0.13710001 -0.32203335 0.0952 -0.012566663 -0.051999997 0.032766666 -0.017233334 0.1473 0.033933334 -0.07286667 -0.002066667 0.07466667 0.021133333 0.09616667 0.0363 0.019233333 -0.023466667 0.14576668 -0.11836667 0.029133333 0.044700004 9.666669E-4 -0.04663334 -0.019266669 -0.12030001 0.18706667 -0.12966667 0.0131 -0.031233333 -0.06853333 -9.999983E-5 -0.025499998 -0.0364 0.006333334 0.0159 -0.06796667 -0.12296667 0.038766667 0.048733335 0.022633336 -0.0177 0.06753334 0.0064999997 -0.051700003 -0.043933332 0.055133335 0.03136667 -0.054100003 0.063266665 0.054933336 0.053933334 0.0457 -0.0875 -0.064166665 -0.049366668 -0.009533334 0.0902 0.027933333 0.29063332 -0.15096667 0.11366667 0.008400001 -0.1359 0.147 0.13686667 -0.02506667 0.058166668 -0.0037999996 -0.0034999973 0.07620001 -0.2615 0.037833337 0.008033333 -0.07946667 -0.12670001 7.000007E-4 -0.0607 -0.0028666668 0.0039333343 -0.26676667 0.14386666 0.19903335 -0.17146668 4.333334E-4 0.019866668 0.03493333 0.17386667 0.11236667 0.0021666675 -0.18286668 0.019933335 -0.0020333356 0.0496 0.032166667 -0.014400002 0.008166667 -0.0134333335 0.0076333336 0.018800002 0.055733334 -0.13036668 0.033533335 0.1087 0.059066664 0.06173333 -0.022433337 0.1552 -0.1536 0.014133334 0.031333335 -0.071100004 -0.054533333 -0.035233334 -0.05496667 0.36226666 -0.058433335 -0.16176668 -0.12866667 -0.1555 0.09886667 -0.26560003 0.06423333 0.04286667 0.035800003 0.06820001 0.0037000028 -0.1411 -0.008766667 0.0034000005 0.18936667 -0.017566666 0.3793667 -0.005799999 0.12556666 -0.098133326 -0.044099998 0.02153333 -0.0498 -0.03576667 0.100366674 -0.033433333 0.044866666 0.041366667 0.14086667 0.0653 -0.0426 -0.52646667 0.09676667 -0.036466666 -0.057166666 -0.19950001 0.044 -3.0000013E-4 -0.026766669 -0.06906667 -0.15730001 -0.048299998 -0.027166668 0.015 -0.0724 -0.0663 0.10713333 0.055033337 0.08536667 -0.08516666 0.12326668 0.0698 -0.2143 -0.07516667 -0.0424 0.006633334 -0.063433334 0.12343334 -0.008066666 0.010666668 0.09 0.0844 0.06713334 -0.070700005 -0.082666665 0.009966668 0.09233334
deathPlace 0.12628889 -0.010477779 -0.022000002 -0.10596667 -0.089155555 0.1316 0.061966665 -0.14215556 -0.06552223 -0.008944446 -0.029288888 0.05357778 -0.076511115 -0.14235555 0.0030777773 -0.008188889 0.065622225 -0.02518889 0.18429999 0.036911115 -0.09961111 0.0111444425 0.07756666 0.057288893 -0.05346667 -0.039844442 0.024722222 0.054722223 0.057011116 0.0020666677 -0.032455552 0.035755556 0.023244444 0.015377777 0.057444446 0.04461111 0.027866669 -0.09847778 -0.029999997 0.04941111 0.007322222 0.05582222 -0.06847778 0.030822225 -0.08121111 -0.039022222 0.011388888 -0.052788887 0.071155556 -0.038733333 -0.060200002 -0.024055557 -0.6748222 -0.017444443 0.010655557 -0.08366667 -0.07761112 -0.08707778 -0.048855558 -0.028611114 -0.023755558 0.042933334 -0.03106667 -0.08235556 0.007588888 -0.08684445 -0.039333332 -0.00328889 -0.07246667 0.025666667 -0.031911112 -0.04143333 0.0066777766 1.7777747E-4 -0.031377777 -0.04404445 -0.006077779 0.09882222 -0.104155555 -9.555568E-4 3.1111078E-4 0.0035444472 -0.04227778 -0.16706665 0.046388887 -0.08461111 -0.010966665 -0.05265555 0.05546667 0.030966666 0.058722217 0.038099997 0.01968889 -0.04907778 0.056688894 0.049822226 -0.06578889 -0.06734444 -0.0071888887 -0.025566664 -0.1462111 -0.030477775 0.023144446 -0.10185555 -0.18124445 0.04261111 0.05525555 -0.11278889 -0.06576667 -0.04388889 0.037177775 0.09138889 -0.0031666649 -0.018688887 -0.038066667 -0.019366663 -0.069577776 -0.008133333 0.0504 -0.2762 0.044022225 0.049088888 0.022444448 0.12279999 -0.022722224 0.16967778 -0.08086667 0.052755557 0.042688888 -0.007544445 0.0027000003 0.077255554 0.15205558 -0.048244443 -0.04064445 -0.0019666653 0.0254 0.01238889 -0.07219999 0.012744444 0.052933335 0.0732 0.028077777 0.20875555 0.089044444 0.011266667 0.06796667 0.0425 0.02336667 -0.0166 0.18171111 -0.0341 -0.0012222198 -0.04038889 -0.03381111 0.047711115 0.016077777 0.08753333 0.005477778 0.01128889 -0.066099994 -0.04837778 -0.03816667 -0.13492222 0.08353333 0.020900002 0.12640001 0.019011112 0.047933333 -0.025822222 0.1843111 -0.06826667 -0.07768889 -0.01301111 0.02317778 -0.048622224 0.23045559 -0.2474 0.006399999 -0.031744447 -0.00961111 0.111600004 -0.010077776 0.04691111 -0.03626667 -0.15132222 0.0056888876 -0.09237778 0.057900004 0.13104446 -0.016166665 -0.015155558 0.0515 -0.040033333 0.026666667 0.014822221 0.095977776 -0.017255556 0.08738889 0.029788889 0.017855555 0.033122223 0.047422223 0.027900001 0.048577778 -0.044822223 0.039733335 0.04746667 0.03178889 0.090566665 0.026077777 -0.010444443 -0.017577779 0.012411112 0.053766668 -0.009122224 2.666656E-4 0.010255556 -0.0059555573 0.023100005 0.012211112 -0.0197 0.002811111 0.036622223 -0.049444444 -0.023899999 0.093444444 0.017633336 0.048644442 -0.05272223 -0.12566668 -0.0011888875 0.30101112 -0.1117889 0.055933338 -0.020555556 -0.09058888 -0.056988887 -0.19855554 -0.039800003 0.045244444 0.03832222 0.013411112 -0.044366665 0.016044445 0.07247778 -0.013500002 -0.07796667 0.03998889 0.36055556 0.015455556 -9.666669E-4 0.022500003 -0.0753 -0.09127778 -0.0062444443 0.002155558 0.09084444 0.06463334 -0.05922222 -0.030222224 0.034822226 -0.021266665 -0.04205556 -0.24875556 0.037966665 -0.07642223 -0.024233334 -0.10847778 0.04865556 0.03317778 -0.013033333 -0.04441111 -0.10066667 -0.013033332 0.09012222 -0.07388888 -0.04217778 0.05061111 0.055177774 -0.04142222 -0.09168889 0.050544444 -0.0847 -0.07051111 0.09505556 0.0318 -0.08212223 -0.036011115 0.0074333325 -0.06573333 -0.013555555 0.03582222 -0.019155554 -0.047866665 0.07653333 -0.009377778 0.0992 -0.0042444444 0.0057222233
debutTeam -0.041100003 0.0034333346 0.0484 0.05375 -0.06525 0.069299996 0.013533331 0.049366668 0.011700001 -0.035833336 -0.027983336 -0.05795 0.015833337 -0.051983334 0.051366664 -0.042999998 -0.021499999 -0.05913333 0.06758334 0.02025 -0.15248334 0.0013666674 -0.04413333 0.035266668 0.04186667 -0.14846668 -0.0017666658 -0.037583336 -0.03686667 0.024016669 -0.019700002 -0.05365 0.039233334 -0.005716668 0.057899997 -0.016483333 -0.01275 -0.03405 0.013533333 0.0626 -0.038733333 -0.040566668 0.061800003 0.08923333 -0.07146667 -0.02491667 -0.019866668 0.028916668 0.039883334 0.042233333 0.052933335 0.055949997 -0.59751666 0.014000001 -0.014666667 0.0070833317 0.026883334 0.030983336 -0.080583334 0.011033332 -0.0261 0.002666667 0.040200002 0.05533334 0.020983335 0.035550002 -0.0097 0.03311667 0.029516667 -0.00245 0.013216669 0.050433334 0.106683336 0.056366675 -0.036516666 0.065400004 0.024583332 0.068166666 -0.06631667 -0.077133335 -8.666666E-4 -0.018649999 0.04348333 -0.23793334 0.05568334 -0.057016667 -0.04526667 0.0065333336 0.11323334 -0.028766666 -0.05271667 -0.051083334 -0.0014499997 0.0036166671 0.0036333334 -0.027116667 0.011366665 0.064550005 -0.0072 0.02466667 -0.17786667 0.043083336 0.0022999994 -0.025433335 0.012383333 0.05155 6.1666965E-4 -0.05471666 0.026483333 0.024333334 -0.050183333 0.021283334 0.027600003 0.027516669 -0.062433332 -0.0016333312 -0.038516667 -0.024216667 0.024500001 -0.35748333 -6.499998E-4 -0.037366666 -0.037266668 0.0837 -0.06726667 0.17690001 -0.020566668 -0.0011666666 0.011150001 0.0101666665 0.011283334 -0.058800004 -0.10631667 -0.03891667 -0.022 -0.048999995 0.0019500002 -0.016066669 -0.028 0.033266667 -8.166656E-4 -0.027333334 -0.079950005 0.24326667 -0.040883332 -0.05041667 0.05378334 -0.023333333 0.07253334 0.08455001 0.046633333 -0.02375 -0.04251667 -0.035016667 0.0069000004 0.0404 -0.07608333 -0.057233334 -0.015283334 0.04348333 -0.0023999992 -0.011083334 -0.004333335 0.012866667 -0.031016666 0.018083334 0.05488333 -0.034283336 0.009233336 0.025866669 0.11420001 0.062250003 -0.020066667 0.054083332 0.024183337 -0.042100005 0.23398334 -0.19508335 0.02946667 -0.004133333 -0.019150002 -0.025616666 -0.0010833337 -0.023283333 0.03855 -0.08903333 0.03818333 0.023200002 -0.018733332 -0.0264 0.004949998 -0.039216667 0.039216667 0.04365 -0.032033335 0.006033335 0.012716669 -0.029966665 0.063433334 0.090349995 -0.08216667 -0.042000003 -0.03785 0.01615 0.023749998 0.055833332 -0.047366664 -0.035000004 0.07856667 0.025449997 0.10365 0.024533331 -0.014816667 0.008216667 -0.006783331 -0.09048334 0.008233334 0.031666666 -0.014216665 0.017016668 -0.07198334 -0.021483336 -0.021266667 0.022833332 -0.033533335 -0.09531667 0.045816667 0.0233 -0.06481667 -0.10988334 -0.20805001 -0.013366668 0.37525004 0.03855 -0.03155 -0.11585 -0.097716674 0.14123335 -0.25561666 -0.069683336 0.0047666663 -0.03398333 0.046516668 -0.013800002 -0.10136667 -0.05863334 -0.012183334 0.086333334 -0.003316667 0.35343337 -0.0037333346 0.025433335 -0.072550006 -0.012616667 -0.02595 0.019683335 -0.11566668 0.028199999 0.009183334 0.08068334 0.087383345 0.059666663 -0.0013666674 -0.11748333 -0.34281668 0.015483334 -0.15291667 0.031033335 -0.17831668 -0.08555 -0.032300003 -0.03145 -0.06598333 -0.004900002 -0.017233333 -0.03386667 0.015633333 0.013266667 4.6666712E-4 0.07508334 0.022433333 0.0038500007 -0.018850002 3.8333487E-4 -0.028199999 -0.020833332 -0.10925 0.0556 -0.035033338 0.07321667 0.03246667 0.038566668 -0.10518333 0.016866667 0.03728334 0.018083336 -0.009500002 0.08168334 0.015616666 -0.03126667
department -0.0727 -0.117400005 0.001600001 -0.05085 -0.01495 0.04705 -0.0276 0.10165 0.07795 -0.0661 -0.0206 -0.01315 0.0487 -0.09 -0.00555 0.063599996 0.0808 -0.0122 -0.0391 -0.0014000004 -0.0585 -0.091 0.0827 0.13175 -0.029649995 -0.1669 -0.0028 -0.044850003 -0.04265 0.0189 -0.00485 0.03965 0.037699997 -0.0682 -0.078099996 -0.1074 -0.026250001 0.18125 0.112849995 0.0482 0.11665 -0.00835 0.0288 -0.0012499988 0.026250001 0.016150001 -0.022550002 -0.03205 0.0050999997 0.027599998 0.0107 0.0643 -0.59220004 -0.0438 0.02615 -0.0173 -0.0184 0.028649997 0.05405 -0.0392 0.08855 0.012399998 -0.008950001 -0.0134499995 -0.023599999 0.10795 0.077250004 0.07325 -0.053899996 -0.03855 0.010000002 -0.0298 0.0661 -0.15115 -0.013050001 0.04245 0.0306 0.01955 -0.0016000001 0.0667 0.00705 0.03865 -0.01765 -0.17504999 0.03935 -0.06395 0.10345 -0.02605 0.05685 -0.1001 0.1618 -0.0045000003 -0.017900001 -0.0304 -0.0094 -0.07965 -0.0033 -0.03875 0.036799997 0.0519 -0.18705 0.025650002 0.07025 -0.0701 0.0016000001 0.06925 -0.09315 0.106350005 0.07455 0.00615 0.0069999993 0.017699998 -0.0253 0.0721 -0.008000001 -0.03875 -0.0721 0.104600005 -0.026150001 -0.3979 -0.050449997 -0.07525 -0.016449999 0.01505 0.03815 0.2254 0.013050001 0.08575 -0.06235 0.04235 -0.00495 0.084199995 -0.035499997 0.043899998 -0.0597 0.0067500006 0.062800005 -0.016400002 -0.07115 0.0057 0.02975 0.02025 -0.04015 0.18645 0.023200002 -0.0181 -0.0231 -0.06205 0.0366 -0.0203 0.0441 0.0352 0.0022500008 0.04015 0.0467 -0.00885 0.023750002 -0.14365 -0.0577 0.05245 0.0046499968 0.03195 -0.0081 -0.062099997 -0.070199996 -0.0332 0.07085 -0.05755 -0.0286 0.08155 -0.04555 -0.10205001 -0.07575 0.0317 0.09715 -0.06755 0.1861 -0.0747 -0.038 0.08585 0.0831 0.0304 0.0629 -0.03415 0.03695 -0.16409999 -0.05245 -0.0466 -0.04405 -0.0495 0.02395 0.020400003 0.0889 -0.037 -0.15405 0.030000001 0.02255 0.11845 0.11455 -0.0703 -0.015099999 0.0073000006 -0.035000004 0.050899997 0.071 -0.023699999 0.071100004 -0.010450001 0.009300001 -0.059299998 -0.0456 0.097 -0.0361 -0.1489 -0.0058000004 -0.07715 0.016999999 0.0313 -0.020149998 0.090349995 -0.0028999988 -0.013599999 0.025599997 -0.03825 0.00415 -0.1343 0.02355 -0.06945 -0.144 -0.011849999 -0.04905 0.016149998 0.37865 -0.0245 -0.0331 -0.10335 -0.07675 0.106000006 -0.24759999 0.107999995 -0.027449999 -0.049200002 0.05915 -0.03325 -0.0347 -0.0655 -0.013900001 0.0028000001 -0.050350003 0.31800002 0.02465 -0.01035 -0.1135 -0.01845 0.058700003 0.0344 0.0391 0.0554 0.051400002 0.03075 0.030000001 -0.03135 -0.049850002 -0.0748 -0.28375 0.023699999 0.08475 0.016350001 -0.2031 -0.02555 -0.0068499995 -0.0168 1.9999966E-4 0.064849995 0.04885 -0.0037 -0.023899999 -0.0471 -0.078049995 -0.0109 -0.054449998 -0.0673 0.1044 0.0479 0.051799998 -0.041249998 -0.0691 0.04425 0.06605 0.06385 0.07795 -0.0686 -0.0412 -0.0218 -0.0156 0.05535 0.03125 0.095599994 -0.054800004 0.032500003
district 0.0934 0.043149997 0.1155 -0.072075 0.016449999 0.04145 0.077149995 -0.064475 -0.102875 -0.114 -0.059524998 -0.030074999 -0.023925 -0.005725 0.1099 -0.053500004 0.015950002 -0.053575 0.04445 -0.085325 -0.1907 -0.005950002 -0.063525 0.105775 0.0030500013 0.013425 -0.13835 0.0401 -0.041475 -0.02935 0.005774997 0.05655 -0.159875 0.0018000002 0.05995 0.007200001 0.01355 0.13284999 -0.0244 -0.007999999 0.011025 0.14247501 -0.052050002 0.0387 0.0036499985 0.132975 -0.13475001 -0.010799998 0.058924995 -0.06345 0.015449999 0.031675 -0.6201 -0.063225 -0.0031750016 -0.030524999 -0.013949999 0.088175 -0.02115 -0.1024 0.10715 0.011949999 -0.050075 0.017475002 -0.031475 -0.09917499 -0.0499 0.024175 -0.037825003 0.008850001 0.063374996 -0.004125002 -0.05745 -0.033775 -0.03615 0.016299998 0.0077500003 -0.074650005 -0.090525 0.036675 0.0189 -0.024725 0.0056000017 -0.2066 -0.0153 0.1081 -0.07265 0.0012749992 0.2033 0.124425 0.1251 -0.0077749984 -0.0458 -0.045275003 -0.06645 0.024525002 0.10807501 -0.039225 0.0196 0.061850004 -0.21977499 0.093600005 -0.02125 -0.067324996 0.054625 -0.0060749985 -0.09815 -0.010624999 0.047975 -3.500022E-4 0.072325 0.057450004 0.041325 0.03825 -6.2500034E-4 -0.083525 0.10410001 -0.0070499983 0.061274998 -0.3509 0.0013499996 -0.121175006 -0.0585 0.0016750004 -0.052050002 0.22670001 -0.035949998 0.030050002 -0.089475006 0.022924997 -0.11185 -0.0055749966 0.17450002 0.1046 -0.063475 0.046125002 0.11645 0.085750006 0.024600001 0.018800002 0.046175003 -0.045575 -0.006774999 0.21282499 0.01695 0.012050003 0.0367 0.097475 0.036 0.0208 0.071675 -0.026800001 0.030949999 0.051075004 -0.043675 0.10745 0.043999996 -0.07335 -0.116225004 0.04655 0.10865 0.031875 0.0855 -0.078775 0.06442501 -0.061049998 0.088925 0.0169 -0.034075 0.06385 -0.123449996 -0.123025 0.118875 0.083924994 0.025650002 -0.025375 0.27955002 -0.152525 -0.036149997 -0.011599998 0.075475 -0.047475003 -0.082325004 0.0632 -0.043175 -0.039675 -0.011175 0.0837 -0.127225 0.037074998 -0.082425 -0.16392499 0.054850005 0.079725 0.009949999 0.0278 -0.045275003 0.008925 0.11705 0.0903 0.026175 0.093925 -0.061525002 0.04835 -0.071925 0.0201 0.045775 -0.15112501 -0.0519 -0.1011 -0.032325 0.05165 0.050875 -0.04995 -0.040799998 -0.04675 0.06635 -0.01505 -0.0634 -0.068275 0.046200003 0.060150005 0.00925 -0.0059750006 0.00495 -0.047174998 -0.0506 -0.098425 -0.045475002 0.018225001 -0.1751 -0.008575 0.38562497 -0.06045 -0.0036999984 -0.119825 -0.014450001 0.084199995 -0.27377498 0.15245 0.071325004 -0.097674996 -0.053150002 -0.022749998 0.035699997 -0.05065 0.020725 -0.085675 0.0010749996 0.386325 -0.10985 0.052775 0.122725 0.051524997 0.0379 0.0108 0.15325001 0.08607501 0.021025002 0.045950003 0.0317 0.046075 0.057525 -0.0245 -0.468175 0.1418 -0.09105 0.036974996 -0.20542501 0.010225 -0.065825 0.0012499988 0.018150002 -0.08605 0.05065 0.061924994 0.042549998 -0.10107501 0.0926 0.048299998 0.009025002 -0.032874998 0.048049998 0.086325 0.0063500013 -0.095474996 -0.050575 0.042825 -0.0867 0.037025 0.024425 -0.010374997 -0.17732501 -0.10557501 9.313226E-10 0.104100004 0.052474998 0.057974998 0.0043250006 0.019875001
doctoralAdvisor -0.033900004 0.09954286 0.16285715 0.0014142842 -0.009600002 0.1472143 -0.062614284 0.06668572 -0.100128576 0.012671432 -0.029157141 0.0041000005 0.006457144 -0.11600001 -0.05738572 -0.015928574 0.016828572 -0.04157143 0.03981429 0.03267143 -0.14318572 0.06861429 0.015142855 0.15588573 0.09937144 -0.08754286 -0.0783 -0.05798571 -0.12632859 -0.23728573 -0.005357142 0.013442857 -0.09437143 -0.075985715 -0.027042858 0.022771427 0.046257146 0.051842853 -0.014514288 -0.012414287 0.03214286 -0.09705714 -0.02927143 -0.0048285737 0.07621428 -0.030085715 0.009557143 -0.06571429 0.0052285725 0.074842855 0.1134 0.19170001 -0.68590003 0.041114286 0.060828574 0.012900001 -0.11925715 0.053571433 0.117800005 -0.052971434 -0.012757144 -0.01132857 -0.086185716 -0.08565714 -0.06362858 0.16587144 0.03765714 -0.034285717 -0.022957142 -0.017442856 -0.14452858 -0.11230001 -0.047985714 -0.005471428 0.003985716 0.050742857 0.026514286 0.0022857115 -0.032414287 0.058685713 0.0284 0.031600002 -0.0469 -0.21602859 -0.022242857 -0.0565 -0.07985715 -0.14565714 0.22901429 -0.03732857 -0.05114286 0.094257146 -0.04414286 0.02805714 0.09577144 0.037342858 0.017014287 -0.04074286 0.021985715 0.025557142 -0.2091857 -0.0024000024 -0.20011431 -6.7142985E-4 -0.08837144 -0.0050285705 -0.026742853 -0.02714286 -0.007842858 0.017542858 0.056357138 0.12917143 -0.07705715 -0.0044000014 -0.052214287 -0.0889 -0.10238572 0.108671434 0.0058285715 -0.35144287 0.03527143 -0.03187143 -0.013485712 -0.03968572 0.06371429 0.21800001 0.10065714 -0.07751428 0.23472859 0.01087143 0.04914286 -0.051185716 -0.007671429 -0.06434286 5.4285733E-4 0.042442862 -0.0744 0.10895715 -0.08938572 0.05838572 0.04237143 0.021114286 0.11105714 0.19354287 -0.0014428577 -0.09037144 0.042199995 -0.014557143 0.07904285 0.073642865 -0.07334285 0.034671433 0.18278572 -0.0026571422 -0.015457141 0.028000003 0.024000002 0.010300002 0.04081429 0.038285717 -0.012528569 0.008828572 0.010342858 0.121800005 0.051485725 -0.14774285 0.06112858 0.063285716 0.105100006 0.0060571423 0.07291429 -0.18337144 0.013800003 -0.1003143 0.05257143 0.045528576 0.25885713 0.06830001 -0.060257144 0.020714283 -0.016085714 -0.022028571 -0.033414286 -0.025771432 0.02274286 -0.058328573 0.0055285743 0.1360143 -0.052114286 -0.03127144 -0.010257143 0.0237 0.03787143 -0.08148572 -0.043414287 0.05694286 -0.019285716 0.053528573 0.11200001 -0.04072857 -0.012485715 -0.07315715 0.0343 -0.15317145 0.03862857 0.0018999984 -0.1308857 -0.082342856 -0.018699996 -0.0364 0.0419 0.09347144 -0.013214286 -6.428574E-4 0.071585715 -0.05207143 0.04857143 -0.019985715 0.014542859 0.09502859 0.0012285709 0.03822857 0.04804286 0.0069000013 -0.022014286 -0.07454286 5.571406E-4 -0.043657146 -0.12108572 -0.095 -0.32311434 0.0046857162 0.3510286 -0.102071434 0.041514292 -0.16655715 -0.10628573 0.12612857 -0.26997143 -0.020785715 -0.06674286 -0.073971435 -0.022642858 0.012000003 -0.06728572 0.10392857 0.051500004 0.09358572 -0.015528572 0.3819286 0.018814286 -0.11478571 -0.22484286 0.14552858 0.13078573 0.014014285 6.428574E-4 -0.07172858 -0.09402857 -0.004157143 -0.14680001 -0.030857142 0.030228572 0.060285717 -0.44925714 -0.0060999985 0.040642858 0.015114287 -0.20032857 -0.0099 -0.035242856 -0.059728574 0.031299997 0.03842857 0.022071432 0.040257145 0.031514287 -0.039485715 0.05227143 0.016642857 -0.012814288 0.109385714 0.052785717 0.049614288 0.08462857 -0.014671431 -0.07505714 -0.07427143 -3.2857168E-4 0.0763 -0.06877143 -0.10292857 0.089214295 -0.013428572 -0.04767143 7.2857126E-4 0.09104286 0.07211429 -0.0531 -0.051628575
doctoralStudent -0.029199999 -0.035733335 0.143 -0.08150001 -0.061500005 0.05313333 0.028533336 0.08163334 0.08343333 0.021000003 0.0075999997 -0.0502 -0.041866668 -0.041400008 -0.07720001 0.0479 0.046233334 -0.13496667 0.043633334 -0.025500003 -0.22940001 0.041166667 0.09926667 0.18363333 0.1032 -0.09306668 -0.03266667 0.050433334 -0.030666668 -0.12033334 -0.035266664 0.027500002 -0.016533334 -0.17840001 0.015866667 0.056600004 0.139 0.0423 -0.19943333 -0.057966664 0.0055333315 0.039 0.0335 -0.06610001 -0.010799999 0.0023000005 -0.0040333346 -0.116 0.0211 0.16126667 0.06510001 0.111933336 -0.7156334 -0.070199996 -0.005066668 0.10053334 -0.038766667 0.110633336 0.11020001 -0.0063333316 -0.029800002 -0.043866664 -0.16720001 -0.034033336 -0.08036667 0.091233335 0.04426667 -0.075500004 0.04616667 -0.010766666 -0.094166666 0.0058000013 0.12013333 0.1796 -0.038366668 0.16230002 0.07076667 0.042933337 0.044733338 0.0234 0.014166667 0.050466668 -0.018199999 -0.1895 -0.045966666 -0.053766668 -0.024566665 -0.120566666 0.28173333 0.014533332 -0.05756667 0.12393334 -0.03856667 -0.09086667 0.0471 0.031133335 -0.06406667 -0.07093333 -0.021566665 -0.020633334 -0.17993334 0.019 -0.14923334 0.06853333 -0.10023334 -0.035099998 0.034133337 -0.15246668 -0.1049 -0.042666666 -0.053733334 0.16693334 0.07006667 -0.051633336 0.0037666685 -0.15716666 -0.09013333 -0.017400002 -0.0666 -0.2411 -0.037566673 -0.11053334 0.15296668 0.02186667 -0.015033334 0.2167 0.16423333 -0.022233335 0.1584 0.030733336 -0.057233334 -0.0592 0.077366665 0.011133334 0.07013334 0.003533336 -0.024333334 0.11486667 -0.11020001 -0.0019333325 0.041033335 -0.0095 0.019933335 0.1338 0.056700002 0.036100008 -0.057633333 0.0636 -0.04343334 -0.04923334 -0.062000003 -0.0236 0.08746667 -0.025233334 0.024100002 0.060500003 0.115 -0.017366666 0.045366667 0.0863 0.091000006 0.042633336 0.046033334 0.013 0.12973335 -0.074766666 0.07986666 0.1442 -0.051333334 0.026566667 -0.048666667 -0.18403333 0.0529 -0.1514 0.059266668 -0.023466669 0.27023333 -0.013466667 -0.024233334 -0.11223333 0.024300002 0.028099999 0.1257 -0.021266667 -0.08033334 -0.016800001 -0.017933333 0.16196667 -0.13316667 -0.110300004 -0.0221 -0.017233334 0.042733338 -0.07693334 -0.0047666654 0.040200002 -0.050133333 -0.013566667 0.0661 0.0062000016 0.042733334 -0.11670001 0.102966666 -0.12043333 0.055366665 0.0816 -0.09233334 -0.059466667 0.058466673 0.091233335 0.06296667 0.015333334 -0.0695 -0.066866666 0.0352 0.004366666 0.10863334 0.015300001 0.073300004 0.056000005 -0.10136667 -0.084300004 0.11646667 -0.00713333 -0.0141 -0.04256667 -0.05516667 -0.045500003 -0.1655 -0.16296667 -0.074366674 -0.046833333 0.28860003 -0.03576667 -0.034766667 -0.18426667 -0.1266 0.07873334 -0.21783333 0.0386 0.02426666 -0.1604 0.0592 -0.053233337 0.0258 0.1245 -0.080233335 0.12506667 -0.023400001 0.36403334 -0.11676666 0.0366 -0.21966669 0.104499996 0.12163334 -0.069900006 -0.020133335 -0.08656667 -0.041533332 0.017633336 -0.038033333 0.07853334 0.0019000005 0.06116667 -0.37906668 -0.0282 -0.0205 -0.0785 -0.07260001 -0.10866667 -0.019533334 -0.13053334 0.12516667 0.021500003 -0.028800001 0.0451 0.13246667 -0.06863333 -0.0153 0.0181 -0.013533334 0.01886667 0.025933336 0.057633333 0.115499996 -0.0969 -0.089 -0.1184 0.0066666678 0.09176667 -0.05766667 -0.051066667 -0.0806 0.023100002 0.023966668 0.0715 0.10480001 0.06046667 -0.011433336 0.021533336
employer 0.0554 0.009033333 -3.3333403E-4 -0.05826667 -0.026333332 -0.051200002 -0.11013334 -0.10336667 2.6666652E-4 -0.0056666657 0.07446666 0.022499999 0.09696667 -0.12596667 -0.121800005 -0.11206667 -0.028666666 0.11026667 0.034 0.006800001 -0.22923335 -0.016133334 0.055533335 0.08793335 0.015533335 -0.0033333334 -0.09536667 0.027833333 -0.13653335 -0.08376666 0.007133335 -0.017866667 0.0309 0.010000001 0.0301 0.055166673 0.028900001 0.03596667 0.0383 -0.052833334 0.0913 -0.051700003 0.015766665 -0.0731 0.035266668 -0.023866666 0.0624 0.12926668 0.04116667 0.10450001 0.020933334 0.09656667 -0.6415667 -0.055433333 0.0069666654 -0.020433335 0.13486667 0.008566668 -0.011966667 0.0488 0.06026667 0.053766668 0.008333335 -0.017266665 -0.029466666 -3.0000013E-4 0.096433334 0.17 -0.06733333 -0.09996667 -0.068166666 -0.0452 0.11970001 0.0784 0.042099997 0.14410001 0.15456668 -0.09843334 -0.022200001 0.16443335 -0.0195 0.1361 0.11296666 -0.14936668 0.005400001 0.059366666 -0.0475 0.03996667 0.18193333 0.0036333315 0.098866664 0.053300004 -0.005833333 0.011933334 -0.004466667 0.060500003 -0.0565 0.04696667 0.027066667 0.0898 -0.19433334 0.026133334 0.19913334 0.0062666666 -0.022400003 0.11616667 -0.013733334 0.030033333 -0.067933336 0.024566665 -0.03863333 0.06136667 -0.053933334 0.08940001 -0.109233335 -0.13496667 -0.05346667 0.08076666 -0.053233337 -0.35603333 0.08183333 0.1516 -0.015733331 1.9999966E-4 4.3333074E-4 0.2009 0.0729 0.02686667 0.072100006 -0.14570001 -0.0068333326 0.08113334 -0.0027666665 -0.039800003 0.022733334 0.12416667 0.032933336 0.03556667 -0.113933325 -0.09486666 -0.10533333 0.040566664 0.026266668 0.15100001 0.0379 0.11233334 -0.013800003 -0.018 -0.072699994 0.011266666 0.0616 0.07656667 0.043000005 -0.056033336 -0.028800001 -0.04076667 0.1272 -0.0017333329 0.16183333 0.0025666654 -0.043333333 0.10120001 -0.037333336 -0.032233335 -0.0061666667 0.011466667 0.061800003 0.02486667 -0.035600003 0.13176668 -0.06533334 0.13356668 0.008933334 -0.14693333 -0.0098 0.006966667 0.25136667 -0.07703333 -0.20516668 0.049633335 0.045766674 0.057433333 -0.056166664 -0.10806667 0.07603334 -0.045333337 -0.06323334 -0.07593334 -0.16603334 -0.09446667 0.012266668 0.016766667 0.06806667 -0.0221 -0.080633335 -0.024933334 -0.029933333 -0.0461 0.14276668 -0.21886668 0.013833333 -0.067433335 -0.10326667 -0.032966666 0.16080001 0.048466668 -0.07716667 -0.13546667 0.06973334 -0.033833336 0.0531 0.038933333 0.0749 -0.070533335 0.037833333 -0.096066676 0.0041999994 0.06796667 -0.052933335 9.6666755E-4 -0.14086667 -0.035333335 -0.013533335 0.0406 0.06786667 -0.078200005 -0.12356667 0.03236667 -0.10836667 -0.10476667 -0.085099995 0.01566667 0.36253333 -0.11303334 0.054566666 -0.17823336 -0.1445 0.1198 -0.24383335 0.053366672 0.030966666 0.007166669 -0.029900003 -0.022266664 0.0487 -0.0057666665 -0.016966669 -0.1141 0.09836666 0.3668 0.10293333 -0.10886668 -0.1893 -0.016666668 0.011766665 0.03896667 0.01973333 0.0625 -0.05856667 -0.0043666675 -0.049433332 0.1621 -0.05183333 0.09796667 -0.42096668 -0.009966666 -0.056833338 -0.20716667 -0.16213334 0.0841 0.006566667 0.0739 -0.06266667 -0.031833336 0.0636 -0.033333335 4.3333386E-4 -0.09536667 0.030100001 0.09396666 -0.053500004 -0.04186667 0.012966665 0.027366666 0.021933336 -0.20156667 -0.09633334 -0.08133333 -0.024733335 0.012499998 0.028733334 -0.14023334 -0.084466666 -0.081533335 0.0448 0.06373334 0.026733335 0.0022333316 -0.06300001 -0.0018000007
formerBandMember 0.08098462 0.008930771 0.03825385 -0.051907692 -0.036884617 0.071200006 -0.027276922 0.008284617 -0.010530772 0.015476923 0.0067999996 0.026930772 -0.08406154 -0.0691077 -0.052146155 -0.058407694 0.012823078 0.039138466 0.027584616 -0.055784617 -0.10445384 0.058023073 -0.015776923 0.010369231 0.060638465 -0.0029153842 -0.013407694 0.067700006 -0.032769233 -0.097823076 0.056753844 -0.01959231 -0.011184615 0.013630769 0.11246154 0.037553847 0.058599997 -0.061653845 -0.019684616 0.04110769 -0.09446923 -0.01069231 -0.038830772 0.00753077 0.030884616 -0.0110461535 0.03955385 -4.999993E-4 0.05164615 -0.038523078 0.025815386 0.011276924 -0.6577923 -0.0022384622 0.026100004 -0.010838463 -0.0030769238 0.07411539 0.01942308 -0.097830765 0.013969231 0.0027846165 0.006384617 -0.046661545 0.0033999986 -0.026030768 0.015384616 -0.03873077 -0.018069234 -0.015261538 0.07507693 0.016761541 0.006399999 -0.047153845 0.0014846165 -0.0077307685 -0.0058615394 0.057384618 -0.008684616 -0.065623075 0.02126154 -0.023584614 -0.048392307 -0.21533075 -0.03506154 -0.044576928 -0.0037153857 -0.05234616 0.20012309 0.049192306 0.0473 0.13286923 -0.005707692 -0.004246154 0.06398462 0.05954615 0.007753846 -0.019015385 0.014200003 -0.017138463 -0.10827692 0.011738461 0.08426923 -0.048423078 -0.021407694 0.066084616 0.12071539 -0.026630769 -0.086246155 0.02499231 -0.012892309 0.0012153857 0.029361539 -0.028323079 -0.032715388 0.0036923068 0.0086230775 -0.06214616 0.008730768 -0.2521077 0.027638461 0.033838462 0.04753077 -0.026407694 -0.028900001 0.13572308 -0.037446152 -0.07578462 0.12519231 -0.06776154 0.036392312 0.09020769 0.003715385 -0.061907694 0.02349231 -0.18276924 0.0014153854 -0.053315386 -0.098100014 0.022638464 0.023815388 -0.015092308 -9.692306E-4 0.15737692 0.054353848 0.0020461548 0.068207696 -0.09008461 -0.0026384627 0.05416154 6.076923E-4 -0.020576928 0.015199998 -0.016746152 -0.016776923 -5.5384636E-4 0.053169228 0.035823077 -0.03596154 0.022515384 -0.008015385 -0.03879231 -0.021092309 0.09864616 -0.013261539 -0.05366154 0.060215384 0.037715387 -0.06 0.04089231 -0.008669232 -0.03894616 -0.0246 -0.07238462 0.032246154 0.026346155 0.22822307 -0.19385386 0.041946154 -6.692315E-4 0.054946158 0.012561539 -0.060492314 0.034615386 -0.018615386 -0.0047846157 0.029123079 -0.0060615377 0.10186924 -0.014046154 4.692307E-4 -0.056146156 0.023307694 -0.015084618 -0.013623078 0.044638462 0.0026461536 -0.06266923 0.09306923 -0.010715387 0.03398462 -0.0043923086 0.016576923 -0.068576925 0.12088463 0.0072153863 -0.06003077 -0.06844615 -0.012969234 0.003830769 0.05654616 0.102646165 0.0021615375 0.060907695 -0.008738463 -0.047392305 -0.013638461 0.010776922 0.022753848 -0.052676927 0.012284616 -0.03536923 -0.017346153 0.05562308 -0.049230773 -0.016892307 -0.025615387 -0.03603846 -0.028446157 -0.04283846 -0.028115386 -0.0034923074 0.26033077 0.041284617 -0.033746153 0.026938463 -0.0149384625 0.12278462 -0.1978846 -0.045476925 -0.018915385 -0.012646155 0.013123078 -0.020953849 -0.005946155 0.03053077 -0.03103077 -0.01213077 -0.036638465 0.33787695 -0.030353846 0.051376928 -0.05345385 0.04886154 0.16172309 0.0034384613 0.02652308 0.026007695 0.036046155 0.010638462 -0.03846923 -0.0071153846 -0.027876923 -0.048230775 -0.27456155 0.036300004 0.017261539 0.04375385 -0.19295387 -2.230767E-4 -0.11546924 -0.003761538 -0.0020615382 -0.03736154 -0.0047307704 -0.037238464 0.0017230769 0.0055230777 -0.047123075 0.06216154 -0.032076925 -0.024415387 0.040307697 7.9230877E-4 0.044246156 0.026938463 -0.084838465 -0.07785385 0.026315385 0.05605385 -0.0037461538 0.07812308 -0.040692307 0.012061538 0.041738465 -0.027784618 0.022569232 0.053130772 -0.0022000019 0.03446923
formerTeam 0.06493333 -0.007458334 0.0563 -0.012516666 -0.021341667 0.07511667 0.018283335 0.03851667 -0.0039249994 -0.013708334 -0.027866667 0.023666665 -0.032075003 -0.039533332 0.0066416664 -0.0256 0.022400003 0.014425002 0.051258337 -0.037466668 -0.061558336 0.055283334 -0.06516667 0.031408332 0.04516667 -0.021033332 -0.019041669 0.084358335 -0.062391665 -0.08676666 0.016325 -0.033141665 -0.023816667 0.016366668 0.082675 0.022583334 0.056316666 -0.032466665 -0.028216667 0.027716666 -0.053041667 0.005966667 -0.03648334 0.029833335 0.017633334 -0.041891664 0.0013499993 -0.013116665 0.04625 -0.016508332 0.023591667 -0.009383336 -0.64225835 0.019191667 0.005566669 -0.025083337 0.041483335 0.054233335 -0.011375001 -0.07001667 0.006666667 0.021933336 0.0172 -0.03525 0.024816668 -0.05191667 0.018558335 -0.015999999 0.014899999 0.019958336 0.031533338 -0.0057499995 0.052875005 -0.05419167 -0.018691666 0.007275003 -0.012608334 0.05200833 -0.015391666 -0.043158334 -0.0025000004 -0.014258334 -0.0020583335 -0.24301669 0.011775 -0.038833335 -0.023625001 -0.008125 0.19420001 -0.009083334 0.029475002 0.0783 0.031166669 -0.0036833338 0.0185 0.0034916662 0.0054749986 2.500005E-4 -0.05623334 -0.013025001 -0.14343333 0.053508334 0.050016668 -0.040750004 0.032250002 0.039741665 0.086766675 -0.016800001 -0.066633336 0.05646667 -0.016783334 -0.015299998 -0.031833336 0.023841668 0.0037583332 -0.0011416662 -8.833334E-4 -0.018258333 0.002925 -0.27620834 8.333474E-6 -0.0044416655 0.025041668 0.028366666 -0.05586667 0.16108334 -0.0604 -0.080625005 0.061925 -0.038208336 0.03294167 0.026758334 0.013716668 -0.041158333 -0.0023083338 -0.21696667 3.666673E-4 -0.044025004 -0.054008335 0.025875 0.02614167 -0.022200001 -0.008049998 0.17726669 -0.029008335 -0.027625 0.06515001 -0.07371667 0.039875 0.061600007 0.036775 0.005966666 -0.006941667 -0.037925 -0.019583333 -0.010775 0.015533335 0.03179167 -0.026275001 0.029108334 0.018258333 -0.018558335 -0.035733335 0.078725 -0.033033337 -0.032375 0.07564168 0.005833335 0.0020416672 0.048258334 -0.031266667 -0.013233334 -0.039691668 -0.060475003 0.017008333 0.012633333 0.23058331 -0.22035834 0.0106333345 0.015299998 -1.6666639E-4 0.004583334 -0.023116669 0.0010916665 -0.011658333 -0.0023083328 0.029225 -0.0039749993 0.08155833 -0.0203 -0.008758334 -0.07897501 0.033025 -0.0123 -0.016333334 0.0062833326 0.027166665 -0.045091666 0.12443334 0.06260833 0.02174167 0.006099999 0.023500001 -0.030866668 0.061100002 0.03054167 -0.06170833 -0.09555 0.029358333 -0.0023833343 0.0432 0.06536667 -4.8333345E-4 0.031133335 0.007808334 -0.05255 0.0025499999 5.499994E-4 -0.026941668 -0.048725 0.037575 -0.021941666 -0.037 -0.004950001 -0.012600005 -0.049008332 -0.030825 -0.020516668 -0.035175003 -0.0531 0.0068166675 -0.0302 0.2830417 0.012458334 -0.025633333 -0.0041166646 -0.06544167 0.15336667 -0.19905834 -0.03291667 0.010275002 0.019333335 0.024725001 -0.031375002 -0.01745 -0.0045999996 -0.019891666 -0.0103 -0.033575 0.35770833 0.0069416664 0.05415 -0.045500003 0.028416669 0.14594167 0.0062833335 -0.006983335 0.042383336 0.021808334 0.034541667 -0.0126749985 0.0023500014 0.0024249996 -0.058025002 -0.23824167 0.0036416666 -0.025625002 0.005983333 -0.23427501 -0.012775 -0.059608337 -0.024383334 0.011883333 -0.061358333 -0.030291667 -0.029975003 0.011116668 -0.046525 -0.07651667 0.07893334 -0.03129167 0.0029666661 0.04319167 0.037641667 0.039225 0.010983333 -0.06285 -0.0013750022 -0.0126 0.04446667 0.025391668 0.022441668 -0.0564 0.026383333 0.07116667 0.012733333 0.023216669 0.06294167 0.03779167 -0.0074083335
foundationPlace 0.056035712 -0.013799999 0.03664286 -0.010221429 -0.016100002 0.035135716 0.070785716 0.015585717 0.011192855 -0.022907143 -0.04848572 -0.017442858 -0.013571431 -0.077114284 0.056407142 0.027635714 0.017457142 0.047128573 -0.022964288 -0.0047571426 -0.07278571 0.013935715 0.024278574 0.067150004 0.015642859 -0.093750015 0.02574286 -0.08421429 -0.024628572 -0.042107146 -0.040557146 0.024028571 -0.032250002 -0.022742854 0.03904286 -0.007650001 -0.0031857148 -0.017514287 6.142863E-4 0.024392856 -0.058257144 0.0038999992 0.011507143 0.060128573 0.0114071425 0.008264286 0.035778575 -0.016807145 0.036228575 0.0024285708 0.009407144 0.13068572 -0.6526429 0.037242852 0.011392859 -0.0067500016 -0.08526429 -0.064964294 0.015814288 -0.012335716 0.019335713 0.065592855 0.06137143 -0.04773571 -0.012207146 0.034157142 0.014685714 -0.009492859 0.057807148 0.0070285713 -0.057685718 -0.024985714 -0.017264284 -0.02805 -0.008121429 -0.002335715 0.034950003 -0.059071433 0.019064285 0.0011714292 0.011478571 0.024228571 0.0064071426 -0.18770002 0.010542857 -0.051850006 0.057092857 0.041307148 0.12213573 -0.030757146 0.057500005 0.004335714 -0.03929286 0.055128574 0.06587143 -0.022792863 0.062628575 -0.02692143 0.02555 -0.017700002 -0.14549285 -0.05994286 -0.0060000014 0.08155714 -0.039235722 -0.021100001 0.031514287 0.014364285 -0.007978573 -0.069557145 -0.024950003 0.027849998 0.03512857 0.031464286 0.058971427 0.024307143 0.04888572 -0.032014288 0.015242858 -0.28523573 0.047792863 -0.017742857 -0.037850004 0.06778572 0.021900004 0.18214288 -0.01732857 0.027185712 -0.025464289 -0.015657144 -0.024821432 0.014650003 -0.04542858 -0.054535717 -0.016164286 -0.007678572 -0.044014283 -0.03844286 -0.041307144 -0.022907143 -0.023450004 -0.026035717 0.0076428563 0.18322858 1.7857259E-4 0.05997143 0.04664286 -0.004485716 0.049307145 0.04046429 0.07565715 -8.214271E-4 0.088678576 -0.023035714 0.013528571 0.02946429 0.041878574 -0.03243571 -0.07742857 0.020842856 -0.073435724 0.02917143 -0.046128575 0.040128574 -0.030435717 0.008957144 0.07461429 0.023578573 -0.07326429 0.011992859 0.032142863 -0.042307146 0.013099999 -0.0152642885 0.06568571 0.028685713 0.21457858 -0.12276429 -0.06355714 0.036514293 0.030728571 0.0021571422 0.046150006 0.0034928576 -0.017414287 -0.07819286 0.060021434 -0.0057714297 0.0074999984 0.019050002 -0.024249999 -0.0028071427 -0.05325 -0.06472857 -0.05691429 0.010407142 -0.02484286 0.021471431 0.11443572 0.036857143 -0.082878575 -0.07521428 0.010892858 0.032600004 -0.036800005 -0.049807142 -0.016107144 0.037485715 0.072435714 -0.023907145 -0.033857144 0.0057428577 -0.004364284 -0.04097857 -0.034678575 -0.035557143 0.061342858 -0.019857144 -0.0134000005 -0.0206 -0.056421433 -0.052121434 -0.050842863 0.01135 -0.036350004 -0.08969286 0.02407143 0.054535717 -0.10637857 -0.064392865 -0.15525715 -0.021478573 0.3005143 -0.039771426 -0.024507146 -0.08825 -0.031250004 0.022478573 -0.22163573 0.03815 -0.04477143 0.03336429 0.0049642855 -0.041757144 -0.010557143 0.044964287 -0.04462857 0.067635715 -0.041042857 0.2970429 -0.013957141 0.010885714 -0.071378574 0.06348572 -0.073785715 -0.0039357143 0.03526429 0.014835715 0.04379286 -0.1127 -0.05100714 0.040807147 -0.07230715 0.03804286 -0.25138575 -0.01527143 -0.102664284 -0.0050785723 -0.19467145 0.018021427 -0.08180714 -0.0103357155 -0.005114288 -0.085885726 -0.014271431 0.062892854 -0.016200002 0.0053785723 0.006378571 0.015350002 -0.023414288 -0.067414284 0.0016928563 0.09615715 0.022300003 -0.034357145 3.785718E-4 0.048900004 0.07770715 0.026949998 -0.059585724 -0.0076285726 -0.039500006 0.054657146 -0.09715715 0.11543572 -0.0034285723 0.11836429 -0.06482144 -0.09856429
headquarter 0.2856 0.0547 0.07 -0.1293 0.0487 0.0326 0.0058 -0.0839 0.1732 -0.0992 0.1192 -0.193 0.0579 0.1622 0.2296 -0.0151 -0.1261 -0.0189 0.0255 -0.0638 -0.3031 -0.0848 0.0575 0.0185 0.0685 -9.0E-4 -0.1444 -0.0384 -0.021 -0.252 -0.0612 -0.156 -0.2146 0.0148 0.056 0.0712 0.0319 -0.0682 -0.0398 -0.1176 0.0103 0.0953 -0.1629 0.0248 0.1842 -0.1382 0.1279 0.1163 0.188 -0.08 0.1357 0.2526 -0.7521 0.1073 -0.0188 0.0717 -0.0095 -0.0337 0.142 -0.0331 0.2215 0.0559 -0.0421 -0.0124 0.1755 0.0199 0.0303 -0.0614 0.1936 -0.1406 -0.021 0.146 -0.0225 0.0449 0.0747 -0.0317 -0.0735 -0.1605 -0.1538 -0.1928 -0.0291 -0.0221 0.0192 -0.2325 -0.0578 0.1838 0.0376 0.0276 0.0967 -0.1875 0.3539 0.0424 0.079 0.0641 0.0129 -0.1344 0.0116 -0.0661 0.024 0.3002 -0.1508 -0.1229 0.0738 -0.0573 -0.0546 0.1338 -0.1255 -0.0849 0.0564 -0.0445 -0.2148 -0.0644 -0.1192 -0.0343 -0.0589 -0.1887 -0.0338 -0.0426 0.0051 -0.1895 0.1224 0.13 -0.0652 0.0054 -0.0327 0.1445 0.0714 0.0229 -0.0238 0.0286 0.0289 0.065 -0.0404 0.1643 -0.2012 -0.0097 0.1844 -0.2111 -0.1178 -0.2353 -0.0511 -0.1179 -0.1612 0.2046 -0.0661 0.0693 0.1099 0.1115 -0.0176 -0.1238 0.0715 0.0609 -0.0131 0.0535 0.1515 0.1551 0.1148 -0.3147 0.1283 0.2241 0.0221 0.0111 0.1407 -0.1588 0.1319 0.054 0.0316 -0.0564 -0.0654 0.1378 0.1311 0.036 0.1511 0.2764 -0.1059 -0.0377 0.255 -0.0595 0.0737 0.1767 -0.1052 -0.1342 -0.1402 0.0219 -0.0679 -0.0819 0.1241 -0.051 0.0282 0.1368 -0.1034 -0.0855 0.1188 0.0579 -0.1619 -0.1356 0.1857 0.2854 0.109 0.1546 -0.0599 0.1988 0.023 -0.0271 0.0123 -0.0752 -0.1007 0.1039 9.0E-4 -0.2228 -0.0687 0.1092 0.228 -0.012 -0.1214 -0.0183 0.0457 -0.0229 -0.2527 0.0396 -0.0147 -0.1501 -0.1358 0.0464 -0.0521 -0.1176 0.2116 -0.0712 -0.0503 0.1075 -0.3828 0.015 0.2547 -0.1707 0.0458 -0.2744 -0.2833 0.2975 -0.184 0.163 0.0969 0.0689 -0.0108 -0.0833 0.071 -0.2069 0.1117 -0.0322 0.0343 0.258 0.1766 -0.1647 0.0223 -0.117 0.1515 0.2036 0.1702 -0.0616 -0.1492 -0.0961 0.0706 -0.0832 0.0525 0.0082 -0.4295 0.0868 -0.1527 -0.0752 -0.2585 -0.1486 0.2405 0.1088 0.0227 0.079 -0.033 0.1021 -0.0758 -0.1383 0.1717 0.0189 -0.0194 -0.1411 0.1006 0.2349 0.2467 -0.1015 -0.1354 0.2347 0.0293 0.0424 -0.013 0.0566 0.0776 -0.1157 -0.2364 0.0384 -0.0643 0.0021 0.0191 -0.2467
hometown 0.16552858 -0.0027857148 0.016614286 0.003471429 -0.040642858 0.09427144 0.07528572 -0.04164286 -0.054 -0.039428573 -0.05464286 -0.060442854 -0.021428572 0.050100006 0.059642855 -0.07008572 0.013614283 -0.0038714278 0.062057145 -0.071357146 -0.18872859 -0.008471429 -0.08851428 0.19331428 -0.1384 -0.040257145 -0.0874 0.034485716 -0.081285715 -0.023157142 0.05347143 -0.011771429 -0.025571432 0.060871433 0.09671429 -0.03778572 0.007957144 -0.00447143 0.027257146 0.015542857 0.12792857 0.023814287 -0.048328575 0.007128572 0.022300001 -0.021642856 0.13352858 -0.047614288 -0.03167143 -0.019628573 0.073814295 0.14282858 -0.6764286 0.011628571 9.999999E-4 0.0023714283 -0.010399999 0.059685715 0.082357146 -0.12652858 0.02427143 -0.07212857 -0.1633143 -0.07757143 -0.011228573 -0.009157145 0.01724286 0.041957147 0.10618571 0.07258572 0.052400004 -0.021328572 0.050385717 -0.028314287 -0.13244286 0.030457145 0.026885714 0.046757147 -0.047828574 -0.003000003 0.022057144 0.013585713 0.0107571455 -0.21082859 -0.058500003 -0.023814287 0.03334286 0.018757144 0.19642858 -0.0047999993 0.07744286 0.035628572 -0.019214286 -0.060257144 -0.057385717 -0.08711429 0.038885713 0.024042858 -0.019300003 0.02477143 -0.14664288 -0.055885717 0.05164286 -0.09127144 -0.012142858 0.1721143 0.010199999 0.037757143 -0.09075715 -0.1076 -0.001242858 0.013028572 -0.017328572 -0.06082857 -0.031014288 -0.087828584 0.028200004 -0.008542857 -0.060742863 -0.2705143 0.061628573 0.12274286 0.029999997 -8.42856E-4 -0.0030857166 0.17852859 -0.04354286 -0.08595715 -0.08984286 -0.08148572 -0.0014571378 0.01097143 0.089999996 -0.06871428 -0.08515715 0.11277145 0.0872 -0.008371428 0.010099999 -0.0074714287 0.008228573 0.074285716 -0.088071436 0.14177144 0.024342857 0.027528573 0.07202857 -0.0014857161 0.0052285725 0.07188572 0.037257146 0.050000004 0.014628574 0.01192857 -0.029985718 0.032171432 0.08825715 -0.115785725 -0.044085715 0.03617143 0.028771427 -0.065900005 0.07488572 -0.055257145 0.062042855 0.04441429 0.08678571 -0.099300005 -0.07527143 0.046571426 -0.038942862 0.05227143 -0.067185715 0.074528575 0.09862857 0.0094714295 0.22592859 -0.22247143 0.006471428 0.059842862 0.026671428 -0.025114289 -0.010114285 0.023957143 0.0020571453 -0.013214286 0.050542854 0.0021857151 -0.094757155 -0.0612 -0.06241429 -0.085285716 0.06715715 0.037557144 -0.13857144 0.06407143 0.0085 0.003942857 0.08542857 -0.024671428 0.040357143 0.048014287 0.07065715 0.15917143 -0.046357144 0.15207143 0.026914287 -0.039785713 0.002385714 0.07527143 -0.072657146 0.057342865 0.046028573 -0.055699997 -0.1098143 0.036771428 -0.00447143 0.010142857 -0.053814285 0.034785718 -0.012585715 -0.07555714 -0.060985718 0.13020001 0.06562858 0.010814289 -0.03277143 -0.07515714 0.03367143 0.020757146 -0.19500001 -0.03732857 0.2652143 -0.11352858 0.035900004 -0.1554 0.033657145 0.10907143 -0.21545717 0.15415715 0.072485715 -0.018728573 0.013714287 -0.16977145 -0.13210002 0.049885713 -0.010914286 -0.059371423 -0.12592858 0.32930002 -0.0038857157 0.041728575 0.04801429 -0.009371429 -0.0337 -0.10355715 0.077228576 -0.04854286 0.023942854 -0.09575715 -0.029228574 -0.05802858 0.021271432 -0.006785715 -0.3960286 0.11682858 -0.06081429 0.07915715 -0.18354288 -0.026614286 -0.08761429 0.002742858 -0.039928574 -0.057928573 0.08050001 -0.050871436 -0.040628575 -0.10937143 0.016985714 -0.002328571 -0.05307143 -0.11302857 0.080957144 0.06164286 0.032557145 -0.07451429 -0.12628573 -0.035342857 -0.03961429 0.015514284 0.007200001 0.06052858 -0.03322857 -0.071271434 -0.013014285 0.16612858 -0.030585716 0.08337144 0.032857146 -0.12368573
leaderName 0.083733335 0.028266666 -0.061433338 0.056733333 -0.07146667 0.08573334 -0.020633334 0.04456667 0.0348 -0.03936667 -0.062066667 0.056633335 0.06843334 -0.033833336 0.041933335 -0.024033336 0.027833331 0.0665 -0.043800004 0.0419 -0.053033333 0.0224 -0.010233333 0.07596667 -0.07243334 -0.1452 0.042533334 -0.030266669 -0.0369 -0.008200003 0.027466668 0.022333335 0.09413334 -0.1058 0.041199997 0.038933333 0.021433335 0.025966665 0.080400005 -0.0846 0.042733334 0.026766669 0.039433334 0.019700002 -0.009333335 -0.033766672 -0.08393334 0.006266666 0.0044 -0.0495 0.009400002 -0.018 -0.6518334 -0.0015333345 0.06476667 0.042366665 -0.028966669 -0.0192 -0.014566667 -0.016266666 0.053933337 -0.011633335 0.0243 0.015033334 -0.05703333 0.041500002 0.0642 0.0064666676 0.07046667 -0.010633333 0.023633335 -0.07886667 -0.0749 -0.061800003 0.014933333 0.0417 0.0601 -0.0045666685 -0.029500004 0.11033334 -0.014266668 0.07973334 0.018700002 -0.20210001 -0.007699999 -0.0072666667 0.07503333 0.04066667 -0.02713333 -0.008033331 0.10880001 0.028833333 -0.026200002 -0.06063333 -0.033033337 0.10716667 -0.0024666674 -0.06426667 -0.029933333 0.049066663 -0.18600002 -0.041999996 0.0031999971 0.0023666646 -0.123500004 0.06576667 -0.022933334 -0.020866668 -0.025400002 0.023533335 0.094333336 -0.03266667 -0.043433335 -0.07700001 0.026866665 -0.17199999 -0.021133337 0.017700002 0.123500004 -0.3859 0.03326667 -0.05883334 0.0144666685 0.034 0.11963334 0.19753334 0.09226667 0.05293333 -0.045500003 0.10153334 -0.060133334 0.029366668 -0.11813333 0.030233335 -0.105500005 0.101566665 0.013666669 0.028433336 -0.048433334 -0.029233333 -0.038433336 -0.1002 0.0037333346 0.1632 0.02216667 0.0053999997 0.050733335 0.032966666 0.0468 0.0847 0.0017666668 -0.020433335 -0.020866668 0.009500001 -0.0026999987 -0.023533335 0.020600002 -0.08646667 -0.124966666 0.034733333 -0.048766665 0.09356667 0.039600004 0.0911 -0.09066667 -0.043300003 0.067433335 -0.013933334 -0.018400002 -7.000001E-4 0.1477 -0.0218 0.03806667 0.0192 0.07173333 0.0066666654 0.1965 0.011166668 0.011866665 0.038900003 0.017533336 0.011066667 0.021500003 0.082666665 -0.06396667 -0.22940001 0.0056 -0.097833335 0.15456668 0.019000001 0.097833335 -0.03243333 0.057366665 0.009333335 0.0021000009 -0.034033336 0.060300004 0.046899997 0.13780001 0.06516667 -0.032166667 0.04446667 -0.028233334 -5.0000125E-4 -0.1458 0.0257 0.11043333 0.0408 0.0072333342 0.0546 -0.0054333336 0.06763334 -0.015266667 -0.012066669 -0.0724 0.0017333329 0.072733335 -0.06983333 -0.051766664 0.019466665 0.0258 -0.007766667 0.030833332 0.0016666676 0.07260001 -0.1561 0.008733334 -0.023100002 -0.08216667 -0.0181 -0.17756668 0.0018333321 0.30650002 -0.0573 -0.0198 -0.108600006 -0.098333344 0.1263 -0.25620002 0.0649 0.030066669 0.11913334 -0.022866666 0.010966668 -0.008 0.08546667 0.03863333 0.09300001 -0.051400002 0.3261 -0.0085 -0.0063 -0.042000003 0.0383 0.037133336 0.010133336 0.050900005 -0.0028333343 2.3333356E-4 0.0278 0.054866668 -0.013833335 -0.061633334 -0.13303334 -0.14726667 0.0021666668 0.048433334 -0.016333334 -0.15806669 0.016733333 -0.008766669 -0.0064666662 -0.091199994 -0.100266665 0.036933333 -0.015133334 -0.010799999 -0.033466667 0.0736 0.039733335 0.04106667 -0.057299998 0.038000003 0.03766667 -0.022666669 -0.021966666 -0.0616 0.0405 0.029066665 -0.0176 -0.019 -0.061333336 0.010200001 0.024266666 0.05216667 0.0929 0.05136667 0.12900001 -0.07440001 0.061133336
locatedInArea 0.013555557 0.043144442 0.0081555545 -0.020844445 -0.017577779 -0.0038333354 0.0243 0.047500003 -0.0075666658 -0.029144445 -0.012944443 -0.03321111 0.061977778 0.054233335 0.0020444442 0.01981111 -0.06568889 -0.013344443 -0.05571111 0.073744446 -0.077866666 -0.07658889 -0.07285556 0.19724445 -0.0347 -0.008477777 -0.035377774 0.008688889 -0.09342223 -0.060766663 -0.03377778 0.0132777775 -0.057922225 0.109777786 0.09086667 0.035422225 -0.06554445 0.11388889 0.04948889 -0.10966667 -0.025 0.05338889 -0.0013999984 0.06126667 -0.025888888 0.020800002 0.032155555 0.005199999 0.04111111 -0.008777777 -0.036088888 0.06991111 -0.6110111 -0.049233336 -0.0232 0.058233336 -0.050055556 0.091733344 8.777794E-4 0.021600002 0.10203334 0.0239 -0.036288887 0.015111112 -0.042033333 0.06831111 -0.06551111 -0.04151111 0.033899996 0.030900002 0.0023000012 0.002366667 0.033922225 0.015866663 -0.031344444 0.008633335 0.008133334 0.0022111104 -0.07666666 -0.044322226 0.014322221 0.033666667 0.05557778 -0.22992225 0.008344445 0.016744444 0.12932223 -0.036088895 -0.034566667 0.05156667 0.11382222 0.0851 -0.0060111103 -0.07912222 0.04461111 0.03012222 0.06254444 -0.09166667 -0.0026444462 0.047244444 -0.18273334 0.038344447 -0.044199996 0.049500003 -0.08753333 -0.012255554 -0.035733335 0.028733334 0.06424444 -0.012733334 -0.026677782 0.06395556 0.039477777 -0.028833337 0.023688886 -0.06482223 0.01631111 0.010422224 -0.035111114 -0.3781889 -0.06305555 -0.029855557 -0.02952222 0.008966668 -0.014366669 0.20648888 -0.028411115 0.016955554 -0.1259111 0.012766664 -0.0077000004 0.010888889 0.017377777 0.020733336 -0.067999996 0.07993334 -0.036366664 0.027877774 -0.023211112 0.010122221 0.032244444 0.060000002 -0.03465556 0.189 -0.013477777 0.07315555 0.04678889 -0.02801111 -0.014644444 0.0066555548 0.004466667 -0.05172222 0.039344445 -0.043200005 0.02776667 0.06335556 -0.013355554 -0.07872222 -0.08544445 0.012522221 0.0019444426 0.08443334 0.011711112 -0.0731111 0.08496667 -0.09178889 0.0931 0.0125 -0.010244448 0.0024555558 -0.111933336 -0.0101333335 0.024966666 -0.0066222236 0.043966666 -0.09612222 0.24113332 -0.09886667 -0.035322223 -0.022488888 0.012811111 -0.0012222213 -0.0223 0.033966668 -0.022722224 0.035988886 0.112033345 0.014444444 0.15304443 0.013377778 -0.035566665 -0.024911113 -0.0069666654 0.0015888885 -0.006766668 -0.058544446 0.04486667 0.07503334 0.135 0.05522222 0.007877778 0.09532223 -0.010955556 0.021688888 -0.029755557 0.014822223 -0.011322224 -0.1427 -0.0011888891 -0.08544444 -0.06675556 0.029755557 0.06832222 0.018588891 0.024722222 -0.043355558 -0.09502223 -0.014444445 -0.04756667 0.042866666 -0.059666667 0.027233334 0.001144444 -0.059355557 0.042022225 -0.030277776 -0.04397778 0.047255553 -0.039777778 0.10785556 -0.08554445 0.015322221 0.34262222 0.026377777 0.022433333 -0.06571112 -0.068455555 0.057688892 -0.26511112 0.08508889 0.022822222 -0.04318889 -0.030311111 -0.009611112 -0.023799999 0.018977778 0.014988889 0.0061222226 -0.05022222 0.29773334 0.011533332 0.0057111117 0.065911114 -0.039488886 0.0069222217 0.021844445 0.036644444 0.0042999997 2.6666498E-4 0.013633332 0.01197778 4.1111105E-4 -0.013633334 0.03368889 -0.23352224 -0.02561111 6.33335E-4 0.01567778 -0.17817777 -0.040922225 -0.089933336 0.011066665 0.034477778 -0.026611112 0.021877779 0.008211111 0.013077778 0.03257778 -0.022088887 -0.019766668 -0.018322222 0.010877777 0.0717 0.0787 -0.025844444 -0.020844443 -0.024799999 0.042666666 -1.0000045E-4 0.045366663 0.044355556 0.025155554 -0.075155556 -0.05707778 -0.08653334 0.0357 -0.026233334 0.05102222 -0.045 -0.051977776
nationality 0.14164999 -0.049599998 0.0843 0.10515 0.0279 0.14005001 0.029399998 0.0041499995 0.12205 0.062000003 -0.074650005 -0.00945 0.06235 -0.008850001 0.013899999 -0.101150006 0.15564999 -6.499998E-4 0.015800001 -0.0863 -0.17725 -0.0458 0.03875 0.14025 0.0298 -0.094950005 0.019399999 0.104949996 0.1852 0.0111 -0.09885 0.04355 0.06955 -0.19345 0.11995 0.008299999 -0.13275 0.038900003 0.04035 0.0686 0.13229999 0.0236 0.19435 0.078600004 -0.0169 0.0846 0.082949996 -0.14805 0.12065001 -0.1375 0.2272 0.02825 -0.68825 -0.04785 0.096750006 -0.0084500015 0.12795 0.0367 0.016350001 -0.00675 0.03965 -0.072000004 -0.0905 0.01625 -0.0639 0.06885 0.0307 -0.0056 0.012750001 -0.0198 0.0761 -0.10615 -0.028300002 -0.0718 -0.17999999 -0.0751 -0.117300004 -0.0349 -0.061049998 0.12605 -0.0073 0.038850002 -0.0183 -0.2369 0.0845 -0.03345 -0.0874 -0.0617 0.20449999 0.055699997 0.0242 0.04575 -0.10435 -0.0498 -0.0021499991 0.01445 0.012599999 -0.02615 -0.00265 0.0551 -0.156 -0.08025 0.0053000003 -0.1434 0.122899994 0.09405 -0.02055 -0.015749998 -0.113 0.0139500005 0.008500002 0.13535 -0.0488 -0.03115 -0.025150005 -0.111499995 0.023649998 -0.1397 -0.03945 -0.33685 -0.095300004 0.10349999 0.0331 0.00945 -0.047199998 0.19825 0.121 -0.027350001 -0.015000001 0.045199998 -0.1612 -0.12525 0.0438 -0.019900002 -0.011799999 0.038799997 0.01375 -0.0989 0.05505 0.0778 -0.03235 0.0224 -0.1072 0.27609998 0.019900002 0.057850003 0.074949995 -0.0025499994 -0.028599998 -0.0172 0.03305 0.086050004 -0.04055 -0.01715 0.056199998 -0.03765 -0.050550003 -0.0783 0.06025 -0.0645 -0.0441 -0.1073 0.0063499995 -0.0188 0.106199995 2.500005E-4 0.1117 -0.09315 -0.02985 0.126 -0.18035 -0.047250003 0.039350003 -0.033400003 0.19725001 -0.02995 0.24379998 -0.1564 0.011 0.061100002 -0.02815 0.09595 -0.021750001 -0.01735 -0.0661 -0.04395 0.0309 -0.0297 -0.16955 1.9999966E-4 0.0279 -0.137 -0.078 0.1268 -0.05825 -0.09555 -0.099249996 -0.0629 0.15995 0.1074 -0.14455 0.09925 0.073699996 0.024749998 0.10215 0.0342 0.05155 -0.112 0.09095 -0.0654 0.00275 0.0259 0.07915 -0.1083 -0.052500002 0.043250002 -0.06635 -0.11229999 -0.19115001 -0.070650004 0.05705 0.0049 -0.0049 -0.0030999985 0.0872 -0.062649995 -0.13690001 0.0848 -0.14655 3.500022E-4 0.015450001 -0.27045 0.3995 -0.16499999 -0.005000001 -0.074149996 -0.02725 0.1317 -0.23445001 0.13749999 -0.0011999998 -0.0052999984 0.1333 -0.030849999 -0.09905 -0.108049996 0.0783 -0.06445 -0.0376 0.3548 -0.03745 0.1238 -0.0383 0.0042000003 0.057800002 -0.04435 -0.024200002 0.00615 -0.07565 0.093 0.03345 -0.053450003 0.09325 0.08320001 -0.32255 0.06695 -0.06985 0.079799995 -0.1783 0.21775001 -0.07405 0.023450002 0.02945 -0.12979999 0.078549996 -1.9999966E-4 -0.06755 0.013599999 0.03485 0.061899997 -0.0018 -0.078 -0.15235001 0.00605 -0.08075 -0.0132 0.03305 -0.03555 -0.019499999 0.0603 0.026050001 0.0040000007 -0.06575 -0.10665 -0.0066000004 0.18765 -0.1152 0.0429 0.05855 0.0467
parent 0.056366667 0.059433334 -0.0164 -0.0954 -0.015566668 0.0881 0.0055333334 -0.056133337 0.12053333 0.03826667 -0.16566667 0.012133336 -0.062333338 -0.07153334 -0.082766674 0.09143333 0.002533333 0.17213333 0.09003334 -0.099 -0.05336667 0.08136667 -0.14500001 0.07333334 0.021233333 0.025066666 -0.13493334 0.0917 0.020733334 -0.09453334 0.0968 0.045366667 -0.045 -0.06633334 0.09406667 0.023066668 0.05793333 -0.0037666669 0.003966668 0.016666666 -0.027966667 0.026366666 -0.052033335 0.021533336 -0.025766667 -0.006333334 -0.045666665 -0.123100005 -0.027433334 0.026133334 -0.05313333 0.0893 -0.6259667 0.018766668 -0.007333334 0.026966667 0.0292 0.17456667 0.025866669 -0.013066667 -0.05146667 0.0738 -0.0988 -0.14686666 0.083900005 -0.102 0.0134333335 -0.0732 0.0441 -0.091966674 0.0049666665 0.04036667 -0.013800001 0.053566664 -0.008699996 0.13316667 -0.16616668 0.029566666 -0.1814 0.09543334 -0.0034999992 -0.023766667 0.13636668 -0.18806666 -0.020900002 0.13226667 -0.09193333 0.018266667 0.122233346 0.068900004 -0.020466667 -0.021633333 -0.0873 -0.0023000003 -0.014633333 0.06506667 0.0696 0.0249 0.0408 -0.037633337 -0.21580002 -0.1044 -0.100433335 -0.0459 -0.08896667 0.13353334 0.11790001 -0.048 -0.1966 0.015533334 0.0211 0.05136667 -0.024966668 -0.036866665 -0.062233336 -0.08533334 0.051133335 -0.04026667 -0.18213335 -0.37193334 0.012033334 0.051966667 0.09513333 -0.0537 0.04676667 0.21820001 -0.040300004 0.004000002 0.13803333 -0.028700002 0.018133335 -0.011866665 0.07903334 -0.11536667 -0.011166666 -0.020133335 -0.042299997 -0.1363 -0.12653333 0.007466669 -0.08913334 -0.064833336 -0.0011999998 0.18626666 0.13686667 -0.050900005 0.0361 0.018633334 -0.0010666674 0.0091 -0.05613333 -0.058 -0.022166666 0.013166666 -0.08276667 0.0043 -0.052966665 0.053933334 -0.025666667 -0.042166665 -0.11683333 -0.0554 -0.011666667 0.012633335 -0.020166669 0.0489 0.06406667 -0.034100004 0.0187 0.029633334 0.0044000004 -0.027166665 0.021833334 0.015733335 0.14473334 0.004600001 0.27776667 0.037633337 -0.111666664 -0.009199999 0.040233336 0.09460001 -0.0344 -0.025233334 0.06876667 -0.047766667 -0.0062333336 -0.12843333 -0.11026667 0.082433335 0.003 0.011066666 0.0088 0.08346667 -0.009199999 0.0677 -0.06526667 0.036166668 0.14796667 -0.016833335 -0.017099999 -0.061 0.0688 0.033466667 0.059599996 0.11513334 -0.0021666666 -0.07263334 0.003233333 -0.09643334 -0.022466667 -0.077700004 -0.069633335 -0.116966665 -0.074366674 0.06403334 -0.08026667 -0.0312 -0.014066668 -0.1211 -0.0847 -0.040733334 -0.043266665 -0.10010001 0.028133333 -0.12676667 0.0097 -0.054466665 -0.084233336 -0.08566667 -0.12256666 0.0042333333 0.37026668 -0.1288 -0.06946667 -0.11536667 -0.1534 0.13616666 -0.2799 -0.12459999 -0.08493333 -0.06223334 0.048866667 -0.028633334 0.041933335 0.022800002 -0.0073666675 -0.026733335 -0.0378 0.3764 -0.025399998 -0.04823333 -0.0983 -0.080133334 0.081133336 -0.028833335 0.014899999 0.0011666666 0.0227 -0.043266665 -0.0516 0.083900005 0.0161 0.1394 -0.38350004 -0.10893333 0.078833334 0.12076667 -0.16333334 0.06463333 -0.024166666 -0.030533334 -0.050833337 0.0913 0.0489 0.031333335 0.101166666 -0.14053334 0.060833335 0.0357 -0.06293334 -0.09956666 -0.0079333335 0.0121 -2.3283064E-10 0.009200002 -0.012966668 -0.18286666 0.11309999 -0.007966667 0.0802 0.15616667 0.0112 0.010233334 0.10313334 0.16493334 0.037533335 0.046933334 0.006566667 -0.08263334
president 0.06215 0.139 -0.08805 -0.0275 0.09745 0.14105 -0.109574996 0.24014999 0.036925 -0.18065 -0.0207 0.069524996 0.01355 -0.152325 -0.0070249997 0.023299998 0.053375 0.032700002 0.10395 -5.2500155E-4 -0.16982502 -0.0844 0.043775 -0.19652501 0.066025004 -0.096075 -0.1501 -0.088575 0.0153749995 -0.163175 -0.010625001 -0.014375 -0.06995 -0.116725 -0.123600006 -0.014924998 -0.009675001 0.0555 0.028850002 0.17914999 -0.014475001 0.070325 0.02665 0.078375004 0.21535 -0.065475 0.051324997 -2.9999902E-4 0.13365 0.014575001 0.0035750004 0.011925001 -0.6849 -0.140625 0.1956 0.055525 -0.042000003 0.1309 -0.063425 -0.10610001 0.04355 0.05365 0.114375 -0.17809999 0.0774 0.09235 0.141425 -0.019175 -0.054700002 -0.044 -0.0034749995 -0.15480001 -0.0697 -0.059525 -0.056900002 0.16315 -0.087625 -0.0065749995 -0.01195 -0.059249997 0.038799997 0.024349997 0.0399 -0.259775 0.033974998 0.027449999 -0.07755 0.013875001 0.026475 -0.14247501 -0.01305 0.024875 -0.01655 -0.035274997 0.0261 0.120450005 -0.066250004 -0.08804999 -0.027900001 0.133075 -0.07015 0.030125003 0.01265 0.073350005 -0.248725 0.063324995 0.071875 0.11022501 -0.1575 -0.0755 0.060424995 0.06275 -0.0082 0.07677501 -0.062875 -0.059524998 -0.053375 -0.020149998 0.04035 -0.335975 0.081475 0.149075 1.2500025E-4 -0.20942499 0.03515 0.090375006 -0.031100001 -0.045975003 0.262725 0.052175 0.107975 0.060124997 -0.0040000007 -0.074525006 0.0148 0.0018999984 0.025950002 0.016424999 -0.1874 -0.0642 0.016875 -0.084425 -0.035125 0.008925 0.0473 0.0294 -0.0429 0.043300003 0.13642499 -0.055999998 0.03595 0.0246 0.058749996 0.05195 -0.13537501 0.011825001 -0.01 0.035375 -0.01035 0.106225 0.081225 -0.065050006 0.024150003 0.106325 0.13205 0.004574999 -0.033825 -0.028649999 -0.075325005 -0.06445 0.140525 -0.1658 -0.011475 0.080075 0.152675 0.1199 0.18065 0.047599997 -0.184525 -0.020175 0.0468 0.052775 -0.01755 -0.1491 -0.05905 -0.08835 0.010500002 0.028624998 -0.023425002 -0.061025 -0.0063000005 -0.092025 -0.051974997 -0.1067 0.122724995 0.004975001 -0.013849999 0.0594 0.13215 -0.027625002 0.048699997 0.032325 -0.084925 0.051474996 -0.065225005 -0.047125 0.0246 0.10185 -0.0991 -0.18432501 -0.071 0.057375 0.060275003 0.04315 0.030375 -0.1825 0.030125 -0.03565 -0.0488 0.025625002 0.09595001 0.0789 0.01745 0.016625002 -0.089175 -0.16785 0.050025 -0.01935 -0.092725 0.169575 -0.388475 -0.0363 0.274075 -0.016675 -0.136325 -0.056074996 -0.124974996 0.1284 -0.2212 -0.032525003 -0.118375 0.10455 -0.07845 -0.0933 0.0031250007 -0.037625 0.06115 0.080125 -0.058525 0.273125 0.037825 -0.0612 -0.172375 0.0127 0.117775 -0.011000001 0.046075 0.08455 0.038375 -0.100275 -0.056775 0.0837 0.012374999 -0.16 -0.4405 -0.108075 0.047650002 -0.0023999983 -0.26575 -0.00725 -0.029275 -0.061049998 -0.0515 -0.040675 -0.0782 0.011300001 0.022575002 -0.17365001 0.0136750005 -0.047025 0.02355 -0.043775 0.0522 0.011675 0.05025 0.138725 -0.133075 0.087249994 0.020675 -0.0066000004 -0.053974997 -0.0244 0.104225 -0.058375 -0.0074750017 -0.03455 -0.009 -0.048975 -0.080225006 0.0285
relative 0.08635001 -0.004025 0.076074995 0.097575 -0.061475 0.075325 -0.010125 -0.023825001 0.0903 0.00735 -0.0321 0.015525001 -0.12889999 -0.044375002 -0.04625 0.004725 0.045625 -0.043674998 -0.01795 -0.0684 -0.077575 0.130725 -0.074324995 0.052325 0.005075 0.0017750002 -0.0502 -0.03495 -0.061875 -0.057825 0.137625 -0.009175002 -0.044324998 -0.004425 0.0221 0.043125 0.037775002 -0.0034250002 0.071049996 -0.064525 -0.04425 0.078425005 -0.0374 -0.0433 -0.0030999999 0.0315 0.02155 -0.0391 0.065725 0.0826 0.011000002 0.0567 -0.65265 0.12425001 -0.0064749997 0.0865 -0.010725001 0.094975 6.7500025E-4 -0.049125 -0.04745 0.028524999 -0.036399998 0.056724995 -0.017075002 -0.152875 0.02205 -0.020949999 0.048125003 -0.038075 0.028925 -0.08794999 -0.0362 0.089125 -0.022425 0.109349996 0.008450001 0.1218 -0.059425 0.0823 -0.020275002 0.0301 -0.030924998 -0.129925 0.034875 0.015025003 0.011125 -0.0144 0.1473 -0.0059750024 0.06285 0.053625 0.048575 -0.0617 -0.054550003 0.152 0.023699999 0.038175 -0.0034249988 -0.012150001 -0.162175 -0.034725 -0.072425 -0.028600002 -0.045025002 0.073375 0.123375 -0.017299999 -0.10165 -0.021699999 -0.017025001 0.0112 -0.031775 0.0064749997 0.0229 0.004724998 0.0067249993 -0.073775 -0.062349997 -0.19215 -0.1154 -0.015699998 0.071675 0.022325002 0.0037250002 0.175975 -0.071825005 -0.030925002 0.107575 -0.0067749983 0.09925 0.073825 0.0357 0.090950005 0.010150001 -0.062725 0.055625 -0.0845 -0.060875 0.008675 -0.0263 0.026075 0.060725 0.193825 -0.0269 0.057 0.14965001 -0.053799998 -0.034675002 -0.037474997 0.0052250023 0.0345 -0.047125004 -0.009625 0.011175003 -0.0039250012 -0.017224997 0.055025 0.022274999 -0.017274998 -0.061224997 0.019225001 0.02855 0.119525 0.002475001 -0.02835 0.059575 -0.0029500006 0.022475 2.500019E-5 -0.0194 -0.033099998 -0.08375 -0.0018250011 0.13575 0.0063499995 0.20037499 -0.10435 -0.03565 -0.0306 -0.03725 0.045325 0.022525003 0.059924997 -0.019474998 0.0901 0.0765 -0.0207 0.058700006 0.0496 0.022424996 0.07220001 -0.04505 0.07165 -0.02155 -0.012250001 -0.03025 0.03205 0.086875 -0.11372501 0.034325 0.076425 -0.00335 -0.0762 -0.07857499 0.0971 -0.087074995 0.016800003 0.0847 -0.01075 -0.16482499 0.03745 -0.0753 0.062875 0.01465 -0.023874998 0.024950001 -0.0325 0.048225 -0.08845 -0.091675 -0.019225 -0.086875 0.01055 0.02755 0.033125 -0.009450002 -0.0462 0.022775002 -0.052125 -0.128 0.019524999 0.24595001 -0.036575 -0.060824998 -0.09685 -0.074525 0.031174999 -0.16715 -0.064125 0.02975 -0.010375002 0.014200001 0.027600002 0.0359 0.0017750021 -0.005724999 -0.13245 0.03735 0.23295 -0.007975001 0.026825 0.044999998 -0.0264 0.039375 -0.0219 -0.101349995 0.024425 -0.015524998 0.018074997 -0.07275 -0.046049997 0.0876 8.749985E-4 -0.2939 0.01265 0.020125002 0.11985 -0.091350004 -0.062675 -0.114675 0.074149996 0.013225 0.016749999 0.0062000006 -0.0261 0.074225 -0.004174999 -0.050399996 0.0609 -0.06475 -0.107425004 0.081175 0.028175 9.2499936E-4 -0.012925 -0.036425002 -0.151975 -0.014124999 0.009649999 -0.071825 0.0753 -0.0319 -0.02245 -0.0044250004 0.050925 -0.05925 0.0758 0.047000002 -0.05005
spouse 0.13425 -0.0678625 0.077775 -0.0522 -0.0211125 0.070637494 0.0013625016 -0.105799995 -0.0950125 0.1074125 -0.090550005 0.0595625 0.029875001 -0.071425 -0.027800001 -0.034250002 0.060487498 0.030262502 0.0684375 -0.059875 -0.1473875 0.0859875 -0.068075 0.0795875 -0.0481875 -0.0424375 -0.084775 0.0205875 0.029375002 -0.069775 0.20865 0.0225625 4.7499873E-4 0.009937501 0.047262497 -0.06215 0.0431875 -0.013875 0.0875 -0.058112502 0.076125 0.0219875 -0.0612 0.0487875 0.0223875 0.030650001 0.1425375 0.0336875 -0.0625375 0.024262499 0.106675 0.0792125 -0.70225 0.053549998 0.041 -0.0126875015 -0.09343751 0.1292375 0.093225 -0.013 0.0364625 -0.0248625 -0.032275002 -0.07346249 0.0041625006 0.05975 -0.0061999997 -0.019249998 0.009675 0.038687497 -0.0736125 -0.10695 -0.093975 0.016587496 -0.079575 0.0543375 0.0537375 0.024037499 -0.0771125 0.1077125 0.035575002 0.06735 -0.055912502 -0.205225 -0.1104875 0.0428875 -0.1638 -0.013387499 0.1384625 -0.015425 -0.0571125 0.020725 -0.033575 -0.0858875 -0.039275 0.0736625 0.070637494 0.025224999 -0.0671875 0.0957125 -0.18896249 -0.0164875 -0.009 -0.119587496 -0.0922875 -0.009950002 0.032537498 -0.0402 -0.1670125 -0.0076125013 0.0075250017 0.0808 -0.02185 7.874998E-4 -0.031850003 -0.0641625 -0.111324996 -0.122762494 -0.20401251 -0.3419875 0.074774995 0.0802875 0.048250005 0.0240125 0.0369 0.19058749 -0.029950002 0.0502625 0.148125 -0.122637495 -0.00755 0.0875625 0.116587505 -0.0043875016 -0.0051500015 0.07521249 0.02135 -0.035925 -0.091975 -0.0072249994 -0.0549875 -0.033287503 0.113675006 0.192425 0.060774997 0.012162501 0.008299999 0.1301125 0.114374995 -0.05805 -0.023474999 0.016799998 -0.09275 -0.060650002 -0.078250006 0.009725001 0.0246125 0.025749998 0.012975002 0.1068625 -0.1300875 0.019862501 0.1310125 0.1110125 0.081112504 -0.0430875 0.07525 -0.0037125 -0.022212498 -0.016237501 0.0465625 -0.027487502 -0.116987504 -0.0259375 0.04085 -0.0391 0.254525 -0.09065001 -0.0677625 0.0077875 -0.033575 -0.013937499 -0.035175 -0.029749999 0.0049375 -0.049312495 0.0655375 -0.17046249 -0.045475 0.008850001 -0.029512499 0.0663875 0.0032249987 0.1476375 -0.014412501 0.1358 -0.043375 -0.0680875 0.1160375 -0.07817499 -0.088175 -0.036275003 -0.030475 -0.0904125 -0.011762502 0.0760625 -0.0462875 -0.06380001 -0.0651125 -2.6250049E-4 -0.026162501 0.075462505 0.09645 -0.011112502 -0.040625002 -0.0163 -0.022275 -0.093525 -0.024262499 -0.0014625005 -0.057925 0.0114750005 0.07961249 0.072825 0.021775 -0.072025 -0.1045625 -0.02395 -0.007525 -0.0856 -0.0931 0.0811375 0.3268875 -0.09981249 0.0272625 -0.147075 -0.0200375 0.076575 -0.2506125 -0.03995 0.0563625 -0.089587495 -0.005275 -0.04985 0.022225002 -0.046725005 0.023775 -0.105275005 -0.0782 0.3714125 0.0690875 0.061387498 -0.039775003 0.040112495 0.029325001 0.0339125 -0.014675 0.048049998 0.038325 -0.161125 -0.097124994 0.0865125 0.008675 0.082499996 -0.347325 -0.0985875 0.0527625 0.12265 -0.1698 0.01185 -0.14199999 0.08875 -0.080025 0.004012499 0.094937496 0.090100005 -0.0599375 -0.0454875 -0.13482499 0.0622125 -0.0852 -0.008762497 0.030275 -0.054975003 0.009025 0.048049998 -0.101900004 -0.119174995 0.04195 0.0211875 0.0377625 0.0022375006 0.0041499995 -0.0018249992 0.051425003 0.008637501 -0.0676625 0.0318375 0.010825001 0.0215875
subsidiary 0.1478 -0.041100003 0.069125 -0.033899996 -0.089049995 -0.052775 0.053049996 -0.0612 0.0070250016 -0.07845 0.026825001 -0.06115 -0.0019000005 -0.0493 0.0204 -0.16354999 0.03355 0.115825 -0.03205 0.073275 -0.1695 0.0016750002 -0.0493 -0.0262 0.089949995 -0.1203 -0.14295 -0.012824999 -0.0797 -0.08875 0.0424 0.017625004 -0.044625 -0.03225 -0.0264 0.022125002 0.1096 -0.044825 -0.086 -0.131675 -0.03395 0.012525 -0.098450005 3.5000034E-4 0.035474997 0.053324997 -0.1403 0.106750004 0.047774997 0.051474996 -0.006974999 0.113675006 -0.66732496 -0.062200002 3.249999E-4 0.0653 -0.018775 0.046075 0.02325 -0.0244 0.079524994 0.1361 0.044 -0.091024995 0.080024995 0.070250005 0.06442501 -0.041425 0.049875006 -0.012024997 0.058825 0.067875 0.07665 0.049575 0.066300005 0.071525 0.11337499 -0.032325 -0.025725001 0.052474998 -0.020125002 0.015149999 0.08060001 -0.2092 -0.06314999 0.026775 -0.1321 0.031574998 0.1268 0.054700002 0.082949996 0.025249999 0.034050003 -0.027075002 -0.029099997 0.0619 0.0357 0.035175003 0.03705 0.017725 -0.112725005 -0.075375006 0.071925 -0.027799996 -0.096374996 2.0000013E-4 0.046675004 -0.041825 -0.115899995 0.063075 0.0091 0.065625 0.016525 0.0041500004 -0.0199 -0.015650002 0.084825 0.05375 -0.0259 -0.263225 -0.084424995 -0.056825 0.031075 -0.0031499998 -0.026425 0.1736 -0.026425 -0.011024999 0.0767 0.0075000003 -0.03335 0.0354 -0.078575 -0.014574999 -0.12365 0.009899999 0.10205001 0.06345 -0.12082499 -0.10915 -0.0049750013 -0.043075003 0.024225 0.171675 0.017700003 0.049124997 0.077525005 -0.010400001 0.09 -0.0031000003 -0.060824998 -0.004175 0.010700002 0.03595 0.016375 0.069299996 -0.01895 0.0058750017 0.014974998 0.047974996 0.041249998 0.085625 -0.030399999 0.06655 -0.02475 0.004449999 0.075725004 0.03845 -0.008475 0.17677501 0.025125 0.02 -0.06325 -0.059275 0.068875 -0.0631 0.22957501 -0.07375 0.0383 0.0394 0.073649995 1.2500025E-4 0.0029749991 -0.074575 0.031375 0.060475 0.151025 -0.009225 -0.013375003 0.049825 -0.111 0.019099997 -0.019675 0.013725001 -0.044125 0.008125 -0.0026000002 0.04805 0.111549996 -0.011824999 -0.07295 0.016450003 -0.093475 -0.13055 -0.054375 0.025874998 0.0555 -0.0399 0.073874995 -0.051275 0.0632 0.064625 0.077475 0.026675 0.0104 -0.014874999 0.033524998 0.018150002 -0.14289999 -0.04585 0.023225002 -0.0015749997 -0.08382501 -0.08580001 -0.0381 -0.119075 0.06475 0.032875 0.011499999 -0.042099997 -0.148875 0.0745 0.2967 -0.11055 0.075950004 -0.060774997 -0.09535 0.0999 -0.20067501 4.2499928E-4 -0.035724998 0.04365 0.0361 -0.00625 0.07625 -0.122774996 0.0683 0.070025004 0.0188 0.28710002 -0.031425 -0.077325 -0.22917502 -0.109925 0.1281 0.045875005 0.1536 0.083725 0.014449999 -0.083675 -0.03085 -0.013499999 0.0347 -0.04665 -0.26625 0.0051500006 0.028724996 0.05815 -0.138675 0.077325 0.033725 0.053675 -0.061125003 0.009699999 0.08144999 0.070425 -0.008400001 -0.076125 0.0473 0.061049998 0.033875003 -0.064325005 0.039175 0.092599995 0.124175 -0.022875 -0.0169 -0.022225 0.04875 -0.014649998 -0.030199999 0.008125 -0.008675 -0.061825 -0.097825006 0.050625004 -0.03165 -0.003225 -0.017675001 -0.037425004
tenant 0.19718 0.022420002 -0.045220003 -0.0774 -0.014 0.10208 0.032080002 -0.28202 -0.124759994 -0.10993999 0.06606 0.09983999 0.07410001 0.0038000015 -0.079720005 0.029720008 0.03956 0.071260005 0.015100001 -0.0073 -0.36748 0.03734 0.08698 2.9999987E-4 -0.1402 -0.055300005 0.018919999 0.06196 -0.16048001 -0.08702 0.20976 0.071140006 -0.07242 0.14766 0.0022599995 -0.1224 0.062979996 -0.028260002 -0.052600004 0.077240005 -0.01644 0.11487999 -0.006580001 -0.1411 0.06286 0.00202 -0.116919994 0.07792 0.050700005 0.06284001 0.083 0.12736 -0.76284003 0.0041199997 0.03068 -0.021580001 0.089779995 -0.02488 0.025260001 -0.13338001 0.021399999 0.01258 -0.019600002 -0.05624 -0.00568 0.09912 0.0731 0.17342 -0.10750001 0.17396002 0.03652 0.030019999 -0.08996 0.090160005 -0.24312 0.18776 0.07046001 -0.109060004 -0.04768 0.1061 0.01984 0.024140004 -0.10522001 -0.18732 -0.19502 0.0424 -0.05662 -0.023479998 0.14832 0.04904 0.029620001 0.10851999 0.091359995 -0.0566 -0.18026 0.04214 0.24424 0.12358 0.08182 0.09472 -0.08448001 -0.00516 0.14362 0.13740002 -0.09444 0.037040003 0.09472 -0.057600003 -0.12840001 -0.05804 0.17426 0.121819995 0.0046599978 0.01576 0.009519999 0.009400002 -0.022120003 0.13920002 -0.103240006 -0.25732002 0.17344 0.08012 -0.008279997 -0.034700003 0.08978 0.08434 -0.03358 0.04586 0.10228 -0.029800002 0.18358 0.06092 0.045740005 -0.13270001 -0.17634 0.16516 0.01282 -0.0891 -0.010699999 -0.088300005 -0.01246 0.25360003 -0.0699 0.011 0.01092 0.02226 0.02128 0.057939995 0.09914001 0.03444 0.02954 0.14052 -0.051920004 0.03034 -0.0217 0.0658 0.008939999 -0.008240002 -0.05392 -0.15630001 -0.03334 -0.15512 -0.10228 0.016920002 0.0769 -0.052919995 0.0060400004 0.039559998 -0.069800004 0.03806 0.02992 0.07612001 -0.075959995 -0.10572 0.045240004 0.054480005 0.18460001 -0.15677999 0.15094 -0.11489999 0.06384 0.13302 -0.02902 0.22964 0.12498001 -0.06306001 0.04662 -0.12174 -0.18125999 -0.0075999997 -0.01654 0.10676 0.109560005 -0.01722 -0.0325 0.00562 -0.040400002 -0.06258 0.07494 -0.14026001 -0.07366 0.06456 -0.02992 0.082720004 -0.05618 -0.07352 0.010560002 -0.15048 -0.030540003 0.091919996 -0.02606 -0.02462 0.01616 -0.010059999 -0.1276 -0.058319997 0.038340002 0.12104 0.027600003 -0.07456 -0.0015000001 -0.023439996 0.061800003 -0.11332001 0.06116 -0.04296 -0.121580005 -0.14392 0.009999998 -0.094900005 -0.13544 0.026339998 0.18254 -0.010000001 -0.017299997 -0.129 -0.06332 0.07148 -0.15686 0.19466 0.06628 -0.008799999 -0.036199998 -0.10098 -0.072060004 0.04234 0.033500005 -0.17812 -0.0886 0.27776 -0.02272 0.02538 -0.17408 -0.022020001 0.094739996 -0.08842001 0.04526 0.050440002 0.10785999 -0.026840001 -0.08718 -0.0719 0.25142002 -0.16216 -0.38572 -0.09266 -0.17514 0.085319996 -0.2043 -0.12888001 -0.12532 -0.08702 0.099 0.016639998 -0.08556 0.020779997 0.02868 -0.066700004 -0.12604 -0.08814 -0.00476 -0.03204 0.04226 0.023079997 -0.10434001 -0.10664 -0.18668 -0.09062 0.0047999993 0.01176 -0.08124 0.1436 -0.0050799996 -0.04692 0.023699999 0.34104 -0.0060799997 0.03894 0.034460004 0.04826
trainer 0.017749999 0.3021 0.012000002 0.09275 0.007200001 0.1062 -0.04385 0.10265 -0.073850006 0.1428 -0.10165 0.0902 0.15545 -0.03745 -0.11345 -0.02995 0.06225 0.0637 0.0819 0.11175 -0.30725002 0.0578 -0.11535 0.10415 0.13895 -0.006650001 0.056250002 -0.0078000003 0.06865 -0.2176 0.1156 -0.05325 -0.0665 -0.1012 -0.00955 0.018299999 0.0576 0.0825 -0.12975 -0.0515 0.058650002 0.052149996 -0.09855 0.0614 -0.04295 -0.02605 -0.0273 0.049549997 -0.0162 -0.0164 0.0917 0.15474999 -0.64935005 0.1074 0.037 -0.107049994 0.0394 0.0961 -8.9999987E-4 -0.050750002 0.114549994 0.057099998 -0.1485 -0.0906 0.16929999 0.09985 -0.034750003 -0.03205 -0.16589999 -0.0479 -0.09265 -0.07775 -0.0017000004 0.0265 -0.05615 0.0438 -0.0813 0.06895 -0.0987 0.10025 0.0284 0.0424 -0.05755 -0.22670001 0.023449998 0.17935 -0.024800003 0.01215 0.2286 -0.050499998 -0.019699998 0.0075499997 -0.023049999 -0.1876 0.028900001 -0.0956 -0.06495 0.1047 -0.0636 -0.024549998 -0.1949 0.18515 0.12674999 -0.0421 -0.1053 0.0134 -0.010199999 -0.0229 -0.03595 0.18654999 -0.05395 0.05715 -0.09015 0.12435 -0.097 -0.051 0.0026000012 0.1101 -0.05465 -0.3443 0.011850003 0.0145000005 -0.0853 -0.050750002 0.151 0.1878 0.0999 -0.019549998 0.14555 0.0756 0.02155 -0.0933 0.058399998 -0.136 -0.0738 0.14225 -0.17935 0.19369999 -0.1514 0.10235 0.075100005 -0.10885 0.012949999 0.1408 -0.1674 -0.027549999 -0.1479 0.103149995 0.069 -0.017899998 -3.9999932E-4 0.07265 0.05095 -0.02225 -0.09805 0.0305 0.08175 -0.0351 -0.04845 -0.08185 -0.121 0.10735001 -0.13455 0.019049998 0.0069500003 -0.011700001 -0.0328 -0.03635 0.241 0.041050002 0.08710001 -0.0329 -0.06985 -0.2257 -0.03835 0.086 0.28335 -0.06545 0.045549996 -0.07565 -0.0721 0.001000002 0.04355 -0.10365 0.13434999 -0.1533 0.0258 0.1389 -0.16885 -0.09715 -0.008950001 -5.0000846E-5 -0.14015001 0.1047 -0.010949999 -0.0025500022 0.006099999 4.5000017E-4 0.14570001 0.1714 -0.14039999 -0.014999999 -0.06295 -0.092099994 0.07505 -0.0154 -0.10835 -0.14275 -0.08225 0.1073 0.11765 0.1717 -0.101449996 0.124699995 0.07305001 -0.03385 -0.0511 -0.0013500005 -0.1167 0.0062500006 -0.09035 -0.021200001 0.047 -0.019849999 0.19145 -0.12335 0.0073000006 -0.06565 0.010850001 0.014000002 -0.275 0.0079 0.3329 -0.21465 -0.20965001 -0.0858 -0.2715 0.06615 -0.26255 -0.070300005 0.056450002 -0.008999996 0.05505 -0.14164999 -0.16905001 -0.00195 -0.04275 0.19835001 -0.035350002 0.36605 0.0049499995 -0.1579 -0.0924 0.17355 0.081650004 -0.101900004 -0.1884 -0.01635 0.1004 -0.03405 -0.04685 0.058450002 0.02705 -0.06265 -0.47915 0.05795 -0.032449998 -0.25875002 -0.22975 0.0428 -0.037 -0.1385 -0.0838 -0.059100002 -0.0535 -0.1155 0.1603 -0.1708 0.042700004 0.09405 -0.05785 0.05435 0.019650001 0.13805 0.0999 -0.13165 -0.23840001 0.05 -0.09105 0.076799996 -0.0303 0.061200004 0.0069999993 0.0085 0.24445 0.0331 0.0443 -0.1657 0.0011999999 0.027199998
