affiliation -0.0031748663 0.062256664 0.18586668 0.079406336 -0.36502 -0.32200736 -0.35354668 0.130527 0.22719997 -0.53886 0.20637333 0.09605434 -0.123106346 -0.056717 0.29909998 0.06778162 0.31476003 0.17834334 -0.20842335 -0.11515366 -0.031720333 -0.5346633 -0.13335 0.24842332 -0.18478434 -0.32234 -0.24536668 -0.19730759 -0.27836335 -0.26901335 0.42491966 -0.12767336 0.37753367 0.24786334 -0.9855134 0.29135 0.40775698 -0.17656335 0.010803342 -0.048858233 0.15096667 -0.077233344 0.23361145 0.06455666 0.25984368 -0.33402002 -0.14113301 -0.09285288 -0.0058619976 -0.28772667 -0.08771834 0.213561 -0.06630367 -0.09787001 0.06008933 0.15536134 -0.3319 0.20666334 -0.11993401 -0.13353707 0.18445334 0.12861332 -0.11956999 0.083716676 0.149821 -0.16897336 0.06784068 0.39382002 -0.027456682 0.018980008 0.16767338 0.08664201 -0.014677335 0.056773327 -0.191285 0.06617834 -0.11292334 -0.03303066 -0.27444744 -0.09472467 -0.09988999 -0.090519994 -0.12311333 -0.15994418 -0.020924333 -0.13067333 -0.14988333 -0.31529534 -0.32194668 0.2852907 -0.29688334 -0.016866334 -0.11984335 0.15196335 0.47010002 0.14300334 0.11904867 0.321698 -0.045793336 -0.33855003 0.31955 -0.13268 0.16891035 0.164139 0.38944668 -0.027125668 0.12779766 -0.26628268 -0.052773327 0.23255667 0.127817 -0.42308998 -0.06491467 0.25266135 0.110099666 0.15413867 -0.16825533 -0.333 0.26570004 -0.025410667 -0.120782666 0.22740869 0.61469334 0.12102467 0.177824 0.102354005 0.009413998 -0.08412867 -0.07300734 -0.26172 -0.116606675 -0.2710167 0.13654667 -0.40190333 0.01181 0.1088747 0.02873667 0.32919267 -0.220156 0.09021667 -0.17792332 0.4144537 0.1973607 -0.17245667 -0.009162667 0.12734967 -0.16994068 -0.201205 0.11427002 0.047641333 0.4233733 0.086703345 0.07925667 -0.20973003 0.001930669 -0.14462867 -0.112505004 -0.021176007 -0.039858997 0.123940006 0.33597335 0.23533432 -0.32775334 0.025669 0.32522336 0.051253997 -0.3573171 -0.017756661 -0.12628867 0.2799967 0.17776334 -0.13652366 -0.88395333 0.3673467 0.40998268 -0.21439467 -0.39765602 0.08683534 -0.16097566 0.49946004 0.57661 0.17221332 0.23315 0.035506666 -0.178601 -0.08204332 -0.19426334 0.14281 0.24819332 -0.03888666 -0.23303334 0.20588666 0.123479664 0.026566675 0.07972332 -0.16219334 0.047478672 0.16306734 -0.268031 0.44506 0.84025764 -0.21125667 0.19826636 -0.19928 -0.106000334 -0.01876634 0.08574333 0.24236998 -0.046246678 0.34150335 -0.17395535 0.21814033 0.09852835 0.47058666 0.0042633316 -0.11966699 0.15207666 0.16879669 0.052768074 -0.08667668 0.14363334 -0.45751 0.26974532 -0.3466893 -0.17999333 0.011509995 -0.14548999 -0.037286997 0.061932668 0.17058599 0.193906 -0.0075323335 0.08355066 -0.015077329 0.03118999 -0.47756335 0.18227634 0.026789999 0.06592001 0.46261668 0.45754668 -0.011986333 0.101134144 -0.15274668 -0.3926 0.48295337 0.09747702 -0.14174667 0.13101333 -0.38105333 0.08450067 -0.0152413305 -0.051718004 -0.29373 -0.048173334 -0.11507332 -0.048182335 -0.07980933 0.045545004 0.17219168 -0.21859668 -0.23125401 0.35818335 0.19828567 -0.0031433306 0.041531336 -0.20884334 0.0143450005 -0.164253 0.034793347 0.020401668 0.235888 0.28491336 -0.13592468 0.10025033 -0.18295467 -0.84526 -0.10649 0.62771004 0.408007 -0.29144636 0.103873335 -0.017411998 -0.067399666 -0.07957667 0.43491 0.22263268 0.032221332 0.10936 0.034384668 0.061503336 0.12030002 -0.44135866 0.20807669 -0.20080201 0.19748567 0.054020338 -0.16387734 0.29837435 0.16612001
almaMater 0.167844 0.41281602 0.325739 -0.016149998 -0.0054810047 -0.149549 -0.057428997 -0.1550932 0.1739198 0.6344248 -8.269966E-4 0.23853779 0.399101 -0.320262 0.108874 0.15381859 -0.23557 -0.122093394 0.110783614 0.046043 -0.29896802 -0.0022239983 0.042596 0.35464 -0.286774 0.350948 0.11766861 0.405058 0.24169199 -0.22763538 0.72128004 -0.45704198 -0.0509346 0.0779806 -0.21739922 -0.22210221 -0.1309744 0.0076679983 0.47700801 -0.1503178 0.322152 -0.40011603 -0.20056 0.476866 0.010713401 0.038617406 -0.1334826 0.120788194 0.0988228 -0.70893204 0.2147014 -0.149346 -0.035023205 0.0374134 0.010890001 -0.062721804 0.11581381 0.3842346 -0.1504116 0.2541702 0.059488 -0.0705866 0.1542584 0.1148146 0.2172226 -0.14334519 0.060504403 0.30443284 -0.35730302 0.147362 -0.15964879 -0.1281554 0.0323862 0.116668396 0.07683381 0.26945978 0.3175 0.072374195 -0.0233794 -0.3931814 -0.0596848 0.14328082 -0.0680968 -0.551844 0.359458 0.291236 0.029908761 -0.5019596 -0.15796399 -0.11652341 -0.1376556 0.14080922 0.2556358 0.13287762 -0.0019623965 -0.026097197 0.023681391 -0.17634481 -0.045326594 0.38214642 -0.1259616 0.21353903 0.062358003 0.36071202 -0.155952 -0.20926915 0.178293 -0.09349881 -0.0718442 -0.0934324 -0.28883442 -0.24436 -0.019670198 -0.12829679 -0.1321318 0.037815 -0.073435806 0.12953582 -0.07932661 0.3228066 -0.1484846 0.213022 0.017900005 0.49962002 0.3267 0.3715456 -0.07991021 -0.265615 0.40539405 -0.1872018 -0.46655998 -0.20827301 -0.14084361 -0.2257578 -0.071357004 -0.30296803 -0.1831028 0.347482 -0.26928002 0.084418006 0.2351656 0.21308099 -0.07371501 -0.18206799 0.69848794 -0.22659385 -0.37783402 -0.44015917 0.461764 0.1987448 0.25816482 -0.32629362 0.22694962 0.459646 0.05953861 0.1014684 0.022751741 -0.0961696 0.15160541 0.055433013 -0.19854991 0.2854614 -0.19675861 -0.32911 -0.44993803 -0.24263899 0.032725997 0.1334636 0.007639599 -0.054524004 0.31421402 0.09401001 -0.48885402 -0.0393964 -0.0018739998 0.056247402 -0.28673202 0.010518804 0.19197841 0.22711301 -6.619767E-5 -0.3362696 0.1264988 -0.20079446 0.30380082 0.105096005 -0.24922803 -0.024928002 0.0470418 0.0792828 -0.39694 -0.233398 0.046493396 -0.039181203 0.370144 0.2489088 0.109122 -0.0186626 0.38361 -0.17572598 -0.085792 0.034450002 0.2290378 0.21188901 -0.25609943 -0.0205504 0.04256564 0.1307282 0.311146 -0.31743002 0.22473882 0.19828598 -0.20992962 -0.034278598 -0.2477958 -0.2253412 -0.22710219 0.076036 0.0980048 -0.44863802 -0.09445961 0.4042088 0.293008 0.3873066 -0.034977205 0.0636678 -0.0280297 0.22481762 -0.22491741 0.23116441 -0.3622424 0.17800198 -0.15323685 -0.311126 -0.0012925387 -0.066998385 0.383082 -0.026858201 -0.448284 -0.0500512 0.486166 0.2901866 0.004715395 -0.11466607 -0.1490238 0.288282 -0.10320778 0.51574403 -1.8480122E-4 0.065304 0.30191043 -0.286029 -0.18718441 0.07269441 -0.41561005 -0.0719002 0.22409058 0.3252747 0.066281 0.20041521 -0.06548001 0.0520718 0.42278036 -0.106949605 0.33460602 0.261779 -0.23638825 0.033927996 0.1300864 0.37749404 -0.23749442 0.43098003 0.0861246 -0.37256953 -0.24363743 -0.38448802 -0.15498802 -0.1688222 -0.012176998 0.34204102 -0.0924226 0.0250484 -0.1092064 0.027656002 -0.277568 0.1722684 0.1721596 0.66220206 0.3340056 -0.414582 -0.118092 -0.36321 0.1109606 0.1548932 0.0554698 -0.7104201 -0.126258 -0.17370401 -0.039376702 -0.121743396
bandMember -0.21026202 -0.0362685 -0.15763162 -0.16850999 -0.20265014 -0.32677123 0.158297 -0.0064427974 0.28641975 -0.010267997 -0.1063204 -0.1146328 0.08231913 -0.041465808 0.28325102 -0.21517456 -0.153848 0.014578319 0.251366 0.105119996 0.1858254 0.39978802 -0.261668 0.37384602 0.021342015 -0.19758521 0.18758379 0.058400642 -0.37708002 0.0020025969 -0.005580199 -0.2916722 0.1465676 0.1522798 -0.26565 -0.1550304 0.246442 -0.1564402 0.0854754 0.2475894 0.013583201 -0.15582941 -0.22842641 0.2127964 0.4674862 0.49713 0.06246 -0.143625 0.058389395 -0.25440583 -0.03755 0.0033475966 -0.27338487 0.32819062 -0.20191748 0.11916121 -0.13552801 0.19941999 0.11484201 -0.3156674 0.174332 0.19516139 0.197179 0.0553104 0.219564 -0.08555 0.462162 0.20644002 -0.022184398 0.400928 0.0359778 -0.0145120025 -0.18551742 0.073864594 -0.054106604 -0.019228995 0.0786454 0.1813718 -0.23157461 -0.007864001 -0.19829841 0.3629714 0.073597394 -0.362262 0.1953832 -0.1487188 0.19278142 0.1305478 -0.1456303 -0.4596746 0.238922 0.2927108 0.2546924 -0.2680858 -0.120474 -0.019406402 0.403152 -0.4562397 0.29131198 -0.09904599 -0.2558496 -0.08045202 0.269464 -0.13496234 -0.30353275 0.055284407 0.085083 -0.07343601 -0.180012 -0.042501207 0.12952921 0.1874946 0.157592 0.30467 -0.059038002 -0.119766 -0.130301 -0.274159 0.1469488 -0.235006 -0.282582 0.1886178 -0.338568 -0.14370202 0.1951998 -0.075248405 -0.1241312 0.020001998 0.21344002 -0.009233999 -0.20307496 -0.17274462 0.169125 -0.731876 0.163146 -0.10156061 0.284682 0.255946 -0.09993029 -0.07630919 -0.104930006 -0.06733201 -0.0324064 -0.3479618 0.339898 0.012548703 0.1189876 0.101459004 0.094358206 -0.0035832047 0.26440522 0.090441994 0.0111129945 0.042457998 0.048565995 0.1167712 -0.083934 0.33302942 0.022434602 0.0960174 -0.021738602 -0.12583 0.08225804 0.053298004 -0.22794859 0.0821174 -0.22361961 0.36602998 0.22189398 -0.0190322 0.28851 0.094084 -0.13527 0.1359524 0.2615866 0.13786921 0.21259761 -0.0288714 -0.06382682 0.276278 -0.13249001 0.10234028 -0.08615019 0.2348214 -0.116209984 -0.2561644 -0.2852486 -0.15083541 -0.2438112 -0.0071660043 -0.11263861 -0.026065702 -0.17883539 -0.13606821 -0.144478 0.25103 0.066810004 0.1264202 0.0568808 -0.06715966 0.79223406 0.101084195 0.4449132 0.18392341 -0.1456432 0.10726 0.239372 0.3642482 -0.08450001 -0.1502502 0.13749601 -0.007463515 0.1927482 0.3711054 0.040404 0.22463074 0.2955674 0.033204198 -0.012361403 0.034280192 -0.105248 -0.028136594 -0.39902803 -0.0017309964 0.04730919 0.2298398 -0.37698796 -0.27800745 -8.69E-4 -0.15223 -0.046612807 -0.02122954 -0.1736462 -0.4833704 0.066802 -0.2354608 -0.016464666 0.12152779 -0.29416022 -0.017840827 -0.010897796 0.119593404 0.033088 -0.0943433 -0.10388341 0.3938088 0.121124804 -0.14911841 -0.10032381 0.122905806 0.051098604 -0.1020348 -0.1695938 0.21903181 0.14559816 0.32326123 0.336884 -0.1192286 0.307792 0.051889002 0.06614001 0.104582004 0.0768762 -0.14147478 -0.2796526 0.11911464 -0.322176 0.1693908 -0.09386046 -0.0531026 -0.3221518 -0.039614003 0.1559332 -0.22282241 0.0019272566 -0.00554952 -0.687422 -0.287072 0.1948234 0.055397995 -0.016299998 0.0509856 -0.5598981 0.222874 0.1984742 0.2019118 -0.20842981 0.280372 0.097409 -0.1854474 0.2949644 -0.113892436 -0.3320046 0.030652398 -0.1461234 0.2187378 -0.056679703 0.464988 -0.31476 0.052118193
birthPlace 0.19352761 -0.121413805 -0.0896211 -0.11470061 -0.19148341 -0.15470919 0.005783196 -0.068814 0.06137544 -0.54018766 -0.036632 0.0368192 -0.09714114 0.17176098 -0.18356378 -0.0817732 0.07790001 0.343728 -0.19549 0.2112216 -0.10962224 0.07191222 -0.15843159 0.1766 0.12034201 -0.13391522 -0.1336012 0.04505238 -0.15272063 0.21311739 0.15841144 0.556232 -0.48276398 0.20965901 0.04613939 0.269134 0.1475568 -0.068401344 -0.1772094 -0.13332641 0.24428034 -0.405552 0.17518 -0.022758598 0.1915608 0.09625941 0.15459141 0.32411602 -0.084303595 0.064176194 0.21108142 -0.1342106 0.019983197 0.09994448 -0.082452 0.094896995 -0.16975799 0.20307401 0.14505401 0.25391462 -0.29749784 0.1052826 0.27754378 0.2600494 0.079396 0.102717996 -0.063076 0.098404005 0.1324816 0.057035994 -0.0643726 -0.0034973994 0.05377552 -0.21098761 -0.3701496 0.213302 0.1547632 -0.0586898 0.007959 -0.107481994 -0.3175968 0.1987528 -0.19689201 0.105753995 0.07826601 0.1690588 -0.050052 0.25737602 -0.033475127 0.2343814 -0.20008199 -0.1677366 0.423738 0.263132 0.0567266 0.074729405 0.24832897 0.15432821 -0.022455921 -0.138 0.15614574 0.255816 0.2503062 0.3928248 -0.02888599 -0.051345404 0.20862 0.11204799 -0.2501275 0.2373076 0.27480862 -0.0641742 0.0023555995 -0.24047902 0.120962 -0.29346064 0.21484399 -0.2448821 0.4401288 -0.2525312 -0.037447803 0.1421688 -0.009338197 0.0337091 0.020310203 0.38112998 -0.12423541 0.1988554 -0.1785792 -0.116130196 0.066657595 0.18694241 0.4182856 -0.22429399 0.10253141 -0.102493 0.193188 0.0743236 -0.083362 0.0394112 0.1777284 -0.06265272 0.148804 -0.16813222 0.312714 -0.562346 -0.111898996 -0.116069995 -0.489374 0.1703056 -0.1692265 -0.12563822 -0.0059979963 -0.17908138 0.003944002 -0.12353601 -0.1051436 0.063583195 0.192248 0.044888806 0.1755762 0.2067812 -0.1044346 -0.023876006 -0.16713361 0.20181298 0.101239994 -0.24549639 0.0669488 -0.2548798 -0.005052996 -0.16508602 0.008837205 0.079712 0.35409442 -0.025579402 -0.0964536 -0.20160198 -0.22525583 0.032741204 -0.0701378 0.19202203 0.495481 0.16070859 0.24266398 0.089184 0.009514004 0.0316046 0.3227828 0.112912 0.11442 0.0371764 0.035526004 0.097109 -0.1209796 -0.229321 -0.07460101 -0.2146906 -0.075568005 0.49213657 0.61505 -0.029390195 0.06568101 -0.293329 0.30593 -0.15988003 -0.077312 -0.18585181 -0.25219 0.38989002 0.009550198 0.2524 0.042960003 0.1528216 -0.20950781 0.015130001 0.064158194 0.08772381 -0.22787003 0.322239 -0.26366618 0.19753587 0.0072940006 -0.3391385 0.028059596 -0.19010761 0.2249546 0.077253394 0.1669662 0.43532857 -0.08668299 0.12171201 -0.2175272 0.24338281 0.034168605 -0.058644094 -0.0090728 -0.118074015 0.014647341 0.169274 0.0057118 0.0168177 0.639084 -0.105856 -0.28527662 -0.024042798 -0.1122404 0.205495 -0.13299687 0.081966594 0.067180805 0.16741 -0.018671595 -0.008886589 0.022593597 0.26947197 0.12276142 -0.08703599 -0.06556141 0.020548001 0.17716096 -0.028210565 0.11313801 0.12360821 -0.096177995 -0.026943995 0.0875118 -0.06718999 0.2565192 0.1141598 -0.316748 -0.1899736 0.20239261 0.08013719 0.0902888 0.035310004 -0.982144 -0.47221404 0.092310466 0.1196172 -0.031210005 0.059899796 -0.21517836 0.030078799 0.09041499 -0.055803996 -0.028658003 -0.11265482 -0.0284266 0.14902602 0.3271834 -0.0281472 0.25374 -0.071665995 -0.0922408 -0.136504 -0.009030342 -0.011033601 -0.23952682 0.25239238
ceo -0.096628696 -0.22543587 0.21658924 -0.23201999 0.10472451 -0.486231 -0.23355037 0.178152 -0.09964575 -0.74437374 -0.045981377 -0.24816313 -0.08293625 -0.19327325 -0.25293827 0.32041 0.07813125 0.023412995 0.022871198 -0.0043979473 0.41524377 0.19832274 0.23801126 -0.039465126 -0.26418674 -0.23917525 -0.022335874 0.17095475 0.15100974 -0.22995687 -0.2307775 -0.15846786 0.16064274 0.060438756 -0.65837 0.032070503 0.29868138 -0.02000051 -0.31391838 -0.16268125 0.14260738 0.09711572 -0.13386975 0.35506123 0.0439637 -0.112899624 -0.100669 -0.008947879 0.0944455 -0.117907494 -0.23820738 -0.1579065 0.295414 0.5646325 0.008062751 0.3315484 -0.098377 0.13087 0.045915212 -0.21859363 0.08530075 -0.31411672 0.23767126 0.0014665006 -0.046575278 -0.18875612 -0.26356426 -0.08039801 -0.20968288 -0.21516262 -0.1868146 -0.0028460398 -0.047148366 0.0119070485 -0.042056255 0.012133246 -0.11358213 0.05711314 -0.024199523 0.11357576 -0.19405575 0.27166826 0.043097503 0.18549725 0.32495046 -0.05606187 -0.08999823 0.062894374 -0.14295524 -0.0925525 -0.4755975 0.14676249 -0.30152002 -0.040912755 0.0658625 -0.08187039 -0.2827284 0.037835002 0.27216625 -0.13676475 -0.16483375 0.15614626 -0.070765756 -0.18159351 0.24773712 -0.10550535 0.22773512 -0.12309049 -0.0580107 0.13901487 -0.013820751 0.06810976 0.01401088 0.18237561 0.026548322 0.071718 0.081508055 -0.49978 -0.16645025 -0.072525 -0.10038374 0.10211113 0.1946215 -0.087244876 0.24428499 -0.25891 0.0734115 -0.19574 0.045470126 -0.05414574 0.048433874 0.18877321 -0.13944112 -0.0486285 -0.103277676 0.055375 0.14090538 -0.17952387 0.08864376 0.060719 -0.14478487 0.029284373 0.369021 0.18286264 -0.324 0.4088285 0.24032862 0.13519402 -0.08445037 -0.06724626 0.67379624 0.29776877 0.6542759 0.006301254 0.062992 0.0871175 -0.060719833 -0.09928751 0.008121751 0.17445162 0.05803708 0.3674265 -2.5369227E-5 0.155765 -0.11034175 -0.1980055 -4.734993E-4 0.06939375 0.005165115 0.35557085 0.06291537 0.03604362 -0.56797624 -0.31140974 -0.06178651 0.39773798 0.1540678 -0.057043374 -0.06928855 0.25182313 -0.139148 0.3644839 -0.08156425 0.31131348 0.11528876 -0.30868912 -0.5434625 -0.016696122 -0.227514 -0.0822815 0.33648762 -0.0772545 -0.16162813 -0.022600748 -0.12024462 -0.03396012 -0.0039916243 0.038009007 0.24898101 0.0072162487 0.46179125 0.06831563 -0.26202187 -0.12912987 0.044388898 -0.06603162 0.22281538 0.0485705 0.121400625 -0.4649375 0.18626001 -0.28027874 0.23031974 -0.35559 0.18362038 -0.084563136 -0.13095488 0.241302 -0.17209667 -0.20568864 -0.42522874 -0.070872374 0.009516128 0.03005388 0.14667875 -0.13066512 -2.3562461E-4 0.03024472 -0.14157625 0.08037525 -0.059995532 0.36602002 0.18165876 0.07069662 -0.09822875 -0.052838877 0.35988188 -0.28695652 -0.3357494 0.14546095 -0.07180038 -0.21929613 0.13955152 -0.07251775 0.050750874 0.27579123 0.34166875 -0.57993376 0.16975701 0.159656 0.24771437 0.08057422 -0.29771113 -0.11851376 0.35978425 -0.099802524 -0.21602482 0.13949649 0.032613747 -0.29888788 -0.23576975 0.189082 -0.04715941 -0.03341896 -0.13643175 -0.034569997 0.22366112 0.19278662 -0.20054162 0.34736 0.029651038 0.30205813 0.03961212 -0.026707506 0.17559175 0.138655 -0.37146878 0.22246388 0.23062626 -0.38058987 -0.099757686 0.012474999 -0.12490749 0.082591236 0.01105012 0.16418874 0.42242503 0.19583188 0.013202496 -0.30935538 -0.14162049 -0.13503674 -0.14111626 -0.23026988 -0.18020213 0.29010162 -0.32572737 0.20370013 -0.39805764 0.248052
child -0.070600726 0.04347428 -0.087043546 0.08596819 -0.13835055 0.25563368 -0.09120946 -0.27247927 -0.08895774 -0.11642909 -0.012476098 0.08927592 0.07366592 0.016060269 -0.03332755 0.020933738 -0.06825764 -0.39541098 0.116842926 0.05450973 -0.061377637 0.48818997 -0.36527687 0.012939488 0.0855591 -0.038378455 0.052928817 0.0027006378 0.16697802 -0.103613965 -0.239333 0.041582197 -0.040426277 0.041204095 -0.24171275 0.25009492 -0.13065934 0.0016364565 -0.02616637 0.04375582 0.2089291 -0.09879754 0.22441247 -0.249702 -0.27672964 0.022141999 0.25483072 0.13422544 0.0109654525 -0.027630065 0.046745867 -0.3320628 0.05381181 0.08158528 -0.1649716 -0.11084783 0.24425973 0.102605544 0.058279913 -0.26740542 0.015928421 0.08113473 0.13096109 0.23883109 0.15844429 0.07716973 -0.07986455 -0.11949637 -0.35875246 0.30868727 -0.16111091 -0.17980064 -0.24705431 -0.030239549 0.09693727 -0.083598554 -0.06362101 -0.27245393 0.07265659 0.063584186 -0.062021635 0.031264786 0.27453983 0.13694902 -0.1901943 0.031086037 -0.058786087 0.17867938 -0.055243738 0.098393105 -0.044351183 0.14376044 -0.25291732 0.16294618 -0.27313668 -0.06515554 0.24334519 -0.07955891 0.08240917 0.097951904 0.17998163 -0.18350801 0.1951197 -0.026568774 0.064823 -0.06276919 0.07317392 0.049351823 0.0849023 -0.06730058 0.044629633 0.37617007 -0.19416781 0.16694708 0.42180365 0.0939439 0.14675918 0.14974149 0.11202197 -0.077706 -0.1718992 0.10358946 -0.25473455 -0.06885283 0.04511182 -0.15765555 0.063754536 -0.12174219 0.4005304 -0.09585573 0.24961542 -0.14885001 -0.18274392 0.26837355 0.078619555 0.011910178 0.23524281 -0.174273 -0.18823646 -0.027296823 0.2796518 0.0014214563 0.09127146 -0.18877184 0.07322492 -0.09222791 0.07638901 0.1704169 0.13292146 0.15272565 -0.45172068 0.19942579 -0.16843082 0.18122728 -0.08673709 -0.04643118 0.15609598 -0.110256 0.033714365 0.24496174 0.18329911 -0.095109455 0.14226447 -0.024673818 -0.11678454 -0.09199809 -0.121136546 0.072221264 0.13754572 -0.15238044 -0.0033105125 0.12704363 -0.36609456 -0.031170456 -0.004620635 -0.23601727 0.12614533 -0.08641337 -0.049115 0.13302729 0.10742945 -0.00850982 -0.075927734 0.19163245 0.042283088 0.08024364 0.10480478 0.0078321835 0.35949364 0.07107482 -0.07619209 -0.22536027 -0.09655044 0.2038411 -0.22412847 0.09585092 -0.09048898 -0.26890546 0.15000117 -0.111963555 0.75567627 0.22386673 0.41730553 -0.09196555 0.05945925 -0.05162409 0.03022618 0.10229319 -0.17349537 0.0019469073 -0.004577008 -0.11817819 -0.0638611 -0.078058004 0.17487155 -0.13187338 0.11688546 -0.14184691 -0.09015691 -0.20105128 -0.12674911 0.082062714 -0.13499747 -0.06845463 -2.854575E-4 0.09679022 0.3498682 -0.21003908 -0.046821 0.16139512 0.123899266 -0.0068223695 -0.34217802 -0.161465 -0.21678936 0.19242729 -0.06126519 0.1587841 0.0020369075 -0.06852772 0.21201265 -0.30921572 -0.09986182 0.24955729 -0.19581456 0.014245539 0.0054828716 0.0050032735 -0.26181126 0.02993836 -0.01713154 0.16600795 -0.061510727 0.030816555 0.38998184 0.48907363 0.22875594 0.18703993 0.056879174 -0.09036737 -0.072184734 -0.10369479 -0.21782355 -0.05517518 -0.08027927 0.18105856 0.24378622 -0.10725786 -0.0801389 0.09154746 -0.32356644 -0.209837 0.10075591 -0.32505038 0.0930344 -0.20973973 -0.60401547 -0.09879509 -0.33864704 0.110002086 -0.05495718 0.33339658 -0.08317609 -0.010253998 -0.43016657 0.1828052 0.30419418 0.22780421 -0.22736554 -0.031250633 0.08507573 0.24349593 0.29359964 -0.20982437 -0.22211502 -0.18586247 0.23388354 -0.004074181 0.08633373 0.14019366
club 0.28286335 0.37843335 0.32880366 0.034700334 0.24089734 0.19199368 -0.151627 0.22461334 -0.3982466 -0.97964 0.39141667 0.19954666 0.17006665 -0.01093333 -0.24971566 0.12393734 -0.07189467 0.28620502 0.13013333 -0.5258567 -0.30906034 0.38810635 0.042201005 0.48462003 0.030211668 -0.32223666 0.045936666 0.19236168 0.2935567 -0.062668 0.13988666 -0.36725998 -0.24180633 -0.055146992 -1.0369 0.14628467 0.23753333 0.14196569 -0.2689587 0.14386 -0.014128665 -0.31480893 -0.17011002 -0.011739994 0.38393998 0.257106 0.38763866 0.25532666 0.07614333 0.24921 -0.44744667 -0.05578667 -0.064929664 -0.16435334 -0.141211 0.6008934 -0.112606004 0.061210003 0.068083 -0.25924242 0.26367334 0.16358 -0.163818 -0.37659 -0.31384334 -0.20386335 -0.48109335 0.12947701 -0.28654402 -0.42850733 0.05417333 0.18157333 -0.34189337 -0.08955001 -0.58736336 -0.16041034 0.10609033 -0.096401 0.091050014 0.40425667 0.10068667 0.39540833 0.172984 -0.37607002 -0.17949268 -0.06610668 -0.104631335 -0.24980901 -0.10783334 0.25037402 -0.0422 0.117751 0.08091167 -0.24668334 0.86217 0.092254534 0.284487 -0.33879668 0.14456001 -0.22497034 -0.06861967 -0.0044646664 -0.138033 0.11992833 0.04968567 0.40672335 0.3892367 -0.40784666 -0.11998767 0.18806568 0.123210005 0.11806302 0.24812734 -0.53903335 0.051965665 -0.012423001 0.15316 -0.18514334 -0.13128302 -0.04423601 0.002001668 0.56818 0.42451668 0.326307 0.10153699 -0.03233567 -0.08733734 0.398306 0.087035 0.024443667 -0.0081066545 -0.105909996 -0.05387333 -0.08554634 0.021683663 0.14732033 -0.020409672 0.34749335 -0.5323967 0.27348 0.03189334 -0.19952911 0.31848067 -0.0016783327 0.10232999 -0.24025732 0.079323635 -0.134112 -0.30647337 0.43192333 0.28543967 0.005463337 -0.10017 -0.16300666 0.233366 -0.4736048 -0.15087634 0.08983867 0.039910235 0.23616134 0.20624332 -0.25763 -0.5402567 -0.09852334 0.030480001 -0.62956 -0.3162267 0.27296665 0.45837337 -0.46977 -0.109066665 0.18217728 -0.89583004 0.16039 0.28231335 -0.03548733 0.15939334 -0.24826 -0.043711003 0.77469003 0.23796001 0.1275 0.10699527 0.111505 0.62357 -0.27658004 -0.2900812 0.029164 -0.15684667 0.061060667 -0.243101 0.01225999 -0.025751334 -0.13034233 0.19287327 -0.134903 9.236634E-4 0.11920333 0.1913539 -0.021856677 1.3965667 -0.12757134 -0.05841867 -0.124092326 -0.30094 -0.093826674 0.24878335 0.19163135 -0.12752134 0.10811567 0.18999635 -0.08536501 -0.6240067 0.10145297 -0.19428802 0.059133336 0.07305367 -0.12580335 -0.2534327 -0.28161 -0.012739668 -0.28266 0.14645666 -0.50269336 0.29982334 -0.22796333 -0.51661 0.08983667 -0.17757508 0.18744242 0.25560337 -0.18644002 0.28886002 -0.41629 0.17014334 0.034827664 0.1652794 0.4107667 0.11796 0.18123268 0.58813 -0.09540667 0.21431634 -0.10147833 -0.32991 0.31977 -0.37102336 0.059783325 -0.23133335 0.139981 0.05194433 0.087357335 -0.07954566 -0.29787 0.26065233 -0.19893321 0.026152601 -0.34086 0.09003334 -0.34962332 -0.18945533 -0.33963335 0.25701666 -0.015660334 0.14623667 0.02798301 -0.16334167 0.37361667 0.01020433 -0.19757667 -0.024452668 -0.085530005 -0.16551235 -0.18572466 0.64004934 -0.050119333 -1.3276234 -0.20042734 0.13120666 0.49503002 -0.106844336 -0.15657534 -0.054463334 0.4164557 -0.19351867 -0.28681403 -0.33308667 -0.08481668 -0.12446334 -0.14512667 0.0075099915 0.19984701 -0.45291337 -0.21578269 0.10703634 -0.22628634 0.17218333 -0.090459004 0.134432 -0.24306333
deathPlace 0.20944133 -0.07225123 0.26838568 -0.10558224 0.055824533 0.11259438 6.733007E-5 -0.027469665 -0.020615157 -0.7140067 -0.16784269 0.031793226 -0.073017664 -0.1677248 2.4132265E-4 0.13732228 0.4195498 -0.018006219 -0.27216244 0.12602723 0.06941988 -0.011568114 0.0265716 -0.060717337 0.022257106 0.016130645 -0.001765112 -0.122971214 -0.05556934 -0.039097223 0.001900877 0.29237577 -0.07943371 -0.08640645 -0.17275889 -0.25169778 0.07207147 0.05152433 0.06530599 -0.10383856 0.24767558 -0.055302735 -0.16315158 0.012099221 0.024944117 -0.09325089 0.16391645 0.21218888 0.02500389 -0.017438078 0.07830156 -0.0026534398 -0.101352334 0.10505956 0.13652179 0.06944863 0.002564891 0.16412556 0.17956801 -0.19502722 0.019588768 0.06472022 0.18396762 -0.08212622 0.0058189994 -0.42781445 0.17046934 -0.017687663 0.13111201 0.094897784 0.20261389 -0.19389778 -0.09189568 0.036074247 0.13884933 -0.02804425 -0.053461004 -0.18887378 -0.37504455 0.15710945 0.051300008 0.0024787784 0.055497665 0.43388224 -0.118519664 0.053361442 -0.09114056 0.2891459 0.13255522 0.3347627 -0.062355876 -0.3220791 -0.21144 -0.028901896 -0.11816888 0.18770765 -0.14144856 -0.07030298 0.35360447 -0.24408586 0.053618558 0.117581405 0.25933447 0.23691355 -0.23268601 -0.102911785 0.2507709 -0.016574997 -0.053466223 -0.02377122 -0.12439644 0.29618132 -0.34584466 -0.1799341 0.2084199 -0.01211111 0.21870546 -0.04332133 0.10234923 -0.36534923 -0.18022877 -0.30100912 -0.24065754 0.256983 0.086935855 -0.12512834 -0.23391867 -0.039254 0.02382711 0.0011404918 0.19184367 0.35554332 0.07866088 -0.080064446 -0.12479816 0.015626224 -0.19480938 0.042475447 0.17647989 0.12350445 0.08075587 0.055518564 -0.17149301 0.24142835 -0.21530856 -0.014903668 0.012029436 0.032151334 -0.0105106635 -0.13251357 -0.17175545 0.032739278 -0.34042013 0.16161667 0.2954918 -0.014957894 0.09540321 0.10132211 -0.013473365 -0.25154823 0.16104166 0.024785662 0.05018856 0.14589278 -0.049366076 0.18267944 0.33379808 -0.015944252 -0.27773777 0.00306689 0.11860333 0.34469634 0.0044766613 -0.17116377 -0.124885865 -0.0136704445 0.09501327 -0.13759622 0.10892922 0.28253135 0.016912894 0.047136657 0.11640467 0.105662994 0.13161023 0.11835603 -0.41296577 -0.283615 -0.091032036 0.0048571164 -0.08915255 -0.29554892 0.0045867627 -0.15394923 -0.14401272 -0.14024323 -0.06182123 -0.023807999 0.26679754 0.16511156 0.4826789 -0.16471922 0.048459105 -0.073013775 -0.077315554 0.25246656 -0.033945534 0.061676662 -0.16790211 -0.122836776 -0.17148577 -0.12850444 -0.013127112 -0.005498767 -0.012390335 0.13299185 0.101544335 -0.25681368 -0.08034553 -0.0073896744 0.04398011 -0.33255655 -0.109813556 0.061818004 -0.17515786 0.03349523 -0.036297787 -0.12081211 0.23116912 0.14327823 0.15068693 0.006644668 -0.16798499 -0.20565756 -0.16178842 0.002606339 0.19385545 -0.0021783311 0.189735 0.0045842216 -0.21614578 -0.16001657 0.3293065 -0.01021544 -0.32718554 0.08759022 0.30181447 -0.04610237 0.1613359 0.022540554 -0.21171078 0.19256656 0.07537567 -0.017042885 0.5699204 0.38376522 0.20791909 0.17781614 0.14834836 0.053022 -0.12962998 0.09380133 -0.16455455 -0.012417225 -0.20196177 0.1085397 -0.13554208 -0.18562877 0.16057467 -0.122221775 0.017158223 -0.017998448 0.31596413 0.08514499 0.14669688 -0.22531445 -1.2749233 -0.12619023 0.28556177 0.18511601 -0.20385633 -0.14499934 0.013393329 -0.21110001 -0.02717167 0.1828161 -0.17216678 -0.10018412 -0.28321 0.03276715 -0.099524215 -0.101890005 0.27654722 -0.1896824 -0.062256772 0.27177778 0.016158339 -0.096978895 -0.14619356 0.022607341
debutTeam 0.13831383 0.44138336 0.105040506 -0.27409235 -0.16138482 0.19248101 -0.185697 0.13287573 0.045424502 -0.8238 0.16826598 0.16160068 0.052364152 -0.084034674 -0.17861138 0.011200001 -0.11302683 -0.13193728 -0.023181804 -0.22883484 -0.034698833 0.12676567 -0.16512585 0.31870183 0.032179497 -0.008658833 0.055881284 0.14336 -0.13929383 0.022099834 -0.15763983 -0.07337317 -0.043403666 0.23474084 -1.169805 0.28539035 0.14711016 0.17801234 -0.010834999 -0.08104883 -0.022619497 -0.19333267 0.007318001 0.23908567 -0.08102416 0.1247395 -0.006440168 0.1812405 -0.20173 0.12786017 0.035257336 0.01215 -0.20167498 0.20508018 -0.051321164 0.308285 0.025509547 -0.15219268 0.20481567 -0.0452495 -0.3931441 0.27592403 -0.1838104 -0.31543335 -0.041400164 -0.0072195036 0.275334 -0.20154834 0.11190566 -0.22132668 0.06740168 0.34466666 0.040370673 0.07181784 -0.28416735 0.20546734 0.20400566 -0.16568904 0.002629859 0.15706149 -0.061636835 0.22292665 0.15579501 -0.123115 -0.08053984 -0.10031234 -0.059278324 -0.044684835 0.24426834 0.046463504 0.090246335 0.081321664 0.15742335 -0.42288828 0.13082567 -0.06926617 -0.25411677 -0.30965686 -0.174851 -0.52604336 -0.09798734 0.14109 0.03099823 0.10375033 -0.15054 -0.34272835 0.24392836 0.20723967 -0.09676399 0.10120433 0.2747359 0.20628402 -0.06535267 -0.16414167 0.076267004 0.051993333 -0.20178244 -6.165033E-4 -0.13086 -0.43285534 -0.189783 0.060593497 0.12726283 -0.10226434 -0.17701 0.001758835 -0.18179701 0.00452834 0.20008934 0.171296 0.10412566 0.21655834 0.059072 -0.21849635 0.20688435 0.115565 0.312565 -0.161461 -0.27044684 0.05023867 0.011248499 -0.05586633 0.025126666 -0.09773316 0.03697983 -0.16923335 0.159102 0.02776084 -0.19877067 0.14139336 0.46694517 -0.33526 -0.17435351 -0.16644782 0.5704651 -0.30113065 -0.46572167 0.169237 -0.15405852 -0.091050014 -0.10466367 0.0024993173 -0.10752799 0.22201817 0.004645996 0.109039 -0.16386157 0.30104166 0.25990766 -0.07457763 0.16982031 0.16975734 -0.41730005 -0.031928338 -0.209209 0.1471775 0.073731504 -0.07196958 -0.07332733 0.4625238 0.14365667 0.06251049 0.080703 0.0086584985 0.0904675 -0.16447249 -0.628695 0.106731996 -0.18711881 -0.022459999 -0.02966 0.08348331 0.056584336 -0.10672212 0.014481681 -0.15539183 0.1253585 0.22984901 -0.050371498 0.07449786 1.2151834 0.11965367 -0.22654817 -0.117219344 0.1276635 -0.18052217 0.009473337 0.28627002 -0.19585466 0.026395507 0.073193505 -0.18303052 -0.11499268 0.25247484 -0.03576784 -0.32261285 -0.060103834 0.12023944 -0.019202184 -0.130802 0.1507425 0.01926667 -0.38325334 -0.087768 0.28055668 -0.14890651 -0.05634132 0.0043091625 -0.24105935 0.07226617 -0.010175004 -0.02852463 -0.10314 -0.19072199 0.045380007 0.0619649 -0.0019515008 0.024329334 0.28979835 0.423915 0.13791084 0.0053159944 0.1027885 0.059479 -0.13443583 0.112039655 0.14824665 -0.026561003 -0.15638934 0.016112996 0.2057625 -0.07854765 -0.05637167 0.2732547 0.04394601 -0.07763951 0.30859268 -0.0249335 0.25324285 0.35364336 -0.34487164 -0.0056121736 0.08207851 0.13574117 0.0036596868 0.11965832 -0.26337 -0.3535883 -0.23371667 0.047202166 0.0055066645 -0.16874668 0.046494495 0.007836173 0.33716166 0.1636645 -1.5217451 -0.035375997 0.26248166 0.26536882 -0.15535384 -0.22142267 -0.003257184 0.4742716 0.06163534 0.033692338 -0.333323 -0.12882817 0.009481333 -0.09138151 -0.0869075 0.02241683 -0.39619336 -0.0046123317 0.16927168 0.50539505 0.056294136 -0.24195533 0.047303177 0.016765002
department 0.034132503 -0.09911 -0.17151225 -0.32696 -0.3377235 -0.023053005 0.24274501 0.26242 -0.077105 -1.6619 -0.16242501 0.0962215 -0.05439285 0.29731 0.052310005 0.330935 -0.281887 0.32024 -0.020469993 0.20159999 0.2126239 0.028622499 0.423201 0.109625004 -0.124074996 0.10063499 -0.070586994 -0.19416206 -0.1203635 -0.074454 0.2503586 0.026254997 -0.005289998 0.310085 -0.82969 -0.005010009 0.44342 -0.215125 -0.2006645 -0.39047602 -0.0316967 -0.125355 0.0146485 0.5096785 -0.21616401 -0.2253725 0.04804501 0.10883999 0.0685955 0.2187145 -0.27317652 -0.033350002 0.043017 0.102505 0.004545003 0.0311415 -0.41472 -0.26568002 -0.033495 -0.3614185 -0.263545 0.028069995 0.16736999 0.41916 -0.218605 -0.65783 0.298676 -0.120516 -0.061865002 -0.26855 -0.0474115 -0.059767 0.14251 -0.096329 -0.539455 0.27803499 0.103988 0.2617835 0.0846475 -0.248161 -0.062001996 -0.0117725 -0.31399 0.1169385 0.08393 -0.037327997 -0.364765 0.082779996 0.0011090003 0.13597849 -0.33001 -0.0502095 0.150495 -0.040825002 0.125926 0.0435735 -0.49139 0.264635 -0.23929 -0.32885 0.280845 -0.20396851 -0.0961345 -0.152123 -0.047342498 -0.17626749 -0.018621998 0.25819498 0.025775008 0.211004 -0.144515 -0.377285 -0.22556701 -0.22983 -0.038345 0.1389734 0.0770675 -0.18515301 0.25585 0.0979 0.109455496 0.0032779998 0.22371149 -0.17325225 -0.279329 0.051937997 -0.21219999 -0.1545915 0.103365004 0.20609501 0.48662502 0.13816 0.57291996 -0.279125 -0.17833151 -0.032730505 -0.016279995 0.276945 -0.267285 0.481955 -0.158185 -0.015069999 0.1496105 -0.022830501 -0.31252998 -0.19832401 0.254155 0.105645 0.033710003 -0.013387 0.6551388 0.06875549 0.54921 -0.0356105 0.1396525 -0.384485 -0.450775 -0.23834701 -0.25879 0.139045 0.54407203 -0.0354995 -0.18255 -0.41114002 0.094001494 -0.07711901 0.083175 -0.345835 0.065895 0.273735 0.0496015 -0.22117901 -0.5112 -0.0053000003 0.298825 0.1532465 -0.096485496 -0.16260499 -0.400785 0.03441999 0.07738501 0.340225 0.15918 -0.032748 0.46574998 0.100999996 -0.107225 0.1125165 0.0757185 0.123015 0.042784996 0.022559151 -0.073625 -0.1163352 -0.084054 0.150665 -0.046085503 0.0802685 -0.028914995 0.039405353 0.593805 -0.1849265 -0.02636865 -0.1712345 0.011285 0.033760004 -0.187985 0.017875 0.012129992 -0.17332369 0.0060772505 0.27138498 0.0738265 -0.0128155 0.1446565 0.103605 0.038550004 0.2761945 0.22844002 -0.0388485 0.121135004 -0.33125 -0.5651 0.02621825 0.23694 -0.318545 0.338915 0.0142899975 0.2156725 0.16215715 0.13607 -0.053195007 0.188175 -0.29669 0.06678501 0.0944935 0.006221175 0.0034923002 0.23484999 0.36165 -0.1649405 -0.202045 0.674515 0.1231435 -0.44187 -0.15787 0.260815 -0.3028 1.4549866E-4 -0.13673 0.26574498 -0.0041749924 0.33302 0.10580501 0.3601785 0.248515 0.104635015 0.029210001 -0.096039996 0.32147 -0.20919749 0.092696995 0.086853 -0.013854835 0.18332 -0.108743496 -0.1580275 0.15684 0.28798497 0.1479945 0.08567 -0.014975004 -0.21467 0.44430998 0.15676999 0.008605003 -1.8633001 0.143805 0.60045004 0.2075765 -0.19066 -0.066745505 0.34765413 -0.20822749 -0.013869501 0.120873496 -0.0352395 0.286687 -0.016794998 0.0690195 0.0451185 -0.0979585 -0.099004 0.033659995 0.315135 0.38226002 0.20976865 -0.18896301 -0.405945 0.28889
district -0.027547494 -0.27328253 -0.026474996 0.2145725 0.10988 -0.301925 0.1314825 0.2723954 -0.0064217597 -0.97064 -0.08018024 -0.094502494 -0.198608 0.110674 0.45537752 0.343979 -0.4006025 0.1837225 -0.10505035 0.25891998 -0.080726996 0.014490008 0.13523275 0.04345251 -0.025715498 -0.42057753 -0.1707575 -0.17217225 -0.36702746 -0.0066430047 0.495765 -0.1075345 0.15012725 -0.0900625 0.04101225 0.10099175 -0.031054752 0.3395852 -0.163075 -0.07964325 -0.031965002 0.1473675 -0.3118325 0.32746622 0.4003425 0.054101046 0.0538475 0.04012975 -0.009557996 0.23870048 -0.10293025 -0.15793526 0.3164325 0.2728665 0.35672998 -0.53473747 0.3264375 -0.03481701 0.22554749 -0.3748125 -0.065315 -0.06399584 -0.144015 -0.24865925 0.075565 -0.10078925 -0.343028 -0.0398535 -0.08826248 -0.045437496 0.151845 -0.17416465 -0.012909999 0.022045251 -0.55744 0.01895 0.18651749 0.021737508 0.1890625 -0.21132556 0.23760523 -0.19950175 -0.056104753 -0.18858251 0.020391002 -0.09398175 -0.25597 -0.18384425 0.21153751 0.2991025 -0.22030826 -0.15719624 0.13912225 -0.08963851 -0.37755752 -0.067305006 -0.00461274 0.27254 -0.15334725 0.185192 -0.07188995 0.037416175 -0.056121744 -0.049702503 0.07153124 0.047084995 0.027010761 0.1409025 0.53307676 0.43971753 0.07940977 -0.4626025 0.017988753 0.044386003 0.1012605 0.14448124 -0.04217225 0.009833746 0.35677376 0.17836125 0.263195 0.12592125 -0.14022149 0.1522715 -0.0075449944 -0.008834995 0.060402505 -0.03412451 0.017372496 0.16842374 -0.09936249 0.023203753 0.055761002 -0.09973202 0.100404 0.048893753 0.15237501 0.10220799 -0.26753998 -0.06739549 -0.119032994 0.21383274 0.1600945 -0.287705 -0.36603 0.1406175 0.05738976 -0.07741 -0.541655 -0.20278025 0.62847245 -0.0744129 0.015925005 -0.050284997 0.7555275 0.19645526 -0.42487976 -0.036652476 0.5541475 -0.117702514 0.146612 -0.06888499 0.225946 -0.28973252 -0.19938251 -0.1554725 0.094767496 0.097183004 -0.1561745 0.24768077 -0.19316874 -0.1396345 -0.23474501 0.21051 0.2244765 0.42452 -0.21250775 0.290323 -0.034015495 0.23904 0.032178245 0.03894549 -0.3902675 -0.25986424 0.461225 0.016629642 -0.04940275 -0.157415 -0.29708025 0.17266175 0.64567 0.13938224 -0.095122255 -0.08105501 0.10292999 0.051755 0.334705 -0.22743002 0.140585 0.513876 0.73440254 0.040902 -0.44963747 0.0779125 -0.23550749 -0.15704325 -0.05321075 -0.089312494 0.40698248 0.35829452 -0.3056615 0.217895 -0.061219998 0.060582504 -0.079658955 -0.2972125 -0.13413674 0.37943748 0.05251775 0.005714504 0.1089225 -0.34690052 0.15784225 0.030831749 0.1601125 0.11285378 0.3800125 -0.13515401 -0.44570148 -0.24772 -0.11997999 0.16917826 -0.3274375 0.1307235 0.06389224 -0.1035225 0.01144499 -0.094797 0.422235 0.265215 -0.218734 0.030244745 0.74134576 0.04311075 -0.23285 0.379234 0.06437676 -0.07471125 0.04278875 -0.10951717 -0.044752754 0.27844274 0.0181645 -0.24435748 -0.062959 -0.049402505 -0.07329275 0.0369675 -0.057003498 0.13513601 0.1750465 -0.08363501 0.08330249 0.18217999 -0.1582075 -0.057315003 0.17360325 -0.07635325 0.179754 -0.12446597 -0.14002776 -0.1087 0.08074351 -0.035150006 -0.037126504 -0.023566999 -1.520785 0.31961274 0.06208001 0.24672526 0.03735301 0.21064225 -0.37546748 -0.383205 -0.24233998 -0.11270751 0.18080425 0.12449074 -0.1219535 -0.13089076 -0.072414994 0.082957 -0.071962506 0.11997299 0.1392675 0.8997225 -0.05171475 -0.44941503 0.1812665 0.055624753
doctoralAdvisor 0.1355463 -0.010610542 0.01650428 0.15147558 0.21631187 -0.39722574 -0.24198844 -0.41563913 0.24259174 -0.58141434 0.16375 0.072909 0.059031576 -0.22027615 0.1259853 0.19803457 0.24387002 -0.10595729 0.0075815707 -0.025705287 -0.10076729 0.069399 -0.019830143 0.09611643 -0.58419716 0.3604601 0.038356286 0.20541202 0.08642786 -0.42154917 0.01059086 -0.107467145 0.003910646 0.1549533 -0.6162457 0.097175114 0.26869032 0.32214114 -0.14474797 -0.12877859 0.7799572 -0.15042491 -0.20704743 -0.17179304 -0.291967 -0.15283573 -0.14310676 0.20672402 -0.10190043 -0.00792115 0.03399657 0.096531436 0.0678187 0.064639434 0.13757645 -0.073513865 0.13951986 -0.08943715 0.12612659 -0.13550986 0.12878858 0.28729662 0.30020472 0.41698346 0.103101425 -0.1710123 0.012813932 -0.042810634 -0.25122428 -0.09574429 -0.0068085752 -0.029562803 0.012623575 -0.18632872 -0.33730644 0.3782776 0.14715064 0.48180142 -0.0106842285 0.0053060036 0.37798232 0.023025714 -0.45327 0.0066705733 0.38437504 0.27925786 0.20149 0.16286099 -0.224252 -0.5466772 -0.27312288 0.09798144 -0.18056415 -0.020653004 0.17716785 0.25316188 0.10262015 0.072220005 -0.06507429 -0.08940429 -0.19768515 -0.112671435 0.19558315 0.23881859 -0.03634715 -0.20260899 -0.02522817 0.22115572 -0.09103873 -0.22563401 -0.16323529 -0.01013686 0.027183855 -0.10334373 0.11425231 0.11160857 -0.3018185 -0.33319998 -0.22259274 0.38321003 0.023350576 0.7901743 -0.4473843 -0.2593443 0.122865595 -0.24830174 0.131129 -0.09052868 -0.035627153 -0.043491997 -0.040392 -0.47807577 0.19011287 -0.60332996 -0.4025486 -0.20227057 -0.35432473 0.18609217 -0.09540958 0.32291573 0.41918576 -0.12320531 0.17288814 -0.12663087 0.18953529 0.22628003 0.08345472 -0.27380556 -0.41632 0.004098569 0.9673472 0.037188858 0.04583343 0.29141927 -0.33261147 0.19293216 -0.057061862 -0.38106146 0.37843803 -0.08632957 0.030802717 0.17519628 0.13833986 -0.13291985 -0.37872875 -0.31706 -0.22590813 -0.15145344 0.18116094 0.20797285 -0.011627573 -0.40768856 -0.6952172 -0.13337214 0.07587528 0.20797572 0.031842284 -0.5203215 -0.1790927 -0.16980502 -0.070757 0.23289916 -0.153386 0.31920856 0.073973 -0.044523228 -1.0200286 0.19559929 -0.15956858 -0.26905403 0.021838998 -0.17877573 0.026378173 0.016483288 -0.3826586 -0.03208057 0.11794714 0.104060575 0.36606774 -0.15065545 0.29083145 0.23911744 0.039528716 0.13298927 -0.081145376 0.06710943 -0.16822216 0.25352 0.25424433 -0.26318523 0.5896172 -0.4451273 0.58191437 -0.29912215 0.11850443 0.03449286 -0.4684739 -0.04480486 0.092159584 0.027295575 -0.21379572 0.0013742918 -0.26517487 0.24075274 0.24396816 -0.15580499 -0.25304043 0.2709766 -0.2765056 0.22635144 0.18188661 0.23896673 0.273553 -0.035566714 -0.2234593 0.21020815 0.030315572 -0.21425658 -0.14310643 -0.15637915 0.041860003 0.45708188 0.23302144 -0.29797688 -0.28614613 0.111262426 -0.2547 -0.527567 0.27428284 0.083439 -0.07900701 0.0013048586 -0.18484645 0.16786401 0.6132643 -0.0047854283 -0.0020900029 0.120073855 0.06575728 0.09898815 -0.14738944 0.03688381 0.058507316 -0.0010203443 0.08338959 -0.15183002 0.07418273 0.05783058 -0.27529728 0.11453571 -0.43858147 -0.076451264 0.15013401 -0.32323143 -0.17560159 -0.22217043 -0.25704214 -0.23722365 0.340247 -0.36105803 -0.020241853 -0.13644569 0.068914585 -0.42285278 0.4206842 0.15323602 0.15192984 0.27005684 -0.087208316 -0.018097142 -0.20974414 -0.16020143 -0.2520172 7.217101E-4 0.20658045 -0.021394143 0.21815714 0.35342443 -0.7333272 0.5964343
doctoralStudent -0.26904666 -0.14565228 -0.004566667 0.048879005 0.21965 -0.055906676 -0.12299602 -0.6663734 -0.14443001 -0.48100668 -0.16018133 0.51227665 0.41552335 0.008943334 0.13778001 0.07957333 0.3722782 0.145779 -0.13029334 -0.20983669 -0.08324 0.14837101 -0.44963002 0.30761835 -0.34720036 0.12848666 0.17954968 0.25148332 0.22845733 -0.3612867 0.30961668 -0.44581002 -0.006586666 0.14958 -0.45165667 -0.25662267 0.23070467 0.027746668 -0.30872667 0.113211334 0.5018734 -0.49124333 -0.43705332 -0.14079666 -0.11261301 0.077784 -0.0753021 0.86031336 -0.04389 -0.48932335 0.30126533 -0.21454534 0.37580657 0.07225667 0.39299 -0.34913036 0.35746667 0.09085432 0.035243005 -0.040436663 -0.040063333 0.15725 0.29111087 0.52404666 -0.22838335 -0.19623569 0.22059 -0.37315714 -0.30572668 -1.2332699E-4 0.054149996 -0.168517 -0.022300338 -0.12257334 -0.16969334 0.31151935 -0.044988237 0.26959068 7.644644E-4 0.28789335 0.09204066 -0.17699133 -0.018152665 -0.27472267 0.17576534 0.2131 0.18832134 -0.28114766 -0.44812334 0.13309866 0.14335 -0.051785003 0.013423329 -0.196838 0.48846334 -0.0060156686 0.13026935 0.003676345 -0.33432 0.19579801 -0.28865868 -0.09976201 0.074883334 0.09690666 0.04400666 -0.040997326 0.16746001 0.32704332 -0.027666664 -0.28933167 -0.117746666 -0.26173535 0.37664336 0.07137734 -0.24043334 0.20911333 -0.20413534 -0.114068 -0.16916335 0.45261335 0.06552857 1.0427966 -0.20730966 0.42444667 0.38944668 -0.104106665 0.0379 -0.53415334 0.42971334 -0.3712067 -0.25042 -0.29247466 0.13488033 -0.38042003 -0.11118 -0.21583033 -0.3828867 0.32142335 -0.22146766 0.234876 0.51936334 0.18375099 -0.0039119995 -0.29588336 0.5859467 -0.13998328 0.061403334 -0.13478634 0.40334332 0.13666168 0.8274633 0.22453567 0.46497005 0.41477668 0.008127869 0.030928334 -0.31724 0.014246663 -0.14827701 -0.42396998 -0.0026599965 -0.20126668 0.27624333 -0.32746333 -0.113853335 -0.37359667 -0.37496334 -0.06262334 0.54818 0.23046999 0.32777 -0.155 -0.52862 0.020289337 0.170015 -0.062855 -0.16823332 -0.36759 -0.18828666 -0.10407599 0.068376675 -0.25964135 -0.514877 0.03658667 0.21015567 -0.039937668 -0.61868 0.15217835 0.02203567 0.39617598 -0.14719334 -0.050270166 0.043093346 -0.087826 -0.270722 0.047157012 -0.14407724 0.10821794 0.30617732 -0.4960967 0.17922334 0.18400835 -0.13022335 -0.108449996 -0.200495 -0.40253335 -0.5740167 0.20078 0.17015901 0.040441003 0.71864337 -0.28777367 0.30334443 -0.28863168 -0.12027433 -0.13547668 -0.021629333 -0.10809134 0.30751666 -0.31796366 -0.4598467 0.5212133 -0.38050336 0.66994333 0.0416548 0.11864 -0.33705002 -0.38762033 -0.42210668 0.10100335 0.098836675 0.21503067 0.0396647 -0.3775533 -0.26308668 0.0101780025 0.107515 0.26184666 -0.07362901 -0.14486474 0.5186867 0.36305532 0.02028667 -0.14294332 -0.78982663 0.31329334 0.059044205 -0.053136334 -0.035906665 0.097214006 0.18399325 0.078640334 -0.01330333 0.021353334 0.42679 0.12402066 0.18174002 0.50537336 -0.10748633 0.031323336 -0.19314967 0.21752334 0.3486167 -0.11513834 0.08811933 -0.15227 -0.18256669 0.06953335 -0.3660667 0.55925 -0.39622664 -0.097179994 0.3995667 -0.07100334 -0.35449 -0.37224334 -1.03479 -0.47368336 -0.015773665 0.035953663 -0.015045999 0.0010896524 0.054037005 -0.21754 0.14552224 0.51761 -0.13638368 0.277507 -0.32351908 -0.10270318 -0.26918 -0.36044666 0.041279003 -0.15830667 0.43680668 -0.033556007 0.4200357 1.3566762E-4 -0.323951 -0.05220334
employer -0.33432668 0.32023 0.14859667 0.149946 0.15487 -0.3368567 -0.08983 -0.024413 -0.28249535 -1.4308667 -0.27193335 -0.018020673 0.35059735 -0.19627666 -0.113313004 -0.0298715 0.31817502 -0.174955 -0.24854034 -0.077595666 0.30616668 0.13063368 0.309038 0.012821334 -0.42399 -0.319187 -0.18960968 0.033216335 0.022969004 -0.21720332 -0.39914668 0.18854599 0.0073890006 -0.35577333 -0.84778 0.07803467 0.051692005 -0.26914 0.08918234 -0.35401338 0.30942336 -0.17504 0.019283332 0.3551367 -0.48341334 -0.089919 -0.10646233 0.33722 -0.10126001 -0.39974332 0.36559004 -0.10396334 0.33835 0.48548335 0.192083 0.0949586 0.33966336 0.17665634 0.09322834 0.022250002 -0.03237667 -0.132709 -0.023455998 0.16479768 -0.19546187 -0.52439666 0.012465 -0.52062 0.12659334 0.08983 -0.36930332 -0.4520267 0.27192 0.20446667 -0.11051667 0.47387037 -0.5708567 0.11897634 0.14289233 -0.018352002 -0.44923335 0.3636267 -0.062365334 -0.29467666 0.20205334 -0.056336664 -0.13038833 -0.5608 -0.28874335 -0.056826666 -0.43819666 0.37215003 -0.100033335 -0.14558497 0.060933664 -0.21448267 -0.23825702 -0.4394133 0.4005267 -0.16234335 -0.13127334 0.069426 -0.17804265 -0.3382817 0.4141067 -0.15890601 0.43786332 0.014833699 0.078209996 -0.043223 -0.029946662 0.005434666 0.017362667 -0.014256666 0.062928334 0.52591 0.29827666 -0.047512334 0.0066556665 0.15542334 0.54032004 0.4183367 0.080246344 0.21616668 0.49041998 -0.18893433 0.068395674 -0.31755668 0.049898565 -0.28999 0.37859333 0.13163668 -0.34028003 -0.21623735 -0.25907335 -0.06287533 -0.324 0.14785 0.45431 -0.099147335 0.016404003 0.05299 0.10735567 -0.13178268 -0.114293 0.251595 -0.039462667 -0.013000002 0.32960004 -0.08686367 0.40991336 -0.101774335 0.59545 0.07364567 -0.29073298 -0.12182435 0.21047801 -0.060853332 0.084626675 -0.19758433 0.3169467 0.011200006 -0.064731 0.017922 0.14812934 -0.22731666 -0.24062668 0.20588002 0.38329333 0.60419 -0.12469267 -0.090172336 -0.5979367 -0.09513568 -0.009357801 0.26894468 -0.13894233 -0.38207668 -0.173051 0.50211 0.41501665 -0.026584333 -0.046536677 -0.058226667 -0.16489 -0.20438 -0.033088002 -0.049138337 -0.029995337 -0.055303335 0.3451267 -0.051746335 -0.16908067 -0.35962337 -0.21054 -0.21534966 -0.09526666 -0.012410867 -0.017666664 -0.17882334 0.41457003 -0.050493322 -0.053345334 -0.071618006 -0.012669001 0.18529701 0.082775675 -0.20852666 0.40221334 -0.55642337 -0.27046832 -0.20431668 -0.16504668 -0.21460836 0.13825367 0.07063 -0.09612334 0.45488334 0.16311333 0.009006679 -0.43161 0.22716501 0.0056300163 0.24795668 0.19893634 -0.07472734 0.008923332 -0.023866668 0.29429334 0.15143268 0.125826 -0.10111934 0.28755334 0.10921668 0.04490733 0.38687736 0.34373137 0.27452335 -0.16903466 0.25806668 0.40134668 -0.35536334 0.4818033 -0.5134734 -0.42209002 0.049426667 0.24629734 -0.37502933 0.4418733 -0.18598834 -9.800047E-4 0.15577802 0.14351368 -0.043753996 0.47815666 -0.27676335 -0.38376665 0.42060333 -0.111390345 0.04545667 -0.0065023354 -0.051395666 0.12177601 0.10690534 -0.32213268 0.21545868 0.26236665 0.18078999 -0.17804901 -0.35531336 -0.14460334 0.06931 0.10089667 0.008693337 0.34922668 -0.36622 -1.4184334 0.21472667 0.18177168 0.4223767 -0.048859667 0.24415666 0.13193667 0.17572002 0.043796998 0.28307003 0.5988067 -0.010693332 -0.21451335 -0.32913333 0.23401666 -0.028093923 0.038779996 -0.11266166 0.14003333 -0.07078099 0.036480777 -0.11260034 -0.231206 0.21752271
formerBandMember 0.0023715429 -0.094036125 -0.081376776 -0.042262387 0.05595856 -0.2326177 -0.073656775 -0.102544695 0.19734283 -0.36971462 -0.18454324 -0.12663423 0.0076922793 -0.10144016 0.1730437 -0.055229373 0.028867003 -0.040877495 0.11641547 0.07692038 0.12733449 0.10273508 0.08268304 0.28119463 -0.06992968 -0.23667815 0.07472939 0.043272708 -0.066462465 -0.025332846 -0.0057608304 -0.16020854 0.027957536 0.18164253 -0.42464772 -0.15332802 0.055051778 0.07125069 0.062562004 0.18126024 0.2686928 -0.047879186 -0.27476355 0.062391464 0.28528625 0.217114 0.0052074515 0.07708307 -0.009057158 -0.27909815 0.13050847 -0.2078488 -0.1340698 0.28076908 -0.05603288 -0.024002621 0.020928536 0.073370695 0.09622 -0.25232363 0.12409923 0.04719174 0.14753093 -0.079205 0.13775595 -0.1461797 0.22365448 0.112239234 2.6416034E-4 0.16059777 -0.06625978 0.03664885 -0.16144378 0.013007614 -0.14101754 0.17941032 -0.0406477 -0.07780247 -0.11939184 0.026384003 -0.11271154 0.3377597 -0.020968616 -0.03709877 0.1764274 -0.01620546 -0.031583734 0.0314717 -0.0046776496 -0.2535302 0.17195676 0.097951315 0.17557149 -0.17965454 -0.081913546 0.04258746 0.28715846 -0.34466296 0.29565263 -0.12568454 -0.12678693 0.068065464 0.29235202 0.019726029 -0.07886406 0.11446777 -0.060727082 -0.037194077 -0.011031076 -0.015026296 0.049890466 0.08323132 -0.047004618 0.07748208 0.20105241 0.03843823 -0.10934816 -0.15103732 0.101275474 -0.14938876 -0.011558458 0.14076877 -0.2804744 -0.13561416 0.02338677 0.094746016 -0.1322602 0.10139186 0.20315434 0.015252462 -0.22649568 0.015577234 0.072413504 -0.4448887 0.09994747 -0.07857275 0.30033693 0.08843359 0.067816496 0.044602927 -0.099598385 -0.16412592 0.009200573 0.06752515 0.12230073 0.01280781 0.07499885 0.06514269 0.03491285 -0.119747475 0.416902 0.034375384 0.038372617 0.21342272 0.066764995 0.10003007 -0.15588401 0.19090825 0.2329564 0.15214024 0.047522236 0.05865061 -0.036916755 0.009655852 -0.18168409 0.122252084 -0.111097164 0.24191085 0.2814614 -0.025857577 0.05462577 0.042823076 -0.3062323 0.14243916 0.0038347796 0.11711416 0.17122562 -0.036815006 5.999529E-4 0.2721684 0.045738846 0.26204318 -0.01306692 0.23836333 0.06951032 -0.025290309 -0.2858464 -0.018381001 -9.4977254E-4 -0.06592231 -0.061492693 -0.11200551 -0.16168077 -0.05089393 -0.13389501 0.08623538 -0.014340855 -0.037462234 0.109333314 -0.016328713 0.8122908 -0.09270447 0.3536534 0.06641869 -0.12029233 -0.05782516 -0.03703384 0.17100187 -0.024047235 0.055613454 0.10651339 -0.051425193 0.20090623 -0.013825926 -0.019406458 0.1162726 0.0762607 -0.0671407 -0.043443616 -0.030197155 0.11073539 -0.16288947 -0.26940992 -0.007258154 -0.006092459 0.1898967 -0.1582004 -0.13714747 -0.14737254 -0.02464754 0.047450002 -0.03265029 -0.09430721 -0.22295572 0.112893455 -0.14120285 0.11980944 0.06826985 -0.14246377 -0.046880934 -0.10106493 0.021349693 0.17225307 -0.07525212 -0.14194177 0.23384394 0.20007831 -0.09286946 -0.019971386 0.038448226 0.026772385 -0.050860535 -0.1596617 0.052055616 0.33526435 0.16061595 0.27512163 0.007053616 0.039607313 0.059533153 -0.08829999 0.32248 0.0037549988 0.012765083 -0.18802992 0.13762641 -0.1875657 0.13689032 0.055664673 0.029870309 -0.18919209 -0.013024695 0.085730806 -0.24486332 -0.023821827 -0.039481197 -0.9283474 -0.10423985 0.17495564 0.052259237 0.03419907 0.1994569 -0.2118378 0.04627794 0.2672647 0.123510934 0.0048978603 0.09858794 -0.04318577 -0.1715391 0.052622154 -0.053530708 -0.075962305 0.015309311 0.051548928 0.2360753 -0.13012764 0.089829996 -0.34856644 0.2770416
formerTeam 0.12716967 0.15785192 -0.013592921 -0.059514165 0.14463484 -0.071089 -0.17149442 0.06172609 0.066054836 -0.7670125 -0.07697487 -0.068797916 0.044312567 -0.10016569 0.03126192 0.10433759 0.08335601 0.030301623 0.0138075035 -0.13137458 0.061767023 0.036159586 0.2351898 0.17623934 -0.13108942 -0.26730534 0.00982599 0.122805834 0.0315015 0.008609004 0.04438035 -0.13843636 -0.041601166 0.14038935 -0.6674358 -0.002839332 0.19467859 0.2473456 -0.01890825 0.089179 0.32522917 -0.048020676 -0.19486001 -0.063290246 0.12608233 0.017822994 0.026910594 0.13682485 0.006143585 -0.13680628 0.098097496 -0.25904602 -0.1536336 0.23097043 -0.05168017 0.09433834 0.0137449205 0.027404418 0.07370867 -0.17112061 -0.023418417 0.08639797 -0.025652584 -0.20277059 -0.025550574 -0.07306884 0.014879335 0.023379162 -0.09486 -0.1385316 -0.16074434 0.17877874 -0.15594117 -0.008548918 -0.31670958 0.22640407 0.008017831 -0.2186161 -0.029219579 0.17343184 -0.07037517 0.32074994 -0.049322836 0.06595801 0.07139584 0.022748083 -0.12266414 -0.010386318 0.055005994 -0.022163829 0.091504 0.15826216 0.22654283 -0.26240668 0.048561253 0.03771717 0.11344834 -0.25952643 0.19761536 -0.29528254 -0.059291422 0.14514342 0.23792052 0.09743466 0.09530725 0.11318658 0.036977753 -0.032082997 0.06961051 0.11755469 0.09905584 -0.04189242 -0.10409117 -0.17016858 0.3033291 0.17208984 -0.13803259 -0.10356 0.027613502 -0.113148496 0.06881734 0.07571076 -0.006233911 -0.012673499 -0.10744508 0.1483 -0.15349221 0.16973786 0.17273185 0.08050492 -0.14043376 -0.024652742 -0.035968464 -0.29551435 0.055867165 0.054620683 0.29313093 -0.032114357 0.01053299 0.068391174 -0.107852414 -0.13995096 0.14043662 0.20006952 -0.008024704 0.019279001 0.07259707 0.055970833 -0.0463545 -0.06452616 0.4702018 -0.09269416 0.05117975 0.16495192 0.219244 -0.09503376 -0.19568501 0.12114551 0.120815895 0.15206668 0.0059743375 0.048158746 -0.1256565 0.033805422 -0.08069959 -0.0067722476 -0.051632285 0.20825593 0.2502798 -0.15406871 -0.036363672 0.051468503 -0.4855667 0.1801031 -0.1671409 0.08145733 0.13710791 -0.019096833 0.08288854 0.45633826 0.18472669 0.32925418 0.059225585 0.168991 0.14993285 0.017299086 -0.427577 0.06349045 0.020978216 -0.103030846 0.007369002 -0.1648086 -0.15489142 0.02732656 -0.08285958 -0.058154415 0.041492414 0.025325999 0.1690372 0.0219886 0.9775259 -0.16143858 0.14071707 0.026222333 -0.10850869 -0.11734976 -0.138805 0.08280592 -0.025335163 0.08322884 0.08481201 0.01448459 0.008146664 -0.059430838 -0.044337 -6.44166E-4 -0.0101815 -0.07848325 -0.079474166 -0.10367283 0.20111643 -0.20449583 -0.20144908 -0.086146 0.066486835 0.031198164 -0.018131904 -0.019251645 -0.32892612 0.062549084 0.063257836 -0.09721367 0.02620561 -0.10902934 0.21214125 -0.061596718 0.11830133 0.06817117 -0.025508171 0.07205249 0.033759583 -0.013462082 0.26204458 -0.0226499 -0.120397255 0.058229666 0.2685495 -0.12171559 -0.06757042 0.084277 0.07096067 -0.0048624924 -0.123381674 -0.004839666 0.42098278 -0.023047416 0.24180649 -0.030170253 -0.071750954 0.09503468 -0.15829334 0.199355 0.012856834 0.15855634 -0.07516926 0.1820525 -0.21382535 0.044923257 -0.059262246 0.104298085 -0.12767783 -0.06704342 0.018744862 -0.1453355 0.10287999 0.08129942 -1.2595088 -0.024542337 0.2595347 0.19039583 -0.010685752 0.16573048 -0.01971833 0.089553595 0.32592452 0.08306442 0.018028429 0.021975331 -0.0011158288 -0.1807801 -0.0554385 -0.06772883 -0.14490476 0.034649 0.1417585 0.29364842 -0.07853331 -0.13845801 -0.31268328 0.15982
foundationPlace -0.09870492 -0.16709371 0.0192725 -0.10312901 0.028413935 -0.10954366 -4.8355444E-4 0.14727286 0.12558863 -0.9161238 0.033746082 0.14699747 0.07123329 0.028312543 0.0051059267 0.06253623 0.054751534 -0.08564016 -0.11606923 -0.07171439 -0.12538233 -0.0659677 -0.12284201 0.06575016 0.02778616 0.07896525 0.013985082 -0.07165431 -0.14473923 0.04703169 0.062383164 0.06537815 0.048686314 0.18777964 -0.22365916 0.34395778 0.2776333 0.140245 0.11401285 -0.107331224 0.122440524 -0.12983485 -0.059004694 -0.050344624 0.016383998 0.08584151 0.06292793 0.3599964 0.04838246 0.050095458 0.103928536 -0.09892344 -0.03080091 0.14940177 -0.034033805 0.08208801 -0.04567978 0.27819833 -0.076965295 0.104267076 0.03565931 0.028376237 0.3204957 -0.07732977 0.0973336 0.09898931 0.17532538 0.06319092 -0.20404847 0.24391602 -0.19550037 0.10722831 -0.16974123 0.0011887654 -0.020777013 0.10625693 0.018065233 0.058132924 0.12061523 -0.02667406 -0.083785705 0.14453153 0.04830708 -0.028584616 0.008981536 0.19198385 -0.12968731 0.045180388 -0.033083778 0.094055235 -0.13364053 -0.17333561 -0.20243938 0.1928603 0.14351168 -0.1929523 0.044073775 0.16484924 -0.05310977 0.006622773 -0.037054777 -0.02448936 0.08520531 0.074966386 0.11628508 -0.12833123 0.010036694 0.151425 -0.07313619 -0.11716462 0.08702915 -0.22182201 -0.01297031 -0.095259205 -0.14285386 -0.17138587 0.04330562 -0.232166 -0.04567408 0.10251549 0.189143 0.090421 0.22047879 0.0715112 0.036963843 -0.25191185 -0.09854855 -0.06149947 -0.044431623 -0.032530386 0.0141706215 0.14272292 0.18211061 -0.2819881 -0.07943378 0.052220717 0.039400615 0.025694314 -0.15412092 -0.022425232 -0.02329046 -0.075259365 -0.051215164 -0.21966594 0.077839784 -0.08710108 -0.064114176 0.121787615 -0.14932385 -0.021973236 0.2707893 -0.042848766 -0.016325919 -0.092596 -0.13095546 -0.04296008 0.02553677 -0.0062956917 -0.10810881 0.06909307 -0.10218278 0.28776142 -0.1634374 -0.021726238 -0.051013317 -0.18999584 -0.016197074 0.124957696 0.04680568 0.3440917 0.27472493 -0.025791459 -0.07568238 -0.09722161 0.20616616 0.14481647 -0.12492806 -6.869195E-4 -0.15094955 0.0010611576 0.16183054 0.0029222302 0.1054614 -0.07828369 -0.047083005 0.1172316 -0.2879549 0.04761 -0.21016923 -0.025063151 0.16133009 0.05290486 0.3025064 -0.29664025 0.16113232 0.056606926 0.06303607 0.022646591 -0.065104544 0.10641275 0.47043714 -0.059736457 0.05167332 -0.089517355 -0.0137106115 0.056460388 0.012674703 -0.061797153 -0.060324315 0.3282032 0.0494253 0.069318466 0.18906474 -0.040794175 -0.20402409 0.24438734 -0.17037985 0.12057017 -0.054467157 0.22525902 -0.08391077 0.010868695 -0.29826924 0.18373366 -0.08209409 -0.063209765 -0.0823017 0.24358425 0.09190892 0.12359378 -0.07000024 -0.09179554 0.05062808 0.21920615 -0.11384847 -0.030318845 0.024841923 -0.1971387 -0.031973846 0.38342625 -0.0095316935 -0.11734077 0.3751644 -0.3219708 -0.6770785 0.08743731 0.16851877 0.0120460875 0.04825669 -0.20136678 -0.089938775 0.05323631 0.10291279 -0.011230554 -0.09671024 0.05274207 -0.08860555 -0.21447507 0.07895402 0.14773493 0.06491493 0.2614152 0.028269343 0.052358996 -0.0751444 -0.03142569 -0.10896885 0.16698748 0.25906548 0.077029385 -0.15008177 0.0902105 0.08636746 0.13018538 0.06853954 -0.026773611 -0.8362508 -0.11656819 0.5162767 0.10985324 -0.04599118 -0.41905904 -0.16450408 -0.027743537 0.061202575 0.106787 -0.06579877 0.04270595 0.10296032 -0.02555808 -0.031082315 -0.23299608 -0.19232047 -0.006154923 0.11639108 0.26196232 -0.0022633593 -0.01117246 -0.20356779 0.17270395
headquarter -0.25475 -0.2374 -0.27081 -0.12163 -0.046901 -0.35564 0.28336 0.4838 -0.10432 0.10422 -0.30082 0.20046 0.36438 0.37267 0.10508 0.19724 -0.38303 -0.16991 -0.15781 -0.17208 0.54471 -0.25523 -0.0085043 -0.07069 0.036209 0.11109 -0.40334 0.12379 -0.0061726 0.50844 -0.12817 -0.51238 0.089138 0.19279 0.92632 -0.070416 0.014041 0.11861 -0.21779 -0.61156 -0.11192 0.31014 -0.26984 0.13142 0.29747 0.34983 0.1318 0.19791 0.11142 -0.2187 -0.13196 -0.40638 0.23075 0.20486 0.49208 -0.33534 0.28066 0.82794 -0.16094 0.14898 -0.12453 -0.13256 -0.29045 -0.043835 0.12291 0.40968 -0.39441 0.25583 -0.22844 0.070013 -0.0074558 -0.32197 0.25326 -0.12953 -0.16276 0.15395 0.14449 -0.16765 0.020729 0.011348 -0.36468 0.21021 -0.29268 -0.15078 0.011688 0.002458 -0.28469 -0.20355 0.39163 0.31685 0.15733 -0.056976 0.60992 -0.12159 -0.21854 -0.40515 -0.19325 0.31187 0.078278 0.3081 0.10588 -0.055 0.028452 -0.025883 0.28778 -0.71999 -0.13122 0.26108 0.22722 0.4402 -0.2678 -0.18783 -0.76316 -0.12436 0.016122 0.07123 -0.51523 -0.027729 -0.20039 0.30917 0.2349 0.094258 0.62354 0.033045 -0.12467 -0.082959 -0.15622 -0.40053 0.18065 0.054912 0.37939 0.12065 -0.07789 -0.72583 0.075803 0.43774 0.4611 0.057557 0.18143 -0.13553 -0.76951 0.18635 -0.18371 0.18058 0.24931 -0.4376 0.068023 0.31847 -0.25044 0.18817 0.48409 -0.086663 0.62528 0.17818 0.027829 0.0044034 0.12872 0.263 0.25401 0.18732 -0.35231 0.58339 -0.18149 -0.28155 0.36348 -0.021506 -0.48603 0.21873 0.2324 0.20609 -0.45803 0.29834 0.39687 -0.33898 -0.15982 0.41746 0.082636 -0.32026 0.080698 -0.29479 -0.28855 -0.037186 -0.18212 0.090289 0.42494 0.32825 0.17128 -0.38258 0.088933 -0.010569 0.65715 -0.0345 -0.58481 -0.032457 0.10038 0.50099 -0.2383 -0.036934 0.18127 0.46867 -0.41593 -0.36413 -0.04133 0.31735 -0.064854 -0.10519 0.2766 -0.53437 0.14804 -0.10892 -0.067541 0.36654 -0.45189 -0.2414 0.31852 0.093344 -0.097116 0.15502 0.090837 0.28228 -0.66483 -0.37552 0.16111 0.6269 0.22631 -0.44514 -0.41605 0.051455 -0.92615 -0.50948 0.22934 -0.067561 0.27497 -0.085005 0.4143 -0.0084039 0.48849 -0.056682 0.61869 0.53593 0.3431 -0.23801 -0.033509 -0.12054 0.014816 0.33328 0.34523 0.52037 -0.083344 -0.047075 0.2897 0.021144 0.37816 -0.12219 -0.44328 0.027742 -0.20951 -0.058309 -0.74472 -0.078328 0.071492 -0.11395 0.22699 -0.020396 0.41759 0.0043567 0.013152 0.052243 0.409 -0.22499 -0.26404 -0.42976 -0.1428 0.36797 0.073297 0.050294 0.49796 0.13473 0.052493 -0.14024 -0.10038 0.079472 -0.29493 0.10745 0.19955 0.14948 0.30586 0.45652 0.085404 0.49242 -0.1058 0.16307 -0.13739 -0.42513 -0.2699 0.43358 -0.10344 0.033421 -0.006085 0.0051209
hometown -0.17156571 -0.079413 -0.33591634 0.010396147 0.15473971 -0.083990596 0.05394343 0.0046251137 -0.026097424 -0.08240701 -0.20168157 -0.13816087 -0.008293974 0.10957172 0.0064431387 0.20019014 -0.08805771 -0.049038853 0.10689557 0.10399858 -0.20078473 0.21361014 0.11625429 0.17909558 -0.16257101 -0.14207 0.09723966 0.068053715 -0.08736842 0.29704 -0.01921415 0.24331617 -0.30949774 0.08057144 0.033402864 -0.045599572 -0.10800744 -0.15443021 -0.15344857 -0.31655702 0.23357718 -0.015965862 -0.02855129 0.053221848 0.025761 0.02855929 0.112736285 0.4363536 0.029589863 0.24830087 0.023480857 -0.056284145 0.08885514 0.19261816 0.3172186 -0.043246005 0.1947592 0.06800714 0.13859534 0.15059486 -0.074802995 0.017027145 0.18454887 0.08712301 0.24694502 -0.18085729 0.07383772 0.041061863 0.037616294 -0.16998759 0.005822432 -0.22717157 -0.18737409 -0.08295814 -0.17455572 0.37634 0.003881429 -0.067693435 0.08384185 -0.10890701 -0.06111315 0.42359903 -0.26386288 0.073815726 -0.09277072 0.16980568 -0.2049171 -0.46634144 0.08694586 0.09331331 0.04657857 -0.2790426 0.54727423 -0.08957429 0.022256862 -0.008733997 0.16567987 0.040827565 -1.3585389E-4 -0.05344229 -0.015676707 0.112274855 0.09494629 0.37280056 -0.118095145 0.13055357 0.34858617 0.094165854 -0.04264672 0.10718597 -0.043145433 -0.15392086 -0.23209615 -0.18537429 0.055684008 -0.102123514 0.11889101 -0.04561429 0.026819438 0.095490724 0.10859146 -0.00268854 -2.2785153E-4 0.41241017 0.07128122 0.11876816 -0.08025471 -0.09687671 0.092024855 -0.045073576 0.12772043 0.22230142 0.14245085 -0.06741757 0.22457087 0.010300455 0.08695714 -0.16339943 -0.19669573 -0.14841257 -0.043450996 -0.14924859 0.05385857 0.1086597 -0.013651721 -0.36094758 -0.051877238 0.105940014 -0.53520364 -0.2237223 -0.051622 -0.24003047 -0.16608736 0.17979297 0.0072099827 -0.06742972 -0.07191485 0.14515933 0.24124902 0.024306286 0.17202829 0.13919286 -0.11407015 -0.07611551 0.28294 0.114025295 0.12516515 -0.13147631 0.065887146 -0.13705887 -0.15022229 -0.028051436 0.047918577 0.24001057 -0.11393143 0.27165574 -0.2684706 -0.10874444 0.15176259 0.06963714 0.027806291 0.08462913 0.3582129 0.15299144 0.313899 0.04395714 0.24053289 0.13078144 0.42016247 0.19404599 0.22608143 -0.21543857 -0.06467483 -0.13552459 0.15375082 0.08643972 -0.053684287 -0.13209586 -0.02835715 0.030664286 0.34734473 -0.2154083 -0.07271054 0.16437773 0.13582844 -0.14157759 0.033398576 -0.1511163 -0.20506914 0.26952046 -0.35654628 -0.034355864 0.06683028 -0.14712757 0.038437862 0.26359087 -0.12819164 0.17619617 0.016280284 0.25706574 -0.018977154 -0.107374154 0.079354204 -0.044717405 0.018009715 -0.18105508 0.17336999 0.07878572 0.090088144 0.03436786 -0.031478107 0.021224659 -0.17231216 -0.14336571 0.16721287 0.0033198553 -0.24561574 0.05763157 0.035679396 0.5283243 0.10214873 0.09573429 0.38439786 0.061132714 -0.28118545 0.08813714 0.09608344 0.36498877 0.013952852 0.10349615 0.057926577 0.22307858 0.25473344 -0.04848357 0.04081571 0.4768186 0.17214218 -0.16504589 -0.20256004 -0.106119715 -0.0044737076 -0.015163135 0.07947157 0.033259 -0.21810287 0.11468458 0.25426003 0.055011146 0.5303614 -0.025176145 -0.34110272 -0.23280029 0.1054563 -0.23944943 0.057252575 -0.08436857 -1.0415329 0.114950016 0.136984 0.19555444 -0.23185429 0.17259571 -0.4277863 0.28763258 -0.476411 0.29027 0.25427002 0.16904202 0.03622 0.20174585 -0.02558921 0.23859529 0.24259102 -0.42797428 -0.027276576 0.06440252 0.033724003 0.15119143 -0.15882687 0.49310142
leaderName -0.23075268 -0.14692001 -0.009883834 -0.13634667 -0.15054235 -0.14204869 -0.31234133 0.26591334 0.34349334 -1.1934 0.06290834 -0.2776197 -0.0801889 -0.022685012 0.12936668 0.30020338 -0.2872117 0.42049667 -0.095499985 -0.07044333 0.014089262 0.03216833 0.32056403 -0.24691668 -0.13538334 -0.3508367 -0.008877665 0.22538197 0.061453342 -0.17910835 -0.12874126 -0.18518333 0.18472335 0.24915001 -0.7242424 0.029715333 0.55972004 -0.018435001 -0.25768667 -0.12788402 0.054391205 -0.04952533 0.01164934 -0.34024763 -0.24741934 -0.165315 0.14197001 0.13565336 -0.013133002 0.28632733 0.057688665 -0.20511699 0.02017667 0.098863326 0.47117335 0.11738666 -0.13622999 -0.2423 0.057350002 0.24551134 0.10870334 -0.059303336 -0.11881002 0.3579533 0.077662334 -0.27339333 0.17814802 -0.071344 -0.04913033 0.13420668 -0.002699333 0.22449669 -0.09180567 -0.092806 -0.03143668 -0.095580004 -0.41307467 0.098614 -0.036508337 -0.07003534 -0.06480233 -0.014918333 -0.056219995 0.33504102 -0.17486666 0.14333934 -0.38654003 0.51896334 -0.052510332 0.07413333 -0.5697367 -0.027743 9.899985E-4 0.04207067 0.031684004 -0.18276767 0.09570001 0.37643668 -0.11213001 0.016950011 0.26157668 0.105900764 -0.06005299 0.07249966 0.06139333 0.17441499 0.069505066 0.26494968 -0.054399997 -0.17379467 0.23836069 -0.28160468 -0.040968 -0.15865335 -0.051663335 -0.0757984 0.17775667 -0.241172 0.15308613 -0.11652335 -0.025216332 0.25186467 0.48106 0.02092517 0.17203401 -0.067578 -0.07794334 0.258048 -0.01826167 0.03554546 -0.039922148 -0.10482868 -0.04591 -0.08862001 0.26831234 0.28961 -0.09937666 -0.5116734 -0.08020334 0.08595999 -0.15380001 0.23760001 -0.07772934 0.24917302 -0.054001004 -0.15661867 0.09098567 0.0152166635 -0.20442668 -0.27668935 0.13970584 0.11840099 0.055409 0.06447333 0.2768967 0.119440004 -0.05014833 0.15468667 -0.06558667 0.09144567 -0.014934 0.202317 0.16341001 -0.0056933365 -0.23766899 -0.023316465 0.059449997 -0.23039667 -0.24624366 -0.11957668 -0.018881675 -0.026356008 -0.37274337 -0.01798 0.23392332 0.08225787 0.06906627 -0.084791295 -0.2759137 0.6578133 0.28062803 0.36218 0.53136337 0.18268067 0.12652667 0.124874994 -0.24615668 0.15633768 -0.20171332 0.08863333 0.1875 -0.034945667 0.04300667 -0.12013334 -0.015426001 0.16758667 -0.10140034 0.15360501 -0.12711 0.08348056 0.9327067 5.6000554E-4 -0.089399 -0.174281 -0.18132 -0.26775667 0.48260665 0.027059993 -0.148614 0.31361756 0.03758467 -0.15331668 0.23147002 -0.148898 -0.23556566 0.106176674 0.24498926 0.011943003 -0.3097267 0.091208 0.13887 -0.18073134 -0.29777598 -0.01624417 -0.067216665 -0.13262333 0.27448002 -0.03266 -0.18211001 0.15223667 -0.13391668 0.05631467 0.42784 0.19111866 0.23659 -0.17843434 0.0014280006 -0.13777669 0.26135 0.16964233 -0.17815368 0.013880005 0.4847197 0.17837334 -0.30623335 -0.018493336 0.22684667 0.199523 -0.0066140024 -0.16960901 0.05882 -0.16251186 -0.21506667 0.057638012 0.305969 0.160878 0.3296857 -0.228111 -0.0057500205 0.045300003 0.032871675 -0.25084534 -0.18412334 -0.015229668 -0.35865197 -0.08640333 0.051798336 -0.27152666 0.19781557 -0.27054366 -0.17937335 0.16076 0.14139266 0.30892333 0.23030865 0.34880865 -1.4339333 -0.07022433 0.6784967 0.1534435 0.19788001 -0.17773235 -0.061926566 0.30321503 0.18199536 0.04695333 -0.23460333 0.643698 -0.19688666 -0.07068434 -0.049931 -0.19327435 0.12402 -0.27505133 0.11005001 0.518517 -0.053039573 -0.452432 -0.46630734 0.29004002
locatedInArea -0.16822334 0.2506279 -0.2767338 -0.35751903 0.15500788 0.005819589 -0.201547 0.23952386 0.09330844 -1.1211847 -0.07010223 0.007877557 0.095012225 0.09546633 0.22623831 0.28356177 -0.55174774 0.31248555 0.10407566 0.114777006 -0.14133556 0.04337883 0.12736112 0.051977105 -0.202776 2.754463E-4 -0.3615561 0.052408 -0.12854557 0.20323221 0.41884556 -0.005025771 -0.26710632 0.20469067 -0.037110545 0.182187 0.2073005 -0.13043123 -0.15654911 0.037338886 -0.07307322 -0.15246956 -0.3098889 0.28002065 0.2182171 0.03677656 0.36082357 0.3456211 0.07014433 0.18108056 -0.09863978 0.01598089 0.094713345 -0.22241767 0.14287327 -0.31059113 0.055355113 0.22081503 0.26591435 -0.07602411 0.007548774 -0.054123778 0.19971442 -0.11109856 0.084379345 -0.039210234 -0.06861689 0.17851721 -0.097938664 -0.09409723 0.06790056 0.048261 0.17432189 -0.18184866 -0.3925539 -0.17638223 0.13278466 -0.18085389 0.1127992 -0.1419738 0.087031215 -0.25589633 -0.4250089 -0.099664696 0.059480894 0.06098822 0.10020266 -0.14018817 0.02067645 -3.7455393E-4 0.17489743 0.20917511 0.272396 0.10244667 -0.13470334 0.08744367 -0.13081653 0.19345511 0.10911311 -0.021140656 0.02136589 0.018375324 -0.23019934 -0.01085544 -0.17014599 0.021025717 0.2601339 0.12791367 -0.034247335 0.4065128 -0.03458111 -0.5045852 0.11632146 0.08286332 -0.21043165 -0.15499568 0.063309886 -0.037600663 0.22143443 0.12386778 0.114612155 -0.010949665 0.30780834 -0.015623697 -0.01995078 0.16340156 0.030047113 -0.19618778 -0.13404582 -0.25673175 0.21896368 0.06259244 0.099390335 -0.027194 0.030134857 -0.08048811 0.16756363 -0.11203955 -0.26364067 -0.041131776 -0.28159443 0.05583 0.013890205 -0.19675422 -0.05867145 -0.29403389 0.27562377 -0.060832646 -0.20559008 -0.047842998 0.4173793 -0.057271335 0.04107712 -0.19417244 0.3908389 0.16569889 -0.028791342 0.14999312 0.26963878 0.051844332 -0.006843439 -0.21856001 0.13017413 -0.2825059 0.18368657 -0.27675802 0.12325457 0.12348477 0.1158147 0.13285322 0.1136659 -0.163508 0.062465895 -0.116088256 0.13850333 0.13012864 -5.3922005E-4 0.10658933 -0.12872818 -0.18407999 -0.20881456 0.28436515 0.107193105 -0.120495476 0.1737689 -0.27991644 0.028249446 -0.04221816 -0.16606055 0.14884312 0.43207368 0.21086967 0.1307316 0.09311885 -0.1325889 0.14684388 0.026488448 -0.12130284 0.09900678 0.116305456 0.822709 -0.18536867 -0.21862255 -0.14524765 0.16487333 -0.09968778 -0.21269111 -0.124004446 0.17510311 0.14570574 0.066235654 0.21133311 -0.025959471 -0.16982777 -0.0023925502 0.019534448 -0.13521476 0.06400089 -0.13290133 -0.07550247 0.12965555 -0.17989111 0.08995211 -0.21564235 0.23717077 -0.13792327 -0.02873167 -0.0058445046 -0.26660633 -0.012476554 0.1469579 0.081255555 -0.04504444 -0.0018406577 -0.007997667 0.074387036 -0.07535533 0.09606756 -0.1164841 0.33535445 -0.030557564 0.09972111 0.56541663 0.016721334 -0.49437222 0.025423948 0.020126654 0.22165911 0.06828544 0.039341588 0.06889688 0.3055701 -0.04965489 -0.25814858 -0.1114178 0.065280445 -0.007757323 -0.14239134 0.12746044 0.12770723 0.060815442 -0.09942655 0.43828446 0.04417622 -0.19570921 -0.44375736 0.0075098905 0.20368622 0.5331844 -0.09606025 -0.049726773 -0.058903325 0.093611 -0.101759344 0.03146788 0.015015218 -1.479959 0.15748966 0.31103322 0.31604114 -0.27113068 -0.06433578 -0.30005723 -0.198295 -0.09713422 0.02440022 -0.034563284 0.13010378 0.4671122 0.20209533 0.104042225 0.062504455 -0.161101 -0.062771335 0.12908718 0.49603885 0.21703084 -0.2057799 -0.08636789 -0.032276962
nationality 0.08553214 -0.319267 0.114868 0.26634002 -0.28186 0.120795004 -0.1273219 0.422525 0.16303316 -1.5194049 -0.14671001 -0.067516506 -0.23362799 0.06905 -0.010810003 -0.2516245 0.2279035 0.032447997 0.009185001 0.083924994 0.053434998 0.53629 -0.007095009 0.27889 -0.55141497 -0.060062002 -0.167154 0.52299 -0.266865 0.268645 -0.543115 0.26725802 -0.17692201 -0.023065008 -0.2293745 -0.30559048 0.04045499 -0.1900229 -0.12516664 0.14585501 0.1092 -0.858065 0.33328098 -0.08680001 0.0919166 -0.072084 -0.266175 0.260405 -0.39892 -0.047863502 -0.1277385 -0.166925 0.47959 0.0175005 -0.046780005 0.23875 0.16780001 0.0053800046 0.21727301 -0.102385 -0.126742 0.59433 -0.28097498 0.345855 -0.04919 -0.24917269 0.318465 0.42973 -0.0570885 0.019110002 0.06261001 -0.0034350008 -0.25263 0.080258496 0.25946018 0.21356873 0.26555902 -0.039049998 -0.41320503 0.008231001 -0.18512765 -0.13371927 -0.19865501 0.3496 0.130635 -0.2697125 -0.456305 -0.582175 0.028411001 0.55907047 -0.60030496 -0.2898118 0.21240999 -2.3499876E-4 0.16632801 0.14610499 0.088640004 0.20528 0.24489501 0.112210006 0.0668815 -0.24729651 0.092365496 0.06520999 -0.42290002 0.3335 0.28176498 0.0037830006 -0.276255 0.32001 0.374595 -0.069500014 -0.18505 -0.26602 0.15521601 0.120185 0.02391 -0.11625535 0.49896002 -0.061625503 0.369655 0.1236315 0.220375 0.0453922 0.120962 0.1909945 -0.25881 0.27018 -0.1685515 0.2836635 -0.094450004 -0.0907475 0.48716 -0.008196 0.270076 0.057150006 -0.136091 -0.113555014 -0.079849005 -0.035280004 0.073769994 0.035111 0.119651005 -0.28289 -0.049765006 -0.34464002 0.195915 -0.22078 -0.13096648 0.53481 0.303365 -0.037681397 0.279736 -0.119100004 0.29216498 -0.009640008 -0.48203 0.101359 0.31044 0.0299275 0.58546 -0.099072 0.0457565 0.1717 -0.18603 -0.106975004 -0.09740749 -0.06171 0.17489201 -0.24626051 0.285105 0.207236 -0.17687 -0.24077001 0.33842 -0.29149094 -0.07980001 -0.024350002 -0.15244776 0.748655 -0.11711 -0.06365775 -0.113895 0.3256285 0.0564145 0.28822 -0.110981494 -0.056565 -0.15292 0.31293 -0.262515 -0.5255989 0.27536452 0.06369001 0.58024 0.094000004 0.1355443 -0.18555501 -0.10690498 0.257215 0.88330495 0.059072502 -0.32822502 -0.27834898 0.3905115 0.06626 0.2404705 0.64053 -0.0117645 0.564225 -0.217616 -0.414935 0.043392997 0.25466 0.039455004 0.2512455 -0.020193499 0.302121 0.26511002 0.900265 -0.201355 0.175635 0.4116686 -0.30752498 0.06575795 -0.24825999 0.07263366 0.01086 0.026238505 0.36886 0.2262855 -0.14414999 0.027065001 0.0210861 0.056904994 0.080001 0.0011829995 0.1373825 0.290395 0.23748 0.20792001 0.259355 0.824075 0.078053 0.15307999 0.19988999 0.02008 0.337735 0.3213172 0.0207665 -0.099175 -0.045719 0.13193 -0.414895 0.358771 0.100414 0.0265975 0.15125 0.022030499 -0.15130314 0.1300015 -0.2619125 -0.0050215013 0.13303499 -0.0788345 -0.04807 0.2301 0.202945 -0.14183502 -0.45063 -0.34407002 -0.25011998 0.241357 0.28229 0.1536475 -0.29235 -1.59147 -0.17119801 0.621655 0.20021999 0.288715 -0.396865 -0.425525 0.068601504 0.16090351 -0.050788 -0.05551 0.27042 -0.2304 -0.039555 0.4913 -0.2709 0.307295 -0.20961499 -0.21348454 0.72889 -0.062489994 -0.2115655 -0.28490952 0.175005
parent -0.15450066 -0.065824635 -0.03240934 0.00156567 0.063010335 -0.23697233 -0.20622334 -0.07704333 -0.15094967 -1.0841668 -0.0022259976 -0.009414668 -0.06303667 -0.17313832 0.09306833 0.10704534 -0.031473335 -0.7102933 0.007911002 -0.097160004 0.08204334 0.32566333 -0.22377267 0.190517 -0.08359067 -0.04217 -0.058789335 0.10606533 -0.19892767 -0.144514 -0.33777332 0.68965006 0.120526336 0.014480005 -0.65124005 0.17987132 -0.0044326633 -0.089084 0.001854334 0.14334 0.14020067 -0.15965667 0.34515333 -0.11076933 -0.03516367 0.014867663 0.3573 0.44134665 0.119716 -0.181117 0.22226135 -0.158061 0.25669667 0.12234666 -0.42697668 0.017779341 0.5963267 0.35917565 0.25103998 -0.47016 0.19012034 0.28835332 0.5720534 0.42692766 0.0345333 -0.51660335 -0.28357333 -0.096436664 -0.30819035 0.137822 -0.3022067 -0.43918568 -0.57102334 0.13971636 -0.16350234 -0.050693005 -0.067766674 -0.27405334 -0.34368333 0.19675002 -0.16104865 0.18462032 0.25295 -0.14594033 -0.30404335 0.22268467 0.115302 0.16914001 -0.10854001 0.3679267 -0.24548635 -0.06489 -0.49360332 0.32017335 -0.07112333 -0.11663934 -0.036849335 -0.05961334 0.23861668 -0.32293668 0.44247 -0.20774524 0.25214332 -0.07437297 0.31459665 -0.043304667 0.50780666 0.09972967 0.15871333 0.34695834 -0.04624067 0.34489667 -0.056366667 0.103621334 0.053316668 0.079020336 0.16486667 -0.065125674 0.231445 -0.03053334 0.11014911 0.41370332 -0.15555 -0.3317427 -0.076522 -0.12172967 0.15214801 -0.2093061 0.183098 -0.0476952 0.54282665 -0.035445668 -0.002173332 0.071184665 0.11171534 0.19861667 0.062260002 -0.12659934 -0.27201998 0.007302334 0.47797737 -0.074370004 0.10464999 0.063140675 -0.14851665 0.017672334 0.11893666 0.16015866 0.18718366 0.05896334 0.067886665 0.027004002 -0.036401667 0.17939699 0.033658996 0.19458136 0.14768767 -0.17731868 0.15677 0.22644566 0.70853007 0.12821467 0.42638636 0.19207668 -0.052806 0.22073334 -0.262142 0.043902665 0.058310002 0.22888234 -0.016117003 0.16773334 -0.69128 0.14974521 -0.09522333 -0.040902004 0.024243336 -0.40291733 0.028640669 0.5827 0.09389834 0.122543335 -0.24430168 0.34041 -0.095939666 0.088315666 -0.72784996 -0.035240002 0.33036333 -0.12359734 -0.13117334 -0.49334 -0.234202 -0.010145001 -0.58852667 -0.066676006 0.09103434 -0.42403334 0.05467 -0.39789003 1.3041867 -0.003924 0.27178702 -0.024430674 0.32740667 0.033426683 0.08495834 0.20310001 -0.07777034 0.030727327 -0.43741667 -0.066107675 -0.07355434 -0.32620335 0.22237667 0.187756 -0.008726401 -0.27538002 0.19470835 0.2173003 0.09831833 0.030053 -0.021167329 -0.14255667 -0.43772334 0.2917567 0.27061 -0.13090366 -0.0028699986 0.021462334 0.11287999 0.07288 -0.20611833 -0.13274333 -0.10645667 0.18292001 0.16934064 0.20831868 -0.38211668 0.12887162 0.25005138 -0.29816332 0.096621335 -0.024083328 -0.347033 -0.028332334 0.09644033 -0.25872335 -0.021909337 -0.060813334 0.058392666 0.41562003 -0.18270734 0.25975 0.92151135 0.35237667 0.067096666 0.0014553238 0.18469632 -0.19451168 -0.014857665 -0.106248006 -0.11767334 -0.026250234 -0.075099364 0.51569 0.283836 0.048266664 -0.0929 0.087533 -0.40857333 -0.36467 0.29607135 -0.53026336 0.11146034 -0.17026928 -1.30341 -0.20843235 0.056681003 0.19329032 -0.08955334 0.3295627 -0.13771701 -0.33389336 -0.5569633 0.44088668 0.48846337 0.56131 0.074741535 0.004159992 0.31092668 0.14776665 0.3100841 -0.4703467 -0.12730667 -0.009252667 0.26392 -0.07211967 -0.19145334 0.42118335
president 0.284695 -0.548465 0.20330432 -5.8000116E-4 0.129814 -0.7526975 -0.1647025 -0.13987313 -0.011846244 -1.1373925 -0.0071128514 -0.4568375 -0.09597475 -0.5595925 -0.031929992 0.47475752 0.1971885 0.135115 -0.19415024 0.028733676 -0.012672484 0.23927875 0.15736076 -0.2764635 -0.20069176 0.347615 0.172705 0.2730075 -0.077152 -0.29697376 0.34109476 -0.1326575 0.6562075 0.331265 -1.074885 0.23402426 0.62442 -0.21716475 -0.070316 -0.42934626 0.48220623 0.17710075 -0.066264324 0.3083525 0.04095725 -0.33650073 -0.3344205 -0.20036751 -0.0897975 -0.166625 -0.31219825 0.1778267 0.07247001 0.28715926 0.23125501 0.71351254 -0.19253302 0.19569999 0.35218176 -0.049323253 0.15272899 0.13532001 0.58466 0.02480925 0.38235754 -0.419555 -0.169663 0.187445 -0.409856 -0.0861325 0.059311084 -0.1284515 -0.1453975 -0.1859875 0.0909775 -0.13907501 -0.0990275 0.301625 -0.13206674 -0.037430003 -0.4412582 0.1278475 0.36259976 0.20109324 0.362125 2.770014E-4 -0.44728503 0.837475 -0.0696885 -0.007047504 -0.5459675 -0.14038749 -0.494514 0.012110975 0.027218273 -1.2249872E-4 -0.12628248 0.32095474 0.255485 0.103654996 0.19877025 -0.124000505 0.24401924 -0.1459875 -0.18790549 0.28547752 -0.015998498 -0.5639875 -0.093362495 0.030090753 0.29974025 -0.024114504 -0.347276 0.14904824 0.27114153 0.30766773 0.32898524 -0.2680105 0.1457971 0.2429835 -0.399665 0.468791 -0.10689 -0.14027 0.2046875 -0.519445 0.10109275 -0.05131325 -0.06588499 0.265795 -0.5904325 -0.15594 -0.012072504 -0.16142523 -0.404776 -0.019181252 -0.10497801 0.35679 0.086830005 0.42946 -0.0694 0.28756 0.056879 0.055402752 0.16624224 0.51827526 0.006004752 -0.26803252 -0.29444674 -0.25678125 1.0506101 -0.14415231 0.45544502 0.258184 -0.17710575 0.25964 -0.028522998 0.0016247528 -0.0924725 0.15185499 0.014975 0.721065 -0.118587494 0.0982025 -0.45871726 -0.1537755 -0.09360025 -0.323955 -0.1165875 0.6992325 0.03845375 0.5913825 -0.5712225 -0.19716775 -0.18379 0.421762 -0.18050265 -0.2319835 -0.107494995 0.3693605 8.607507E-4 0.35002 -0.026454262 -3.7749857E-4 -0.1659845 0.19524251 -0.9336175 0.14431025 -0.065354995 0.093584254 0.19448456 -0.41168252 -0.19589001 -0.2284775 -0.14258 0.53946006 0.5496975 0.2663405 -0.096250504 0.1338505 0.3508175 0.05900175 0.28181 -0.051952496 0.11816625 -0.28399748 0.46871752 -0.178837 0.4131305 -0.20344925 0.55559 -0.1519055 0.26054 -0.10333051 -0.1586895 -0.048801497 -0.34945 -0.46989748 -0.124585 -0.48970997 0.08221275 -0.052549493 -0.3535825 -0.25139248 -0.155965 -0.095157 -0.030053258 0.0417275 -0.5504975 -0.10915975 0.12638 0.050283503 -0.1684953 0.2980515 0.28074253 -0.557025 -0.19995001 -0.20755924 0.313755 -0.21662351 0.0224885 0.015517769 -0.1411089 -0.16846225 0.26528728 0.3729425 0.34816998 -0.94885004 -0.112274304 0.29100502 0.3719225 -0.1331785 -0.031957746 -0.25502574 -0.19784 -0.19668424 -0.2901325 -0.5483525 0.230305 -0.32850575 -0.3905525 0.08235 0.12198625 -0.085245 0.112725645 -0.1667775 0.07570325 0.66060257 -0.043316945 0.694251 -0.33665127 0.0152159985 -0.2573025 -0.0309575 0.18802486 0.18351999 -1.1250377E-4 0.320747 0.6039575 0.031099997 -0.181395 -0.316335 -0.22236276 -0.095062755 -0.24614802 0.338332 0.4097975 0.29648998 0.22648351 -0.36961 0.21863751 0.0180635 0.15225449 -0.54970497 -0.689185 0.56120753 -0.0339695 0.010281011 -0.40131 0.5617975
relative -0.27493668 0.3332 0.06154067 -0.27407333 0.12363334 0.20459267 -0.09593001 -0.010314336 0.09529233 -1.0313567 -0.15689167 0.0060427003 -0.07638733 0.07757534 -0.36912668 -0.26457435 0.17561667 -0.3568167 -0.18808924 -0.18351667 -0.20213002 0.48407668 -0.13042401 -0.280488 0.076340675 -0.07664934 -0.152986 0.12504001 -0.17876002 -0.19528666 -0.54649335 0.64698005 -0.10471001 0.2857556 -0.12925667 0.054297335 0.23652002 0.066123664 -0.18105833 0.09792235 0.41797036 -0.03595067 0.31019133 -0.22058836 0.102862 0.05794367 0.28131336 0.25989002 0.27745336 -0.12410267 0.25213367 -0.26704633 -0.054284003 -0.097216666 0.06513833 -0.15469334 0.15335566 0.14514333 0.09931767 -0.2787 0.21963201 0.018298004 0.61211 0.28048268 0.13023667 -0.5399333 -0.13140234 0.027169993 0.102345005 0.42663002 -0.20014668 -0.17698 -0.16652633 0.08793001 -0.049133673 0.08129966 -0.13401866 -0.34570333 -0.022390667 0.39315236 0.086621344 0.27592668 -0.12885335 0.040414333 0.049023997 0.15437867 0.4620633 -0.032666665 -0.17464666 -0.05279217 0.024066668 0.03243334 -0.14001 0.1450522 0.039910007 -0.079737335 -0.0069110096 -0.14928667 0.41990203 -0.09122668 0.17329133 -0.05898367 0.24415669 0.16149467 -0.29626468 0.13083768 0.18189934 -0.187087 0.08510333 0.21931669 -0.030768003 0.3052867 0.20696667 0.051334 0.37653336 0.07360233 0.18516134 -0.24788468 0.10711001 -0.030564666 -0.013725996 0.07479967 -0.062205665 -0.29252067 0.070457004 0.34383547 0.49421334 -0.01783666 0.46326002 0.32205665 0.051362332 0.05875867 -0.11331333 0.09095933 0.34854668 0.11375501 0.17570966 -0.41849336 -0.2988 0.06735634 0.08793333 0.25050667 -0.015876334 0.191253 0.07633661 -0.410794 -0.20606267 0.08206667 -0.26814467 0.15677667 -0.06242334 0.052472007 -0.29604667 0.17744176 -0.0076543293 -0.0032543342 0.23137002 0.15429334 0.37338668 -0.11130633 0.31944668 -0.18326335 0.13551867 0.12908676 -0.011136336 0.04913534 -0.21264336 -0.030369002 0.254161 0.13881834 -0.29435667 -0.10268335 -0.7489333 0.335373 -0.21967702 -0.016066661 0.07486977 -0.20957634 0.17124867 0.41324335 0.10355001 -0.0010800015 -0.16267334 0.52538 -0.15690467 0.0014700021 -0.4876067 0.18078634 -0.07233487 0.31253 0.15683267 -0.45248002 -0.18965667 0.17186534 -0.77661 0.060257 0.15394233 -0.13166001 0.057412338 -0.40090334 0.8304 -0.116515 0.14359301 0.035820868 0.47613335 -0.005030662 0.12042934 -0.213667 0.084805 0.06567967 -0.33022335 0.11796 0.2940782 -0.29412 0.38352668 0.030611 0.23448932 -0.29512534 0.35841668 -0.20813332 -0.07949334 -0.047345333 0.038184337 0.069869004 -0.15621267 0.47465333 0.30335668 0.0017326649 -0.10909667 0.09439998 -0.4936 0.15347001 0.0066146655 0.05832333 0.11989667 -0.09323974 0.08345467 0.24407333 -0.086324334 0.31914002 0.09663634 0.045407336 0.44070667 0.47550005 -0.33704668 -0.120160006 0.22874999 -0.097436994 -0.18009609 -0.20288667 -0.031486332 0.31557 -0.040273003 0.12305667 0.75045335 0.44226667 0.075712 0.16591996 0.096208006 0.11138668 -0.054076668 0.066863336 0.048843335 0.016284665 -0.27447003 0.14654334 0.2566867 0.035356674 0.23135 0.20065467 -0.5006157 -0.18105334 0.12966667 -0.42154333 -0.15255001 -0.3918333 -1.4684534 -0.18758301 0.19604 0.0073946714 -0.34959 0.38077337 -0.051286004 -0.337184 -0.16364 0.257441 0.29662335 0.16797334 0.46920666 0.26512668 0.34500766 0.054334667 0.26046667 -0.47583997 -0.275684 -0.17176335 0.26964334 0.062807 -0.26160365 0.6231367
spouse -0.25101024 0.10701275 -0.06689397 0.07605849 0.0610945 -0.106327176 -0.16762163 -0.2678181 -0.01342462 -0.5964335 -0.018262375 0.0109112505 0.023241624 -0.29963285 -0.21716264 -0.044722628 0.13869649 -0.4460995 0.09743744 0.08258437 -0.13422938 0.3048725 0.050815754 -0.008176621 -0.18650562 0.048383124 -0.0176665 -0.19844262 0.25725698 -0.27796853 -0.44732374 0.42326874 0.4417005 -0.12952325 -0.74159503 0.08229463 -0.13788176 -0.10008925 -0.026207 0.16031763 0.3100265 0.09715563 0.14205475 -0.19507487 0.24057537 -0.25583175 0.1736475 0.41450813 0.011077244 -0.025544249 0.11011362 -0.15119651 0.36201 -0.086489625 -0.041257754 -0.25978413 0.24635775 0.12526514 0.007228121 -0.1769745 0.24916576 -0.008240886 0.30977726 0.40537375 0.199237 -0.43536127 0.1815565 -0.36733812 -0.29404998 -0.16914776 -0.17318875 -0.37068874 -0.08617513 0.2483175 -0.0759895 0.20319675 0.026302002 -0.17810237 -0.1111975 0.14782238 -0.0030317847 0.28482324 0.35289437 -0.0024120007 0.013079576 -0.17502502 0.039561257 -0.28294063 -0.22015437 -0.11302525 -0.21120337 0.21425237 -0.21481599 0.15072826 -0.13325313 0.105605006 -0.0183065 -0.15230647 0.20206489 -0.21154262 -9.3244016E-4 -0.1225225 0.079336315 0.06994637 0.09312425 0.22564936 0.26546714 -0.055368505 0.0062367506 -0.38081124 0.20185338 0.409233 -0.06665149 0.095213674 0.21893486 0.2820125 0.25077125 0.048187494 0.032051995 -0.052629754 0.047031533 0.46381876 -0.28735876 -0.20820488 0.044418 0.14854588 0.3061875 -0.022095248 0.1299725 -0.14007463 0.19592087 -0.20448662 -0.10576094 -0.050073247 -0.04343713 -0.039024755 -0.19526887 -0.14821899 -0.28775886 -0.100561 -0.0788085 0.093761876 -0.013083123 0.36061874 0.14377558 -0.0893365 0.0012556165 -0.019821504 0.0841714 0.09734249 0.28735864 -0.020792188 0.031562373 0.32958138 -0.24283263 -0.08947126 -0.095124856 0.13494976 0.48190814 0.23506875 0.36363873 0.14612888 0.27800912 0.33757502 -0.140612 0.19955087 -0.26752925 -0.068987384 0.18536787 0.4035425 -0.09333739 0.24373326 -0.52560234 0.025305124 -0.2524405 0.039382875 0.04644437 -0.295376 -0.102189 0.28389925 0.3026824 0.34168914 -0.0060168356 0.33276376 -0.07538925 0.015691862 -0.35932374 0.17465475 -0.019278504 -0.006156251 0.1316075 -0.44331622 -0.32967624 -0.22995238 -0.44089875 -0.015079252 0.077909626 -0.2460195 0.02261363 -0.29440033 0.63061625 -0.18518887 0.27216625 0.071401246 0.450697 0.092992626 0.5407543 0.11691493 -0.09965225 -0.031404626 -0.311907 -0.10861816 0.30742824 -0.13647674 0.06279701 -0.053220004 0.03759599 -0.073273614 -0.022215378 0.41502702 -0.06980438 0.086958624 0.23158127 -7.399991E-4 -0.3875875 0.10532637 0.25565726 -0.010439374 -0.041843504 0.3375101 -0.115676746 -0.17083624 0.3220029 -0.06530375 -0.009338122 0.104421996 -0.34064388 0.374265 -0.27425882 0.14214459 0.084923625 -0.12009716 0.59766066 0.053699747 -0.24306539 0.40174064 0.09606975 -0.00982938 0.34509236 -0.081067145 -0.1727325 0.19177687 0.099382505 -0.066162266 0.57168496 0.08375779 0.27049074 0.02410611 0.59966373 0.18658413 0.09839137 -0.21928263 0.043561086 -0.036621734 -0.15979125 0.24742074 0.041263133 -0.098248124 -0.042911127 0.0078091267 -0.133167 -0.29906845 0.010366751 -0.42370212 -0.15621549 -0.19822638 -0.594505 -0.48005724 0.17297786 0.1395845 -0.0015098229 0.1345715 -0.052454997 -0.041207507 -0.34487873 0.25756463 0.15962875 0.4676299 0.12162887 0.12923075 -0.041163746 0.12614399 0.29928625 -0.37951738 -0.10601388 -0.32738453 0.20976876 0.09390287 0.021386627 0.43695247
subsidiary -0.14008576 0.2149275 -0.147543 -0.14529225 -0.050431255 -0.41523498 0.023867715 0.344595 -0.118412256 -0.92667496 -0.20916276 0.013089996 0.09549075 -0.22412276 0.016330004 0.0676706 0.063227504 -0.24135324 0.028924987 -0.13831 0.23513749 0.19488476 0.292975 0.20483875 -0.0491075 -0.019063925 -0.08662101 0.004942 -0.07393 0.22170001 -0.216775 0.005260003 0.25288975 -0.21215801 -0.024822496 -0.11273 0.0064032227 0.038285 0.20864525 -0.101975 -0.20732 0.09311425 -0.19122949 0.4497645 0.11869749 -0.15981 -0.074918255 -0.09672 0.37269598 -0.036158502 0.0809255 0.067944996 0.21803299 0.45447502 0.009377498 0.03745975 0.425555 0.5298769 0.15845 -0.17611173 0.1631785 0.11409001 0.1593905 -0.1949725 0.042865008 0.15121026 -0.3317825 0.17176674 -0.309693 0.3286525 -0.0035044996 0.17194925 -0.0329025 -0.035105005 -0.1392785 0.10596775 -0.29036498 -0.0393835 0.134714 -0.08627763 -0.17856824 0.14762227 -0.17024305 -0.26973927 0.35859275 0.15036099 -0.038076498 0.024035 -0.092264995 0.322165 -0.1733135 0.18197876 0.220147 0.26612002 -0.019615002 -0.09396207 -0.1478425 0.07323976 0.018997999 -0.2503702 0.054791477 -0.18143749 -0.14017901 -0.11902399 0.28074074 -0.037793502 -0.14906251 -0.0030007502 -0.054213755 0.3516175 0.113757744 -0.09164 -0.25492 0.1340305 -0.0493175 0.2184115 -0.20188488 -0.09300675 0.007878994 0.27041 -0.072741 0.21131824 0.3731575 -0.3389312 -0.2996685 -0.157429 -0.10169396 0.11469625 -0.22986375 -0.078032 0.16803725 0.104532495 -0.13935949 -0.122702 -0.18716195 0.263892 0.311454 -0.019953996 0.021166475 -0.1837925 -0.123448744 -0.2438575 0.253295 -0.0331375 0.10729626 0.11480575 -0.01862375 0.14596024 0.067622006 -0.213935 0.2708525 -0.014115002 0.30561325 -0.20079227 0.07786345 0.1029986 0.13575275 -0.0929125 -0.073534995 -0.17770001 -0.009373697 0.18935248 -0.1570435 0.06326275 -0.111791 0.07153 0.027609996 0.23288874 -0.06344 0.60719097 0.01528525 -1.3001263E-6 -0.62517756 0.27175248 0.13092475 0.077666745 0.18053 -0.17455 -0.15763475 0.2739608 0.102870986 0.06157825 -0.12626375 0.0938125 0.024452552 -0.32448998 -0.2557275 0.07670265 0.1056575 -0.3883675 0.14536466 -0.13672325 -0.20309524 -0.17611924 0.04899108 -0.12860653 -0.15305251 -0.012100246 -0.081907496 -0.104849994 0.14910549 0.010007504 -0.30728498 -0.34373 0.0999025 0.18141924 0.022092506 -0.0744762 0.120635 -0.3291175 -0.07869375 0.07987501 0.079651 -0.20722498 0.12364325 0.07117 0.3065375 0.20824549 0.00840255 0.40047252 -0.22629999 0.12316075 0.008069253 0.24329548 -0.10485476 -0.18504725 -0.2794775 0.023276497 -0.3388575 0.062675744 0.070671 0.022018498 -0.1286525 0.33031002 0.14648774 0.06527525 0.202595 0.020856248 -0.1711675 0.302135 0.029075997 -0.36632174 0.15671 -0.4196825 -0.110939495 -0.1725825 0.31217247 -0.25325724 0.17759044 -0.1216315 0.117119 0.28287 0.0801225 0.03514525 0.281259 -0.17539674 -0.68008494 0.29250276 0.27232 -0.24631001 0.037450753 -0.013434254 -0.022599496 -0.09602499 0.08579224 0.21345499 0.11981924 0.03994 0.17699149 0.23686099 0.13381875 0.040615007 0.009563751 0.034572758 0.029950004 0.025031999 -0.017329246 -0.22650501 -0.0890565 -0.139365 -0.14593174 0.21214749 -0.06799275 7.3875487E-4 -0.027275018 0.13916424 0.47312748 0.13894251 0.09792249 -0.1134415 -0.0040124953 0.13254975 -0.006224498 -0.3482475 0.16072899 0.31095797 0.0969405 0.062374003 -0.14306751 -0.20086375
tenant -0.2271386 -0.045402795 -0.08961559 0.024915999 0.21006349 -0.062406 0.10292822 -0.436774 -0.3482332 0.520954 -0.1520072 -0.37152758 0.43815002 -0.2960262 -0.032919403 0.3819718 -0.031943806 -0.1805232 -0.1478614 -0.17536381 -0.003959195 0.09149512 0.13775021 0.15280661 0.1106066 -0.15671253 -0.174976 0.0162046 -0.3565622 0.002173999 -0.21212661 -0.11854601 0.044087004 -0.098610006 0.1350832 -0.0445858 0.053513207 -0.54584396 0.21125479 0.281003 0.22637 0.3215036 -0.26001778 0.14641178 0.0755902 -0.166878 -0.0964048 0.19955681 -0.2730826 -0.1432574 0.0032060028 -0.28968713 -0.029980002 -0.065547995 0.25666803 -0.2123616 0.11224719 0.232438 -0.140934 -0.0853132 -0.24980138 0.009815198 0.0312932 0.026432002 0.208986 0.026719803 0.0025401996 -0.162846 0.316684 -0.04298178 0.10566721 -0.05416399 -0.2236152 0.2053556 -0.30195403 0.19559081 -0.6218788 -0.33534762 -0.1344068 -0.20201822 0.280264 0.32861802 -0.1536736 -0.19595401 0.190649 0.03030864 -0.077763796 -0.37420022 -0.17482941 -0.165595 0.112634 -0.1511552 0.367386 -0.159125 -0.11641619 -0.055592 0.06691801 0.1176626 0.3904562 0.106776595 0.13111113 -0.074056 -0.056853604 -0.128163 -0.1542644 0.1525812 0.1912058 -0.081313595 0.26464742 -0.1291778 -0.079303205 -0.101000406 -0.13650021 0.18350782 -0.335842 0.11650499 0.141792 -0.071154006 0.22052479 0.17128246 0.40605822 0.06254201 -0.065097995 0.22982799 0.2792218 0.2890304 -0.0472622 -0.085007004 0.038885403 -0.33364603 0.2262342 -0.05000012 -0.38394803 -0.161614 0.180066 0.06637601 0.089071766 0.16255759 -0.25089398 -0.1955574 0.063614 0.38267398 0.299003 0.33136103 -0.1955462 -0.0058414163 -0.119781196 0.3377744 0.20509271 -0.14321359 -0.467412 -0.2732596 -0.09257577 -0.3063052 -0.459014 -0.100248 0.051785003 0.313226 -0.028965002 0.167196 0.123507 0.08698453 0.21997881 0.19149181 0.1683346 -0.15175019 -0.023981601 -0.020869197 0.4476872 0.285634 -0.10495 -0.0573948 0.0779446 -0.09815401 -0.19992 -0.115886204 0.15911059 -0.071236804 0.19582002 -0.20997241 0.093025796 -0.1107138 -0.1988004 0.044810202 0.18968062 0.22285299 0.395262 -0.14670919 -0.028934611 0.271662 -0.037526 0.028940601 -0.097382 -0.415174 0.0570178 0.055618007 -0.51795447 0.393412 0.0788524 -0.314136 -0.2730084 -0.1236814 -0.019073999 -0.1837552 0.5048172 0.19786799 -0.013871199 -0.010739796 0.06745599 0.31652197 -0.199202 -0.020986198 -0.025205404 -0.396073 -0.38697 -0.026583219 -0.20673178 0.205125 -0.14109598 0.20413402 -0.471352 -0.14793499 0.19625555 0.22153158 -0.0218118 -0.04978 -0.1866846 0.027935809 -0.0032626092 0.059203204 0.31389 0.09336101 0.059044003 0.2420404 0.19542675 0.12991597 -0.1506722 0.061132193 -0.22847001 -0.018391797 0.08237629 0.256152 0.23092 -0.3141684 -0.30255923 0.3441486 0.18891363 -0.045739822 0.11917801 0.0339224 0.0588848 0.3232224 -0.20579182 0.31434402 -0.17318621 0.10152401 -0.3473128 0.3073 0.32684198 -0.386649 -0.424116 -0.0635116 -0.060152896 -0.028887317 -0.4053596 0.16463982 0.19017796 0.16808839 0.1228516 0.31890303 0.51780194 0.28890002 0.009551802 -0.202032 -0.041651998 -0.1021176 -0.18335599 0.18104981 0.49141803 0.26002273 -0.14733282 0.1161808 0.10340339 0.27975103 -0.008001995 0.410168 0.35637623 -0.1597222 -0.223404 -0.13353999 -0.1649154 0.1316252 -0.21173 -0.637952 0.1230194 0.052862 0.1198182 0.3082978 0.053894807 0.39500937
trainer 0.50229 0.63969004 0.1566875 -0.012430005 0.098859 -0.33224 -0.265575 -0.33956 0.055640005 -0.47420502 -0.15645999 -0.1869621 -0.60959 -0.09294404 0.02521 0.957615 -0.011975005 0.49835 -0.149673 -0.3465 0.59342504 0.010851502 -0.4423355 0.48481 -0.24625999 0.07998 -0.22511 -0.4178915 0.22096 -0.223244 -0.25874302 0.07839001 -0.0773755 -0.16082451 -1.598985 0.50354004 0.137595 -0.06442499 0.091395 -0.399365 0.04949002 -0.24987501 -0.69211996 -0.43326002 -0.047690004 -0.13509 -0.1525775 0.51605 0.42858 -0.32945 -0.007848999 -0.382855 -0.356395 0.31257498 -0.35266 0.45238152 0.060575 0.26071 -0.262129 -0.243305 -0.29180902 -0.40609998 0.0596675 0.07094 0.034840498 -0.268277 -0.30002 -0.42992997 0.1381075 -0.58594 -0.167825 0.68654 -0.19522 -0.16188699 -0.62951505 -0.405565 0.1914365 0.034695007 0.052741498 -0.018282501 0.2684015 0.37383997 0.053389 -0.0025200099 -0.12570901 0.300555 0.31646 -0.34784 -0.215865 0.14166501 0.15114 0.63969 0.15767601 -0.45859 0.17504351 0.1507645 0.045079503 -0.519125 0.34231502 0.1989145 -0.33290407 -0.2738665 -0.0374285 -0.310345 0.27767998 -0.0058539994 0.32296002 0.11537849 -0.209197 0.74947 -0.3587955 0.21034199 -0.06539 -0.030310005 -0.082895 0.279424 -0.47545 -0.355905 0.13223 -0.044480003 0.2586215 0.009714991 -0.20665501 -0.19241 0.11730501 -0.19526 -0.320829 0.30155998 -0.17952 0.27775002 0.18941501 -0.196825 -0.0610645 0.29775202 0.397925 -0.0839735 0.24522 0.026740007 -0.55234003 0.224765 0.4987 -0.79998 0.23202349 -0.063403495 -0.018319994 0.29681998 -0.11192001 -0.30891502 -0.57668996 0.091630004 0.228535 -0.039959997 0.1029855 0.387885 0.31726 -0.13954 0.045454998 -0.18898949 0.06625 0.530725 0.36626 -0.3044 0.26038 -0.023001503 0.268645 0.030795 0.146295 -0.033546 0.02230145 -0.03600499 0.16319 0.22325501 -0.515065 -0.233252 -0.22518101 0.3701755 0.49875998 -0.082949996 0.32103503 0.152752 0.60848 0.3852725 0.038562 -0.013409995 -0.31301 -0.034974992 -1.095075 0.28166002 -0.14809501 -0.35097 -0.15584299 0.3928 0.077692 0.035899997 -0.119377 -0.67681 0.029004991 -0.14409 0.88065505 -0.178398 1.6754 -0.145035 -0.033749998 -0.851945 0.59387505 -0.099130005 0.118882 0.57286 -0.19108999 0.197965 -0.025159005 -0.21946499 -0.28802 -0.16179001 0.058528 -0.43985 -0.15524998 -0.302105 -0.439285 -0.8456 0.37731498 0.4403 -0.027980007 -0.218065 0.6256 0.082169995 0.15072499 0.46987998 -0.0687655 0.22583 0.55019003 -0.2014805 0.55085 -0.48589998 -0.0839335 0.11254499 -0.277762 0.56303 -0.461615 0.560995 0.086284995 0.114282995 0.116729006 -0.13749 0.65475 -0.319865 -0.3850615 -0.3328875 -0.009719998 0.158878 -0.072605014 -0.094002 0.093724996 0.2884315 0.49273 -0.28029498 0.413845 0.203409 0.267245 -0.239375 -0.68815 -0.23691499 -0.009795003 0.069675006 -0.140197 0.25507 -0.203825 0.567775 -0.84614503 -0.23794499 -0.475385 -0.50374496 0.2022715 -0.2638125 0.31384498 -0.35649 -0.82546 -0.026299998 -0.28772 0.47405002 -0.2862435 0.59488 0.058526 0.341125 0.48795003 -0.33231002 -0.43085 -0.0937875 -0.320065 -0.64674 -0.18758999 0.151775 -0.45381 -0.286786 -7.099956E-4 -0.20019999 -0.67053497 -0.1417065 0.0070015006 0.080754496
